tree
version=v4
num_class=1
num_tree_per_iteration=1
label_index=0
max_feature_idx=1255
objective=quantile
feature_names=Column_0 Column_1 Column_2 Column_3 Column_4 Column_5 Column_6 Column_7 Column_8 Column_9 Column_10 Column_11 Column_12 Column_13 Column_14 Column_15 Column_16 Column_17 Column_18 Column_19 Column_20 Column_21 Column_22 Column_23 Column_24 Column_25 Column_26 Column_27 Column_28 Column_29 Column_30 Column_31 Column_32 Column_33 Column_34 Column_35 Column_36 Column_37 Column_38 Column_39 Column_40 Column_41 Column_42 Column_43 Column_44 Column_45 Column_46 Column_47 Column_48 Column_49 Column_50 Column_51 Column_52 Column_53 Column_54 Column_55 Column_56 Column_57 Column_58 Column_59 Column_60 Column_61 Column_62 Column_63 Column_64 Column_65 Column_66 Column_67 Column_68 Column_69 Column_70 Column_71 Column_72 Column_73 Column_74 Column_75 Column_76 Column_77 Column_78 Column_79 Column_80 Column_81 Column_82 Column_83 Column_84 Column_85 Column_86 Column_87 Column_88 Column_89 Column_90 Column_91 Column_92 Column_93 Column_94 Column_95 Column_96 Column_97 Column_98 Column_99 Column_100 Column_101 Column_102 Column_103 Column_104 Column_105 Column_106 Column_107 Column_108 Column_109 Column_110 Column_111 Column_112 Column_113 Column_114 Column_115 Column_116 Column_117 Column_118 Column_119 Column_120 Column_121 Column_122 Column_123 Column_124 Column_125 Column_126 Column_127 Column_128 Column_129 Column_130 Column_131 Column_132 Column_133 Column_134 Column_135 Column_136 Column_137 Column_138 Column_139 Column_140 Column_141 Column_142 Column_143 Column_144 Column_145 Column_146 Column_147 Column_148 Column_149 Column_150 Column_151 Column_152 Column_153 Column_154 Column_155 Column_156 Column_157 Column_158 Column_159 Column_160 Column_161 Column_162 Column_163 Column_164 Column_165 Column_166 Column_167 Column_168 Column_169 Column_170 Column_171 Column_172 Column_173 Column_174 Column_175 Column_176 Column_177 Column_178 Column_179 Column_180 Column_181 Column_182 Column_183 Column_184 Column_185 Column_186 Column_187 Column_188 Column_189 Column_190 Column_191 Column_192 Column_193 Column_194 Column_195 Column_196 Column_197 Column_198 Column_199 Column_200 Column_201 Column_202 Column_203 Column_204 Column_205 Column_206 Column_207 Column_208 Column_209 Column_210 Column_211 Column_212 Column_213 Column_214 Column_215 Column_216 Column_217 Column_218 Column_219 Column_220 Column_221 Column_222 Column_223 Column_224 Column_225 Column_226 Column_227 Column_228 Column_229 Column_230 Column_231 Column_232 Column_233 Column_234 Column_235 Column_236 Column_237 Column_238 Column_239 Column_240 Column_241 Column_242 Column_243 Column_244 Column_245 Column_246 Column_247 Column_248 Column_249 Column_250 Column_251 Column_252 Column_253 Column_254 Column_255 Column_256 Column_257 Column_258 Column_259 Column_260 Column_261 Column_262 Column_263 Column_264 Column_265 Column_266 Column_267 Column_268 Column_269 Column_270 Column_271 Column_272 Column_273 Column_274 Column_275 Column_276 Column_277 Column_278 Column_279 Column_280 Column_281 Column_282 Column_283 Column_284 Column_285 Column_286 Column_287 Column_288 Column_289 Column_290 Column_291 Column_292 Column_293 Column_294 Column_295 Column_296 Column_297 Column_298 Column_299 Column_300 Column_301 Column_302 Column_303 Column_304 Column_305 Column_306 Column_307 Column_308 Column_309 Column_310 Column_311 Column_312 Column_313 Column_314 Column_315 Column_316 Column_317 Column_318 Column_319 Column_320 Column_321 Column_322 Column_323 Column_324 Column_325 Column_326 Column_327 Column_328 Column_329 Column_330 Column_331 Column_332 Column_333 Column_334 Column_335 Column_336 Column_337 Column_338 Column_339 Column_340 Column_341 Column_342 Column_343 Column_344 Column_345 Column_346 Column_347 Column_348 Column_349 Column_350 Column_351 Column_352 Column_353 Column_354 Column_355 Column_356 Column_357 Column_358 Column_359 Column_360 Column_361 Column_362 Column_363 Column_364 Column_365 Column_366 Column_367 Column_368 Column_369 Column_370 Column_371 Column_372 Column_373 Column_374 Column_375 Column_376 Column_377 Column_378 Column_379 Column_380 Column_381 Column_382 Column_383 Column_384 Column_385 Column_386 Column_387 Column_388 Column_389 Column_390 Column_391 Column_392 Column_393 Column_394 Column_395 Column_396 Column_397 Column_398 Column_399 Column_400 Column_401 Column_402 Column_403 Column_404 Column_405 Column_406 Column_407 Column_408 Column_409 Column_410 Column_411 Column_412 Column_413 Column_414 Column_415 Column_416 Column_417 Column_418 Column_419 Column_420 Column_421 Column_422 Column_423 Column_424 Column_425 Column_426 Column_427 Column_428 Column_429 Column_430 Column_431 Column_432 Column_433 Column_434 Column_435 Column_436 Column_437 Column_438 Column_439 Column_440 Column_441 Column_442 Column_443 Column_444 Column_445 Column_446 Column_447 Column_448 Column_449 Column_450 Column_451 Column_452 Column_453 Column_454 Column_455 Column_456 Column_457 Column_458 Column_459 Column_460 Column_461 Column_462 Column_463 Column_464 Column_465 Column_466 Column_467 Column_468 Column_469 Column_470 Column_471 Column_472 Column_473 Column_474 Column_475 Column_476 Column_477 Column_478 Column_479 Column_480 Column_481 Column_482 Column_483 Column_484 Column_485 Column_486 Column_487 Column_488 Column_489 Column_490 Column_491 Column_492 Column_493 Column_494 Column_495 Column_496 Column_497 Column_498 Column_499 Column_500 Column_501 Column_502 Column_503 Column_504 Column_505 Column_506 Column_507 Column_508 Column_509 Column_510 Column_511 Column_512 Column_513 Column_514 Column_515 Column_516 Column_517 Column_518 Column_519 Column_520 Column_521 Column_522 Column_523 Column_524 Column_525 Column_526 Column_527 Column_528 Column_529 Column_530 Column_531 Column_532 Column_533 Column_534 Column_535 Column_536 Column_537 Column_538 Column_539 Column_540 Column_541 Column_542 Column_543 Column_544 Column_545 Column_546 Column_547 Column_548 Column_549 Column_550 Column_551 Column_552 Column_553 Column_554 Column_555 Column_556 Column_557 Column_558 Column_559 Column_560 Column_561 Column_562 Column_563 Column_564 Column_565 Column_566 Column_567 Column_568 Column_569 Column_570 Column_571 Column_572 Column_573 Column_574 Column_575 Column_576 Column_577 Column_578 Column_579 Column_580 Column_581 Column_582 Column_583 Column_584 Column_585 Column_586 Column_587 Column_588 Column_589 Column_590 Column_591 Column_592 Column_593 Column_594 Column_595 Column_596 Column_597 Column_598 Column_599 Column_600 Column_601 Column_602 Column_603 Column_604 Column_605 Column_606 Column_607 Column_608 Column_609 Column_610 Column_611 Column_612 Column_613 Column_614 Column_615 Column_616 Column_617 Column_618 Column_619 Column_620 Column_621 Column_622 Column_623 Column_624 Column_625 Column_626 Column_627 Column_628 Column_629 Column_630 Column_631 Column_632 Column_633 Column_634 Column_635 Column_636 Column_637 Column_638 Column_639 Column_640 Column_641 Column_642 Column_643 Column_644 Column_645 Column_646 Column_647 Column_648 Column_649 Column_650 Column_651 Column_652 Column_653 Column_654 Column_655 Column_656 Column_657 Column_658 Column_659 Column_660 Column_661 Column_662 Column_663 Column_664 Column_665 Column_666 Column_667 Column_668 Column_669 Column_670 Column_671 Column_672 Column_673 Column_674 Column_675 Column_676 Column_677 Column_678 Column_679 Column_680 Column_681 Column_682 Column_683 Column_684 Column_685 Column_686 Column_687 Column_688 Column_689 Column_690 Column_691 Column_692 Column_693 Column_694 Column_695 Column_696 Column_697 Column_698 Column_699 Column_700 Column_701 Column_702 Column_703 Column_704 Column_705 Column_706 Column_707 Column_708 Column_709 Column_710 Column_711 Column_712 Column_713 Column_714 Column_715 Column_716 Column_717 Column_718 Column_719 Column_720 Column_721 Column_722 Column_723 Column_724 Column_725 Column_726 Column_727 Column_728 Column_729 Column_730 Column_731 Column_732 Column_733 Column_734 Column_735 Column_736 Column_737 Column_738 Column_739 Column_740 Column_741 Column_742 Column_743 Column_744 Column_745 Column_746 Column_747 Column_748 Column_749 Column_750 Column_751 Column_752 Column_753 Column_754 Column_755 Column_756 Column_757 Column_758 Column_759 Column_760 Column_761 Column_762 Column_763 Column_764 Column_765 Column_766 Column_767 Column_768 Column_769 Column_770 Column_771 Column_772 Column_773 Column_774 Column_775 Column_776 Column_777 Column_778 Column_779 Column_780 Column_781 Column_782 Column_783 Column_784 Column_785 Column_786 Column_787 Column_788 Column_789 Column_790 Column_791 Column_792 Column_793 Column_794 Column_795 Column_796 Column_797 Column_798 Column_799 Column_800 Column_801 Column_802 Column_803 Column_804 Column_805 Column_806 Column_807 Column_808 Column_809 Column_810 Column_811 Column_812 Column_813 Column_814 Column_815 Column_816 Column_817 Column_818 Column_819 Column_820 Column_821 Column_822 Column_823 Column_824 Column_825 Column_826 Column_827 Column_828 Column_829 Column_830 Column_831 Column_832 Column_833 Column_834 Column_835 Column_836 Column_837 Column_838 Column_839 Column_840 Column_841 Column_842 Column_843 Column_844 Column_845 Column_846 Column_847 Column_848 Column_849 Column_850 Column_851 Column_852 Column_853 Column_854 Column_855 Column_856 Column_857 Column_858 Column_859 Column_860 Column_861 Column_862 Column_863 Column_864 Column_865 Column_866 Column_867 Column_868 Column_869 Column_870 Column_871 Column_872 Column_873 Column_874 Column_875 Column_876 Column_877 Column_878 Column_879 Column_880 Column_881 Column_882 Column_883 Column_884 Column_885 Column_886 Column_887 Column_888 Column_889 Column_890 Column_891 Column_892 Column_893 Column_894 Column_895 Column_896 Column_897 Column_898 Column_899 Column_900 Column_901 Column_902 Column_903 Column_904 Column_905 Column_906 Column_907 Column_908 Column_909 Column_910 Column_911 Column_912 Column_913 Column_914 Column_915 Column_916 Column_917 Column_918 Column_919 Column_920 Column_921 Column_922 Column_923 Column_924 Column_925 Column_926 Column_927 Column_928 Column_929 Column_930 Column_931 Column_932 Column_933 Column_934 Column_935 Column_936 Column_937 Column_938 Column_939 Column_940 Column_941 Column_942 Column_943 Column_944 Column_945 Column_946 Column_947 Column_948 Column_949 Column_950 Column_951 Column_952 Column_953 Column_954 Column_955 Column_956 Column_957 Column_958 Column_959 Column_960 Column_961 Column_962 Column_963 Column_964 Column_965 Column_966 Column_967 Column_968 Column_969 Column_970 Column_971 Column_972 Column_973 Column_974 Column_975 Column_976 Column_977 Column_978 Column_979 Column_980 Column_981 Column_982 Column_983 Column_984 Column_985 Column_986 Column_987 Column_988 Column_989 Column_990 Column_991 Column_992 Column_993 Column_994 Column_995 Column_996 Column_997 Column_998 Column_999 Column_1000 Column_1001 Column_1002 Column_1003 Column_1004 Column_1005 Column_1006 Column_1007 Column_1008 Column_1009 Column_1010 Column_1011 Column_1012 Column_1013 Column_1014 Column_1015 Column_1016 Column_1017 Column_1018 Column_1019 Column_1020 Column_1021 Column_1022 Column_1023 Column_1024 Column_1025 Column_1026 Column_1027 Column_1028 Column_1029 Column_1030 Column_1031 Column_1032 Column_1033 Column_1034 Column_1035 Column_1036 Column_1037 Column_1038 Column_1039 Column_1040 Column_1041 Column_1042 Column_1043 Column_1044 Column_1045 Column_1046 Column_1047 Column_1048 Column_1049 Column_1050 Column_1051 Column_1052 Column_1053 Column_1054 Column_1055 Column_1056 Column_1057 Column_1058 Column_1059 Column_1060 Column_1061 Column_1062 Column_1063 Column_1064 Column_1065 Column_1066 Column_1067 Column_1068 Column_1069 Column_1070 Column_1071 Column_1072 Column_1073 Column_1074 Column_1075 Column_1076 Column_1077 Column_1078 Column_1079 Column_1080 Column_1081 Column_1082 Column_1083 Column_1084 Column_1085 Column_1086 Column_1087 Column_1088 Column_1089 Column_1090 Column_1091 Column_1092 Column_1093 Column_1094 Column_1095 Column_1096 Column_1097 Column_1098 Column_1099 Column_1100 Column_1101 Column_1102 Column_1103 Column_1104 Column_1105 Column_1106 Column_1107 Column_1108 Column_1109 Column_1110 Column_1111 Column_1112 Column_1113 Column_1114 Column_1115 Column_1116 Column_1117 Column_1118 Column_1119 Column_1120 Column_1121 Column_1122 Column_1123 Column_1124 Column_1125 Column_1126 Column_1127 Column_1128 Column_1129 Column_1130 Column_1131 Column_1132 Column_1133 Column_1134 Column_1135 Column_1136 Column_1137 Column_1138 Column_1139 Column_1140 Column_1141 Column_1142 Column_1143 Column_1144 Column_1145 Column_1146 Column_1147 Column_1148 Column_1149 Column_1150 Column_1151 Column_1152 Column_1153 Column_1154 Column_1155 Column_1156 Column_1157 Column_1158 Column_1159 Column_1160 Column_1161 Column_1162 Column_1163 Column_1164 Column_1165 Column_1166 Column_1167 Column_1168 Column_1169 Column_1170 Column_1171 Column_1172 Column_1173 Column_1174 Column_1175 Column_1176 Column_1177 Column_1178 Column_1179 Column_1180 Column_1181 Column_1182 Column_1183 Column_1184 Column_1185 Column_1186 Column_1187 Column_1188 Column_1189 Column_1190 Column_1191 Column_1192 Column_1193 Column_1194 Column_1195 Column_1196 Column_1197 Column_1198 Column_1199 Column_1200 Column_1201 Column_1202 Column_1203 Column_1204 Column_1205 Column_1206 Column_1207 Column_1208 Column_1209 Column_1210 Column_1211 Column_1212 Column_1213 Column_1214 Column_1215 Column_1216 Column_1217 Column_1218 Column_1219 Column_1220 Column_1221 Column_1222 Column_1223 Column_1224 Column_1225 Column_1226 Column_1227 Column_1228 Column_1229 Column_1230 Column_1231 Column_1232 Column_1233 Column_1234 Column_1235 Column_1236 Column_1237 Column_1238 Column_1239 Column_1240 Column_1241 Column_1242 Column_1243 Column_1244 Column_1245 Column_1246 Column_1247 Column_1248 Column_1249 Column_1250 Column_1251 Column_1252 Column_1253 Column_1254 Column_1255
feature_infos=[1:16405] [1:79538377660] [11:49974246932] [0.69314718055994529:9.7054024005626953] [0.0038610038610038611:22068628435] [0:1] [0:1] none [0:1] [0:1] [0:1] [0:1] [0:1] [0:1] [0:1] none none [0:1] none none [0:1] none [0:1] none none none [0:1] [0:1] [0:1] none none none [0:1] none none none [0:1] [0:1] [0:1] none none none [0:1] none none [0:1] [0:1] [0:1] [0:1] [0:1] [0:1] [0:1] none [0:1] none [0:1] [0:1] [0:1] none none [0:1] [0:1] [0:1] none none [0:1] none [0:1] none [0:1] [0:1] none none none none [0:1] none [0:1] [0:1] [0:1] none [0:1] none none [0:1] [0:1] [0:1] none [0:1] [0:1] none [0:1] [0:1] [0:1] [0:1] [0:1] none [0:1] [0:1] none [0:1] [0:1] [0:1] none [0:1] none none [0:1] [0:1] none [0:1] [0:1] [0:1] [0:1] [0:1] [0:1] [0:1] none [0:1] [0:1] [0:1] none [0:1] none [0:1] [0:1] [0:1] [0:1] none [0:1] [0:1] none [0:1] [0:1] [0:1] [0:1] [0:1] [0:1] [0:1] [0:1] [0:1] none [0:1] [0:1] [0:1] [0:1] [0:1] [0:1] none [0:1] none [0:1] [0:1] [0:1] [0:1] none none [0:1] [0:1] [0:1] [0:1] none [0:1] [0:1] [0:1] [0:1] [0:1] none [0:1] [0:1] [0:1] [0:1] [0:1] [0:1] [0:1] [0:1] [0:1] [0:1] [0:1] [0:1] [0:1] [0:1] [0:1] [0:1] none [0:1] [0:1] [0:1] [0:1] [0:1] none [0:1] none [0:1] [0:1] [0:1] [0:1] [0:1] [0:1] [0:1] [0:1] [0:1] [0:1] [0:1] [0:1] [0:1] [0:1] [0:1] [0:1] [0:1] [0:1] [0:1] [0:1] [0:1] [0:1] [0:1] [0:1] [0:1] [0:1] [0:1] [0:1] [0:1] [0:1] none [0:1] [0:1] none [0:1] [0:1] [0:1] [0:1] [0:1] [0:1] none [0:1] none [0:1] [0:1] [0:1] none [0:1] [0:1] [0:1] [0:1] [0:1] [0:1] [0:1] [0:1] [0:1] [0:1] [0:1] [0:1] [0:1] [0:1] [0:1] [0:1] [0:1] none [0:1] [0:1] [0:1] [0:1] [0:1] [0:1] [0:1] [0:1] [0:1] [0:1] [0:1] [0:1] [0:1] [0:1] [0:1] none [0:1] none [0:1] [0:1] [0:1] [0:1] [0:1] [0:1] [0:1] [0:1] [0:1] [0:1] [0:1] none [0:1] [0:1] [0:1] [0:1] [0:1] [0:1] [0:1] [0:1] [0:1] [0:1] [0:1] [0:1] none [0:1] [0:1] [0:1] [0:1] [0:1] [0:1] [0:1] none [0:1] [0:1] none none [0:1] [0:1] [0:1] [0:1] [0:1] [0:1] [0:1] [0:1] [0:1] [0:1] [0:1] [0:1] [0:1] none [0:1] [0:1] none [0:1] [0:1] [0:1] [0:1] [0:1] [0:1] [0:1] [0:1] none [0:1] [0:1] none [0:1] [0:1] [0:1] [0:1] none [0:1] none [0:1] none [0:1] [0:1] [0:1] [0:1] [0:1] [0:1] [0:1] none [0:1] [0:1] [0:1] [0:1] [0:1] [0:1] [0:1] [0:1] [0:1] none [0:1] [0:1] [0:1] [0:1] [0:1] none none none [0:1] none [0:1] [0:1] [0:1] none [0:1] [0:1] [0:1] [0:1] [0:1] none [0:1] [0:1] [0:1] [0:1] none [0:1] [0:1] none [0:1] [0:1] [0:1] [0:1] [0:1] [0:1] [0:1] [0:1] [0:1] none [0:1] [0:1] [0:1] [0:1] [0:1] [0:1] [0:1] [0:1] [0:1] [0:1] [0:1] [0:1] [0:1] [0:1] [0:1] [0:1] [0:1] [0:1] [0:1] [0:1] none [0:1] [0:1] [0:1] [0:1] [0:1] [0:1] none [0:1] [0:1] [0:1] [0:1] [0:1] [0:1] [0:1] [0:1] [0:1] [0:1] [0:1] [0:1] [0:1] [0:1] [0:1] [0:1] [0:1] [0:1] [0:1] [0:1] [0:1] [0:1] [0:1] [0:1] [0:1] [0:1] [0:1] [0:1] [0:1] [0:1] [0:1] [0:1] [0:1] [0:1] [0:1] [0:1] [0:1] [0:1] [0:1] [0:1] [0:1] [0:1] [0:1] [0:1] [0:1] [0:1] [0:1] [0:1] [0:1] [0:1] [0:1] [0:1] [0:1] [0:1] [0:1] [0:1] [0:1] [0:1] [0:1] [0:1] [0:1] [0:1] [0:1] [0:1] [0:1] [0:1] [0:1] [0:1] [0:1] [0:1] [0:1] [0:1] [0:1] [0:1] none [0:1] [0:1] [0:1] [0:1] [0:1] [0:1] [0:1] [0:1] [0:1] [0:1] [0:1] [0:1] [0:1] [0:1] [0:1] [0:1] [0:1] [0:1] [0:1] [0:1] [0:1] [0:1] [0:1] [0:1] [0:1] [0:1] [0:1] [0:1] [0:1] [0:1] [0:1] [0:1] [0:1] [0:1] [0:1] [0:1] [0:1] [0:1] [0:1] [0:1] [0:1] [0:1] [0:1] [0:1] [0:1] [0:1] [0:1] [0:1] [0:1] [0:1] [0:1] [0:1] [0:1] [0:1] [0:1] [0:1] [0:1] [0:1] [0:1] [0:1] [0:1] [0:1] [0:1] [0:1] [0:1] [0:1] [0:1] [0:1] [0:1] [0:1] [0:1] [0:1] [0:1] [0:1] [0:1] [0:1] [0:1] [0:1] [0:1] [0:1] [0:1] [0:1] [0:1] [0:1] [0:1] [0:1] [0:1] [0:1] [0:1] [0:1] [0:1] [0:1] [0:1] [0:1] [0:1] [0:1] [0:1] [0:1] [0:1] [0:1] [0:1] [0:1] [0:1] [0:1] [0:1] [0:1] [0:1] [0:1] [0:1] [0:1] [0:1] [0:1] [0:1] [0:1] [0:1] [0:1] [0:1] [0:1] [0:1] [0:1] [0:1] [0:1] [0:1] [0:1] [0:1] [0:1] [0:1] [0:1] [0:1] [0:1] [0:1] [0:1] [0:1] [0:1] [0:1] [0:1] [0:1] [0:1] none [0:1] [0:1] none [0:1] [0:1] [0:1] [0:1] [0:1] [0:1] [0:1] [0:1] [0:1] [0:1] [0:1] [0:1] [0:1] [0:1] [0:1] [0:1] [0:1] [0:1] [0:1] none none none [0:1] [0:1] [0:1] [0:1] [0:1] [0:1] [0:1] [0:1] [0:1] [0:1] none none none [0:1] [0:1] [0:1] [0:1] [0:1] [0:1] [0:1] [0:1] [0:1] [0:1] [0:1] [0:1] [0:1] [0:1] [0:1] [0:1] [0:1] [0:1] [0:1] [0:1] [0:1] [0:1] [0:1] [0:1] [0:1] [0:1] [0:1] [0:1] [0:1] [0:1] [0:1] [0:1] [0:1] [0:1] [0:1] [0:1] [0:1] [0:1] [0:1] [0:1] [0:1] [0:1] [0:1] [0:1] [0:1] [0:1] [0:1] [0:1] [0:1] [0:1] [0:1] [0:1] [0:1] [0:1] [0:1] [0:1] [0:1] [0:1] [0:1] [0:1] [0:1] [0:1] [0:1] [0:1] [0:1] [0:1] [0:1] [0:1] none [0:1] [0:1] [0:1] [0:1] [0:1] [0:1] [0:1] [0:1] [0:1] [0:1] [0:1] none none [0:1] [0:1] [0:1] [0:1] [0:1] none [0:1] [0:1] [0:1] [0:1] [0:1] [0:1] none none [0:1] [0:1] [0:1] none none none none none [0:1] [0:1] [0:1] none [0:1] [0:1] [0:1] [0:1] [0:1] [0:1] none [0:1] [0:1] [0:1] [0:1] [0:1] [0:1] [0:1] [0:1] [0:1] [0:1] [0:1] [0:1] [0:1] [0:1] [0:1] [0:1] [0:1] [0:1] [0:1] [0:1] [0:1] [0:1] [0:1] [0:1] [0:1] [0:1] [0:1] [0:1] [0:1] [0:1] [0:1] none [0:1] [0:1] [0:1] [0:1] [0:1] [0:1] [0:1] [0:1] [0:1] [0:1] [0:1] [0:1] [0:1] [0:1] [0:1] [0:1] [0:1] [0:1] none none [0:1] none [0:1] [0:1] [0:1] none none none none [0:1] [0:1] [0:1] [0:1] none [0:1] [0:1] [0:1] [0:1] [0:1] [0:1] [0:1] [0:1] [0:1] [0:1] [0:1] [0:1] [0:1] none [0:1] [0:1] [0:1] [0:1] [0:1] [0:1] [0:1] [0:1] none [0:1] [0:1] [0:1] [0:1] none [0:1] [0:1] [0:1] [0:1] [0:1] [0:1] [0:1] [0:1] [0:1] [0:1] [0:1] [0:1] [0:1] [0:1] [0:1] [0:1] [0:1] [0:1] [0:1] [0:1] [0:1] [0:1] [0:1] [0:1] [0:1] [0:1] [0:1] [0:1] [0:1] [0:1] [0:1] [0:1] [0:1] [0:1] [0:1] [0:1] [0:1] [0:1] [0:1] [0:1] [0:1] [0:1] none [0:1] [0:1] none [0:1] [0:1] [0:1] [0:1] [0:1] [0:1] [0:1] [0:1] [0:1] [0:1] none none [0:1] [0:1] [0:1] none none [0:1] none [0:1] none [0:1] [0:1] none none [0:1] none [0:1] [0:1] [0:1] [0:1] [0:1] [0:1] none [0:1] [0:1] [0:1] [0:1] [0:1] [0:1] none [0:1] [0:1] [0:1] [0:1] [0:1] [0:1] [0:1] [0:1] none [0:1] [0:1] [0:1] [0:1] [0:1] [0:1] none [0:1] [0:1] none [0:1] [0:1] none [0:1] [0:1] [0:1] [0:1] [0:1] [0:1] [0:1] [0:1] [0:1] none none [0:1] [0:1] [0:1] [0:1] [0:1] [0:1] [0:1] [0:1] [0:1] [0:1] [0:1] [0:1] [0:1] [0:1] [0:1] none [0:1] [0:1] [0:1] [0:1] [0:1] [0:1] [0:1] [0:1] [0:1] [0:1] [0:1] [0:1] [0:1] [0:1] [0:1] [0:1] [0:1] [0:1] [0:1] [0:1] [0:1] [0:1] [0:1] [0:1] [0:1] [0:1] [0:1] [0:1] [0:1] [0:1] [0:1] [0:1] [0:1] [0:1] [0:1] [0:1] [0:1] [0:1] [0:1] [0:1] [0:1] [0:1] [0:1] [0:1] [0:1] [0:1] [0:1] [0:1] [0:1] [0:1] [0:1] [0:1] [0:1] [0:1] [0:1] [0:1] [0:1] [0:1] [0:1] [0:1] [0:1] [0:1] [0:1] [0:1] [0:1] [0:1] [0:1] [0:1] [0:1] [0:1] [0:1] [0:1] [0:1] [0:1] [0:1] [0:1] none [0:1] [0:1] [0:1] [0:1] none [0:1] [0:1] [0:1] [0:1] [0:1] [0:1] [0:1] [0:1] [0:1] [0:1] [0:1] [0:1] [0:1] [0:1] [0:1] [0:1] [0:1] [0:1] [0:1] [0:1] [0:1] [0:1] [0:1] [0:1] [0:1] [0:1] [0:1] [0:1] [0:1] [0:1] [0:1] [0:1] [0:1] [0:1] [0:1] [0:1] [0:1] [0:1] [0:1] [0:1] [0:1] [0:1] [0:1] [0:1] [0:1] [0:1] [0:1] [0:1] [0:1] [0:1] [0:1] none [0:1] [0:1] [0:1] [0:1] [0:1] [0:1] [0:1] [0:1] [0:1] [0:1] [0:1] none [0:1] [0:1] [0:1] [0:1] [0:1] [0:1] [0:1] [0:1] none [0:1] [0:1] [0:1] [0:1] [0:1] [0:1] [0:1] [0:1] [0:1] [0:1] [0:1] [0:1] [0:1] [0:1] [0:1] [0:1] [0:1] [0:1] [0:1] [0:1] [0:1] [0:1] [0:1] [0:1] [0:1] [0:1] [0:1] [0:1] none [0:1] [0:1] [0:1] [0:1] [0:1] [0:1] [0:1] [0:1] [0:1] none [0:1] [0:1] [0:1] [0:1] [0:1] [0:1] [0:1] [0:1] [0:1] [0:1] [0:1] [0:1] [0:1] [0:1] [0:1] [0:1] [0:1] [0:1] [0:1] [0:1] [0:1] [0:1] [0:1] [0:1] [0:1] [0:1] [0:1] [0:1] [0:1] [0:1]
tree_sizes=5639 6071 6130 6166 6218 6128 6132 6168 6159 6136 6167 6135 6186 6159 6192 6228 6197 6175 6157 6192 6185 6213 6237 6195 6131 6245 6236 6186 6195 6207 6238 6226 6216 6197 6214 6194 6180 6215 6230 6194 6224 6179 6212 6208 6189 6251 6241 6256 6212 6341 6371 6222 6338 6374 6335 6205 6269 6215 6234 6235 6210 6208 6206 6340 6378 6210 6208 6218 6217 6253 6228 6226 6211 6218 6235 6219 6232 6280 6395 6231 6242 6296 6248 6271 6278 6290 6299 6283 6292 6314 6283 6242 6283 6265 6391 6256 6274 6372 6234 6335 6277 6267 6296 6308 6361 6279 6292 6330 6343 6271 6395 6279 6248 6264 6213 6396 6324 6298 6244 6290 6238 6255 6285 6321 6167 6259 6294 6271 6248 6272 6278 6238 6263 6450 6193 6275 6352 6180 6294 6317 6234 6326 6278 6280 6253 6214 6249 6311 6218 6304 6191 6223 6221 6180 6179 6263 6323 6264 6233 6264 6232 6194 6344 6253 6245 6228 6221 6163 6214 6180 6346 6164 6328 6163 6237 6302 6209 6149 6270 6173 6206 6181 6204 6248 6185 6243 6161 6242 6187 6145 6113 6112 6193 6127 6170 6158 6076 6173 6272 6152 6190 6225 6116 6136 6212 6239 6054 6144 6140 6154 6188 6155 6222 6170 6173 6135 6096 6213 6157 6235 6238 6107 6246 6096 6091 6066 6291 6059 6076 6168 6135 6040 6155 6100 6164 6077 6260 6067 6246 6054 5991 6118 6099 6140 6052 5988 6058 6153 6080 6064 6010 6102 6145 6074 6113 5999 6065 5968 6029 6114 5944 6059 6111 5942 6068 5996 5992 6000 6032 6090 5996 6052 5997 6065 6039 6052 6084 5963 5965 5994 5949 6058 6128 6127 6056 5984 6131 6067 6056 5965 6089 5942 6011 6045 6090 5989 5940 5941 5913 6133

Tree=0
num_leaves=64
num_cat=0
split_feature=2 2 2 1054 1054 1069 1069 2 2 2 2 2 1054 1083 2 1 1065 1042 1082 813 2 2 1051 1064 1054 1069 835 1083 1051 1083 1065 1055 1051 476 1086 1086 927 2 1080 1055 1083 907 589 1086 591 1064 1082 1083 1039 2 1083 1051 3 928 1078 1055 3 835 1085 1 1245 992 992
split_gain=121766 5367.49 4819.45 2115.38 887.056 866.006 857.344 729.693 316.729 253.649 244.945 177.415 173.906 171.204 150.628 131.73 113.38 110.736 96.2417 88.8603 84.5606 81.895 75.385 84.3926 73.5683 79.604 73.0501 69.6056 57.5095 63.2538 54.5001 48.6507 47.7064 45.8966 94.3379 45.5246 68.4188 56.7545 44.7224 43.8396 44.5007 42.8687 42.513 40.6941 40.1655 39.882 39.2369 38.7728 38.3351 37.0367 36.1116 56.2592 35.2439 31.8654 31.7038 31.2615 30.2716 29.8809 29.5844 29.0692 28.0036 27.291 27.0156
threshold=218373.00000000003 151323.00000000003 341276.00000000006 1.0000000180025095e-35 1.0000000180025095e-35 1.0000000180025095e-35 1.0000000180025095e-35 257736.50000000003 447365.50000000006 172967.00000000003 127556.50000000001 194027.50000000003 1.0000000180025095e-35 1.0000000180025095e-35 183443.50000000003 387.50000000000006 1.0000000180025095e-35 1.0000000180025095e-35 1.0000000180025095e-35 1.0000000180025095e-35 239166.00000000003 300614.50000000006 1.0000000180025095e-35 1.0000000180025095e-35 1.0000000180025095e-35 1.0000000180025095e-35 1.0000000180025095e-35 1.0000000180025095e-35 1.0000000180025095e-35 1.0000000180025095e-35 1.0000000180025095e-35 1.0000000180025095e-35 1.0000000180025095e-35 1.0000000180025095e-35 1.0000000180025095e-35 1.0000000180025095e-35 1.0000000180025095e-35 1128795.0000000002 1.0000000180025095e-35 1.0000000180025095e-35 1.0000000180025095e-35 1.0000000180025095e-35 1.0000000180025095e-35 1.0000000180025095e-35 1.0000000180025095e-35 1.0000000180025095e-35 1.0000000180025095e-35 1.0000000180025095e-35 1.0000000180025095e-35 188583.50000000003 1.0000000180025095e-35 1.0000000180025095e-35 2.1383330595080281 1.0000000180025095e-35 1.0000000180025095e-35 1.0000000180025095e-35 1.2424533248940004 1.0000000180025095e-35 1.0000000180025095e-35 912.50000000000011 1.0000000180025095e-35 1.0000000180025095e-35 1.0000000180025095e-35
decision_type=2 2 2 2 2 2 2 2 2 2 2 2 2 2 2 2 2 2 2 2 2 2 2 2 2 2 2 2 2 2 2 2 2 2 2 2 2 2 2 2 2 2 2 2 2 2 2 2 2 2 2 2 2 2 2 2 2 2 2 2 2 2 2
left_child=1 10 4 6 5 16 14 20 24 18 -1 22 32 38 56 43 -2 41 27 21 28 39 23 62 25 -4 -25 58 45 59 -16 50 61 53 -35 -19 37 -37 49 40 54 -10 44 -9 -42 -7 52 -24 -23 -11 -13 -52 -14 -27 -17 -22 -3 -47 -5 -30 -50 -12 -8
right_child=2 3 8 9 -6 7 11 15 17 13 12 31 46 -15 30 19 -18 35 -20 -21 55 48 47 26 -26 33 -28 -29 29 -31 -32 -33 -34 34 -36 36 -38 -39 -40 -41 42 -43 -44 -45 -46 57 -48 -49 60 -51 51 -53 -54 -55 -56 -57 -58 -59 -60 -61 -62 -63 -64
leaf_value=90112.050000000003 96749.649999999994 93998.925000000003 100042.14999999999 93927.375 96285.425000000003 93815.5 92478.75 94320.649999999994 116116.10000000001 94189.550000000003 92018.050000000003 92961.300000000003 93293.925000000003 93071.050000000003 94574 94105.699999999997 93517.350000000006 106817.625 93118.149999999994 93122.649999999994 93774.550000000003 95047.949999999997 92280.574999999997 92056.074999999997 100037.39999999999 96575.850000000006 94762.050000000003 92169.375 93920.449999999997 93293.550000000003 92059.800000000003 93698.100000000006 91652.774999999994 96999.875 93343.149999999994 91028 103993.575 132320.79999999999 94924.350000000006 95688.199999999997 94314.5 100114.425 93054.625 95813.149999999994 93050.899999999994 93111.25 92447.449999999997 92201.925000000003 94712.600000000006 94755.5 92871.699999999997 92875.024999999994 94272.449999999997 90236.475000000006 94389.25 95066.899999999994 93359.050000000003 96758.600000000006 93391.699999999997 93319.675000000003 91818.649999999994 95321.199999999997 95513.425000000003
leaf_weight=246075 10643 898 7138 4368 14644 3913 10706 297 227090 3327 11681 9359 5482 573 3519 10881 549 3978 719 395 8722 13295 12914 2818 8375 28373 133 312 462 1415 213 1039 12232 860 423 340 304 183 1189 941 4291 472 86 2011 81 947 761 4616 737 4985 2159 1978 219 60 922 561 2721 55 463 4148 151 63 80
leaf_count=246075 10643 898 7138 4368 14644 3913 10706 297 227090 3327 11681 9359 5482 573 3519 10881 549 3978 719 395 8722 13295 12914 2818 8375 28373 133 312 462 1415 213 1039 12232 860 423 340 304 183 1189 941 4291 472 86 2011 81 947 761 4616 737 4985 2159 1978 219 60 922 561 2721 55 463 4148 151 63 80
internal_value=93782 93782 93782 93782 93782 93782 93782 93782 93782 93782 93782 93782 93782 93782 93782 93782 93782 93782 93782 93782 93782 93782 93782 93782 93782 93782 93782 93782 93782 93782 93782 93782 93782 93782 93782 93782 93782 93782 93782 93782 93782 93782 93782 93782 93782 93782 93782 93782 93782 93782 93782 93782 93782 93782 93782 93782 93782 93782 93782 93782 93782 93782 93782
internal_weight=703345 345602 357743 69089 80147 65503 53153 54311 277596 15936 276513 45802 30438 10074 7351 34088 11192 232367 5862 31780 20223 31385 31267 13737 45229 36854 2951 5143 10940 6025 3732 14535 23976 29716 1283 4805 827 523 9501 17202 16261 227562 4458 2308 4372 4915 6462 17530 14183 8312 13496 4137 5701 28433 11803 9283 3619 1002 4831 4610 888 11744 10786
internal_count=703345 345602 357743 69089 80147 65503 53153 54311 277596 15936 276513 45802 30438 10074 7351 34088 11192 232367 5862 31780 20223 31385 31267 13737 45229 36854 2951 5143 10940 6025 3732 14535 23976 29716 1283 4805 827 523 9501 17202 16261 227562 4458 2308 4372 4915 6462 17530 14183 8312 13496 4137 5701 28433 11803 9283 3619 1002 4831 4610 888 11744 10786
is_linear=0
shrinkage=1


Tree=1
num_leaves=64
num_cat=0
split_feature=2 2 2 1054 1054 1069 1069 2 2 2 2 1054 2 1054 1069 2 1083 1 1071 1046 1082 813 925 2 1086 1051 1083 1051 1064 835 1086 1083 1071 1064 1046 1055 835 1 1051 589 1083 677 2 476 1086 1051 1083 1064 835 0 2 1065 1083 1039 1082 1082 0 1083 642 992 1046 1085 2
split_gain=118664 5076.32 4933.29 1953.94 934.197 917.73 765.408 730.588 476.333 279.522 247.852 207.307 159.644 148.561 144.508 140.787 137.395 129.96 124.79 99.8454 98.5542 88.0039 82.8736 82.0058 80.1595 70.2224 98.8115 66.7477 71.3274 68.0656 62.7673 62.4266 59.9782 58.3581 56.2332 55.1324 52.9993 52.9251 47.6155 46.9041 47.7795 44.8212 43.8596 46.8904 67.0591 42.0682 68.8681 65.8085 55.7619 41.4613 40.3541 38.9814 38.4603 37.8888 37.5869 37.3783 34.8962 34.7595 33.9709 32.9539 31.7814 29.8734 28.7328
threshold=215123.00000000003 335620.00000000006 148932.00000000003 1.0000000180025095e-35 1.0000000180025095e-35 1.0000000180025095e-35 1.0000000180025095e-35 249999.00000000003 556851.50000000012 172967.00000000003 119870.50000000001 1.0000000180025095e-35 188583.50000000003 1.0000000180025095e-35 1.0000000180025095e-35 172967.00000000003 1.0000000180025095e-35 387.50000000000006 1.0000000180025095e-35 1.0000000180025095e-35 1.0000000180025095e-35 1.0000000180025095e-35 1.0000000180025095e-35 300614.50000000006 1.0000000180025095e-35 1.0000000180025095e-35 1.0000000180025095e-35 1.0000000180025095e-35 1.0000000180025095e-35 1.0000000180025095e-35 1.0000000180025095e-35 1.0000000180025095e-35 1.0000000180025095e-35 1.0000000180025095e-35 1.0000000180025095e-35 1.0000000180025095e-35 1.0000000180025095e-35 387.50000000000006 1.0000000180025095e-35 1.0000000180025095e-35 1.0000000180025095e-35 1.0000000180025095e-35 387325.50000000006 1.0000000180025095e-35 1.0000000180025095e-35 1.0000000180025095e-35 1.0000000180025095e-35 1.0000000180025095e-35 1.0000000180025095e-35 7.5000000000000009 160721.00000000003 1.0000000180025095e-35 1.0000000180025095e-35 1.0000000180025095e-35 1.0000000180025095e-35 1.0000000180025095e-35 3.5000000000000004 1.0000000180025095e-35 1.0000000180025095e-35 1.0000000180025095e-35 1.0000000180025095e-35 1.0000000180025095e-35 1926995.5000000002
decision_type=2 2 2 2 2 2 2 2 2 2 2 2 2 2 2 2 2 2 2 2 2 2 2 2 2 2 2 2 2 2 2 2 2 2 2 2 2 2 2 2 2 2 2 2 2 2 2 2 2 2 2 2 2 2 2 2 2 2 2 2 2 2 2
left_child=2 4 10 6 5 18 15 25 13 20 -1 38 27 14 51 -4 54 30 -2 41 31 23 34 35 -24 33 37 28 59 -30 -9 50 56 60 -10 39 -35 -27 -12 40 -19 42 43 -16 -45 47 -47 -14 -49 55 -5 -3 -6 -25 61 -13 -17 -29 -39 -8 -7 -11 -26
right_child=1 8 3 9 52 7 12 17 22 16 11 49 45 -15 19 32 -18 21 -20 -21 -22 -23 24 53 62 26 -28 57 29 -31 -32 -33 -34 36 -36 -37 -38 58 -40 -41 -42 -43 -44 44 -46 46 -48 48 -50 -51 -52 -53 -54 -55 -56 -57 -58 -59 -60 -61 -62 -63 -64
leaf_value=-3534.3525000000004 2746.1175000000003 7019.2950000000001 -402.02750000000015 -82.618750000000006 2351.0787500000001 230.47500000000002 -1339.0375000000001 -3.4074999999997093 26184.545000000002 870.87374999999997 -1764.2775000000001 -541.00250000000017 -675.31500000000017 6884.7449999999999 2183.9575 868.95000000000005 -749.02750000000015 316.4375 113.73249999999972 1495.4574999999998 -717.20749999999975 -698.7824999999998 15150.71875 1157.2525000000003 -3249.0750000000003 308.22249999999985 -417.17750000000018 -1492.6287499999999 -1729.7037499999999 843.2974999999999 1733.4425000000003 -1521.21875 -1425.1700000000001 -580.0625 14885.295000000002 1754.3400000000001 2893.69625 -406.07750000000016 -2102.6887499999998 -611.88125000000002 419.375 -1370.9050000000004 3474.65625 2485.4025000000001 -644.85749999999973 -860.97187500000007 -947.60124999999971 -1190.434375 1967.1000000000001 278.92750000000018 219.33125000000001 1640.5949999999998 867.27874999999995 -111.3300000000003 176.34749999999985 -1395.9525000000003 225.52500000000001 -1560.3962500000002 404.54124999999988 1572.9093750000002 -1240.0150000000003 235.27374999999995 96298.210000000006
leaf_weight=234693 10278 12792 2868 2696 13925 5793 10017 368 193850 7050 14886 6777 5990 16913 15996 2153 504 13961 831 1558 815 401 1558 11655 200 715 2429 12251 2637 119 2009 342 376 1635 3366 1189 106 6531 15717 305 5382 124 32471 509 287 6606 2253 1494 74 289 2690 757 972 751 1190 897 2018 4393 422 80 623 736 46
leaf_count=234693 10278 12792 2868 2696 13925 5793 10017 368 193850 7050 14886 6777 5990 16913 15996 2153 504 13961 831 1558 815 401 1558 11655 200 715 2429 12251 2637 119 2009 342 376 1635 3366 1189 106 6531 15717 305 5382 124 32471 509 287 6606 2253 1494 74 289 2690 757 972 751 1190 897 2018 4393 422 80 623 736 46
internal_value=-0.000120109 0.0198959 -0.0211934 -0.0092838 0.00880999 0.00623547 -0.0138841 0.0035555 0.0230696 0.00602727 -0.0242159 -0.0205012 -0.0162913 0.0198475 0.0187537 0.00102158 0.0115137 0.0076851 0.0193289 0.0175331 -0.0019219 0.00688681 0.0243875 0.00716767 0.0137195 -0.00459351 -0.00738091 -0.0184909 -0.0157843 -0.0229136 0.018984 0.000392807 0.00649329 -0.00114319 0.0244851 0.00525148 -0.00926192 -0.00459703 -0.0223712 0.00461879 0.00492555 0.0179263 0.0180018 0.0159272 0.00408291 -0.0123393 -0.0146772 -0.0095991 -0.0187181 -0.0133147 0.00170813 0.0233431 0.0201098 0.0103861 0.0129401 -0.0140149 0.00821745 -0.020581 -0.0059291 -0.0138383 0.00105985 0.014205 -0.0128049
internal_weight=703319 360708 342611 69352 80281 65384 53329 54275 280427 16023 273259 38566 45914 81407 64494 7415 9480 36021 11109 50945 6543 33644 199020 33243 1804 18254 10097 29497 12853 2756 2377 5728 4547 8157 197216 20837 1741 7668 30603 19648 19343 49387 49263 16792 796 16417 8859 7558 1568 7963 5386 13549 14897 12406 8976 7674 4171 16644 6953 10097 6416 7786 246
internal_count=703319 360708 342611 69352 80281 65384 53329 54275 280427 16023 273259 38566 45914 81407 64494 7415 9480 36021 11109 50945 6543 33644 199020 33243 1804 18254 10097 29497 12853 2756 2377 5728 4547 8157 197216 20837 1741 7668 30603 19648 19343 49387 49263 16792 796 16417 8859 7558 1568 7963 5386 13549 14897 12406 8976 7674 4171 16644 6953 10097 6416 7786 246
is_linear=0
shrinkage=0.05


Tree=2
num_leaves=64
num_cat=0
split_feature=2 2 2 1054 1054 2 2 1067 1067 1067 1068 2 2 1054 1054 1068 2 1067 1068 1 1083 1046 2 2 1068 1042 1086 1051 1083 1051 1064 1051 1064 1083 835 1051 1064 813 1046 835 1 3 835 1080 1086 927 2 589 1083 2 476 1086 1155 1055 1083 591 1083 1039 769 2 2 2 1083
split_gain=115252 5089.71 4937.1 1850.12 895.131 789.705 574.225 458.974 330.286 321.046 308.347 283.867 253.752 224.402 184.563 180.785 151.567 149.42 142.195 132.62 129.903 106.212 104.563 94.8679 83.2617 72.6075 67.253 60.5125 84.7588 59.3012 65.8743 57.4798 89.2492 79.7817 60.8756 57.3019 53.8422 53.7055 52.237 51.5799 51.4942 50.4166 48.6325 46.6807 46.4249 61.0881 49.9183 45.238 44.9773 44.6348 51.2174 73.3947 42.1226 40.5176 39.2095 43.3982 36.9469 36.7894 35.5281 35.4788 34.9041 34.8317 34.5889
threshold=215123.00000000003 148932.00000000003 341276.00000000006 1.0000000180025095e-35 1.0000000180025095e-35 249999.00000000003 653873.00000000012 1.0000000180025095e-35 1.0000000180025095e-35 1.0000000180025095e-35 1.0000000180025095e-35 115924.00000000001 172967.00000000003 1.0000000180025095e-35 1.0000000180025095e-35 1.0000000180025095e-35 183443.50000000003 1.0000000180025095e-35 1.0000000180025095e-35 387.50000000000006 1.0000000180025095e-35 1.0000000180025095e-35 300614.50000000006 172967.00000000003 1.0000000180025095e-35 1.0000000180025095e-35 1.0000000180025095e-35 1.0000000180025095e-35 1.0000000180025095e-35 1.0000000180025095e-35 1.0000000180025095e-35 1.0000000180025095e-35 1.0000000180025095e-35 1.0000000180025095e-35 1.0000000180025095e-35 1.0000000180025095e-35 1.0000000180025095e-35 1.0000000180025095e-35 1.0000000180025095e-35 1.0000000180025095e-35 387.50000000000006 2.0126758453675748 1.0000000180025095e-35 1.0000000180025095e-35 1.0000000180025095e-35 1.0000000180025095e-35 1128795.0000000002 1.0000000180025095e-35 1.0000000180025095e-35 400753.00000000006 1.0000000180025095e-35 1.0000000180025095e-35 1.0000000180025095e-35 1.0000000180025095e-35 1.0000000180025095e-35 1.0000000180025095e-35 1.0000000180025095e-35 1.0000000180025095e-35 1.0000000180025095e-35 194027.50000000003 266080.50000000006 172967.00000000003 1.0000000180025095e-35
decision_type=2 2 2 2 2 2 2 2 2 2 2 2 2 2 2 2 2 2 2 2 2 2 2 2 2 2 2 2 2 2 2 2 2 2 2 2 2 2 2 2 2 2 2 2 2 2 2 2 2 2 2 2 2 2 2 2 2 2 2 2 2 2 2
left_child=1 11 4 7 5 9 14 10 15 18 16 -1 48 35 17 19 29 21 27 26 43 24 37 -9 49 38 -7 36 40 30 -3 32 -18 -33 -34 58 -2 47 -8 -38 -29 -15 -32 59 -27 46 -46 53 52 50 -4 -52 -5 54 -21 60 -6 -24 -13 -14 -56 -12 -31
right_child=2 3 6 12 56 8 25 23 -10 -11 61 13 20 41 -16 -17 31 -19 -20 22 -22 -23 57 -25 -26 44 -28 28 -30 62 42 33 34 -35 -36 -37 39 -39 -40 -41 -42 -43 -44 -45 45 -47 -48 -49 -50 -51 51 -53 -54 -55 55 -57 -58 -59 -60 -61 -62 -63 -64
leaf_value=-3381.4848750000006 58.399999999999636 -1300.9856249999998 2201.6246874999997 12.914687499999856 2273.7248125000001 50.434375000000365 29347.367750000001 -365.70112500000033 3208.2866250000006 1421.6028750000005 -228.50112500000034 -1716.3886250000005 403.57881249999991 -643.74612500000012 7031.3077499999999 3472.3116250000007 -694.81743749999987 7323.1777499999998 1617.2616250000008 315.74062500000002 -698.80112500000041 1858.0346249999996 1134.554625 472.74875000000031 8020.7552499999993 18416.312156249998 1735.3703750000002 293.73887499999984 -383.41862499999991 -1450.9473124999997 -1686.1185624999998 -872.73015624999971 -1167.81328125 -942.32118749999938 1756.6799999999996 -2022.2680625000003 -544.57437500000015 -782.54337499999974 16197.705249999999 2680.5351875000001 -357.81112500000017 -60.168875000000121 760.13262499999985 981.33881249999979 -3190.2772500000001 9141.7440000000006 31272.332750000001 -594.23718749999978 -1548.7965625000002 3598.6434374999999 2545.8984375 -594.31462499999986 -705.32212499999957 1649.8230000000003 132.75624999999999 -795.21374999999978 919.16481250000004 31.961499999999798 935.68637499999977 922.23131250000006 560.75625000000002 708.61187500000017 -1518.1264375000001
leaf_weight=229333 6702 9321 18017 5853 14307 412 173079 1861 4928 2098 787 16825 4335 8163 19833 2573 7384 9695 991 14292 530 1909 13758 2838 5854 2812 2124 710 2361 10832 2286 8107 1794 2771 83 18312 1643 244 3014 106 6969 741 99 1084 251 260 193 300 322 41546 524 334 368 1182 1933 99 985 886 92 3587 3383 1310 3931
leaf_count=229333 6702 9321 18017 5853 14307 412 173079 1861 4928 2098 787 16825 4335 8163 19833 2573 7384 9695 991 14292 530 1909 13758 2838 5854 2812 2124 710 2361 10832 2286 8107 1794 2771 83 18312 1643 244 3014 106 6969 741 99 1084 251 260 193 300 322 41546 524 334 368 1182 1933 99 985 886 92 3587 3383 1310 3931
internal_value=-0.000277566 -0.0210248 0.0194701 -0.00894068 0.00877076 0.00630263 0.0226718 -0.0134175 0.00999696 -0.00159175 -0.0148573 -0.0240951 0.00592854 -0.0204229 0.0195872 0.00853324 -0.0157012 0.0184905 -0.00359306 0.00767811 0.0111315 0.0176647 0.00690121 0.00150564 0.0179996 0.02435 0.0187303 -0.00458196 -0.00720618 -0.0181883 -0.0155305 -0.0124323 -0.00953731 -0.014897 -0.0192728 -0.0222154 -0.00146432 0.0046762 0.024492 -0.00927673 -0.00465881 -0.0133311 -0.0229455 0.0125472 0.0172355 0.00575284 -0.00551802 0.00494478 -0.00165444 0.017448 0.0154318 0.0034965 -0.0007113 0.00522165 0.00468235 0.00830563 0.0196966 0.0101577 -0.0201173 0.0112156 0.00891648 0.00389843 -0.0202957
internal_weight=703256 342949 360307 69483 82986 67694 277321 53404 46114 21580 48705 273466 16079 44133 97712 41186 46608 77879 19482 38613 9536 68184 36077 4699 66275 179609 2536 18491 10040 26469 11706 20139 9261 10878 1877 35229 8451 21433 176093 1749 7679 8904 2385 9006 3516 704 444 21189 6543 60421 18875 858 6221 20889 19707 5415 15292 14644 16917 7922 5316 2097 14763
internal_count=703256 342949 360307 69483 82986 67694 277321 53404 46114 21580 48705 273466 16079 44133 97712 41186 46608 77879 19482 38613 9536 68184 36077 4699 66275 179609 2536 18491 10040 26469 11706 20139 9261 10878 1877 35229 8451 21433 176093 1749 7679 8904 2385 9006 3516 704 444 21189 6543 60421 18875 858 6221 20889 19707 5415 15292 14644 16917 7922 5316 2097 14763
is_linear=0
shrinkage=0.05


Tree=3
num_leaves=64
num_cat=0
split_feature=2 2 2 1054 1054 1069 2 2 1069 2 1054 1054 1069 2 1 1071 2 2 2 1082 1086 1065 1051 1086 1064 1080 1042 1051 0 813 1075 1051 1064 835 1055 1039 2 1071 1086 927 835 1064 1051 805 1055 1080 1072 835 907 2 4 2 813 588 1080 992 576 589 1086 677 1072 1044 917
split_gain=112047 5508.8 4400.34 1638.69 962.919 929.047 848.217 681.595 586.039 285.397 231.512 230.203 257.632 218.561 135.756 126.621 115.227 113.911 101.589 92.9665 83.9807 67.3306 67.0646 75.5048 67.1937 66.9197 64.3579 62.6474 60.7591 55.0123 53.8665 53.5806 65.8617 51.9511 51.6499 50.0799 46.1699 44.7383 44.4815 53.1792 43.3966 46.6579 64.9388 40.9229 40.6127 40.485 48.799 39.9983 39.6521 39.3781 38.2664 37.9626 37.4761 37.3862 35.4742 34.6726 33.8207 35.6516 33.1585 32.4982 32.3138 32.2472 31.588
threshold=208956.50000000003 341276.00000000006 146508.00000000003 1.0000000180025095e-35 1.0000000180025095e-35 1.0000000180025095e-35 246192.00000000003 758223.50000000012 1.0000000180025095e-35 110223.50000000001 1.0000000180025095e-35 1.0000000180025095e-35 1.0000000180025095e-35 170407.50000000003 387.50000000000006 1.0000000180025095e-35 178250.00000000003 274529.00000000006 172967.00000000003 1.0000000180025095e-35 1.0000000180025095e-35 1.0000000180025095e-35 1.0000000180025095e-35 1.0000000180025095e-35 1.0000000180025095e-35 1.0000000180025095e-35 1.0000000180025095e-35 1.0000000180025095e-35 5.5000000000000009 1.0000000180025095e-35 1.0000000180025095e-35 1.0000000180025095e-35 1.0000000180025095e-35 1.0000000180025095e-35 1.0000000180025095e-35 1.0000000180025095e-35 374659.00000000006 1.0000000180025095e-35 1.0000000180025095e-35 1.0000000180025095e-35 1.0000000180025095e-35 1.0000000180025095e-35 1.0000000180025095e-35 1.0000000180025095e-35 1.0000000180025095e-35 1.0000000180025095e-35 1.0000000180025095e-35 1.0000000180025095e-35 1.0000000180025095e-35 242650.50000000003 6812.2307692307704 1128795.0000000002 1.0000000180025095e-35 1.0000000180025095e-35 1.0000000180025095e-35 1.0000000180025095e-35 1.0000000180025095e-35 1.0000000180025095e-35 1.0000000180025095e-35 1.0000000180025095e-35 1.0000000180025095e-35 1.0000000180025095e-35 1.0000000180025095e-35
decision_type=2 2 2 2 2 2 2 2 2 2 2 2 2 2 2 2 2 2 2 2 2 2 2 2 2 2 2 2 2 2 2 2 2 2 2 2 2 2 2 2 2 2 2 2 2 2 2 2 2 2 2 2 2 2 2 2 2 2 2 2 2 2 2
left_child=2 4 9 8 5 15 22 11 18 -1 27 12 21 19 20 49 31 52 -4 -5 -8 -3 24 45 -7 -15 -9 -11 -12 35 36 32 55 -26 40 44 -14 -20 -28 51 41 42 -18 48 56 46 -24 -34 59 -2 -25 -40 -16 54 58 -10 57 -19 60 61 -44 62 -38
right_child=1 7 3 13 -6 6 14 26 16 10 28 -13 30 25 17 -17 34 29 37 -21 -22 -23 23 50 33 -27 38 -29 -30 -31 -32 -33 47 -35 -36 -37 43 -39 39 -41 -42 -43 53 -45 -46 -47 -48 -49 -50 -51 -52 -53 -54 -55 -56 -57 -58 -59 -60 -61 -62 -63 -64
leaf_value=-3247.8106312500008 1263.3314812500009 7724.9399875000008 -373.72263125000029 -6.2810468750001753 1981.8885718749998 -17.368750000000002 -704.01529687499976 32243.299362500002 -1284.3027687499998 -1687.4154437500001 -646.87819375000004 7074.6383624999989 1885.928390625 427.59921562500023 160.05609374999986 28.560875000000671 -867.97837812500006 863.45609374999992 432.11381250000017 -698.79285937499958 1615.3518562500003 1763.5815156250001 -488.80648359374976 231.82226640625015 -624.48761718750029 844.12187187499956 20630.517204687501 -1964.6977843749996 -240.20881874999978 -537.72110624999993 1814.3564546874998 -1469.2409093749993 -1669.1409140625001 2335.1659281249999 -284.6896281250003 -107.15274062500031 3454.2425156250001 -1355.0906281250006 -2991.4073875000004 8985.1568000000007 1500.0084999999999 -1170.1770007812502 -1044.4425132812496 702.93557812499932 2426.5969968750001 -63.675233593749731 -214.88306874999981 540.22599374999993 1328.8787375000002 2976.4972937500006 -524.51119374999985 36858.8661125 -1003.2612062500004 1209.1201015625004 -660.19679765624971 1584.4825624999999 4.0091187499998346 -183.87907812499981 -659.22722656249971 -1482.2919218750003 -742.67989843749967 3878.0800156250002 380.57039374999954
leaf_weight=220810 3027 19391 3126 5687 16402 7021 432 160208 7982 19255 8378 23040 10985 8006 12139 915 5769 20553 3594 821 2259 1236 6154 1400 1724 1002 2429 20616 1437 310 1782 13991 2190 98 1412 1394 52707 330 220 221 97 1878 6308 557 1230 926 1333 90 455 8093 1182 187 135 81 1144 88 1142 401 2052 133 1293 3388 285
leaf_count=220810 3027 19391 3126 5687 16402 7021 432 160208 7982 19255 8378 23040 10985 8006 12139 915 5769 20553 3594 821 2259 1236 6154 1400 1724 1002 2429 20616 1437 310 1782 13991 2190 98 1412 1394 52707 330 220 221 97 1878 6308 557 1230 926 1333 90 455 8093 1182 187 135 81 1144 88 1142 401 2052 133 1293 3388 285
internal_value=-0.000413021 0.0187679 -0.0211888 -0.00971116 0.00788943 0.00539461 0.002845 0.0222317 -0.0140083 -0.0240292 -0.0206054 0.0192642 0.0181329 0.00453081 0.00703775 0.0180702 -0.0161358 0.00625536 -0.000617021 -0.00245083 0.0178837 0.0230463 -0.00560792 -0.0082151 -0.00236628 0.00957482 0.024303 -0.0222988 -0.0137264 0.00819017 0.0166911 -0.0184473 -0.0157198 -0.0109221 -0.0133273 0.00845267 0.0169143 0.00474006 0.0171165 0.00525478 -0.0140264 -0.0142011 -0.0133583 0.0174815 0.00900283 -0.0105105 -0.0117303 -0.0232237 0.0176134 0.0195414 -0.000735864 -0.00546683 0.00230976 -0.0156325 -0.0158864 -0.0135998 0.00851059 0.00896726 -0.016873 0.0177318 -0.0183956 0.01779 0.0180924
internal_weight=702931 365494 337437 66941 88270 71868 59833 277224 51425 270496 49686 113959 90919 15516 39995 12035 44375 37304 7050 6508 2691 20627 19838 10995 8843 9008 163265 39871 9815 25030 70292 24341 10350 1822 20034 24720 68510 3924 3057 628 18622 18525 16647 57525 23326 8413 7487 2280 56968 11120 2582 407 12274 10878 10797 8070 22096 20954 9653 56513 7601 56380 52992
internal_count=702931 365494 337437 66941 88270 71868 59833 277224 51425 270496 49686 113959 90919 15516 39995 12035 44375 37304 7050 6508 2691 20627 19838 10995 8843 9008 163265 39871 9815 25030 70292 24341 10350 1822 20034 24720 68510 3924 3057 628 18622 18525 16647 57525 23326 8413 7487 2280 56968 11120 2582 407 12274 10878 10797 8070 22096 20954 9653 56513 7601 56380 52992
is_linear=0
shrinkage=0.05


Tree=4
num_leaves=64
num_cat=0
split_feature=0 0 0 1051 1051 1 1 1 1 1086 1080 1046 1051 1046 1 1049 1086 0 1054 776 1055 1034 0 1 1068 1034 1051 1086 1 1 1047 0 1 0 0 1051 1086 0 481 1086 1043 947 702 1042 1055 776 1055 1055 4 1055 776 1083 1 1083 1072 1086 0 1043 4 921 1047 1083 1034
split_gain=44417.2 5637.11 3982.83 2991 1101.24 1042.73 958.529 834.914 811.88 643 526.875 479.639 446.441 443.664 440.348 403.159 399.717 388.3 378.185 294.681 286.163 256.642 248.708 238.765 213.984 216.767 210.781 517.896 210.742 183.067 178.188 160.385 150.594 149.986 144.39 143.529 302.284 254.194 140.067 139.569 138.431 137.129 134.611 130.243 127.733 127.087 126.38 126.309 119.689 108.595 104.725 113.875 102.133 101.616 155.661 103.8 101.191 99.7094 99.0094 96.3405 96.0492 95.0724 144.819
threshold=4.5000000000000009 7.5000000000000009 2.5000000000000004 1.0000000180025095e-35 1.0000000180025095e-35 42519.500000000007 49501.000000000007 44141.500000000007 70931.000000000015 1.0000000180025095e-35 1.0000000180025095e-35 1.0000000180025095e-35 1.0000000180025095e-35 1.0000000180025095e-35 135764.00000000003 1.0000000180025095e-35 1.0000000180025095e-35 5.5000000000000009 1.0000000180025095e-35 1.0000000180025095e-35 1.0000000180025095e-35 1.0000000180025095e-35 3.5000000000000004 46724.500000000007 1.0000000180025095e-35 1.0000000180025095e-35 1.0000000180025095e-35 1.0000000180025095e-35 144153.50000000003 638.50000000000011 1.0000000180025095e-35 1.5000000000000002 24029.500000000004 11.500000000000002 5.5000000000000009 1.0000000180025095e-35 1.0000000180025095e-35 1.5000000000000002 1.0000000180025095e-35 1.0000000180025095e-35 1.0000000180025095e-35 1.0000000180025095e-35 1.0000000180025095e-35 1.0000000180025095e-35 1.0000000180025095e-35 1.0000000180025095e-35 1.0000000180025095e-35 1.0000000180025095e-35 96.035714285714292 1.0000000180025095e-35 1.0000000180025095e-35 1.0000000180025095e-35 243636.50000000003 1.0000000180025095e-35 1.0000000180025095e-35 1.0000000180025095e-35 25.500000000000004 1.0000000180025095e-35 446.34848484848493 1.0000000180025095e-35 1.0000000180025095e-35 1.0000000180025095e-35 1.0000000180025095e-35
decision_type=2 2 2 2 2 2 2 2 2 2 2 2 2 2 2 2 2 2 2 2 2 2 2 2 2 2 2 2 2 2 2 2 2 2 2 2 2 2 2 2 2 2 2 2 2 2 2 2 2 2 2 2 2 2 2 2 2 2 2 2 2 2 2
left_child=2 4 5 7 13 15 16 10 9 34 20 12 43 17 33 26 -5 23 49 24 22 35 53 30 25 42 31 -28 39 -11 44 -1 -31 -14 -6 37 52 -7 -10 -8 41 47 46 45 58 -3 -9 60 -18 -12 51 -39 -37 54 55 -4 -13 -55 -2 61 -19 -33 -63
right_child=1 11 3 6 8 21 28 19 38 29 18 56 14 -15 -16 -17 48 40 -20 -21 -22 -23 -24 -25 -26 -27 27 -29 -30 32 -32 59 -34 -35 -36 36 -38 50 -40 -41 -42 -43 -44 -45 -46 -47 -48 -49 -50 -51 -52 -53 -54 57 -56 -57 -58 -59 -60 -61 -62 62 -64
leaf_value=-3339.1700996875006 -210.19979171875022 21830.159394375001 -1286.2118793750005 -2392.6889362304692 -1855.2700996875008 -2650.145099687501 -1503.8106609375006 1271.1664882812497 2249.9678898437501 1837.6842634375005 128.84970093749945 -1415.0592606250004 1551.0662648437501 -2225.2965465625002 27418.434394375003 -1089.3984215625003 1576.9842634375004 4729.1108155468746 1771.94414328125 -3728.270099687501 -2000.4700996875008 5518.5968631250007 -95.85377640625012 4100.6163405468751 7193.1454881250002 8636.8731131250006 -3121.3200996875007 -528.40181898437481 -53.157369570311857 -839.8379014062499 -1740.2200996875008 -2002.5450996875006 1951.6832890624996 10910.034394374999 -799.97533234375044 -2425.2200996875008 489.19748843749989 -1277.9440642968757 -952.89671093750007 373.28690914062503 -2208.1700996875006 -2411.9200996875006 -3696.770099687501 5894.791639843751 -1275.6984215625002 582.63439437499915 -1072.8484215625001 674.04942703124982 -978.60428117187519 -1706.7675510156253 -3832.7450996875009 299.59938296874969 -1447.0722882812506 -20.510325781250142 -122.9946715625003 -348.90489734375046 45078.105019375005 -3872.270099687501 1082.6941432812498 10145.180019375 2484.5843943749992 -1944.9131875390631 1806.0604587500002
leaf_weight=31597 3374 125112 17306 55596 12534 17108 15885 25578 20907 3425 3140 2448 10381 2780 20046 6929 1035 40840 4097 1156 6571 838 26019 14256 3343 2104 63757 3854 10761 2845 1641 27204 3091 4821 10318 16530 2252 9508 1923 2284 860 351 430 1887 1339 751 2979 2400 3380 676 974 6264 2592 6304 5425 3030 754 618 15600 374 2451 7960 524
leaf_count=31597 3374 125112 17306 55596 12534 17108 15885 25578 20907 3425 3140 2448 10381 2780 20046 6929 1035 40840 4097 1156 6571 838 26019 14256 3343 2104 63757 3854 10761 2845 1641 27204 3091 4821 10318 16530 2252 9508 1923 2284 860 351 430 1887 1339 751 2979 2400 3380 676 974 6264 2592 6304 5425 3030 754 618 15600 374 2451 7960 524
internal_value=-0.000515241 0.0137541 -0.011583 -0.00656152 0.00639816 -0.0165905 -0.0133625 -0.00100068 0.000877042 -0.00423509 -0.00405542 0.0199919 0.0203683 0.00993632 0.0153867 -0.0188674 -0.0169665 0.0105935 0.00812903 0.00528098 -0.00553253 -0.0108158 -0.00442489 0.00670395 0.0061146 0.00482214 -0.0194699 -0.0214444 -0.00588662 0.00680216 0.00343218 -0.0174969 0.0014909 0.00896921 -0.00875635 -0.0112325 -0.0144404 -0.00920718 0.00809023 -0.00917084 0.0135964 0.0139677 0.00369735 0.0217429 0.0047125 0.0219383 0.00411545 0.0142068 -0.00248584 -0.00319706 -0.00482802 -0.00384542 -0.016481 -0.00732873 -0.00877392 -0.0107814 0.000827608 -0.0019503 0.00576578 -0.0152182 0.0148258 -0.0154828 -0.0108616
internal_weight=703117 307135 395982 197717 140935 198265 88941 108776 55043 32213 73186 166200 162998 85892 35248 142199 60011 83112 7913 35590 65273 56066 58702 36210 34434 31091 135270 67611 28930 9361 21954 67659 5936 15202 22852 55228 21374 33854 22830 18169 46902 46042 28987 127750 20313 125863 28557 45691 4415 3816 16746 15772 19122 32683 25761 20336 3202 6922 18974 36062 43291 35688 8484
internal_count=703117 307135 395982 197717 140935 198265 88941 108776 55043 32213 73186 166200 162998 85892 35248 142199 60011 83112 7913 35590 65273 56066 58702 36210 34434 31091 135270 67611 28930 9361 21954 67659 5936 15202 22852 55228 21374 33854 22830 18169 46902 46042 28987 127750 20313 125863 28557 45691 4415 3816 16746 15772 19122 32683 25761 20336 3202 6922 18974 36062 43291 35688 8484
is_linear=0
shrinkage=0.05


Tree=5
num_leaves=64
num_cat=0
split_feature=2 2 2 1054 2 1069 2 1054 2 1069 1 1054 1069 2 2 1054 0 1069 1054 2 1 1083 1065 1055 2 1083 1080 0 0 1051 1245 1046 1083 1042 1083 1071 835 1064 1051 1083 1046 0 814 2 805 1086 2 589 0 0 1086 1051 2 1044 0 591 1051 1083 1064 835 1051 1046 1086
split_gain=107296 5482.53 4242.39 1331.49 733.15 635.3 526.386 347.971 344.188 331.735 313.276 290.398 281.173 243.201 235.586 212.175 151.097 145.874 202.844 125.094 110.199 108.778 103.978 90.8931 75.5495 66.6799 66.5645 65.9809 64.2328 62.5781 60.3094 59.1237 57.3388 57.0499 55.8272 53.899 53.5734 55.5523 88.1888 78.1179 52.1943 48.5114 46.3213 46.183 45.5044 45.3774 62.5238 44.7009 43.6127 42.7296 42.6745 42.8685 41.7023 40.5556 38.6594 38.631 38.4559 85.8012 51.1736 41.6301 38.0497 36.2782 35.9058
threshold=221875.00000000003 146508.00000000003 368452.50000000006 1.0000000180025095e-35 865205.00000000012 1.0000000180025095e-35 266080.50000000006 1.0000000180025095e-35 108388.50000000001 1.0000000180025095e-35 101432.50000000001 1.0000000180025095e-35 1.0000000180025095e-35 196803.00000000003 178250.00000000003 1.0000000180025095e-35 7.5000000000000009 1.0000000180025095e-35 1.0000000180025095e-35 185991.00000000003 387.50000000000006 1.0000000180025095e-35 1.0000000180025095e-35 1.0000000180025095e-35 235776.50000000003 1.0000000180025095e-35 1.0000000180025095e-35 3.5000000000000004 1.5000000000000002 1.0000000180025095e-35 1.0000000180025095e-35 1.0000000180025095e-35 1.0000000180025095e-35 1.0000000180025095e-35 1.0000000180025095e-35 1.0000000180025095e-35 1.0000000180025095e-35 1.0000000180025095e-35 1.0000000180025095e-35 1.0000000180025095e-35 1.0000000180025095e-35 3.5000000000000004 1.0000000180025095e-35 162996.50000000003 1.0000000180025095e-35 1.0000000180025095e-35 1036848.0000000001 1.0000000180025095e-35 7.5000000000000009 7.5000000000000009 1.0000000180025095e-35 1.0000000180025095e-35 309881.50000000006 1.0000000180025095e-35 5.5000000000000009 1.0000000180025095e-35 1.0000000180025095e-35 1.0000000180025095e-35 1.0000000180025095e-35 1.0000000180025095e-35 1.0000000180025095e-35 1.0000000180025095e-35 1.0000000180025095e-35
decision_type=2 2 2 2 2 2 2 2 2 2 2 2 2 2 2 2 2 2 2 2 2 2 2 2 2 2 2 2 2 2 2 2 2 2 2 2 2 2 2 2 2 2 2 2 2 2 2 2 2 2 2 2 2 2 2 2 2 2 2 2 2 2 2
left_child=1 8 6 5 11 19 7 9 -1 35 17 12 22 23 34 29 31 -8 20 27 62 26 -4 36 -11 52 -16 -3 -25 -10 48 44 -9 40 43 54 37 38 -7 -40 -6 -21 53 -5 -14 -35 -47 55 50 -26 -12 -52 -22 -18 -2 61 58 -58 -15 -60 -32 -27 -19
right_child=2 3 4 14 33 13 10 32 15 24 30 -13 16 56 21 -17 42 18 -20 41 25 -23 -24 28 49 47 -28 -29 -30 -31 60 -33 -34 45 -36 -37 -38 -39 39 -41 -42 -43 -44 -45 -46 46 -48 -49 -50 -51 51 -53 -54 -55 -56 -57 57 -59 59 -61 -62 -63 -64
leaf_value=-2995.4662427304693 1739.2993053828134 6.397043839843537 8154.8874473476581 -221.03378406835947 36685.091649359376 -1263.9240020976563 3311.8067759648447 1337.3037859140622 -1610.1574165781251 -277.64355980468753 985.59032960937441 7151.5786891269527 3401.1257583222659 -412.79039173437559 481.4129433730472 -590.28244009374976 2424.3303576249996 820.78042607812608 2709.5594361171879 983.9308488789062 570.42709430859327 -881.56346706250042 1227.9984615664064 1652.3321195156257 111.49118111425778 1110.0298721093743 915.26857111718709 -734.13724836718757 -720.88725032812476 -1777.6384841279303 -2220.2311451738283 3043.7831592031253 -249.72256388281241 23292.526661937503 -1535.1874911953125 -480.85657478124926 791.15105381445255 -1416.3517307021489 -1186.2544861918946 -1234.6920651718749 18991.871694960937 106.04009600781283 -1910.0900798749994 81.828416078125159 591.70325671093747 -2809.2675589023438 14330.959378007812 -321.20336929687551 -83.110031906249787 -623.07728510546883 1436.7749646484372 -112.66160019433592 1396.2961184238275 -304.86945487500054 377.21445934375009 -330.16459166015704 -540.89850903515583 -615.91319843749955 -842.92349769921896 1920.8147579726567 1766.1574898251947 -113.93190286328172 1953.1000502656252
leaf_weight=218178 3271 2549 20245 4256 141915 9975 7500 6200 20238 7309 8174 26142 53253 5313 7794 10200 12846 339 9475 1866 8738 537 1295 324 13616 6583 1106 2011 2352 21784 506 1663 413 2150 448 341 138 3326 15314 5483 2426 1918 153 3729 589 221 357 115 1873 1204 1355 1762 9054 619 711 92 5892 1995 1254 69 130 364 2231
leaf_count=218178 3271 2549 20245 4256 141915 9975 7500 6200 20238 7309 8174 26142 53253 5313 7794 10200 12846 339 9475 1866 8738 537 1295 324 13616 6583 1106 2011 2352 21784 506 1663 413 2150 448 341 138 3326 15314 5483 2426 1918 153 3729 589 221 357 115 1873 1204 1355 1762 9054 619 711 92 5892 1995 1254 69 130 364 2231
internal_value=-0.000796519 -0.0205268 0.0185349 -0.00881628 0.02175 -0.0123961 0.00924843 0.00420913 -0.0238896 0.00164449 0.0121069 0.0187926 0.0174539 -0.0144721 0.00315893 -0.0202434 0.0158996 0.0141484 0.0128592 0.000401486 0.0106865 0.00858589 0.022442 -0.0166287 -0.000830358 0.00967089 0.00990449 -0.00517544 -0.00775411 -0.0218136 0.00552536 0.0170575 0.0144677 0.0240987 -0.00291415 0.014313 -0.0173224 -0.0174482 -0.0167847 -0.0186385 0.0242341 0.00712209 0.0111801 -0.00195053 0.0173443 0.0169355 0.00449827 0.0137476 0.0062519 0.00122132 0.00742405 0.00244626 0.0080317 0.0114909 0.0159468 0.0142527 -0.00899091 -0.011351 -0.00618596 -0.0149849 -0.00951258 0.014679 0.0205447
internal_weight=703279 348049 355230 77649 263874 59779 91356 33065 270400 26452 58291 116805 90663 51435 17870 52222 69123 44491 36991 8344 27516 9437 21540 36912 22129 24946 8900 4560 2676 42022 13800 55505 6613 147069 8433 4323 34236 34098 30772 20797 144341 3784 13618 7985 53842 2728 578 7154 13164 14820 11291 3117 17792 13465 3982 7039 14523 7887 6636 1323 636 6947 2570
internal_count=703279 348049 355230 77649 263874 59779 91356 33065 270400 26452 58291 116805 90663 51435 17870 52222 69123 44491 36991 8344 27516 9437 21540 36912 22129 24946 8900 4560 2676 42022 13800 55505 6613 147069 8433 4323 34236 34098 30772 20797 144341 3784 13618 7985 53842 2728 578 7154 13164 14820 11291 3117 17792 13465 3982 7039 14523 7887 6636 1323 636 6947 2570
is_linear=0
shrinkage=0.05


Tree=6
num_leaves=64
num_cat=0
split_feature=2 2 2 1054 2 2 1069 1054 1054 1069 2 1069 1069 1054 1054 2 2 1065 3 4 2 1083 2 1082 1071 1051 1086 2 1055 1080 1082 1086 1083 925 1044 1083 3 814 1083 1051 1083 992 1083 3 3 1046 3 1086 2 3 2 1046 1044 576 476 1086 1064 990 2 814 1086 1082 1083
split_gain=104057 5014.58 4479.81 1168.17 867.038 684.41 496.161 429.317 393.044 388.904 327.928 283.845 279.753 389.634 223.046 220.288 171.835 158.181 143.891 142.455 105.831 104.48 100.933 85.1807 77.8913 69.5136 69.0782 66.1393 65.0077 64.2232 60.5021 57.908 57.5746 92.555 63.0411 56.4382 56.1065 53.0576 51.1643 89.74 50.5462 49.8575 46.4226 45.5654 44.1099 44.044 43.1333 41.9442 72.6103 41.2336 41.0627 40.754 39.5854 38.801 38.461 48.5545 38.3313 37.2967 36.8162 36.7959 42.2763 35.339 35.1996
threshold=211928.50000000003 357086.50000000006 142273.50000000003 1.0000000180025095e-35 986998.50000000012 249999.00000000003 1.0000000180025095e-35 1.0000000180025095e-35 1.0000000180025095e-35 1.0000000180025095e-35 103247.50000000001 1.0000000180025095e-35 1.0000000180025095e-35 1.0000000180025095e-35 1.0000000180025095e-35 170407.50000000003 172967.00000000003 1.0000000180025095e-35 2.1383330595080281 141.07142857142858 300614.50000000006 1.0000000180025095e-35 172967.00000000003 1.0000000180025095e-35 1.0000000180025095e-35 1.0000000180025095e-35 1.0000000180025095e-35 232055.50000000003 1.0000000180025095e-35 1.0000000180025095e-35 1.0000000180025095e-35 1.0000000180025095e-35 1.0000000180025095e-35 1.0000000180025095e-35 1.0000000180025095e-35 1.0000000180025095e-35 1.4978661367769956 1.0000000180025095e-35 1.0000000180025095e-35 1.0000000180025095e-35 1.0000000180025095e-35 1.0000000180025095e-35 1.0000000180025095e-35 1.7005986908310777 1.7005986908310777 1.0000000180025095e-35 1.2424533248940004 1.0000000180025095e-35 464473.00000000006 1.8688348091416842 196803.00000000003 1.0000000180025095e-35 1.0000000180025095e-35 1.0000000180025095e-35 1.0000000180025095e-35 1.0000000180025095e-35 1.0000000180025095e-35 1.0000000180025095e-35 1166018.5000000002 1.0000000180025095e-35 1.0000000180025095e-35 1.0000000180025095e-35 1.0000000180025095e-35
decision_type=2 2 2 2 2 2 2 2 2 2 2 2 2 2 2 2 2 2 2 2 2 2 2 2 2 2 2 2 2 2 2 2 2 2 2 2 2 2 2 2 2 2 2 2 2 2 2 2 2 2 2 2 2 2 2 2 2 2 2 2 2 2 2
left_child=2 5 10 6 7 8 22 9 11 17 -1 44 24 19 25 23 41 -3 32 26 43 29 46 40 49 -12 -14 -13 38 -17 31 62 51 34 -34 -10 -24 52 50 56 -5 57 53 -21 -2 58 -4 -9 -49 -7 -18 59 54 -22 -20 -56 -40 -8 -6 -11 -61 -16 -15
right_child=1 4 3 15 45 12 16 47 35 18 14 27 13 30 61 21 28 -19 37 20 42 -23 36 -25 -26 -27 -28 -29 -30 -31 -32 -33 33 -35 -36 -37 -38 -39 39 -41 -42 -43 -44 -45 -46 -47 -48 48 -50 -51 -52 -53 -54 -55 55 -57 -58 -59 -60 60 -62 -63 -64
leaf_value=-2877.8776045783206 1366.6062862621104 8244.1718421882815 60.25979280117172 -62.029067495556596 13629.821842188281 3148.8637287464853 -1317.235356435632 7930.2235401999033 1016.9232296907227 3251.9616236502916 -1584.9170457492191 -362.90964263964855 171.58777168769484 2626.2761610613288 -508.89200558906305 347.76172802080146 -936.1846440497801 1043.0759702673822 2555.0014982593739 388.02327059443343 1053.295188662451 -1018.7208258968757 659.42342339980462 -704.92915772993115 425.54075403769605 -1707.6126200519038 1571.4700477523438 -39.123454661669172 -244.06912227656213 681.50514256132738 746.61648720703124 1021.6106306980473 3226.9745992127937 -4091.8732678770511 3904.74083516787 -439.20969824335992 -138.47900108945325 -1995.4531578117196 -899.78775022324191 -839.29179369453277 -1450.3018686511723 1600.9253333835936 1128.6559106298826 57.062905824218618 244.53229725429776 19305.089397658205 -579.36908394101556 993.10950285039144 10045.097490199903 1529.2069606458017 -625.18238603759823 2166.867300235157 37.121842188280425 -107.17756963542489 3615.9780754542962 -981.33085065468777 -882.00580248637709 898.13784369609357 54441.558092188279 -198.43422248642528 3496.5588400135734 -1328.4555462296871 986.05335444804734
leaf_weight=210189 2449 24415 972 6204 16657 6611 24052 28457 5785 41561 21463 10850 516 8178 9307 7944 10664 1546 15016 13370 13326 541 2167 972 733 23632 2416 9212 1809 1065 812 1353 17246 414 1852 361 2019 184 2577 3601 417 90 5548 7473 1207 2215 2624 1111 3635 2154 5856 1085 777 834 294 253 1069 149 111603 561 221 930 727
leaf_count=210189 2449 24415 972 6204 16657 6611 24052 28457 5785 41561 21463 10850 516 8178 9307 7944 10664 1546 15016 13370 13326 541 2167 972 733 23632 2416 9212 1809 1065 812 1353 17246 414 1852 361 2019 184 2577 3601 417 90 5548 7473 1207 2215 2624 1111 3635 2154 5856 1085 777 834 294 253 1069 149 111603 561 221 930 727
internal_value=-0.000950726 0.0176702 -0.020814 -0.0100051 0.0211418 0.00772267 -0.0134126 0.0183884 0.00147167 0.0168269 -0.0238587 -0.00144827 0.0106372 0.00925843 -0.0204339 0.00145395 -0.0152451 0.0221399 0.0150911 0.00712635 0.00635681 0.00650785 -0.00167052 -0.00490254 0.0185565 -0.0219464 0.0177694 -0.00378327 -0.0123847 0.00778943 0.0176332 0.0186732 0.0161813 0.0184374 0.0189444 0.01274 0.00360726 0.0109386 -0.0130801 -0.0165827 -0.00287343 -0.0182568 0.00898366 0.003873 0.0113649 0.0240673 -0.00781424 0.0233465 0.0189949 0.0198659 -0.0115436 0.0151676 0.0112393 0.00746469 0.0117892 -0.001234 -0.0110532 -0.0183949 0.024188 0.0154128 0.00466752 -0.0137711 0.0201376
internal_weight=703331 363018 340313 74792 269103 93915 57649 138628 29864 105425 265521 23718 64051 54553 55332 17143 49867 25961 79464 43483 40551 9550 7782 7593 9498 45095 2932 20062 25576 9009 11070 10258 62940 19512 19098 6146 4186 16524 23767 7247 6621 24291 19708 20843 3656 130475 3596 33203 4746 8765 16520 43428 16340 14160 15563 547 3646 24201 128260 42343 782 10237 8905
internal_count=703331 363018 340313 74792 269103 93915 57649 138628 29864 105425 265521 23718 64051 54553 55332 17143 49867 25961 79464 43483 40551 9550 7782 7593 9498 45095 2932 20062 25576 9009 11070 10258 62940 19512 19098 6146 4186 16524 23767 7247 6621 24291 19708 20843 3656 130475 3596 33203 4746 8765 16520 43428 16340 14160 15563 547 3646 24201 128260 42343 782 10237 8905
is_linear=0
shrinkage=0.05


Tree=7
num_leaves=64
num_cat=0
split_feature=2 2 2 1054 2 2 1069 1054 1054 1069 1069 1 1054 2 2 1065 1069 1054 2 1 0 1082 2 2 2 1083 2 1081 1069 1083 1081 2 0 1083 2 1054 1083 1042 1044 2 1055 1051 1080 0 1069 1051 1064 0 814 1083 1082 1086 1046 1086 2 1051 1083 1083 1051 1085 1086 584 1044
split_gain=100691 5167.62 4253.1 1104.36 818.524 796.02 470.631 470.347 436.605 422.087 367.771 334.536 292.426 235.951 170.091 149.039 144.2 191.432 137.733 127.058 118.962 104.251 101.14 100.619 98.2107 85.4261 73.9747 72.4285 70.0649 68.2014 66.93 67.2144 65.971 65.0205 61.273 63.19 59.5332 57.8986 59.7726 56.0534 54.6543 54.094 52.0934 51.9252 51.6296 50.8792 77.1869 50.013 48.1725 46.7421 45.6259 54.0194 45.0589 43.223 64.4717 43.1142 57.3697 42.4209 89.6161 41.2033 41.1459 40.4518 41.0141
threshold=208956.50000000003 374659.00000000006 135601.50000000003 1.0000000180025095e-35 257736.50000000003 1036848.0000000001 1.0000000180025095e-35 1.0000000180025095e-35 1.0000000180025095e-35 1.0000000180025095e-35 1.0000000180025095e-35 78819.500000000015 1.0000000180025095e-35 172967.00000000003 172967.00000000003 1.0000000180025095e-35 1.0000000180025095e-35 1.0000000180025095e-35 92923.500000000015 387.50000000000006 7.5000000000000009 1.0000000180025095e-35 104818.00000000001 167829.50000000003 232055.50000000003 1.0000000180025095e-35 309881.50000000006 1.0000000180025095e-35 1.0000000180025095e-35 1.0000000180025095e-35 1.0000000180025095e-35 75800.500000000015 3.5000000000000004 1.0000000180025095e-35 1540085.5000000002 1.0000000180025095e-35 1.0000000180025095e-35 1.0000000180025095e-35 1.0000000180025095e-35 300614.50000000006 1.0000000180025095e-35 1.0000000180025095e-35 1.0000000180025095e-35 4.5000000000000009 1.0000000180025095e-35 1.0000000180025095e-35 1.0000000180025095e-35 2.5000000000000004 1.0000000180025095e-35 1.0000000180025095e-35 1.0000000180025095e-35 1.0000000180025095e-35 1.0000000180025095e-35 1.0000000180025095e-35 472927.50000000006 1.0000000180025095e-35 1.0000000180025095e-35 1.0000000180025095e-35 1.0000000180025095e-35 1.0000000180025095e-35 1.0000000180025095e-35 1.0000000180025095e-35 1.0000000180025095e-35
decision_type=2 2 2 2 2 2 2 2 2 2 2 2 2 2 2 2 2 2 2 2 2 2 2 2 2 2 2 2 2 2 2 2 2 2 2 2 2 2 2 2 2 2 2 2 2 2 2 2 2 2 2 2 2 2 2 2 2 2 2 2 2 2 2
left_child=2 4 12 6 8 7 23 9 10 15 43 16 22 21 45 -3 -6 19 30 60 36 33 -1 47 55 42 -21 -20 -13 -10 -14 -32 -25 59 35 44 -11 38 -38 -30 57 -24 -15 -2 -7 46 -8 -4 61 -47 51 -19 -28 -9 -55 -12 -57 -16 -59 -5 -18 62 -22
right_child=1 5 3 13 11 34 14 53 29 20 24 28 18 25 40 -17 17 50 27 26 48 -23 41 32 -26 -27 52 -29 39 -31 31 -33 -34 -35 -36 -37 37 -39 -40 -41 -42 -43 -44 -45 -46 49 -48 -49 -50 -51 -52 -53 -54 54 -56 56 -58 58 -60 -61 -62 -63 -64
leaf_value=-2763.6944023376864 1400.437021261896 8489.3177066814042 15.936350964824669 -33.318630967024731 2870.5692794117977 23632.843937578869 -1179.8057224327101 8358.9606651782851 1012.995370767661 3194.6932479063526 -282.8375829714314 2051.841201738458 -1512.2001144861235 325.78462000843285 -824.81981127697873 1173.0894563379989 654.98295801698259 2643.3051562582623 -582.49491286820273 469.10345963766088 2601.8104838073446 -716.46407092601521 -1557.1097773680085 537.76507355110368 -10.664750908565475 -978.67009738757918 1360.5429387863107 -37.334122418984769 73.502232798632036 -389.68910341107403 -1924.4265681189363 112.31478149825125 -221.73400628888632 -1479.9955537758299 77649.393937578876 15907.062343828868 3282.6592815294971 1734.8551959884826 4046.9868607551807 799.69026486825248 -253.28894810414059 -1654.3001515640071 647.45189318521443 367.13861989158323 8602.0939375788676 -1282.6090181357338 -1504.9265169684504 -612.26193175177764 -1891.9304999211338 -1312.153830597359 932.14258884785158 941.52767022173794 -836.39121815647889 1253.1530650573841 9824.2676156899088 -375.66787319682629 -421.86495446372066 -846.57018126635455 -806.36327647074359 -465.54716460539714 1731.4758494858208 -1208.7004226692181 225.11380529058516
leaf_weight=201289 3215 24272 1034 7412 7930 7655 10071 29040 7298 40936 5672 2005 7801 6929 15281 1517 385 8657 10080 13057 15515 1249 17291 2336 12879 467 12267 853 6715 457 426 432 2076 558 89386 12252 15776 948 1753 10586 1699 18999 927 1605 15929 12599 2740 2693 206 4605 727 1361 486 963 3780 5252 1664 3361 3318 813 2531 203 841
leaf_count=201289 3215 24272 1034 7412 7930 7655 10071 29040 7298 40936 5672 2005 7801 6929 15281 1517 385 8657 10080 13057 15515 1249 17291 2336 12879 467 12267 853 6715 457 426 432 2076 558 89386 12252 15776 948 1753 10586 1699 18999 927 1605 15929 12599 2740 2693 206 4605 727 1361 486 963 3780 5252 1664 3361 3318 813 2531 203 841
internal_value=-0.00107779 0.0170952 -0.0207798 -0.0107244 0.00771392 0.0208607 -0.0139222 0.0182085 0.0018611 0.0165144 -0.000849374 0.0110517 -0.0239143 4.49469e-05 -0.0156212 0.0220433 0.0133114 0.0120753 -0.0180431 0.00994569 0.0146427 -0.00511862 -0.0243985 -0.00271839 -0.00324636 0.00626877 0.00882797 -0.0143122 0.00550347 0.0124468 -0.0227538 -0.00949883 0.00239121 -0.00319652 0.0237358 0.0219891 0.0156923 0.0180481 0.018699 0.00447806 -0.0124509 -0.0219689 0.00750382 0.0118154 0.0204757 -0.0181201 -0.0157345 -0.0087671 0.0109231 -0.0198965 0.0177687 0.0186464 0.0115365 0.0233216 0.0188963 -0.00638704 -0.00903702 -0.0131193 -0.0164433 -0.00207599 0.0198388 0.011222 0.0114973
internal_weight=703060 365721 337339 80168 104749 260972 61813 135750 38042 101967 30287 66707 257171 18355 53674 25789 47401 39471 19592 28726 76178 10032 237579 8139 25467 8323 25810 10933 19306 7755 8659 858 4412 8783 125222 35836 59413 18477 17529 17301 23659 36290 7856 4820 23584 30015 12811 3727 16765 17204 10745 10018 12753 33783 4743 12588 6916 21960 6679 8225 2916 16559 16356
internal_count=703060 365721 337339 80168 104749 260972 61813 135750 38042 101967 30287 66707 257171 18355 53674 25789 47401 39471 19592 28726 76178 10032 237579 8139 25467 8323 25810 10933 19306 7755 8659 858 4412 8783 125222 35836 59413 18477 17529 17301 23659 36290 7856 4820 23584 30015 12811 3727 16765 17204 10745 10018 12753 33783 4743 12588 6916 21960 6679 8225 2916 16559 16356
is_linear=0
shrinkage=0.05


Tree=8
num_leaves=64
num_cat=0
split_feature=2 2 2 1054 2 2 1054 1069 1054 1069 1069 2 1 2 1054 2 813 813 1065 2 1046 2 0 1080 0 576 1069 1054 1 1082 2 1051 1195 0 1245 1055 0 1054 1086 0 1069 1067 1042 1086 1081 2 1082 1055 0 835 1064 1051 1080 642 1072 769 1076 2 1044 805 2 0 1046
split_gain=97562 5092.45 4340.34 1074.73 929.056 639.617 503.043 448.474 445.09 401.511 395.57 328.565 295.998 241.963 239.359 170.963 169.755 152.252 152.083 140.124 134.113 88.1329 87.4568 87.1038 85.6266 92.0831 83.6294 110.195 100.029 83.5793 79.9853 75.4587 70.0967 68.8349 68.0351 63.3082 63.0668 62.9441 61.6527 58.9167 58.5222 55.2237 53.8914 53.1607 51.9954 51.7389 49.3863 47.4497 58.0499 46.2471 47.09 74.1222 52.0106 46.884 51.3594 46.1023 42.7231 42.177 42.0528 41.9031 41.6594 41.5962 39.9562
threshold=208956.50000000003 407905.00000000006 135601.50000000003 1.0000000180025095e-35 270212.00000000006 1097537.0000000002 1.0000000180025095e-35 1.0000000180025095e-35 1.0000000180025095e-35 1.0000000180025095e-35 1.0000000180025095e-35 94773.000000000015 70931.000000000015 162996.50000000003 1.0000000180025095e-35 167829.50000000003 1.0000000180025095e-35 1.0000000180025095e-35 1.0000000180025095e-35 235776.50000000003 1.0000000180025095e-35 167829.50000000003 7.5000000000000009 1.0000000180025095e-35 7.5000000000000009 1.0000000180025095e-35 1.0000000180025095e-35 1.0000000180025095e-35 387.50000000000006 1.0000000180025095e-35 1857370.0000000002 1.0000000180025095e-35 1.0000000180025095e-35 7.5000000000000009 1.0000000180025095e-35 1.0000000180025095e-35 4.5000000000000009 1.0000000180025095e-35 1.0000000180025095e-35 3.5000000000000004 1.0000000180025095e-35 1.0000000180025095e-35 1.0000000180025095e-35 1.0000000180025095e-35 1.0000000180025095e-35 314819.50000000006 1.0000000180025095e-35 1.0000000180025095e-35 1.5000000000000002 1.0000000180025095e-35 1.0000000180025095e-35 1.0000000180025095e-35 1.0000000180025095e-35 1.0000000180025095e-35 1.0000000180025095e-35 1.0000000180025095e-35 1.0000000180025095e-35 305301.00000000006 1.0000000180025095e-35 1.0000000180025095e-35 183443.50000000003 2.5000000000000004 1.0000000180025095e-35
decision_type=2 2 2 2 2 2 2 2 2 2 2 2 2 2 2 2 2 2 2 2 2 2 2 2 2 2 2 2 2 2 2 2 2 2 2 2 2 2 2 2 2 2 2 2 2 2 2 2 2 2 2 2 2 2 2 2 2 2 2 2 2 2 2
left_child=2 4 11 7 8 6 10 21 9 36 18 -1 17 29 31 47 22 20 -3 -11 26 -4 42 60 25 34 -6 28 -28 -5 37 55 -18 -10 41 49 -2 40 46 -23 -7 57 56 -27 -16 -30 -29 -9 -49 50 51 61 53 54 -53 -13 59 -14 -24 62 -15 -17 -12
right_child=1 5 3 13 12 30 -8 15 33 19 16 14 24 23 44 35 32 -19 -20 -21 -22 39 58 -25 -26 43 27 38 45 -31 -32 -33 -34 -35 -36 -37 -38 -39 -40 -41 -42 -43 -44 -45 -46 -47 -48 48 -50 -51 -52 52 -54 -55 -56 -57 -58 -59 -60 -61 -62 -63 -64
leaf_value=-2649.7109322208016 1437.0400085678066 8906.4270637184291 -406.84584730579013 -183.0559865037394 3023.5162182625936 25499.251740699925 8656.8169809251813 -1280.3855025616315 1116.1598366167543 -326.12001782816697 3525.3433388690378 -1489.407710162257 446.72886902175236 -3.4298257913054844 -549.42474773260471 -319.35739145730662 -334.47784998458667 -693.52366792048781 1101.2858067496134 65.922667065649151 -617.14407770437833 507.00087667984775 2870.2812430849444 555.76490598356611 -38.312728117142619 1302.6164680649367 2029.1343173211114 2869.9017588724005 620.77837105835169 -757.30402709220834 92669.002365699926 -1579.7537981852438 1217.5419435858348 230.2000542438771 -712.08847890641596 -279.27437569893448 364.02217877063634 16216.040820387425 893.02764419678431 -226.21804373616106 10099.351986420626 3306.9521154422823 4250.8025802521488 -302.37622251636316 -122.64351238079981 1499.6277922020447 1120.2613326826795 1415.2443528360491 -913.0149918058022 1546.6334899428025 -993.12700329873996 -842.13482875219199 -548.69118353766578 -108.38661780428011 -541.56460431859853 545.0279315929198 1134.4812066779305 1434.7559126039996 206.9420841129897 265.62503352021378 366.0928314572302 -1312.443003736201 3905.1603682996051
leaf_weight=196325 4026 23116 3795 6372 8231 10057 33336 24383 7823 14582 45237 23497 5011 4771 9784 3394 1467 546 1472 16653 1117 2297 15171 1219 3276 225 2922 9451 9694 952 77780 26444 429 1658 846 1913 2036 11329 1487 2115 19822 1103 2800 1084 841 14655 680 275 1689 115 2453 11093 1604 538 1754 142 1156 12309 842 445 5048 4398 1609
leaf_count=196325 4026 23116 3795 6372 8231 10057 33336 24383 7823 14582 45237 23497 5011 4771 9784 3394 1467 546 1472 16653 1117 2297 15171 1219 3276 225 2922 9451 9694 952 77780 26444 429 1658 846 1913 2036 11329 1487 2115 19822 1103 2800 1084 841 14655 680 275 1689 115 2453 11093 1604 538 1754 142 1156 12309 842 445 5048 4398 1609
internal_value=-0.00121056 0.016685 -0.0206065 -0.0104499 0.00821275 0.0207965 0.0183298 -0.0136049 0.00271709 0.000258064 0.0164539 -0.0237747 0.0117519 0.00017155 -0.0205599 -0.0152712 0.0145172 0.0139839 0.0219009 -0.00202737 0.014281 -0.00272024 0.0149331 0.00484689 0.00718747 0.00838274 0.014687 0.0137179 0.0119807 -0.00687466 0.0234309 -0.022006 -0.000237342 0.0123906 0.0092545 -0.0124954 0.012034 0.0216499 0.0177957 0.00208522 0.0204466 0.00989117 0.0159409 -0.00444996 -0.0137435 0.0109317 0.0191911 -0.0181434 -0.010667 -0.0131573 -0.0133015 -0.0125927 -0.0146491 -0.0156687 -0.0162742 -0.0199533 0.0163307 0.00920035 0.0117077 0.0165629 0.0032819 -0.00863706 0.0167079
internal_weight=702694 365483 337211 80178 119415 246068 127080 61816 46778 37297 93744 257033 72637 18362 60708 53609 69156 48783 24588 31235 48237 8207 67260 11038 23854 20578 47120 38889 27271 7324 118988 50083 1896 9481 19269 27262 6062 41208 11618 4412 29879 18423 51247 1309 10625 24349 10131 26347 1964 25349 25234 22781 14989 13385 12847 23639 48447 17320 16013 47291 9819 7792 46846
internal_count=702694 365483 337211 80178 119415 246068 127080 61816 46778 37297 93744 257033 72637 18362 60708 53609 69156 48783 24588 31235 48237 8207 67260 11038 23854 20578 47120 38889 27271 7324 118988 50083 1896 9481 19269 27262 6062 41208 11618 4412 29879 18423 51247 1309 10625 24349 10131 26347 1964 25349 25234 22781 14989 13385 12847 23639 48447 17320 16013 47291 9819 7792 46846
is_linear=0
shrinkage=0.05


Tree=9
num_leaves=64
num_cat=0
split_feature=2 2 2 1054 2 2 1054 1054 1054 1069 1069 1069 1 2 813 2 813 1081 2 2 2 1046 1065 1054 2 1069 1069 1054 1 1083 1083 0 1065 1082 0 2 1083 1086 1080 2 0 2 0 0 576 1245 1055 1042 1082 1083 1083 1044 1080 1055 0 714 1086 2 1083 1083 2 1083 1044
split_gain=94561.5 5175.05 4109.46 957.877 957.403 645.327 471.764 446.94 405.077 395.616 384.752 349.373 317.028 196.083 181.794 168.216 164.135 158.099 152.679 151.058 146.594 138.455 136.448 128.072 122.482 118.913 114.798 137.535 122.861 102.661 96.705 96.4728 91.1299 80.6211 77.786 71.8344 68.841 67.3401 66.4679 65.7924 62.9638 62.7926 60.5683 60.4198 70.2958 64.7616 59.3744 58.9324 54.3033 53.081 51.102 62.5631 48.4843 48.3151 51.283 48.0932 46.9364 58.4282 46.5926 44.9785 43.8314 42.5562 40.9648
threshold=205758.50000000003 400753.00000000006 135601.50000000003 1.0000000180025095e-35 261922.00000000003 986998.50000000012 1.0000000180025095e-35 1.0000000180025095e-35 1.0000000180025095e-35 1.0000000180025095e-35 1.0000000180025095e-35 1.0000000180025095e-35 103886.50000000001 162996.50000000003 1.0000000180025095e-35 98069.000000000015 1.0000000180025095e-35 1.0000000180025095e-35 89578.000000000015 2260246.0000000005 170407.50000000003 1.0000000180025095e-35 1.0000000180025095e-35 1.0000000180025095e-35 232055.50000000003 1.0000000180025095e-35 1.0000000180025095e-35 1.0000000180025095e-35 387.50000000000006 1.0000000180025095e-35 1.0000000180025095e-35 7.5000000000000009 1.0000000180025095e-35 1.0000000180025095e-35 2.5000000000000004 314819.50000000006 1.0000000180025095e-35 1.0000000180025095e-35 1.0000000180025095e-35 70021.500000000015 7.5000000000000009 183443.50000000003 3.5000000000000004 7.5000000000000009 1.0000000180025095e-35 1.0000000180025095e-35 1.0000000180025095e-35 1.0000000180025095e-35 1.0000000180025095e-35 1.0000000180025095e-35 1.0000000180025095e-35 1.0000000180025095e-35 1.0000000180025095e-35 1.0000000180025095e-35 1.5000000000000002 1.0000000180025095e-35 1.0000000180025095e-35 464473.00000000006 1.0000000180025095e-35 1.0000000180025095e-35 305301.00000000006 1.0000000180025095e-35 1.0000000180025095e-35
decision_type=2 2 2 2 2 2 2 2 2 2 2 2 2 2 2 2 2 2 2 2 2 2 2 2 2 2 2 2 2 2 2 2 2 2 2 2 2 2 2 2 2 2 2 2 2 2 2 2 2 2 2 2 2 2 2 2 2 2 2 2 2 2 2
left_child=2 4 8 9 7 6 10 11 15 34 22 42 14 33 21 -1 31 18 -10 23 53 26 -3 25 -13 32 40 28 -28 -18 38 47 -7 -5 -4 -30 52 48 -15 -19 -6 -36 -2 44 45 60 59 50 58 -46 -12 -52 -9 -11 -55 -41 -8 -58 -29 -22 -14 -16 -33
right_child=1 5 3 13 12 19 56 36 17 20 16 24 43 30 61 -17 29 39 -20 -21 46 -23 -24 -25 -26 -27 27 37 35 -31 -32 62 -34 -35 41 -37 -38 -39 -40 55 -42 -43 -44 -45 49 -47 -48 -49 -50 -51 51 -53 -54 54 -56 -57 57 -59 -60 -61 -62 -63 -64
leaf_value=-2529.4666356097623 1522.4489027866211 7792.1128216868037 329.89941928888334 -169.38884716935974 2927.6252681166834 25588.875966164927 7527.9234808847359 822.2488437422312 -1363.34885000234 -1206.0237274335493 3077.7464182657277 -353.84601126521738 328.05097194870871 190.82623166232224 -953.68918130734244 -1463.8644923115398 -563.18133960604462 -2159.0860604027307 -514.3847612639446 114079.13934711805 -772.75356364432889 -666.29949931552915 1027.0492805205345 14538.407185618053 8.4018813460796089 9877.7724795761551 1734.914165885732 2658.0573105017302 516.02134952844642 974.49638473271489 -1124.7161647793189 2388.5012409861665 1664.4968783680497 -740.42566602510419 -508.07535226081382 1387.6781839702919 -391.30027678938023 767.28392759461826 498.92351712473248 142.03866323824042 745.98005669199927 94.320075535629442 498.17753806394035 -151.61786100850915 -327.01912247529549 -1551.0627204995628 -224.54548267570573 3395.2453656249872 1002.7637378845408 1507.6637761470415 3238.6613640496093 3849.9703507739705 1401.769491354446 1290.6092799977087 -872.05053427801113 -1456.3463145657131 1019.3940295946755 8686.2383858591547 961.22663208214362 -763.95798428448438 1268.6981253908984 266.64730489613834 -303.42849840508973
leaf_weight=192153 2424 21406 2040 6492 8766 14739 25413 7309 7127 26113 32803 14492 4558 8657 469 45573 1120 268 10787 66873 15299 1257 1357 16594 14721 31413 3111 9323 13674 598 605 13569 999 949 4028 16723 530 1568 1105 1285 955 1896 3047 2686 945 676 1666 2580 768 140 13198 1567 1133 293 1847 171 675 3662 822 6704 8829 174 754
leaf_count=192153 2424 21406 2040 6492 8766 14739 25413 7309 7127 26113 32803 14492 4558 8657 469 45573 1120 268 10787 66873 15299 1257 1357 16594 14721 31413 3111 9323 13674 598 605 13569 999 949 4028 16723 530 1568 1105 1285 955 1896 3047 2686 945 676 1666 2580 768 140 13198 1567 1133 293 1847 171 675 3662 822 6704 8829 174 754
internal_value=-0.00133124 0.0161507 -0.0205539 -0.0104757 0.00757683 0.0202465 0.0175781 0.00168362 -0.0235963 -0.0135032 0.0157551 -0.000889459 0.010987 -0.000294811 0.0127903 -0.0241665 0.0138267 -0.0166947 -0.0180864 0.0226715 -0.0150948 0.0130887 0.0213625 0.0209299 -0.00306114 0.0196003 0.013459 0.0124155 0.0107467 -0.00142608 0.00415019 0.0142331 0.0231478 -0.0064877 -0.00312657 0.0097781 0.0116306 0.0168957 0.00535239 -0.00223318 0.0183957 -0.00602633 0.0107065 0.00516149 0.00638698 0.00733307 -0.0121921 0.0152668 0.0182878 -0.00587558 0.015666 0.0181087 0.012728 -0.0175265 -0.0103037 0.00195742 0.0230286 0.0182211 0.0192583 -0.0128812 0.00809554 -0.013647 0.010614
internal_weight=703478 368420 335058 77694 119100 249320 118702 43656 257364 59886 88952 34684 75444 17808 57610 237726 66189 19638 17914 130618 51922 56967 22763 63745 29213 47151 55710 45989 33508 1718 10367 64471 15738 7441 7964 30397 8972 12481 9762 1724 9721 5924 5471 17834 15148 14063 23669 50148 10913 1085 47568 14765 8442 28253 2140 1456 29750 4337 10145 22003 13387 643 14323
internal_count=703478 368420 335058 77694 119100 249320 118702 43656 257364 59886 88952 34684 75444 17808 57610 237726 66189 19638 17914 130618 51922 56967 22763 63745 29213 47151 55710 45989 33508 1718 10367 64471 15738 7441 7964 30397 8972 12481 9762 1724 9721 5924 5471 17834 15148 14063 23669 50148 10913 1085 47568 14765 8442 28253 2140 1456 29750 4337 10145 22003 13387 643 14323
is_linear=0
shrinkage=0.05


Tree=10
num_leaves=64
num_cat=0
split_feature=2 2 2 1054 2 2 1054 2 1069 1069 1054 1069 1 1054 2 2 813 2 1054 1069 813 1065 1046 1065 2 1069 1054 1 1051 1083 1083 1082 0 2 1086 1083 589 591 1080 1071 1081 0 2 1055 1083 1051 1080 1042 1083 1044 0 0 1082 1086 1064 992 1064 1083 0 576 2 1083 819
split_gain=91511.8 4795.37 4459.12 924.415 877.713 576.06 491.458 470.551 429.913 396.084 357.422 314.292 286.15 275.609 196.937 179.531 175.849 166.175 145.742 162.802 141.245 126.368 124.612 106.207 106.087 102.955 134.441 119.65 99.0237 90.1145 89.5022 86.4649 86.1195 85.1664 74.6068 70.8163 85.0612 67.4625 65.8266 65.0651 64.9183 64.4379 63.0144 62.632 63.8275 120.167 60.7394 54.386 52.7172 57.3933 51.2865 51.2229 49.8492 47.6799 46.7302 45.7783 45.4252 45.1654 44.4016 53.3952 44.355 43.4172 42.9844
threshold=208956.50000000003 415674.00000000006 135601.50000000003 1.0000000180025095e-35 266080.50000000006 986998.50000000012 1.0000000180025095e-35 91158.500000000015 1.0000000180025095e-35 1.0000000180025095e-35 1.0000000180025095e-35 1.0000000180025095e-35 103886.50000000001 1.0000000180025095e-35 165320.00000000003 2876746.5000000005 1.0000000180025095e-35 165320.00000000003 1.0000000180025095e-35 1.0000000180025095e-35 1.0000000180025095e-35 1.0000000180025095e-35 1.0000000180025095e-35 1.0000000180025095e-35 228577.00000000003 1.0000000180025095e-35 1.0000000180025095e-35 387.50000000000006 1.0000000180025095e-35 1.0000000180025095e-35 1.0000000180025095e-35 1.0000000180025095e-35 7.5000000000000009 183443.50000000003 1.0000000180025095e-35 1.0000000180025095e-35 1.0000000180025095e-35 1.0000000180025095e-35 1.0000000180025095e-35 1.0000000180025095e-35 1.0000000180025095e-35 6.5000000000000009 319828.00000000006 1.0000000180025095e-35 1.0000000180025095e-35 1.0000000180025095e-35 1.0000000180025095e-35 1.0000000180025095e-35 1.0000000180025095e-35 1.0000000180025095e-35 7.5000000000000009 2.5000000000000004 1.0000000180025095e-35 1.0000000180025095e-35 1.0000000180025095e-35 1.0000000180025095e-35 1.0000000180025095e-35 1.0000000180025095e-35 7.5000000000000009 1.0000000180025095e-35 309881.50000000006 1.0000000180025095e-35 1.0000000180025095e-35
decision_type=2 2 2 2 2 2 2 2 2 2 2 2 2 2 2 2 2 2 2 2 2 2 2 2 2 2 2 2 2 2 2 2 2 2 2 2 2 2 2 2 2 2 2 2 2 2 2 2 2 2 2 2 2 2 2 2 2 2 2 2 2 2 2
left_child=2 4 7 8 10 6 9 -1 33 21 11 39 16 28 31 18 22 55 19 23 32 -3 25 -7 -13 41 27 53 54 -22 38 -5 47 51 52 60 37 -37 -16 -2 -15 -6 -14 44 -19 56 50 48 -11 -50 -12 -4 57 -27 -9 -10 -46 -28 59 -44 -29 -18 -26
right_child=1 5 3 14 12 15 -8 13 17 20 46 24 42 40 30 -17 61 43 -20 -21 29 -23 -24 -25 62 26 34 35 -30 -31 -32 -33 -34 -35 -36 36 -38 -39 -40 -41 -42 -43 58 -45 45 -47 -48 -49 49 -51 -52 -53 -54 -55 -56 -57 -58 -59 -60 -61 -62 -63 -64
leaf_value=-2409.8748620021261 1056.5122666695559 7679.6795137958225 110.24262285590449 -147.16433255503179 2960.960880490506 27500.047784298091 7322.6012568404985 -1206.5261708837309 -1153.1694061135765 2983.9824353851564 881.46087730933039 -342.577784080946 191.40094398935 -500.18817284918333 216.67822694578354 146516.40166815725 -883.43510040114597 -745.90881009752673 14128.418420087151 10569.418675939145 -522.56578210739031 1166.0804760404026 -469.25378766872564 1860.163024217228 20.761516981900058 416.60180153051334 2662.7851145587774 516.40324687199643 -1427.185787633819 998.37001229490568 -1027.5176841251407 -676.30628550479378 2338.8636789368584 365.3197589941185 710.51173261219446 1051.7861181547844 -402.54445880419519 -484.64229034633104 513.12286961858558 -862.15841248730362 11.159184098178958 1022.184716597914 1393.0259691453666 -282.52624163700023 -705.74892329815668 -739.25358630793971 1390.6706004000052 3750.7718904596545 3174.6855259633398 3750.5593332352701 67.663327260878219 -453.69196785872992 952.62555099031351 1845.6213346187656 -1616.0043075673254 1430.2516711943617 -782.35782997524302 882.22511922828562 100.27769427021268 -147.01878333839159 1362.3757955383794 269.19001995775182 -833.64232218216284
leaf_weight=191160 5184 20498 1453 7084 8359 18165 28801 21608 24307 30656 6260 10788 7498 10485 8599 55740 466 18934 17561 37541 1086 1320 1284 1238 18327 355 9719 8350 29211 597 613 1031 13893 2752 1682 8699 151 116 1139 435 894 1685 8850 2042 2838 4166 1118 2457 12364 1447 1484 3984 750 2788 4006 89 1266 851 1860 658 14237 175 228
leaf_count=191160 5184 20498 1453 7084 8359 18165 28801 21608 24307 30656 6260 10788 7498 10485 8599 55740 466 18934 17561 37541 1086 1320 1284 1238 18327 355 9719 8350 29211 597 613 1031 13893 2752 1682 8699 151 116 1139 435 894 1685 8850 2042 2838 4166 1118 2457 12364 1447 1484 3984 750 2788 4006 89 1266 851 1860 658 14237 175 228
internal_value=-0.0014453 0.0158839 -0.0202146 -0.00992783 0.00780932 0.0199436 0.0173333 -0.023424 -0.0128596 0.0154071 0.00214038 -0.000133002 0.0109728 -0.0197911 -0.000111015 0.0222106 0.0126699 -0.0144886 0.020605 0.0193769 0.0133824 0.0212073 0.0129528 0.0230957 -0.00220751 0.0132953 0.0123265 0.0107015 -0.0212608 -0.00090612 0.00446092 -0.0059427 0.0137778 -0.00218891 0.0166628 0.00977482 0.0135345 0.0141719 0.00562744 0.0107003 -0.0127098 0.0178963 0.00560532 -0.0119469 -0.0125809 -0.0162455 0.0111092 0.0148016 0.0152017 0.0177666 0.00953642 -0.00581663 0.0181228 0.0200048 -0.0189916 -0.0175357 -0.010173 0.0190066 0.00795215 0.00933424 0.00828242 -0.0133775 8.48828e-05
internal_weight=703382 365721 337661 80297 122357 243364 113119 257364 61831 84318 43824 34962 78533 66204 18466 130245 59667 53642 74505 56944 62500 21818 59026 19403 29343 57742 47698 34696 54825 1683 10351 8115 60817 8189 13002 31553 8966 8815 9738 5619 11379 10044 18866 29246 27204 8270 8862 46924 44467 13811 7744 5437 11320 3143 25614 24396 4104 10570 11368 9508 22587 641 18555
internal_count=703382 365721 337661 80297 122357 243364 113119 257364 61831 84318 43824 34962 78533 66204 18466 130245 59667 53642 74505 56944 62500 21818 59026 19403 29343 57742 47698 34696 54825 1683 10351 8115 60817 8189 13002 31553 8966 8815 9738 5619 11379 10044 18866 29246 27204 8270 8862 46924 44467 13811 7744 5437 11320 3143 25614 24396 4104 10570 11368 9508 22587 641 18555
is_linear=0
shrinkage=0.05


Tree=11
num_leaves=64
num_cat=0
split_feature=2 2 2 2 1054 2 1054 1054 1054 1069 1069 1069 2 1054 1069 1 2 2 1081 2 1069 1054 813 1065 1065 2 0 1086 2 813 813 2 1082 1051 1 0 1 1195 2 1055 0 1080 2 2 821 1080 0 1046 1051 1064 835 835 0 1080 2 1055 1 2 769 0 0 1072 1080
split_gain=88411.7 5495.96 3682.69 981.898 799.155 673.423 411.015 385.088 366.46 367.022 363.112 258.044 253.079 298.118 327.48 240.5 217.66 179.429 178.587 162.915 154.226 215.949 143.425 141.02 129.19 128.158 122.264 119.834 102.189 100.319 97.1146 95.5282 82.8434 80.1581 80.0078 73.6497 70.9142 69.396 66.4545 62.7647 59.9196 59.4259 56.5384 56.2526 55.656 53.7076 53.2327 51.6264 51.565 81.9391 52.3491 51.5517 51.4128 50.9758 50.2959 48.8859 50.5904 58.2034 47.1157 47.1019 44.8825 43.9252 51.3923
threshold=199668.00000000003 346772.00000000006 125474.50000000001 811646.50000000012 1.0000000180025095e-35 246192.00000000003 1.0000000180025095e-35 1.0000000180025095e-35 1.0000000180025095e-35 1.0000000180025095e-35 1.0000000180025095e-35 1.0000000180025095e-35 3542070.0000000005 1.0000000180025095e-35 1.0000000180025095e-35 103886.50000000001 158307.00000000003 162996.50000000003 1.0000000180025095e-35 86478.500000000015 1.0000000180025095e-35 1.0000000180025095e-35 1.0000000180025095e-35 1.0000000180025095e-35 1.0000000180025095e-35 84887.000000000015 7.5000000000000009 1.0000000180025095e-35 1300397.5000000002 1.0000000180025095e-35 1.0000000180025095e-35 283267.50000000006 1.0000000180025095e-35 1.0000000180025095e-35 302.50000000000006 2.5000000000000004 2570.5000000000005 1.0000000180025095e-35 225112.00000000003 1.0000000180025095e-35 5.5000000000000009 1.0000000180025095e-35 464473.00000000006 160721.00000000003 1.0000000180025095e-35 1.0000000180025095e-35 7.5000000000000009 1.0000000180025095e-35 1.0000000180025095e-35 1.0000000180025095e-35 1.0000000180025095e-35 1.0000000180025095e-35 1.5000000000000002 1.0000000180025095e-35 505836.00000000006 1.0000000180025095e-35 302.50000000000006 481199.50000000006 1.0000000180025095e-35 7.5000000000000009 3.5000000000000004 1.0000000180025095e-35 1.0000000180025095e-35
decision_type=2 2 2 2 2 2 2 2 2 2 2 2 2 2 2 2 2 2 2 2 2 2 2 2 2 2 2 2 2 2 2 2 2 2 2 2 2 2 2 2 2 2 2 2 2 2 2 2 2 2 2 2 2 2 2 2 2 2 2 2 2 2 2
left_child=2 5 7 8 10 6 11 19 9 24 35 60 13 14 23 20 32 48 25 -1 40 29 26 -5 46 -9 44 -10 30 31 -16 -22 -6 58 -33 -4 -20 -24 -13 61 -7 -18 -29 -37 51 59 -3 -30 49 52 -51 55 -12 -23 -48 56 -11 -58 -21 -8 -2 62 -19
right_child=1 3 4 12 16 15 45 18 27 22 17 38 -14 -15 28 -17 41 39 36 33 21 53 37 -25 -26 -27 -28 42 47 -31 -32 34 -34 -35 -36 43 -38 -39 -40 -41 -42 -43 -44 -45 -46 -47 54 -49 -50 50 -52 -53 -54 -55 -56 -57 57 -59 -60 -61 -62 -63 -64
leaf_value=-2339.8995607291681 1140.7749636487733 5436.8983150767353 155.08855716308574 23973.30421614178 -259.37095502938649 2347.7753523644183 694.60795202657539 -1324.8358776091482 4354.9398764894577 3565.6569452584663 -572.1111394743865 -393.14449689034592 184660.94707165117 11410.516143255523 5001.5867081259003 228.19029775478558 44.253526338950181 -805.07130172745747 -1687.1207312004562 -1303.5570607291677 183.29069432971374 1492.2318767487043 -443.33084744609079 2343.0411272856641 815.31181264158988 -472.94691865826354 1496.6638095567018 409.32360995771745 14096.730208603127 -729.49726809705101 -216.25750833015192 1320.4642619991553 -871.43944119031812 -1376.8047009088364 741.29587220396832 -587.80726062860708 162.03846645343219 799.13500714891131 -111.88521114844553 -267.790792787572 837.11630615718423 344.58873388961001 4735.0748826655763 -153.89576301601048 2715.8103443077707 1076.6579868221122 1291.8815846316197 10459.529314317573 -1171.7080749947629 -1420.7036308918387 745.57984255040037 9153.1174309269336 -1176.954866907008 2243.891571998704 5599.2145736353286 4490.9483143621565 1442.0764671198349 2952.7227281261303 592.18141633533867 -44.330557018471886 245.6873608765047 -477.89087947238443 -572.49076733027471
leaf_weight=175579 2132 15450 2282 25488 7858 6009 5939 6006 21432 1880 2166 14554 47281 27482 21720 13459 9376 18461 257 23235 12407 8719 1209 1735 1288 9258 12967 1220 29846 446 887 1541 1075 27248 15294 2989 1257 341 10985 1816 1758 1105 2131 3242 1474 864 1610 924 18881 2786 98 920 8532 1731 3513 2244 25562 26468 144 1207 2493 2908 2311
leaf_count=175579 2132 15450 2282 25488 7858 6009 5939 6006 21432 1880 2166 14554 47281 27482 21720 13459 9376 18461 257 23235 12407 8719 1209 1735 1288 9258 12967 1220 29846 446 887 1541 1075 27248 15294 2989 1257 341 10985 1816 1758 1105 2131 3242 1474 864 1610 924 18881 2786 98 920 8532 1731 3513 2244 25562 26468 144 1207 2493 2908 2311
internal_value=-0.00152527 0.0150829 -0.0204433 0.018726 -0.0115438 0.00501517 -0.000199088 -0.023589 0.0153228 0.0139093 -0.0141503 -0.00287263 0.0213482 0.0200135 0.0184801 0.00825891 -0.00261924 -0.0155666 -0.0162802 -0.0241311 0.00991807 0.00867009 0.0122086 0.0229429 0.0195931 -0.0179049 0.0125348 0.020737 0.0162041 0.00649421 0.0136517 0.00685316 -0.00835386 -0.0216322 0.0093065 -0.00450781 9.90753e-05 -0.00283871 -0.00484064 -0.0124274 0.0163673 0.00226839 0.0119442 -0.00732226 0.0135077 0.00986891 0.0205549 0.0180793 -0.0180321 -0.0156825 -0.0231623 0.01326 -0.0136661 0.0148517 0.016138 0.0130676 0.0127666 0.0124755 -0.0194844 0.00844528 0.00799459 -0.0131144 -0.0139202
internal_weight=703480 374610 328870 275072 85886 99538 38174 242984 119709 94926 66472 30164 155363 108082 80600 61364 19414 57959 16778 226206 47905 40138 73065 27223 21861 15264 71515 24783 53377 29688 22607 29242 8933 50627 16835 8513 1514 1550 25539 25496 7767 10481 3351 6231 58548 8010 20573 30770 32463 13582 2884 57074 10698 10450 5123 56154 53910 52030 23379 7146 4625 23680 20772
internal_count=703480 374610 328870 275072 85886 99538 38174 242984 119709 94926 66472 30164 155363 108082 80600 61364 19414 57959 16778 226206 47905 40138 73065 27223 21861 15264 71515 24783 53377 29688 22607 29242 8933 50627 16835 8513 1514 1550 25539 25496 7767 10481 3351 6231 58548 8010 20573 30770 32463 13582 2884 57074 10698 10450 5123 56154 53910 52030 23379 7146 4625 23680 20772
is_linear=0
shrinkage=0.05


Tree=12
num_leaves=64
num_cat=0
split_feature=2 2 2 2 1054 2 2 1054 1069 1054 1069 2 1054 1069 1054 1069 1054 1069 2 1065 2 1252 813 3 1071 1051 1081 1083 813 591 589 576 2 2 1082 2 925 1083 3 1055 1083 1071 3 814 1245 1082 1044 813 3 1083 1051 1080 1065 1051 1064 1083 1080 1083 1083 2 2 805 1083
split_gain=85754.4 5479.75 3468.26 1074.36 725.126 599.294 452.331 423.347 325.348 321.582 335.36 301.656 398.332 433.983 278.641 254.021 207.604 285.762 175.91 173.047 148.857 141.215 130.005 121.468 112.531 90.9246 79.9546 78.7588 129.547 102.182 101.463 92.5539 78.5132 75.9897 75.413 73.5286 70.5588 68.6853 68.23 68.215 67.5211 66.4863 62.8791 62.6578 61.3648 59.6468 57.8579 52.1047 51.6686 51.3051 110.087 50.6236 49.8218 47.6375 82.1496 48.1786 47.3494 47.085 45.587 46.2344 45.3722 45.354 44.991
threshold=196803.00000000003 335620.00000000006 125474.50000000001 722630.50000000012 1.0000000180025095e-35 246192.00000000003 84887.000000000015 1.0000000180025095e-35 1.0000000180025095e-35 1.0000000180025095e-35 1.0000000180025095e-35 4168117.0000000005 1.0000000180025095e-35 1.0000000180025095e-35 1.0000000180025095e-35 1.0000000180025095e-35 1.0000000180025095e-35 1.0000000180025095e-35 156030.50000000003 1.0000000180025095e-35 158307.00000000003 1.0000000180025095e-35 1.0000000180025095e-35 2.1383330595080281 1.0000000180025095e-35 1.0000000180025095e-35 1.0000000180025095e-35 1.0000000180025095e-35 1.0000000180025095e-35 1.0000000180025095e-35 1.0000000180025095e-35 1.0000000180025095e-35 1198357.5000000002 225112.00000000003 1.0000000180025095e-35 283267.50000000006 1.0000000180025095e-35 1.0000000180025095e-35 2.1383330595080281 1.0000000180025095e-35 1.0000000180025095e-35 1.0000000180025095e-35 1.2424533248940004 1.0000000180025095e-35 1.0000000180025095e-35 1.0000000180025095e-35 1.0000000180025095e-35 1.0000000180025095e-35 1.8688348091416842 1.0000000180025095e-35 1.0000000180025095e-35 1.0000000180025095e-35 1.0000000180025095e-35 1.0000000180025095e-35 1.0000000180025095e-35 1.0000000180025095e-35 1.0000000180025095e-35 1.0000000180025095e-35 1.0000000180025095e-35 1339910.0000000002 1690410.0000000002 1.0000000180025095e-35 1.0000000180025095e-35
decision_type=2 2 2 2 2 2 2 2 2 2 2 2 2 2 2 2 2 2 2 2 2 2 2 2 2 2 2 2 2 2 2 2 2 2 2 2 2 2 2 2 2 2 2 2 2 2 2 2 2 2 2 2 2 2 2 2 2 2 2 2 2 2 2
left_child=2 5 6 9 8 7 -1 15 42 10 24 12 13 19 25 52 17 41 34 -5 53 57 32 27 38 -8 -16 28 31 30 36 43 62 -17 -6 -19 46 51 -3 49 45 48 -4 61 -37 -20 -29 -25 -7 -22 -51 -9 -2 54 -10 -55 -18 -11 59 -24 -21 -12 -15
right_child=1 3 4 11 18 16 14 37 20 21 23 -13 -14 22 26 33 56 35 40 60 39 -23 58 47 -26 -27 -28 29 -30 -31 -32 -33 -34 -35 -36 44 -38 -39 -40 -41 -42 -43 -44 -45 -46 -47 -48 -49 -50 50 -52 -53 -54 55 -56 -57 -58 -59 -60 -61 -62 -63 -64
