tree
version=v4
num_class=1
num_tree_per_iteration=1
label_index=0
max_feature_idx=1255
objective=quantile
feature_names=Column_0 Column_1 Column_2 Column_3 Column_4 Column_5 Column_6 Column_7 Column_8 Column_9 Column_10 Column_11 Column_12 Column_13 Column_14 Column_15 Column_16 Column_17 Column_18 Column_19 Column_20 Column_21 Column_22 Column_23 Column_24 Column_25 Column_26 Column_27 Column_28 Column_29 Column_30 Column_31 Column_32 Column_33 Column_34 Column_35 Column_36 Column_37 Column_38 Column_39 Column_40 Column_41 Column_42 Column_43 Column_44 Column_45 Column_46 Column_47 Column_48 Column_49 Column_50 Column_51 Column_52 Column_53 Column_54 Column_55 Column_56 Column_57 Column_58 Column_59 Column_60 Column_61 Column_62 Column_63 Column_64 Column_65 Column_66 Column_67 Column_68 Column_69 Column_70 Column_71 Column_72 Column_73 Column_74 Column_75 Column_76 Column_77 Column_78 Column_79 Column_80 Column_81 Column_82 Column_83 Column_84 Column_85 Column_86 Column_87 Column_88 Column_89 Column_90 Column_91 Column_92 Column_93 Column_94 Column_95 Column_96 Column_97 Column_98 Column_99 Column_100 Column_101 Column_102 Column_103 Column_104 Column_105 Column_106 Column_107 Column_108 Column_109 Column_110 Column_111 Column_112 Column_113 Column_114 Column_115 Column_116 Column_117 Column_118 Column_119 Column_120 Column_121 Column_122 Column_123 Column_124 Column_125 Column_126 Column_127 Column_128 Column_129 Column_130 Column_131 Column_132 Column_133 Column_134 Column_135 Column_136 Column_137 Column_138 Column_139 Column_140 Column_141 Column_142 Column_143 Column_144 Column_145 Column_146 Column_147 Column_148 Column_149 Column_150 Column_151 Column_152 Column_153 Column_154 Column_155 Column_156 Column_157 Column_158 Column_159 Column_160 Column_161 Column_162 Column_163 Column_164 Column_165 Column_166 Column_167 Column_168 Column_169 Column_170 Column_171 Column_172 Column_173 Column_174 Column_175 Column_176 Column_177 Column_178 Column_179 Column_180 Column_181 Column_182 Column_183 Column_184 Column_185 Column_186 Column_187 Column_188 Column_189 Column_190 Column_191 Column_192 Column_193 Column_194 Column_195 Column_196 Column_197 Column_198 Column_199 Column_200 Column_201 Column_202 Column_203 Column_204 Column_205 Column_206 Column_207 Column_208 Column_209 Column_210 Column_211 Column_212 Column_213 Column_214 Column_215 Column_216 Column_217 Column_218 Column_219 Column_220 Column_221 Column_222 Column_223 Column_224 Column_225 Column_226 Column_227 Column_228 Column_229 Column_230 Column_231 Column_232 Column_233 Column_234 Column_235 Column_236 Column_237 Column_238 Column_239 Column_240 Column_241 Column_242 Column_243 Column_244 Column_245 Column_246 Column_247 Column_248 Column_249 Column_250 Column_251 Column_252 Column_253 Column_254 Column_255 Column_256 Column_257 Column_258 Column_259 Column_260 Column_261 Column_262 Column_263 Column_264 Column_265 Column_266 Column_267 Column_268 Column_269 Column_270 Column_271 Column_272 Column_273 Column_274 Column_275 Column_276 Column_277 Column_278 Column_279 Column_280 Column_281 Column_282 Column_283 Column_284 Column_285 Column_286 Column_287 Column_288 Column_289 Column_290 Column_291 Column_292 Column_293 Column_294 Column_295 Column_296 Column_297 Column_298 Column_299 Column_300 Column_301 Column_302 Column_303 Column_304 Column_305 Column_306 Column_307 Column_308 Column_309 Column_310 Column_311 Column_312 Column_313 Column_314 Column_315 Column_316 Column_317 Column_318 Column_319 Column_320 Column_321 Column_322 Column_323 Column_324 Column_325 Column_326 Column_327 Column_328 Column_329 Column_330 Column_331 Column_332 Column_333 Column_334 Column_335 Column_336 Column_337 Column_338 Column_339 Column_340 Column_341 Column_342 Column_343 Column_344 Column_345 Column_346 Column_347 Column_348 Column_349 Column_350 Column_351 Column_352 Column_353 Column_354 Column_355 Column_356 Column_357 Column_358 Column_359 Column_360 Column_361 Column_362 Column_363 Column_364 Column_365 Column_366 Column_367 Column_368 Column_369 Column_370 Column_371 Column_372 Column_373 Column_374 Column_375 Column_376 Column_377 Column_378 Column_379 Column_380 Column_381 Column_382 Column_383 Column_384 Column_385 Column_386 Column_387 Column_388 Column_389 Column_390 Column_391 Column_392 Column_393 Column_394 Column_395 Column_396 Column_397 Column_398 Column_399 Column_400 Column_401 Column_402 Column_403 Column_404 Column_405 Column_406 Column_407 Column_408 Column_409 Column_410 Column_411 Column_412 Column_413 Column_414 Column_415 Column_416 Column_417 Column_418 Column_419 Column_420 Column_421 Column_422 Column_423 Column_424 Column_425 Column_426 Column_427 Column_428 Column_429 Column_430 Column_431 Column_432 Column_433 Column_434 Column_435 Column_436 Column_437 Column_438 Column_439 Column_440 Column_441 Column_442 Column_443 Column_444 Column_445 Column_446 Column_447 Column_448 Column_449 Column_450 Column_451 Column_452 Column_453 Column_454 Column_455 Column_456 Column_457 Column_458 Column_459 Column_460 Column_461 Column_462 Column_463 Column_464 Column_465 Column_466 Column_467 Column_468 Column_469 Column_470 Column_471 Column_472 Column_473 Column_474 Column_475 Column_476 Column_477 Column_478 Column_479 Column_480 Column_481 Column_482 Column_483 Column_484 Column_485 Column_486 Column_487 Column_488 Column_489 Column_490 Column_491 Column_492 Column_493 Column_494 Column_495 Column_496 Column_497 Column_498 Column_499 Column_500 Column_501 Column_502 Column_503 Column_504 Column_505 Column_506 Column_507 Column_508 Column_509 Column_510 Column_511 Column_512 Column_513 Column_514 Column_515 Column_516 Column_517 Column_518 Column_519 Column_520 Column_521 Column_522 Column_523 Column_524 Column_525 Column_526 Column_527 Column_528 Column_529 Column_530 Column_531 Column_532 Column_533 Column_534 Column_535 Column_536 Column_537 Column_538 Column_539 Column_540 Column_541 Column_542 Column_543 Column_544 Column_545 Column_546 Column_547 Column_548 Column_549 Column_550 Column_551 Column_552 Column_553 Column_554 Column_555 Column_556 Column_557 Column_558 Column_559 Column_560 Column_561 Column_562 Column_563 Column_564 Column_565 Column_566 Column_567 Column_568 Column_569 Column_570 Column_571 Column_572 Column_573 Column_574 Column_575 Column_576 Column_577 Column_578 Column_579 Column_580 Column_581 Column_582 Column_583 Column_584 Column_585 Column_586 Column_587 Column_588 Column_589 Column_590 Column_591 Column_592 Column_593 Column_594 Column_595 Column_596 Column_597 Column_598 Column_599 Column_600 Column_601 Column_602 Column_603 Column_604 Column_605 Column_606 Column_607 Column_608 Column_609 Column_610 Column_611 Column_612 Column_613 Column_614 Column_615 Column_616 Column_617 Column_618 Column_619 Column_620 Column_621 Column_622 Column_623 Column_624 Column_625 Column_626 Column_627 Column_628 Column_629 Column_630 Column_631 Column_632 Column_633 Column_634 Column_635 Column_636 Column_637 Column_638 Column_639 Column_640 Column_641 Column_642 Column_643 Column_644 Column_645 Column_646 Column_647 Column_648 Column_649 Column_650 Column_651 Column_652 Column_653 Column_654 Column_655 Column_656 Column_657 Column_658 Column_659 Column_660 Column_661 Column_662 Column_663 Column_664 Column_665 Column_666 Column_667 Column_668 Column_669 Column_670 Column_671 Column_672 Column_673 Column_674 Column_675 Column_676 Column_677 Column_678 Column_679 Column_680 Column_681 Column_682 Column_683 Column_684 Column_685 Column_686 Column_687 Column_688 Column_689 Column_690 Column_691 Column_692 Column_693 Column_694 Column_695 Column_696 Column_697 Column_698 Column_699 Column_700 Column_701 Column_702 Column_703 Column_704 Column_705 Column_706 Column_707 Column_708 Column_709 Column_710 Column_711 Column_712 Column_713 Column_714 Column_715 Column_716 Column_717 Column_718 Column_719 Column_720 Column_721 Column_722 Column_723 Column_724 Column_725 Column_726 Column_727 Column_728 Column_729 Column_730 Column_731 Column_732 Column_733 Column_734 Column_735 Column_736 Column_737 Column_738 Column_739 Column_740 Column_741 Column_742 Column_743 Column_744 Column_745 Column_746 Column_747 Column_748 Column_749 Column_750 Column_751 Column_752 Column_753 Column_754 Column_755 Column_756 Column_757 Column_758 Column_759 Column_760 Column_761 Column_762 Column_763 Column_764 Column_765 Column_766 Column_767 Column_768 Column_769 Column_770 Column_771 Column_772 Column_773 Column_774 Column_775 Column_776 Column_777 Column_778 Column_779 Column_780 Column_781 Column_782 Column_783 Column_784 Column_785 Column_786 Column_787 Column_788 Column_789 Column_790 Column_791 Column_792 Column_793 Column_794 Column_795 Column_796 Column_797 Column_798 Column_799 Column_800 Column_801 Column_802 Column_803 Column_804 Column_805 Column_806 Column_807 Column_808 Column_809 Column_810 Column_811 Column_812 Column_813 Column_814 Column_815 Column_816 Column_817 Column_818 Column_819 Column_820 Column_821 Column_822 Column_823 Column_824 Column_825 Column_826 Column_827 Column_828 Column_829 Column_830 Column_831 Column_832 Column_833 Column_834 Column_835 Column_836 Column_837 Column_838 Column_839 Column_840 Column_841 Column_842 Column_843 Column_844 Column_845 Column_846 Column_847 Column_848 Column_849 Column_850 Column_851 Column_852 Column_853 Column_854 Column_855 Column_856 Column_857 Column_858 Column_859 Column_860 Column_861 Column_862 Column_863 Column_864 Column_865 Column_866 Column_867 Column_868 Column_869 Column_870 Column_871 Column_872 Column_873 Column_874 Column_875 Column_876 Column_877 Column_878 Column_879 Column_880 Column_881 Column_882 Column_883 Column_884 Column_885 Column_886 Column_887 Column_888 Column_889 Column_890 Column_891 Column_892 Column_893 Column_894 Column_895 Column_896 Column_897 Column_898 Column_899 Column_900 Column_901 Column_902 Column_903 Column_904 Column_905 Column_906 Column_907 Column_908 Column_909 Column_910 Column_911 Column_912 Column_913 Column_914 Column_915 Column_916 Column_917 Column_918 Column_919 Column_920 Column_921 Column_922 Column_923 Column_924 Column_925 Column_926 Column_927 Column_928 Column_929 Column_930 Column_931 Column_932 Column_933 Column_934 Column_935 Column_936 Column_937 Column_938 Column_939 Column_940 Column_941 Column_942 Column_943 Column_944 Column_945 Column_946 Column_947 Column_948 Column_949 Column_950 Column_951 Column_952 Column_953 Column_954 Column_955 Column_956 Column_957 Column_958 Column_959 Column_960 Column_961 Column_962 Column_963 Column_964 Column_965 Column_966 Column_967 Column_968 Column_969 Column_970 Column_971 Column_972 Column_973 Column_974 Column_975 Column_976 Column_977 Column_978 Column_979 Column_980 Column_981 Column_982 Column_983 Column_984 Column_985 Column_986 Column_987 Column_988 Column_989 Column_990 Column_991 Column_992 Column_993 Column_994 Column_995 Column_996 Column_997 Column_998 Column_999 Column_1000 Column_1001 Column_1002 Column_1003 Column_1004 Column_1005 Column_1006 Column_1007 Column_1008 Column_1009 Column_1010 Column_1011 Column_1012 Column_1013 Column_1014 Column_1015 Column_1016 Column_1017 Column_1018 Column_1019 Column_1020 Column_1021 Column_1022 Column_1023 Column_1024 Column_1025 Column_1026 Column_1027 Column_1028 Column_1029 Column_1030 Column_1031 Column_1032 Column_1033 Column_1034 Column_1035 Column_1036 Column_1037 Column_1038 Column_1039 Column_1040 Column_1041 Column_1042 Column_1043 Column_1044 Column_1045 Column_1046 Column_1047 Column_1048 Column_1049 Column_1050 Column_1051 Column_1052 Column_1053 Column_1054 Column_1055 Column_1056 Column_1057 Column_1058 Column_1059 Column_1060 Column_1061 Column_1062 Column_1063 Column_1064 Column_1065 Column_1066 Column_1067 Column_1068 Column_1069 Column_1070 Column_1071 Column_1072 Column_1073 Column_1074 Column_1075 Column_1076 Column_1077 Column_1078 Column_1079 Column_1080 Column_1081 Column_1082 Column_1083 Column_1084 Column_1085 Column_1086 Column_1087 Column_1088 Column_1089 Column_1090 Column_1091 Column_1092 Column_1093 Column_1094 Column_1095 Column_1096 Column_1097 Column_1098 Column_1099 Column_1100 Column_1101 Column_1102 Column_1103 Column_1104 Column_1105 Column_1106 Column_1107 Column_1108 Column_1109 Column_1110 Column_1111 Column_1112 Column_1113 Column_1114 Column_1115 Column_1116 Column_1117 Column_1118 Column_1119 Column_1120 Column_1121 Column_1122 Column_1123 Column_1124 Column_1125 Column_1126 Column_1127 Column_1128 Column_1129 Column_1130 Column_1131 Column_1132 Column_1133 Column_1134 Column_1135 Column_1136 Column_1137 Column_1138 Column_1139 Column_1140 Column_1141 Column_1142 Column_1143 Column_1144 Column_1145 Column_1146 Column_1147 Column_1148 Column_1149 Column_1150 Column_1151 Column_1152 Column_1153 Column_1154 Column_1155 Column_1156 Column_1157 Column_1158 Column_1159 Column_1160 Column_1161 Column_1162 Column_1163 Column_1164 Column_1165 Column_1166 Column_1167 Column_1168 Column_1169 Column_1170 Column_1171 Column_1172 Column_1173 Column_1174 Column_1175 Column_1176 Column_1177 Column_1178 Column_1179 Column_1180 Column_1181 Column_1182 Column_1183 Column_1184 Column_1185 Column_1186 Column_1187 Column_1188 Column_1189 Column_1190 Column_1191 Column_1192 Column_1193 Column_1194 Column_1195 Column_1196 Column_1197 Column_1198 Column_1199 Column_1200 Column_1201 Column_1202 Column_1203 Column_1204 Column_1205 Column_1206 Column_1207 Column_1208 Column_1209 Column_1210 Column_1211 Column_1212 Column_1213 Column_1214 Column_1215 Column_1216 Column_1217 Column_1218 Column_1219 Column_1220 Column_1221 Column_1222 Column_1223 Column_1224 Column_1225 Column_1226 Column_1227 Column_1228 Column_1229 Column_1230 Column_1231 Column_1232 Column_1233 Column_1234 Column_1235 Column_1236 Column_1237 Column_1238 Column_1239 Column_1240 Column_1241 Column_1242 Column_1243 Column_1244 Column_1245 Column_1246 Column_1247 Column_1248 Column_1249 Column_1250 Column_1251 Column_1252 Column_1253 Column_1254 Column_1255
feature_infos=[11:49974246932] [1:42478109892] [1:16405] [1:79538377660] [0.0038610038610038611:22068628435] [0:1] [0:1] none [0:1] [0:1] [0:1] [0:1] [0:1] [0:1] [0:1] none none [0:1] none none [0:1] none [0:1] none none none [0:1] [0:1] [0:1] none none none [0:1] none none none [0:1] [0:1] [0:1] none none none [0:1] none none [0:1] [0:1] [0:1] [0:1] [0:1] [0:1] [0:1] none [0:1] none [0:1] [0:1] [0:1] none none [0:1] [0:1] [0:1] none none [0:1] none [0:1] none [0:1] [0:1] none none none none [0:1] none [0:1] [0:1] [0:1] none [0:1] none none [0:1] [0:1] [0:1] none [0:1] [0:1] none [0:1] [0:1] [0:1] [0:1] [0:1] none [0:1] [0:1] none [0:1] [0:1] [0:1] none [0:1] none none [0:1] [0:1] none [0:1] [0:1] [0:1] [0:1] [0:1] [0:1] [0:1] none [0:1] [0:1] [0:1] none [0:1] none [0:1] [0:1] [0:1] [0:1] none [0:1] [0:1] none [0:1] [0:1] [0:1] [0:1] [0:1] [0:1] [0:1] [0:1] [0:1] none [0:1] [0:1] [0:1] [0:1] [0:1] [0:1] none [0:1] none [0:1] [0:1] [0:1] [0:1] none none [0:1] [0:1] [0:1] [0:1] none [0:1] [0:1] [0:1] [0:1] [0:1] none [0:1] [0:1] [0:1] [0:1] [0:1] [0:1] [0:1] [0:1] [0:1] [0:1] [0:1] [0:1] [0:1] [0:1] [0:1] [0:1] none [0:1] [0:1] [0:1] [0:1] [0:1] none [0:1] none [0:1] [0:1] [0:1] [0:1] [0:1] [0:1] [0:1] [0:1] [0:1] [0:1] [0:1] [0:1] [0:1] [0:1] [0:1] [0:1] [0:1] [0:1] [0:1] [0:1] [0:1] [0:1] [0:1] [0:1] [0:1] [0:1] [0:1] [0:1] [0:1] [0:1] none [0:1] [0:1] none [0:1] [0:1] [0:1] [0:1] [0:1] [0:1] none [0:1] none [0:1] [0:1] [0:1] none [0:1] [0:1] [0:1] [0:1] [0:1] [0:1] [0:1] [0:1] [0:1] [0:1] [0:1] [0:1] [0:1] [0:1] [0:1] [0:1] [0:1] none [0:1] [0:1] [0:1] [0:1] [0:1] [0:1] [0:1] [0:1] [0:1] [0:1] [0:1] [0:1] [0:1] [0:1] [0:1] none [0:1] none [0:1] [0:1] [0:1] [0:1] [0:1] [0:1] [0:1] [0:1] [0:1] [0:1] [0:1] none [0:1] [0:1] [0:1] [0:1] [0:1] [0:1] [0:1] [0:1] [0:1] [0:1] [0:1] [0:1] none [0:1] [0:1] [0:1] [0:1] [0:1] [0:1] [0:1] none [0:1] [0:1] none none [0:1] [0:1] [0:1] [0:1] [0:1] [0:1] [0:1] [0:1] [0:1] [0:1] [0:1] [0:1] [0:1] none [0:1] [0:1] none [0:1] [0:1] [0:1] [0:1] [0:1] [0:1] [0:1] [0:1] none [0:1] [0:1] none [0:1] [0:1] [0:1] [0:1] none [0:1] none [0:1] none [0:1] [0:1] [0:1] [0:1] [0:1] [0:1] [0:1] none [0:1] [0:1] [0:1] [0:1] [0:1] [0:1] [0:1] [0:1] [0:1] none [0:1] [0:1] [0:1] [0:1] [0:1] none none none [0:1] none [0:1] [0:1] [0:1] none [0:1] [0:1] [0:1] [0:1] [0:1] none [0:1] [0:1] [0:1] [0:1] none [0:1] [0:1] none [0:1] [0:1] [0:1] [0:1] [0:1] [0:1] [0:1] [0:1] [0:1] none [0:1] [0:1] [0:1] [0:1] [0:1] [0:1] [0:1] [0:1] [0:1] [0:1] [0:1] [0:1] [0:1] [0:1] [0:1] [0:1] [0:1] [0:1] [0:1] [0:1] none [0:1] [0:1] [0:1] [0:1] [0:1] [0:1] none [0:1] [0:1] [0:1] [0:1] [0:1] [0:1] [0:1] [0:1] [0:1] [0:1] [0:1] [0:1] [0:1] [0:1] [0:1] [0:1] [0:1] [0:1] [0:1] [0:1] [0:1] [0:1] [0:1] [0:1] [0:1] [0:1] [0:1] [0:1] [0:1] [0:1] [0:1] [0:1] [0:1] [0:1] [0:1] [0:1] [0:1] [0:1] [0:1] [0:1] [0:1] [0:1] [0:1] [0:1] [0:1] [0:1] [0:1] [0:1] [0:1] [0:1] [0:1] [0:1] [0:1] [0:1] [0:1] [0:1] [0:1] [0:1] [0:1] [0:1] [0:1] [0:1] [0:1] [0:1] [0:1] [0:1] [0:1] [0:1] [0:1] [0:1] [0:1] [0:1] [0:1] [0:1] none [0:1] [0:1] [0:1] [0:1] [0:1] [0:1] [0:1] [0:1] [0:1] [0:1] [0:1] [0:1] [0:1] [0:1] [0:1] [0:1] [0:1] [0:1] [0:1] [0:1] [0:1] [0:1] [0:1] [0:1] [0:1] [0:1] [0:1] [0:1] [0:1] [0:1] [0:1] [0:1] [0:1] [0:1] [0:1] [0:1] [0:1] [0:1] [0:1] [0:1] [0:1] [0:1] [0:1] [0:1] [0:1] [0:1] [0:1] [0:1] [0:1] [0:1] [0:1] [0:1] [0:1] [0:1] [0:1] [0:1] [0:1] [0:1] [0:1] [0:1] [0:1] [0:1] [0:1] [0:1] [0:1] [0:1] [0:1] [0:1] [0:1] [0:1] [0:1] [0:1] [0:1] [0:1] [0:1] [0:1] [0:1] [0:1] [0:1] [0:1] [0:1] [0:1] [0:1] [0:1] [0:1] [0:1] [0:1] [0:1] [0:1] [0:1] [0:1] [0:1] [0:1] [0:1] [0:1] [0:1] [0:1] [0:1] [0:1] [0:1] [0:1] [0:1] [0:1] [0:1] [0:1] [0:1] [0:1] [0:1] [0:1] [0:1] [0:1] [0:1] [0:1] [0:1] [0:1] [0:1] [0:1] [0:1] [0:1] [0:1] [0:1] [0:1] [0:1] [0:1] [0:1] [0:1] [0:1] [0:1] [0:1] [0:1] [0:1] [0:1] [0:1] [0:1] [0:1] [0:1] [0:1] [0:1] none [0:1] [0:1] none [0:1] [0:1] [0:1] [0:1] [0:1] [0:1] [0:1] [0:1] [0:1] [0:1] [0:1] [0:1] [0:1] [0:1] [0:1] [0:1] [0:1] [0:1] [0:1] none none none [0:1] [0:1] [0:1] [0:1] [0:1] [0:1] [0:1] [0:1] [0:1] [0:1] none none none [0:1] [0:1] [0:1] [0:1] [0:1] [0:1] [0:1] [0:1] [0:1] [0:1] [0:1] [0:1] [0:1] [0:1] [0:1] [0:1] [0:1] [0:1] [0:1] [0:1] [0:1] [0:1] [0:1] [0:1] [0:1] [0:1] [0:1] [0:1] [0:1] [0:1] [0:1] [0:1] [0:1] [0:1] [0:1] [0:1] [0:1] [0:1] [0:1] [0:1] [0:1] [0:1] [0:1] [0:1] [0:1] [0:1] [0:1] [0:1] [0:1] [0:1] [0:1] [0:1] [0:1] [0:1] [0:1] [0:1] [0:1] [0:1] [0:1] [0:1] [0:1] [0:1] [0:1] [0:1] [0:1] [0:1] [0:1] [0:1] none [0:1] [0:1] [0:1] [0:1] [0:1] [0:1] [0:1] [0:1] [0:1] [0:1] [0:1] none none [0:1] [0:1] [0:1] [0:1] [0:1] none [0:1] [0:1] [0:1] [0:1] [0:1] [0:1] none none [0:1] [0:1] [0:1] none none none none none [0:1] [0:1] [0:1] none [0:1] [0:1] [0:1] [0:1] [0:1] [0:1] none [0:1] [0:1] [0:1] [0:1] [0:1] [0:1] [0:1] [0:1] [0:1] [0:1] [0:1] [0:1] [0:1] [0:1] [0:1] [0:1] [0:1] [0:1] [0:1] [0:1] [0:1] [0:1] [0:1] [0:1] [0:1] [0:1] [0:1] [0:1] [0:1] [0:1] [0:1] none [0:1] [0:1] [0:1] [0:1] [0:1] [0:1] [0:1] [0:1] [0:1] [0:1] [0:1] [0:1] [0:1] [0:1] [0:1] [0:1] [0:1] [0:1] none none [0:1] none [0:1] [0:1] [0:1] none none none none [0:1] [0:1] [0:1] [0:1] none [0:1] [0:1] [0:1] [0:1] [0:1] [0:1] [0:1] [0:1] [0:1] [0:1] [0:1] [0:1] [0:1] none [0:1] [0:1] [0:1] [0:1] [0:1] [0:1] [0:1] [0:1] none [0:1] [0:1] [0:1] [0:1] none [0:1] [0:1] [0:1] [0:1] [0:1] [0:1] [0:1] [0:1] [0:1] [0:1] [0:1] [0:1] [0:1] [0:1] [0:1] [0:1] [0:1] [0:1] [0:1] [0:1] [0:1] [0:1] [0:1] [0:1] [0:1] [0:1] [0:1] [0:1] [0:1] [0:1] [0:1] [0:1] [0:1] [0:1] [0:1] [0:1] [0:1] [0:1] [0:1] [0:1] [0:1] [0:1] none [0:1] [0:1] none [0:1] [0:1] [0:1] [0:1] [0:1] [0:1] [0:1] [0:1] [0:1] [0:1] none none [0:1] [0:1] [0:1] none none [0:1] none [0:1] none [0:1] [0:1] none none [0:1] none [0:1] [0:1] [0:1] [0:1] [0:1] [0:1] none [0:1] [0:1] [0:1] [0:1] [0:1] [0:1] none [0:1] [0:1] [0:1] [0:1] [0:1] [0:1] [0:1] [0:1] none [0:1] [0:1] [0:1] [0:1] [0:1] [0:1] none [0:1] [0:1] none [0:1] [0:1] none [0:1] [0:1] [0:1] [0:1] [0:1] [0:1] [0:1] [0:1] [0:1] none none [0:1] [0:1] [0:1] [0:1] [0:1] [0:1] [0:1] [0:1] [0:1] [0:1] [0:1] [0:1] [0:1] [0:1] [0:1] none [0:1] [0:1] [0:1] [0:1] [0:1] [0:1] [0:1] [0:1] [0:1] [0:1] [0:1] [0:1] [0:1] [0:1] [0:1] [0:1] [0:1] [0:1] [0:1] [0:1] [0:1] [0:1] [0:1] [0:1] [0:1] [0:1] [0:1] [0:1] [0:1] [0:1] [0:1] [0:1] [0:1] [0:1] [0:1] [0:1] [0:1] [0:1] [0:1] [0:1] [0:1] [0:1] [0:1] [0:1] [0:1] [0:1] [0:1] [0:1] [0:1] [0:1] [0:1] [0:1] [0:1] [0:1] [0:1] [0:1] [0:1] [0:1] [0:1] [0:1] [0:1] [0:1] [0:1] [0:1] [0:1] [0:1] [0:1] [0:1] [0:1] [0:1] [0:1] [0:1] [0:1] [0:1] [0:1] [0:1] none [0:1] [0:1] [0:1] [0:1] none [0:1] [0:1] [0:1] [0:1] [0:1] [0:1] [0:1] [0:1] [0:1] [0:1] [0:1] [0:1] [0:1] [0:1] [0:1] [0:1] [0:1] [0:1] [0:1] [0:1] [0:1] [0:1] [0:1] [0:1] [0:1] [0:1] [0:1] [0:1] [0:1] [0:1] [0:1] [0:1] [0:1] [0:1] [0:1] [0:1] [0:1] [0:1] [0:1] [0:1] [0:1] [0:1] [0:1] [0:1] [0:1] [0:1] [0:1] [0:1] [0:1] [0:1] [0:1] none [0:1] [0:1] [0:1] [0:1] [0:1] [0:1] [0:1] [0:1] [0:1] [0:1] [0:1] none [0:1] [0:1] [0:1] [0:1] [0:1] [0:1] [0:1] [0:1] none [0:1] [0:1] [0:1] [0:1] [0:1] [0:1] [0:1] [0:1] [0:1] [0:1] [0:1] [0:1] [0:1] [0:1] [0:1] [0:1] [0:1] [0:1] [0:1] [0:1] [0:1] [0:1] [0:1] [0:1] [0:1] [0:1] [0:1] [0:1] none [0:1] [0:1] [0:1] [0:1] [0:1] [0:1] [0:1] [0:1] [0:1] none [0:1] [0:1] [0:1] [0:1] [0:1] [0:1] [0:1] [0:1] [0:1] [0:1] [0:1] [0:1] [0:1] [0:1] [0:1] [0:1] [0:1] [0:1] [0:1] [0:1] [0:1] [0:1] [0:1] [0:1] [0:1] [0:1] [0:1] [0:1] [0:1] [0:1]
tree_sizes=5863 5604 5746 5634 5644 5606 5740 5587 5605 5589 5538 5570 5816 5799 5535 5611 5594 5553 5736 5534 5547 5558 5617 5573 5761 5588 5816 5565 5765 5580 5504 5872 5803 5525 5532 5509 5529 5873 5550 5562 5569 5568 5549 5788 5534 5584 5582 5583 5598 5522 5558 5609 5549 5853 5597 5577 5613 5614 5567 5824 5620 5593 5575 5918 5561 5868 5585 5563 5555 5570 5561 5907 5607 5617 5616 5938 5639 5842 5588 5647 5635 5652 5629 5678 5902 5659 5649 5685 5990 5640 5673 5839 5682 5699 5684 5672 5686 5631 5720 5678 5695 5671 5746 5911 5666 5713 5731 5747 5696 5869 6045 5718 5713 5728 5706 5742 5749 5682 5725 5756 5799 5743 5751 5755 5732 5742 5779 5699 5771 5731 5951 5732 5733 5860 5750 5806 5752 5813 5822 5732 5816 5759 5799 5758 5839 5767 5944 5824 5843 5766 5768 5788 5758 5756 5764 5780 5929 5799 5991 5781 5731 5777 5972 5784 5720 5798 5796 5834 5829 6028 5830 5867 6033 5777 5852 5927 5786 5977 5846 5783 5808 5784 5739 5812 5789 6060 5801 5909 5814 5801 5829 5851 5788 5839 5819 5824 6051 5809 5972 5795 5977 5996 5802 5833 5808 5940 5851 5873 5848 5888 5852 5837 5918 5977 5881 5971 5898 5831 5846 5909 5888 5859 5830 5919 5848 5857 5833 5923 5878 5851 5849 5878 5938 5854 5840 5859 5938 5884 5929 5853 5872 5852 5819 5870 5858 5819 5905 5922 5893 5865 5853 5865 5887 5900 5922 5850 5910 5918 5895 5916 5887 5868 5926 5877 5920 5820 5915 5907 5867 5824 5932 5857 5849 5948 5917 5916 5901 5827 5851 5846 5919 5915 5990 5922 5915 5918 5893 5899 5860 5913 5923 5927 5909 5933 5913 5853 5892 5918 5895 5839

Tree=0
num_leaves=64
num_cat=0
split_feature=1 1 1 1051 1065 2 1069 2 1069 1065 2 1069 1051 1 1 2 588 588 756 1065 2 3 2 756 1049 1 1039 757 2 1054 1 1070 1 1065 588 4 1047 1051 3 70 1 716 756 591 1065 1 2 1 1060 1049 1065 1054 2 1 3 813 1069 1051 2 756 923 756 2
split_gain=8081.86 765.895 513.205 343.175 301.407 205.501 199.307 163.336 162.517 142.306 116.913 112.259 72.4311 73.6605 68.8236 60.4981 52.1527 46.3531 44.4965 33.9845 32.4545 27.2751 27.1248 27.0202 26.6379 25.5708 26.5852 24.2052 22.5758 22.5564 19.4529 17.0021 16.8378 18.7209 16.7712 16.5157 16.3699 16.1992 15.7243 15.1299 14.6621 14.5211 13.5021 13.3482 12.9948 12.078 11.8341 11.6269 13.3424 10.6578 10.4339 10.3925 10.3617 10.3509 10.0863 9.81326 9.77569 9.00828 8.8993 8.5918 8.25455 8.20179 7.93512
threshold=4825249.5000000009 12163066.500000002 2252173.5000000005 1.0000000180025095e-35 1.0000000180025095e-35 92.500000000000014 1.0000000180025095e-35 129.50000000000003 1.0000000180025095e-35 1.0000000180025095e-35 51.500000000000007 1.0000000180025095e-35 1.0000000180025095e-35 3541123.5000000005 28579403.000000004 38.500000000000007 1.0000000180025095e-35 1.0000000180025095e-35 1.0000000180025095e-35 1.0000000180025095e-35 65.500000000000014 3659856.0000000005 63.500000000000007 1.0000000180025095e-35 1.0000000180025095e-35 9033041.5000000019 1.0000000180025095e-35 1.0000000180025095e-35 152.50000000000003 1.0000000180025095e-35 3116991.5000000005 1.0000000180025095e-35 1717473.0000000002 1.0000000180025095e-35 1.0000000180025095e-35 7063.166666666667 1.0000000180025095e-35 1.0000000180025095e-35 2505812.5000000005 1.0000000180025095e-35 1870167.0000000002 1.0000000180025095e-35 1.0000000180025095e-35 1.0000000180025095e-35 1.0000000180025095e-35 17423264.000000004 120.50000000000001 68165589.000000015 1.0000000180025095e-35 1.0000000180025095e-35 1.0000000180025095e-35 1.0000000180025095e-35 43.500000000000007 2057171.0000000002 19349646.500000004 1.0000000180025095e-35 1.0000000180025095e-35 1.0000000180025095e-35 56.500000000000007 1.0000000180025095e-35 1.0000000180025095e-35 1.0000000180025095e-35 40.500000000000007
decision_type=2 2 2 2 2 2 2 2 2 2 2 2 2 2 2 2 2 2 2 2 2 2 2 2 2 2 2 2 2 2 2 2 2 2 2 2 2 2 2 2 2 2 2 2 2 2 2 2 2 2 2 2 2 2 2 2 2 2 2 2 2 2 2
left_child=2 3 20 5 6 8 46 11 9 38 12 14 21 34 22 23 -5 -15 29 28 32 27 31 25 37 26 54 42 35 30 -12 44 -1 61 43 -7 41 45 -2 -6 60 -17 55 -14 -3 52 -4 48 -16 -27 59 -47 -13 -35 -10 -8 -37 -32 -40 -42 -22 -34 -63
right_child=1 7 4 16 39 19 10 -9 15 -11 18 24 13 17 47 36 -18 -19 -20 -21 40 -23 -24 -25 -26 49 -28 -29 -30 -31 57 -33 33 53 -36 56 -38 -39 58 -41 50 -43 -44 -45 -46 51 -48 -49 -50 -51 -52 -53 -54 -55 -56 -57 -58 -59 -60 -61 -62 62 -64
leaf_value=5608672.3315547109 5953853.3471970558 6384626.6966792103 5789735.7355987728 7037309.4098311421 6247544.7217785837 6933601.4223866221 5982612.9968608264 42536387.664205171 6449722.4134559631 7178057.6494522095 6248290.5736587169 7829824.4474312309 6074294.5689074816 6271834.2927653491 8766882.6521613114 7591118.4537392613 6036641.6098854244 5885721.3245323179 6666636.9125104193 7462438.1650165562 6041081.5285643516 6351998.4118961934 7751664.8534982447 7645318.6527381893 6657972.8247390268 7151802.5898713944 6846340.4344186187 6410253.2602371927 7774709.3059000969 6010064.9500000002 6508770.8243975285 7216426.7386646746 5859014.4812032823 5839955.9761390444 5788051.3999048891 6423419.4214187386 6355727.6478412924 30355028.321685411 6073218.4741552351 5905181.4451362137 6385367.8841121439 5543128.8499999996 6624069.5563747883 6009574.2551801922 9048359.1687005516 25278810.649809647 6480297.5231986996 27515285.662119485 7342800.2698844913 6084104.9850849332 5986833.3975572111 23122654.311504748 9583403.6641427036 5962053.1736417711 7724810.8767986298 5969984.1061714888 7573213.4873996256 6379957.5371447802 6223350.665089393 6049199.0842623888 7877627.3003401514 6212725.8276221277 5912272.7256677868
leaf_weight=654998 2957 1135 6574 1704 625 270 3967 4552 1421 245 399 372 1890 850 794 829 146 153 170 302 1176 694 1026 86 123 434 138 29 516 151 404 46 7759 131 346 374 194 855 685 29 190 28 69 54 42 1019 105 618 145 50 45 48 276 60 81 29 232 244 335 34 34 37 21
leaf_count=654998 2957 1135 6574 1704 625 270 3967 4552 1421 245 399 372 1890 850 794 829 146 153 170 302 1176 694 1026 86 123 434 138 29 516 151 404 46 7759 131 346 374 194 855 685 29 190 28 69 54 42 1019 105 618 145 50 45 48 276 60 81 29 232 244 335 34 34 37 21
internal_value=5.8269e+06 5.8269e+06 5.8269e+06 5.8269e+06 5.8269e+06 5.8269e+06 5.8269e+06 5.8269e+06 5.8269e+06 5.8269e+06 5.8269e+06 5.8269e+06 5.8269e+06 5.8269e+06 5.8269e+06 5.8269e+06 5.8269e+06 5.8269e+06 5.8269e+06 5.8269e+06 5.8269e+06 5.8269e+06 5.8269e+06 5.8269e+06 5.8269e+06 5.8269e+06 5.8269e+06 5.8269e+06 5.8269e+06 5.8269e+06 5.8269e+06 5.8269e+06 5.8269e+06 5.8269e+06 5.8269e+06 5.8269e+06 5.8269e+06 5.8269e+06 5.8269e+06 5.8269e+06 5.8269e+06 5.8269e+06 5.8269e+06 5.8269e+06 5.8269e+06 5.8269e+06 5.8269e+06 5.8269e+06 5.8269e+06 5.8269e+06 5.8269e+06 5.8269e+06 5.8269e+06 5.8269e+06 5.8269e+06 5.8269e+06 5.8269e+06 5.8269e+06 5.8269e+06 5.8269e+06 5.8269e+06 5.8269e+06 5.8269e+06
internal_weight=703345 22078 681267 11027 16782 9177 16128 11051 7483 4222 9449 6499 8081 3293 3806 3261 1850 1003 1368 1694 664485 4788 2249 2210 2693 2124 1640 4094 1392 1198 1047 1223 663006 8008 2290 876 1051 2570 3977 654 1479 857 4065 1944 1177 1715 6679 1557 939 484 269 1067 648 191 1502 3996 606 648 1020 224 1210 7817 58
internal_count=703345 22078 681267 11027 16782 9177 16128 11051 7483 4222 9449 6499 8081 3293 3806 3261 1850 1003 1368 1694 664485 4788 2249 2210 2693 2124 1640 4094 1392 1198 1047 1223 663006 8008 2290 876 1051 2570 3977 654 1479 857 4065 1944 1177 1715 6679 1557 939 484 269 1067 648 191 1502 3996 606 648 1020 224 1210 7817 58
is_linear=0
shrinkage=1


Tree=1
num_leaves=64
num_cat=0
split_feature=0 1 0 1 0 0 1 0 1 1069 2 0 3 1 1051 0 1 1 0 1069 0 1 1065 0 2 1 0 2 2 0 1 2 1054 1 1 0 1 1 1049 1 1065 0 135 1 0 0 1 1051 2 2 1047 2 135 1 4 4 2 1083 2 1054 1 1083 2
split_gain=5950.29 525.447 589.089 558.88 410.864 148.108 235.962 112.272 311.387 111.015 105.353 93.7177 85.4056 67.862 131.236 65.4724 62.55 50.386 73.5562 46.5784 37.9741 73.2821 30.6543 36.0405 87.4889 53.6103 29.0656 47.202 24.7273 22.5662 48.5346 15.303 14.9963 13.1404 12.1794 22.6474 11.9196 11.4723 9.53258 8.76592 7.54816 14.2442 8.27967 7.54409 18.925 7.14135 6.999 6.47314 5.93328 5.76401 5.27189 5.25529 4.95167 4.76713 6.48814 4.60877 4.47228 3.53363 3.40945 3.19778 3.01204 2.92561 2.78822
threshold=9594694.0000000019 4825249.5000000009 14106839.000000002 12163066.500000002 50730407.000000007 17832843.000000004 9033041.5000000019 7128192.5000000009 2500385.5000000005 1.0000000180025095e-35 129.50000000000003 23432836.500000004 43787680.000000007 17423264.000000004 1.0000000180025095e-35 8214330.5000000009 1717473.0000000002 5712324.5000000009 11438241.000000002 1.0000000180025095e-35 11438241.000000002 4126641.5000000005 1.0000000180025095e-35 117361024.00000001 127.50000000000001 68165589.000000015 117361024.00000001 127.50000000000001 307.50000000000006 32170843.000000004 28579403.000000004 612.50000000000011 1.0000000180025095e-35 28579403.000000004 3116991.5000000005 8214330.5000000009 2057171.0000000002 7034737.5000000009 1.0000000180025095e-35 3541123.5000000005 1.0000000180025095e-35 117361024.00000001 1.0000000180025095e-35 7034737.5000000009 11438241.000000002 17832843.000000004 17423264.000000004 1.0000000180025095e-35 912.50000000000011 129.50000000000003 1.0000000180025095e-35 109.50000000000001 1.0000000180025095e-35 2795856.5000000005 89575.520833333343 1254428.5000000002 73.500000000000014 1.0000000180025095e-35 60.500000000000007 1.0000000180025095e-35 2252173.5000000005 1.0000000180025095e-35 145.50000000000003
decision_type=2 2 2 2 2 2 2 2 2 2 2 2 2 2 2 2 2 2 2 2 2 2 2 2 2 2 2 2 2 2 2 2 2 2 2 2 2 2 2 2 2 2 2 2 2 2 2 2 2 2 2 2 2 2 2 2 2 2 2 2 2 2 2
left_child=7 20 17 5 10 6 37 -1 15 12 11 45 22 14 -13 16 51 18 -3 29 21 39 23 24 25 61 27 33 52 -15 -31 40 -20 -11 35 -10 58 -4 -21 -2 41 49 55 44 -19 -5 -47 -35 -30 -14 -29 -9 -25 54 -37 -43 57 -32 -18 -23 -17 -6 -46
right_child=1 2 3 4 9 -7 -8 8 34 26 -12 13 31 19 -16 60 36 43 32 38 -22 59 -24 28 -26 -27 -28 50 48 30 56 -33 -34 47 -36 53 -38 -39 -40 -41 -42 42 -44 -45 62 46 -48 -49 -50 -51 -52 -53 -54 -55 -56 -57 -58 -59 -60 -61 -62 -63 -64
leaf_value=-188605.07180798572 204681.2150602311 -6799.7605826047147 256108.37348918442 -75148.12746750591 2018848.1171309785 1867069.8424411011 63092.833773527789 96287.029585608849 -30180.055114757131 3417282.5665440657 -697920.84424140945 1343527.3776284386 2572421.5563994227 247777.37999880069 190446.78129684442 131505.85607213291 24975.719349803312 -47115.702164530754 104455.70169113131 80820.556246698776 1235760.8332659374 40008.544758828873 17068041.274084363 8957836.5704807006 572303.33095104212 588143.9358217906 107181245.15837911 1719578.6833363725 19583307.639353674 763044.77820993541 269951.31872729305 247180506.59249774 13822.539469283984 3029955.8675095178 -16181.703232786698 48135.748590530347 666.42107634125284 175980.50468537334 783468.27034711605 66186.594153656071 22444066.707473204 22996136.949134178 9039045.5797707755 -27271.467833501916 68135.943017346945 117743.97144859908 -93984.057426445477 2491377.3326372816 38991532.075573079 533458.61952352047 645071.64315387723 64702.469198011473 6660218.7303029895 24232.997642100298 28857.787999708438 362420061.61425376 441752.07597996242 414285.9300979281 8510.0149354046789 10083.571358914953 54114.730647441611 2030608.8695332669 822.0912096275905
leaf_weight=675492 627 329 685 424 289 2785 688 183 423 358 1404 538 29 603 268 295 172 521 292 530 1877 254 165 466 802 161 857 241 317 294 186 328 37 258 3872 88 210 363 46 281 107 327 48 2020 297 775 226 118 95 56 65 20 174 163 46 76 189 85 49 36 125 151 33
leaf_count=675492 627 329 685 424 289 2785 688 183 423 358 1404 538 29 603 268 295 172 521 292 530 1877 254 165 466 802 161 857 241 317 294 186 328 37 258 3872 88 210 363 46 281 107 327 48 2020 297 775 226 118 95 56 65 20 174 163 46 76 189 85 49 36 125 151 33
internal_value=-0.000356876 0.0251284 0.0220411 0.02622 0.0201637 0.0410305 0.029568 -0.0011868 0.00583466 0.0298725 0.0105945 0.0145881 0.0247038 0.0199986 0.0321867 0.0303439 0.0202011 0.00359557 0.0160752 0.0149166 0.044311 0.037356 0.0200095 0.0186074 0.0133615 0.0277849 0.0396567 0.0340385 0.0256036 0.0199733 0.0257394 0.03737 0.0327926 0.0409162 0.00020906 0.00618056 0.00942286 0.0445038 0.00300347 0.0443447 0.0328869 0.0304664 0.034005 0.000735372 0.0046842 0.0041886 0.00649226 0.0343883 0.0351578 0.0116912 0.0175409 0.043085 0.0194531 0.0167635 0.02375 0.0363431 0.0155978 0.0114806 0.0175283 0.0154741 0.0456548 0.0368182 0.014053
internal_weight=703319 22181 19106 15577 11056 4521 1736 681138 5646 5488 5568 4164 3591 2739 806 1054 634 3529 658 1933 3075 1198 2620 2455 1403 601 1897 1040 1052 1357 754 971 329 734 4592 720 431 1048 576 908 643 536 451 2871 851 1425 1001 376 412 85 306 203 640 297 134 403 460 271 221 290 420 440 330
internal_count=703319 22181 19106 15577 11056 4521 1736 681138 5646 5488 5568 4164 3591 2739 806 1054 634 3529 658 1933 3075 1198 2620 2455 1403 601 1897 1040 1052 1357 754 971 329 734 4592 720 431 1048 576 908 643 536 451 2871 851 1425 1001 376 412 85 306 203 640 297 134 403 460 271 221 290 420 440 330
is_linear=0
shrinkage=0.05


Tree=2
num_leaves=64
num_cat=0
split_feature=1 36 1051 1043 3 1 36 756 1 1 1 1 1 1 761 1064 1064 2 1051 1067 835 4 1 2 2 1 2 2 4 1068 1 2 2 1 1 2 1039 37 1 2 835 1070 2 813 923 1086 706 2 2 2 591 658 1 2 2 1 1043 1081 1195 756 1 1064 813
split_gain=2572.05 367.661 392.603 257.038 179.214 110.022 191.313 83.1171 75.464 58.1352 44.6168 36.1008 47.9298 41.2709 33.3117 33.1465 29.536 29.1183 27.5715 26.4981 23.7521 22.0175 21.8912 20.0629 19.0974 18.6837 18.5508 17.9368 17.9002 17.5898 21.5833 22.7021 17.0166 23.738 29.2039 16.0132 15.4438 14.4824 13.5608 13.29 12.8056 12.2996 12.1247 12.0931 11.8125 11.277 13.9262 10.9349 11.5427 9.98439 9.12678 9.05503 8.79187 8.60669 8.58135 13.3123 8.37332 8.29525 8.01176 7.70491 7.39424 7.35853 7.27595
threshold=3116991.5000000005 1.0000000180025095e-35 1.0000000180025095e-35 1.0000000180025095e-35 5963310.5000000009 1870167.0000000002 1.0000000180025095e-35 1.0000000180025095e-35 5712324.5000000009 3541123.5000000005 12163066.500000002 12163066.500000002 5712324.5000000009 17423264.000000004 1.0000000180025095e-35 1.0000000180025095e-35 1.0000000180025095e-35 130.50000000000003 1.0000000180025095e-35 1.0000000180025095e-35 1.0000000180025095e-35 468261.84722222231 2057171.0000000002 39.500000000000007 136.50000000000003 17423264.000000004 182.50000000000003 32.500000000000007 15215.583333333334 1.0000000180025095e-35 17423264.000000004 129.50000000000003 129.50000000000003 12163066.500000002 68165589.000000015 55.500000000000007 1.0000000180025095e-35 1.0000000180025095e-35 68165589.000000015 39.500000000000007 1.0000000180025095e-35 1.0000000180025095e-35 21.500000000000004 1.0000000180025095e-35 1.0000000180025095e-35 1.0000000180025095e-35 1.0000000180025095e-35 41.500000000000007 38.500000000000007 1472.0000000000002 1.0000000180025095e-35 1.0000000180025095e-35 236010.50000000003 82.500000000000014 171.50000000000003 9033041.5000000019 1.0000000180025095e-35 1.0000000180025095e-35 1.0000000180025095e-35 1.0000000180025095e-35 9033041.5000000019 1.0000000180025095e-35 1.0000000180025095e-35
decision_type=2 2 2 2 2 2 2 2 2 2 2 2 2 2 2 2 2 2 2 2 2 2 2 2 2 2 2 2 2 2 2 2 2 2 2 2 2 2 2 2 2 2 2 2 2 2 2 2 2 2 2 2 2 2 2 2 2 2 2 2 2 2 2
left_child=5 2 3 4 8 44 7 18 16 -4 -3 12 27 -13 28 19 26 -12 24 29 -17 32 -8 -9 43 -19 36 57 -5 37 53 -32 35 -34 -35 -6 -2 41 61 -23 62 45 -14 56 -1 46 51 48 -48 -36 -20 -10 -46 -31 55 -30 -7 58 -11 -56 -43 -37 -18
right_child=1 10 9 14 21 6 22 23 15 11 17 13 42 -15 -16 20 40 25 50 -21 -22 39 -24 -25 -26 -27 -28 -29 54 30 31 -33 33 34 49 38 -38 -39 -40 -41 -42 60 -44 -45 52 -47 47 -49 -50 -51 -52 -53 -54 -55 59 -57 -58 -59 -60 -61 -62 -63 -64
leaf_value=-194143.15081655059 65023.250191856932 1295221.4678142108 243696.65922282246 11128370.19889459 779926.02303613338 -5008.0152950634802 12796.618343643473 428944.94662895612 1022157.8427045605 400430.67660415731 21094854.716381524 812351.4484831997 1141756.2074160283 34004828.559517376 444901.40079427353 780397.35514623555 255512.97946547071 -191071.97210799792 113905.95205697889 211067.24613415115 56454.372046112083 1706702.9839225051 100854.26231005444 197445.05999075464 628151.85660324432 31867038.257329334 616171.57186941931 469204.60445998725 1160150.2309349428 152126.47526218204 1377146.2720107089 4964640.537972712 2054343.9665664062 934430.40429114632 16251825.37218721 1441602.0047907541 753064.08237277856 7169703.5098644318 6770993.738001301 151510231.66412434 -108371.19229998384 143599.54039967206 1138254.7300602382 123681.23820148125 2624511.44474582 672940.95920874632 366683.796900057 3266336.0264772805 68137.608638577731 109394186.93883723 114264.84561568568 147359.93867801968 1129974.1948175919 546238.50700151012 49093453.807305999 15083058.72364448 247474.53924696796 226431.41281856337 416913.16130577889 -73183.888837152728 1800961.2268786132 750921.76846253313 275077.6566143831
leaf_weight=658908 6830 779 629 625 786 9560 72 65 1648 873 97 354 564 658 144 137 254 92 3189 2537 75 854 275 147 116 116 80 499 285 1900 1074 468 209 1042 1122 1106 72 34 287 722 82 49 759 61 24 603 23 30 73 165 67 252 33 574 68 282 273 67 214 48 88 103 34
leaf_count=658908 6830 779 629 625 786 9560 72 65 1648 873 97 354 564 658 144 137 254 92 3189 2537 75 854 275 147 116 116 80 499 285 1900 1074 468 209 1042 1122 1106 72 34 287 722 82 49 759 61 24 603 23 30 73 165 67 252 33 574 68 282 273 67 214 48 88 103 34
internal_value=-0.000467567 0.0137421 0.0126871 0.0101916 0.00892029 -0.00111103 0.00330335 0.00235959 0.00622473 0.0260729 0.0423386 0.0283012 0.0310753 0.0201433 0.0306026 0.00915251 0.00241567 0.0261271 0.00186322 0.00870937 0.0287028 0.0160499 0.0399604 0.0334198 0.000563188 0.0155769 0.00168612 0.0253985 0.0331154 0.010333 0.00821215 0.0128551 0.0143724 0.0115554 0.0101068 0.0175055 0.00140865 0.013375 0.0205414 0.0211802 0.0161824 0.0129763 0.038168 0.000326714 -0.00120364 0.0122152 0.0140017 0.0300992 0.0383333 0.0151447 0.00585995 0.0129342 0.021557 0.00531831 0.0275201 0.0300551 0.000189033 0.0219736 0.0209211 0.0151293 0.0275821 0.0228608 0.0211458
internal_weight=703256 30466 29382 24765 23313 672790 13825 13478 16917 4617 1084 3988 2976 1012 1452 9565 7352 305 13266 9353 212 6396 347 212 10010 208 6982 1653 1308 6816 4016 1542 4820 2538 2329 2282 6902 2800 1496 1576 370 2766 1323 9894 658965 2629 2026 126 96 1287 3256 1900 57 2474 683 567 9833 1154 1087 116 137 1209 288
internal_count=703256 30466 29382 24765 23313 672790 13825 13478 16917 4617 1084 3988 2976 1012 1452 9565 7352 305 13266 9353 212 6396 347 212 10010 208 6982 1653 1308 6816 4016 1542 4820 2538 2329 2282 6902 2800 1496 1576 370 2766 1323 9894 658965 2629 2026 126 96 1287 3256 1900 57 2474 683 567 9833 1154 1087 116 137 1209 288
is_linear=0
shrinkage=0.05


Tree=3
num_leaves=64
num_cat=0
split_feature=0 1 0 1 0 1 0 1 1 0 2 0 0 0 0 1 1043 1 1 1 1051 0 0 1065 0 4 1070 0 1 4 0 1 1065 2 1051 1 1 0 1069 1 4 1043 1 0 1 1054 3 1043 695 0 1043 0 2 0 4 2 36 0 1 1 2 4 1064
split_gain=2877.04 582.629 309.101 350.982 191.671 558.278 97.1157 285.757 55.1085 80.0186 50.1661 81.6962 52.6224 49.9857 48.6341 44.9268 44.1716 35.9854 30.8574 28.5222 54.0936 28.6387 20.9518 20.361 19.5765 18.988 17.8227 15.9108 44.9244 14.8066 17.5096 20.6878 12.9893 11.7021 10.2505 16.1367 10.0257 19.9625 17.2372 37.7313 9.18087 9.05976 9.03181 16.522 8.62654 7.98531 7.87859 7.47362 6.86638 6.37383 6.25507 18.0252 5.59294 5.40016 5.09804 10.9771 12.9643 4.95797 49.6114 15.0204 4.89715 9.529 4.6366
threshold=9594694.0000000019 7034737.5000000009 14106839.000000002 4126641.5000000005 17832843.000000004 12163066.500000002 7128192.5000000009 2500385.5000000005 1717473.0000000002 8214330.5000000009 129.50000000000003 117361024.00000001 23432836.500000004 11438241.000000002 23432836.500000004 3116991.5000000005 1.0000000180025095e-35 9033041.5000000019 5712324.5000000009 17423264.000000004 1.0000000180025095e-35 32170843.000000004 50730407.000000007 1.0000000180025095e-35 11438241.000000002 333213.75000000006 1.0000000180025095e-35 14106839.000000002 9033041.5000000019 15514.255555555557 23432836.500000004 3116991.5000000005 1.0000000180025095e-35 3834.5000000000005 1.0000000180025095e-35 68165589.000000015 68165589.000000015 50730407.000000007 1.0000000180025095e-35 28579403.000000004 2683692.1428571432 1.0000000180025095e-35 3116991.5000000005 8214330.5000000009 2057171.0000000002 1.0000000180025095e-35 3659856.0000000005 1.0000000180025095e-35 1.0000000180025095e-35 117361024.00000001 1.0000000180025095e-35 32170843.000000004 214.50000000000003 50730407.000000007 468261.84722222231 47.500000000000007 1.0000000180025095e-35 6348644.5000000009 1283307.0000000002 1717473.0000000002 38.500000000000007 390198.50000000006 1.0000000180025095e-35
decision_type=2 2 2 2 2 2 2 2 2 2 2 2 2 2 2 2 2 2 2 2 2 2 2 2 2 2 2 2 2 2 2 2 2 2 2 2 2 2 2 2 2 2 2 2 2 2 2 2 2 2 2 2 2 2 2 2 2 2 2 2 2 2 2
left_child=6 2 3 15 27 14 57 8 -8 44 12 53 -7 -5 17 -2 48 -6 45 20 60 -21 -22 25 46 26 34 -3 -29 30 31 -18 33 40 36 -36 37 38 39 -23 52 49 43 -9 -10 -15 -17 -26 -4 -38 54 -52 -13 -12 -16 -56 -57 -1 -59 -60 -14 -62 -55
right_child=1 4 16 13 5 10 7 42 9 -11 11 32 19 18 50 24 29 -19 -20 21 22 23 -24 -25 47 -27 -28 28 -30 -31 -32 -33 -34 -35 35 -37 41 -39 -40 -41 -42 -43 -44 -45 -46 -47 -48 -49 -50 -51 51 -53 -54 62 55 56 -58 58 59 -61 61 -63 -64
leaf_value=-177923.96108748901 233982.865265195 -47202.464985570223 1353126.4957563358 6558.301922213016 275897.96698994399 66914.772109408048 136659.06222987571 -33445.791555414973 28660.833404038567 69010.640504293697 -766597.31156200403 7282074.924513109 1639985.2442789506 88152.058498571932 1625275.5177499552 73769.732111369944 565618.27988038026 159022.23832665794 35844.63803611706 154360.64053742643 78000.001360538416 641756.95649878657 1493345.2243164622 24170704.708402418 135957.68256899467 11700169.787712408 6390176.7406571181 130116.72731377848 18626.936934755373 852941.7356928871 1710349.6789048151 -18313.857959346475 52610243.877358228 686933025.50352049 797105.48525171436 71913029.384484082 382266.72332749108 2372236.5062748156 292344.56565873121 332738.58307109197 746572651.75523424 29205242.490080476 -28123.499454538014 30190.28150592358 -470.99594796765598 46082.72043338621 51521.057569635479 67830.796452327268 1523528.7984422168 8161082.7474893052 463494.1494584881 2300355.0360961575 32474407.701242264 665528.30504226417 1923526.3776509163 1119943.8861517662 1371697.8324485936 82408.988684078868 16045.250801625662 -30588.020132219979 2893480.2088754321 910183.38702023774 951634.78284742648
leaf_weight=672576 754 1984 2082 1130 328 1009 268 415 217 363 1388 416 216 538 821 281 26 527 318 783 277 234 31 63 274 836 48 359 1131 90 67 111 63 56 292 68 143 644 216 413 66 32 3856 289 209 42 152 20 22 312 68 134 1272 1251 120 36 27 61 220 2460 331 55 40
leaf_count=672576 754 1984 2082 1130 328 1009 268 415 217 363 1388 416 216 538 821 281 26 527 318 783 277 234 31 63 274 836 48 359 1131 90 67 111 63 56 292 68 143 644 216 413 66 32 3856 289 209 42 152 20 22 312 68 134 1272 1251 120 36 27 61 220 2460 331 55 40
internal_value=-0.000608542 0.0171889 0.030619 0.0211638 0.0122584 0.0151221 -0.00118347 0.00536385 0.0287878 0.022134 0.0104743 0.00651582 0.013476 0.0076504 0.0389247 0.0396683 0.0444548 0.0298026 0.016456 0.0155802 0.0235852 0.0137965 0.00654221 0.0158357 0.0307995 0.015288 0.0175468 0.00185881 0.00576342 0.026301 0.018848 0.00860402 0.0145268 0.01375 0.0169318 0.00916667 0.0183338 0.0203492 0.015378 0.019461 0.0130316 0.012097 -6.57883e-05 0.00514205 0.00743545 0.023319 0.0240387 0.0407568 0.0469914 0.0102885 0.0453918 0.0373639 0.0123164 0.000914988 0.047007 0.0394604 0.0225595 -0.00123793 0.000884259 -0.000130596 0.0323048 0.0289313 0.00324264
internal_weight=702931 21997 5907 3509 16090 12616 680934 5617 1057 789 10555 4552 6003 2028 2061 1481 2398 855 898 4994 910 4084 308 3301 727 3238 2402 3474 1490 294 204 137 1873 1810 2354 360 1994 1507 863 647 1754 487 4560 704 426 580 433 294 2104 455 1206 202 1688 2679 1004 183 63 675317 2741 2680 602 386 1291
internal_count=702931 21997 5907 3509 16090 12616 680934 5617 1057 789 10555 4552 6003 2028 2061 1481 2398 855 898 4994 910 4084 308 3301 727 3238 2402 3474 1490 294 204 137 1873 1810 2354 360 1994 1507 863 647 1754 487 4560 704 426 580 433 294 2104 455 1206 202 1688 2679 1004 183 63 675317 2741 2680 602 386 1291
is_linear=0
shrinkage=0.05


Tree=4
num_leaves=64
num_cat=0
split_feature=0 1 0 1 0 1 0 0 1 0 1 1 0 0 1043 1 0 1 1 1043 4 4 1070 1054 1043 0 0 3 1 1065 1043 1 0 1 1039 1054 1123 1 761 1043 3 0 1 1 0 1 1043 1 36 0 1051 0 1 3 0 1065 1 1068 1 56 3 4 3
split_gain=2292.89 629.447 176.068 499.941 304.872 135.75 192.722 80.7423 239.38 49.5632 51.389 46.1789 69.6277 43.9317 48.1145 40.0967 37.303 35.78 29.1256 20.9771 19.7902 18.9981 17.2573 15.2 11.9734 17.3332 10.0703 9.53188 7.6308 6.8646 6.58291 6.43035 12.0687 6.16952 5.92897 5.55087 5.17837 5.44418 5.32609 5.15076 6.6881 4.89256 63.762 7.77557 13.2975 5.75524 4.79358 4.73088 5.49838 12.3531 12.1044 4.579 4.23724 4.14648 4.06608 10.4205 10.344 9.83425 8.20543 6.37812 4.60111 5.41758 4.5506
threshold=9594694.0000000019 5712324.5000000009 14106839.000000002 12163066.500000002 17832843.000000004 3116991.5000000005 11438241.000000002 7128192.5000000009 2500385.5000000005 23432836.500000004 9033041.5000000019 1717473.0000000002 8214330.5000000009 14106839.000000002 1.0000000180025095e-35 4126641.5000000005 32170843.000000004 9033041.5000000019 4126641.5000000005 1.0000000180025095e-35 3453.5666666666671 15514.255555555557 1.0000000180025095e-35 1.0000000180025095e-35 1.0000000180025095e-35 32170843.000000004 23432836.500000004 5963310.5000000009 1870167.0000000002 1.0000000180025095e-35 1.0000000180025095e-35 3116991.5000000005 8214330.5000000009 2057171.0000000002 1.0000000180025095e-35 1.0000000180025095e-35 1.0000000180025095e-35 68165589.000000015 1.0000000180025095e-35 1.0000000180025095e-35 264207.50000000006 5640284.5000000009 1066481.0000000002 1717473.0000000002 6348644.5000000009 1283307.0000000002 1.0000000180025095e-35 17423264.000000004 1.0000000180025095e-35 50730407.000000007 1.0000000180025095e-35 23432836.500000004 17423264.000000004 8238902.5000000009 117361024.00000001 1.0000000180025095e-35 68165589.000000015 1.0000000180025095e-35 28579403.000000004 1.0000000180025095e-35 2170910.0000000005 99612.285050576349 302796.00000000006
decision_type=2 2 2 2 2 2 2 2 2 2 2 2 2 2 2 2 2 2 2 2 2 2 2 2 2 2 2 2 2 2 2 2 2 2 2 2 2 2 2 2 2 2 2 2 2 2 2 2 2 2 2 2 2 2 2 2 2 2 2 2 2 2 2
left_child=7 5 -3 4 17 -2 15 41 11 10 39 -9 28 18 -15 27 51 23 30 22 52 26 47 -4 34 -26 -16 -7 29 -13 -8 32 -10 -14 -11 -20 37 53 -39 -6 -41 -1 -43 44 -44 -46 -35 48 49 50 -18 -5 -21 -22 56 -56 57 59 60 -49 -59 -62 -60
right_child=1 2 3 16 9 6 13 8 31 24 -12 12 33 14 21 -17 19 -19 35 20 36 -23 -24 -25 25 -27 -28 -29 -30 -31 -32 -33 -34 46 -36 -37 -38 38 -40 40 -42 42 43 -45 45 -47 -48 54 -50 -51 -52 -53 -54 -55 55 -57 -58 58 62 -61 61 -63 -64
leaf_value=-173802.38588482392 1714305.4780185197 -16356.434552382379 108837.41811053213 37389.831188987002 280053.15935108828 67140.430141495803 128499.06965501954 127758.3834536362 -29381.956338992484 1515894.0459279632 151359.05231477329 34218.001554166804 70383.905349345412 723218.83285223355 -19692.35065591455 16328.521203087783 939009.78644522361 29664.599297781377 85235.728915890431 3472184.1858924166 1284675.7974786665 785138.68878828804 400420328.40945494 6949.7572169854047 592279.16176860768 2120615.2012690394 1930798.1852249159 39082.242779837972 6186.0688282417977 -5405.7051317046398 75164.265151536005 -25542.226029498644 28980.555842460963 56792.589975918832 1740484.4928417907 59644.106967172818 290989.00783996709 36470476.585653454 -1968915.9908955239 147401.98458388224 222810.48669143274 63017.581283070431 -3989.9422151943204 -42418.768442913359 28536.527835597379 13528.121258026036 54952.184351465061 650280.15161444026 215690.87501368599 1954074.5867060036 134582.0895786848 151736.23282731735 19227472.43088717 455573.15362737217 31823117.053763743 30264435.928634878 -86450.83336049784 964411.19373758556 1226199.5313667096 1262220.5575243768 496524.04154477047 1184674.0610868391 856958.55643950426
leaf_weight=669878 1040 2767 680 1644 510 350 290 273 421 1143 542 66 108 1046 87 629 147 671 557 46 81 62 137 110 86 153 47 108 343 28 21 3870 296 205 52 38 25 72 20 20 28 125 373 4779 27 208 28 1901 137 81 202 1729 117 169 2371 85 414 94 68 39 190 98 1185
leaf_count=669878 1040 2767 680 1644 510 350 290 273 421 1143 542 66 108 1046 87 629 147 671 557 46 81 62 137 110 86 153 47 108 343 28 21 3870 296 205 52 38 25 72 20 20 28 125 373 4779 27 208 28 1901 137 81 202 1729 117 169 2371 85 414 94 68 39 190 98 1185
internal_value=-0.000672854 0.0151813 0.0110465 0.0131781 0.028337 0.0324108 0.027359 -0.00118708 0.00477164 0.038825 0.0308409 0.0262952 0.0200868 0.0360405 0.0421477 0.0102035 0.00769861 0.0101463 0.0276683 0.00962381 0.0192217 0.0194133 0.00891226 0.0173576 0.0449494 0.0347333 0.00882463 0.0214574 0.00687357 0.0194947 0.0400683 -0.000159962 0.00418933 0.0370198 0.0469927 0.021187 0.0127827 0.0111769 0.0215761 0.0414919 0.0258333 -0.00123682 0.000246736 -0.000572442 0.00475329 0.0140692 0.032441 0.00856888 0.0129475 0.0157267 0.011644 0.00331567 0.0337193 0.00735 0.00818367 0.0097842 0.00719823 0.00806469 0.0109213 0.00565722 0.0173364 0.0142014 0.00896548
internal_weight=703117 22089 17814 15047 3995 4275 3235 681028 5638 2534 1100 1051 778 2148 1242 1087 11052 1461 906 7679 530 196 7149 790 1434 239 134 458 437 94 311 4587 717 341 1195 595 367 342 92 558 48 675390 5512 5387 608 235 233 7012 567 430 349 3373 163 250 6445 2456 3989 3575 1635 1940 382 288 1253
internal_count=703117 22089 17814 15047 3995 4275 3235 681028 5638 2534 1100 1051 778 2148 1242 1087 11052 1461 906 7679 530 196 7149 790 1434 239 134 458 437 94 311 4587 717 341 1195 595 367 342 92 558 48 675390 5512 5387 608 235 233 7012 567 430 349 3373 163 250 6445 2456 3989 3575 1635 1940 382 288 1253
is_linear=0
shrinkage=0.05


Tree=5
num_leaves=64
num_cat=0
split_feature=0 1 0 1 0 1 1 0 1043 1 0 2 0 0 1 1051 0 1 1 1 0 0 0 0 4 0 1054 1 4 1 1043 1 1051 0 1 1069 3 1 3 1 4 0 1 36 1043 4 1 0 1 1 1043 1 0 2 1083 1043 1054 1054 2 2 756 1 1
split_gain=1732.01 607.088 420.733 329.608 123.727 254.364 50.2569 49.246 36.5996 39.6644 77.6744 28.0093 34.391 27.2381 25.5849 26.764 24.1261 26.9227 21.3732 20.908 22.1057 20.46 20.2022 19.8985 14.4474 14.3023 13.2549 13.0988 12.8547 17.1163 10.9366 9.44724 16.0756 12.5606 12.9764 23.9859 8.48961 8.27304 8.11194 7.70196 7.63719 7.50165 7.4643 23.6052 21.4232 8.31169 7.35785 7.01426 13.4025 6.77022 5.93059 5.64209 5.53437 5.16275 5.12409 4.95375 4.90326 4.88849 4.51264 4.4624 4.43623 4.44476 4.41973
threshold=11438241.000000002 12163066.500000002 17832843.000000004 5712324.5000000009 7128192.5000000009 2500385.5000000005 1717473.0000000002 8214330.5000000009 1.0000000180025095e-35 9033041.5000000019 23432836.500000004 129.50000000000003 32170843.000000004 32170843.000000004 17423264.000000004 1.0000000180025095e-35 14106839.000000002 9033041.5000000019 4126641.5000000005 4126641.5000000005 9594694.0000000019 14106839.000000002 9594694.0000000019 117361024.00000001 207255.65000000002 50730407.000000007 1.0000000180025095e-35 3116991.5000000005 11146.375000000002 9033041.5000000019 1.0000000180025095e-35 68165589.000000015 1.0000000180025095e-35 50730407.000000007 28579403.000000004 1.0000000180025095e-35 5963310.5000000009 2057171.0000000002 5963310.5000000009 2252173.5000000005 806025.06666666677 23432836.500000004 3116991.5000000005 1.0000000180025095e-35 1.0000000180025095e-35 16439.125000000004 4825249.5000000009 8214330.5000000009 2795856.5000000005 2057171.0000000002 1.0000000180025095e-35 1469496.0000000002 14106839.000000002 39.500000000000007 1.0000000180025095e-35 1.0000000180025095e-35 1.0000000180025095e-35 1.0000000180025095e-35 1957.0000000000002 74.500000000000014 1.0000000180025095e-35 9033041.5000000019 17423264.000000004
decision_type=2 2 2 2 2 2 2 2 2 2 2 2 2 2 2 2 2 2 2 2 2 2 2 2 2 2 2 2 2 2 2 2 2 2 2 2 2 2 2 2 2 2 2 2 2 2 2 2 2 2 2 2 2 2 2 2 2 2 2 2 2 2 2
left_child=4 2 3 18 -1 6 51 37 9 -4 -11 12 41 28 15 36 -5 26 39 20 47 57 49 -13 31 -17 -18 -22 -10 -30 46 32 33 34 35 -16 -14 -8 54 -2 58 -3 43 52 -44 -46 -23 -7 -49 -9 -51 -6 -41 -24 -29 -33 -48 -20 -25 -53 61 -15 -43
right_child=1 11 8 16 5 19 7 22 13 10 -12 23 14 60 24 25 17 -19 21 -21 27 30 53 40 -26 -27 -28 38 29 -31 -32 55 -34 -35 -36 -37 -38 -39 -40 42 -42 62 44 -45 45 -47 56 48 -50 50 -52 59 -54 -55 -56 -57 -58 -59 -60 -61 -62 -63 -64
leaf_value=-155603.20895429142 317024.55417733744 46315.298481301405 1693610.5510971444 3234.9059572216415 139250.17006719476 -35674.473825597881 23483.687383190543 66085.873324635439 441666.22511041374 146866.01314626003 1484101.8117589997 223341.94515625681 3198430.4870627979 7579684.838547254 524664.3600291874 70338.860596483762 104382.8201276063 26927.568844268997 76788.60303051355 -24009.59061988024 11582.436199185218 157499.72932227881 47635.507133667037 16339789.188311839 12095877.05884257 1244983.5312357892 -3273.0669417479075 68928.422503582478 674117.45943514584 177217.69655987527 49813.050083323455 11744976.450346911 356570.18455997016 2175493.242303655 268217.83436227782 38846.94043844007 1305449.5253897589 -4201.576269687278 37010.695911654177 80872.346065589983 463852456.85662442 198070.17552012802 176624.34344702715 53485.46873996294 -311504.59971863183 132156.65873539605 136574.90619761794 33939.181768444134 9163.3351606850338 56481.144483261953 50640.275198741678 98029.730555371105 191134.45744910437 24968.00679565013 53077.373393066882 26673076.089605998 57.97969855638221 45160.287276731891 156288387.27659863 70547.773918425941 2013131.2321781088 1631313.3717032075 144953.44784538654
leaf_weight=675492 113 1458 1611 1496 199 873 225 118 162 519 642 2720 121 27 233 170 687 697 527 4764 225 182 120 1545 1179 26 114 214 86 51 29 460 248 594 434 124 150 214 112 177 187 444 523 64 45 21 203 134 711 225 30 97 58 91 121 26 39 36 135 25 114 32 780
leaf_count=675492 113 1458 1611 1496 199 873 225 118 162 519 642 2720 121 27 233 170 687 697 527 4764 225 182 120 1545 1179 26 114 214 86 51 29 460 248 594 434 124 150 214 112 177 187 444 523 64 45 21 203 134 711 225 30 97 58 91 121 26 39 36 135 25 114 32 780
internal_value=-0.000745078 0.0140307 0.024286 0.0152038 -0.00116177 0.00483379 0.0247917 0.0193756 0.0383154 0.0405069 0.0334615 0.0063583 0.00848321 0.0254449 0.0115654 0.0225187 0.00467852 0.00916389 0.0308273 0.00108436 0.00490063 0.0257185 0.028887 0.00337176 0.0100144 0.00844388 0.0154167 0.0125893 0.0163085 0.0275821 0.0336286 0.0124829 0.0143042 0.0164034 0.0122772 0.0193382 0.0326983 0.00672267 0.0175419 0.0360127 0.00734668 0.00415641 0.0344482 0.0280142 0.0377143 0.0108712 0.0356604 0.00189319 0.00514053 0.0358814 0.031299 0.0420522 0.0353457 0.0165225 0.0214366 0.00636317 0.0299483 0.0193539 0.00627976 0.0335861 0.0412356 0.0301059 0.00704248
internal_weight=703279 19289 8255 5011 683990 8498 1344 1023 3244 2772 1161 11034 6447 472 3765 467 2994 1498 2017 7154 2390 1016 584 4587 3298 196 801 672 299 137 453 2119 1633 1385 791 357 271 439 447 1001 1867 2682 888 299 589 66 424 1718 845 373 255 321 235 211 335 486 242 563 1680 122 173 59 1224
internal_count=703279 19289 8255 5011 683990 8498 1344 1023 3244 2772 1161 11034 6447 472 3765 467 2994 1498 2017 7154 2390 1016 584 4587 3298 196 801 672 299 137 453 2119 1633 1385 791 357 271 439 447 1001 1867 2682 888 299 589 66 424 1718 845 373 255 321 235 211 335 486 242 563 1680 122 173 59 1224
is_linear=0
shrinkage=0.05


Tree=6
num_leaves=64
num_cat=0
split_feature=2 36 3 1069 1054 2 2 1047 2 2 36 1051 756 4 4 36 2 37 3 756 1051 3 1051 1064 911 3 2 2 1176 4 2 2 4 4 3 4 3 3 1081 3 744 1078 4 1051 1039 574 3 3 736 969 760 3 3 1081 3 3 3 3 2 835 2 2 2
split_gain=505.935 175.917 72.8584 36.7508 19.4286 17.0389 15.5277 12.5717 11.9628 11.9227 9.52386 9.33562 8.69114 10.4054 26.2399 7.5244 6.67298 6.59489 6.20038 7.05522 6.13393 6.0783 5.85891 5.54988 6.77555 4.99618 4.87022 4.72819 4.5714 4.54638 4.67947 7.30043 4.12909 6.10623 3.97809 3.93235 3.8663 3.86364 3.84439 3.788 3.75017 3.61118 3.56608 3.51269 3.63263 3.5035 3.89971 3.47882 3.39388 3.45636 3.31696 3.24401 3.21044 3.16173 3.10303 4.97563 4.30855 3.08311 3.04021 2.83185 3.4988 6.27819 2.80717
threshold=35.500000000000007 1.0000000180025095e-35 3013186.5000000005 1.0000000180025095e-35 1.0000000180025095e-35 14.500000000000002 66.500000000000014 1.0000000180025095e-35 13.500000000000002 56.500000000000007 1.0000000180025095e-35 1.0000000180025095e-35 1.0000000180025095e-35 17723.750000000004 11146.375000000002 1.0000000180025095e-35 42.500000000000007 1.0000000180025095e-35 1444804.0000000002 1.0000000180025095e-35 1.0000000180025095e-35 19349646.500000004 1.0000000180025095e-35 1.0000000180025095e-35 1.0000000180025095e-35 19349646.500000004 380.50000000000006 22.500000000000004 1.0000000180025095e-35 2683692.1428571432 129.50000000000003 111.50000000000001 3778.8750000000005 1666.7750000000003 491985.00000000006 229417.00000000003 1444804.0000000002 233662.00000000003 1.0000000180025095e-35 78819.500000000015 1.0000000180025095e-35 1.0000000180025095e-35 7319.7583333333341 1.0000000180025095e-35 1.0000000180025095e-35 1.0000000180025095e-35 1643994.5000000002 491985.00000000006 1.0000000180025095e-35 1.0000000180025095e-35 1.0000000180025095e-35 5963310.5000000009 11895337.000000002 1.0000000180025095e-35 66555.500000000015 96674.500000000015 462482.00000000006 462482.00000000006 77.500000000000014 1.0000000180025095e-35 75.500000000000014 127.50000000000001 2670.5000000000005
decision_type=2 2 2 2 2 2 2 2 2 2 2 2 2 2 2 2 2 2 2 2 2 2 2 2 2 2 2 2 2 2 2 2 2 2 2 2 2 2 2 2 2 2 2 2 2 2 2 2 2 2 2 2 2 2 2 2 2 2 2 2 2 2 2
left_child=2 3 5 9 6 34 18 12 21 36 11 -7 22 14 32 43 -3 29 19 -5 -20 40 23 24 48 28 -18 -13 41 30 31 57 33 39 -1 -22 -2 -19 -17 -14 -4 -24 -33 44 -10 -29 -47 54 49 50 -8 -45 -37 -12 -21 -56 -57 -11 -15 60 -25 -62 -32
right_child=1 16 8 4 -6 10 7 -9 15 17 53 27 13 58 -16 38 26 37 20 47 35 -23 25 59 -26 -27 -28 45 -30 -31 62 42 -34 -35 -36 52 -38 -39 -40 -41 -42 -43 -44 51 -46 46 -48 -49 -50 -51 -52 -53 -54 -55 55 56 -58 -59 -60 -61 61 -63 -64
leaf_value=-184286.90025807125 -5037.6222966607711 409127.29860986903 41131.509694928667 121373.40854122388 1186.8969253708926 -39586.469603754376 1764986.3208192457 814753.16593658226 184388.06291106751 105366.94543441349 454995.87973914633 18906.031396073126 5723973.6942490134 205824.77462396101 912488.10202012293 738819.49316769 977345.72313390661 -70878.397152172445 289646.72234472324 1551082.8827663162 397404.34796863334 451383.13826066419 689506.91462985589 293980.56490725797 2315778.1868225327 12667793.678690851 44588473.094774991 77805.653320617086 419912.64819434588 907374562.50461924 2060836.870185208 343883.36080422788 110745.91319172076 7169869.1829039939 -48445.427822029815 585107.2647236042 166009.97079916217 890597.49626792967 271362.14474969305 3452239.3078937465 196049.6231019171 13153.057167842431 1434938.4929712326 135077.7275291259 286203.64964882174 -34966.029065591632 571332.90599664976 15672.544339245833 248403923.51108372 1039451.7805311366 8297095.6597934486 477927.85607311624 1398180.610334507 86555.086807684231 1922282.4859089116 1232345.0555103943 52305.581227269584 355674.9454457268 -11794.792392353807 43584.423465289598 559946.09891051636 973599.30130978546 178912218.88634321
leaf_weight=599530 2436 103 5473 2443 1243 29699 1859 544 2527 890 212 4977 35 51 87 177 1071 20 1383 58 755 1098 839 127 149 254 73 2549 23 44 3733 160 48 91 30345 35 1481 68 106 78 26 78 485 620 360 27 35 67 24 27 25 645 246 141 37 52 20 3165 84 63 83 81 66
leaf_count=599530 2436 103 5473 2443 1243 29699 1859 544 2527 890 212 4977 35 51 87 177 1071 20 1383 58 755 1098 839 127 149 254 73 2549 23 44 3733 160 48 91 30345 35 1481 68 106 78 26 78 485 620 360 27 35 67 24 27 25 645 246 141 37 52 20 3165 84 63 83 81 66
internal_value=-0.000786206 0.00623063 -0.0010425 0.00526103 0.00737226 -0.0011091 0.00812308 0.0102124 0.00298767 0.0034121 -7.57161e-05 -0.000153102 0.0111587 0.0175264 0.0222013 0.00499577 0.0245319 0.00445038 0.00621664 0.00455874 0.00805137 0.00163768 0.0103276 0.00892227 0.00793906 0.0131972 0.0256294 0.0014121 0.011516 0.00431011 0.00422712 0.00528192 0.0140278 0.0171324 -0.00117086 0.0109604 0.00112427 0.0180682 0.0128843 0.00936947 0.000959494 0.0109637 0.0102229 0.00445809 0.00349541 0.00313529 0.014879 0.0128526 0.00714793 0.00691327 0.00665871 0.00665514 0.0160098 0.00809844 0.0167141 0.0216858 0.0140278 0.00449599 0.00578704 0.0147105 0.0167912 0.0216159 0.00292215
internal_weight=703331 24784 678547 23537 10989 667515 9746 4650 11032 12548 37640 37287 4106 474 339 4435 1247 8631 5096 2677 2419 6597 3632 2438 2084 1194 1144 7588 940 8543 8499 4700 252 204 629875 1036 3917 88 283 113 5499 917 645 4152 2887 2611 62 234 1935 1911 1884 1265 281 353 167 109 72 4055 135 354 291 164 3799
internal_count=703331 24784 678547 23537 10989 667515 9746 4650 11032 12548 37640 37287 4106 474 339 4435 1247 8631 5096 2677 2419 6597 3632 2438 2084 1194 1144 7588 940 8543 8499 4700 252 204 629875 1036 3917 88 283 113 5499 917 645 4152 2887 2611 62 234 1935 1911 1884 1265 281 353 167 109 72 4055 135 354 291 164 3799
is_linear=0
shrinkage=0.05


Tree=7
num_leaves=64
num_cat=0
split_feature=0 1 0 1 0 1 0 2 1 0 1043 2 0 0 0 2 0 1 1051 0 1 0 2 1 756 4 0 1 2 0 1 3 1 36 2 0 2 2 1 0 2 708 0 756 1 1043 4 36 3 0 1 1069 1 0 2 1 2 2 1 1070 1065 1 4
split_gain=1014.37 342.132 322.849 195.89 75.8802 187.084 49.235 42.3657 41.144 36.1673 29.8737 29.129 23.6419 20.8626 19.2223 18.6992 22.6349 15.0837 18.1429 17.1511 14.9416 37.4436 17.9965 17.2108 14.8595 14.5629 13.5323 15.0315 13.3633 11.9828 11.4127 11.2936 12.8489 10.7287 10.795 10.1804 9.67034 9.03977 8.90736 19.2579 13.24 8.74724 8.49083 8.43657 8.36648 8.19938 8.59506 7.53529 7.00569 6.72604 7.77503 13.0757 11.3337 9.59379 7.26588 6.62966 5.97126 5.87324 6.15188 5.79062 6.39005 5.07435 4.87484
threshold=11438241.000000002 12163066.500000002 23432836.500000004 5712324.5000000009 6348644.5000000009 2057171.0000000002 17832843.000000004 39.500000000000007 1469496.0000000002 8214330.5000000009 1.0000000180025095e-35 66.500000000000014 17832843.000000004 32170843.000000004 14106839.000000002 129.50000000000003 23432836.500000004 17423264.000000004 1.0000000180025095e-35 32170843.000000004 4126641.5000000005 8214330.5000000009 30.500000000000004 2500385.5000000005 1.0000000180025095e-35 207255.65000000002 14106839.000000002 9033041.5000000019 38.500000000000007 117361024.00000001 4825249.5000000009 1050402.5000000002 1717473.0000000002 1.0000000180025095e-35 124.50000000000001 50730407.000000007 36.500000000000007 66.500000000000014 9033041.5000000019 32170843.000000004 74.500000000000014 1.0000000180025095e-35 14106839.000000002 1.0000000180025095e-35 2795856.5000000005 1.0000000180025095e-35 11774.16666666667 1.0000000180025095e-35 43311.500000000007 32170843.000000004 68165589.000000015 1.0000000180025095e-35 28579403.000000004 50730407.000000007 4.5000000000000009 4825249.5000000009 32.500000000000007 83.500000000000014 4126641.5000000005 1.0000000180025095e-35 1.0000000180025095e-35 3541123.5000000005 4119.8333333333348
decision_type=2 2 2 2 2 2 2 2 2 2 2 2 2 2 2 2 2 2 2 2 2 2 2 2 2 2 2 2 2 2 2 2 2 2 2 2 2 2 2 2 2 2 2 2 2 2 2 2 2 2 2 2 2 2 2 2 2 2 2 2 2 2 2
left_child=4 2 3 7 -1 8 26 14 11 31 38 -6 30 -12 44 16 -3 18 19 36 21 -7 23 -23 55 43 -5 28 -28 -17 42 32 56 34 -8 -20 -18 -11 -4 40 -40 -25 -9 49 -2 61 -47 62 -15 -19 51 52 59 -54 -52 -14 -10 -44 -59 60 -51 -16 -21
right_child=1 15 10 6 5 20 33 12 9 37 13 -13 24 48 45 29 17 25 35 47 -22 22 -24 41 -26 -27 27 -29 -30 -31 -32 -33 -34 -35 -36 -37 -38 -39 39 -41 -42 -43 57 -45 -46 46 -48 -49 -50 50 54 -53 53 -55 -56 -57 -58 58 -60 -61 -62 -63 -64
leaf_value=-150647.10919879741 178302.37668156368 32585.989914940725 2765527.1139382999 -5326.4961691558128 119710.50202221247 -27172.579477600575 153339.7665626517 64800.448429744552 34016.88832679722 69858.286414400776 647255.07290554361 37562.770521935156 349470.7560654729 2645172.8943641204 459712.88286444661 47212.126098795627 257233.9932951252 138023.52501505121 58521.042043495647 2904436.8331700652 -36112.859493375028 47739.731790365564 25098.566425810735 42780.697583822395 3582.9718931079842 5803453.2517261589 111940.3582580589 16639.222020002646 61943.464762418764 42870742.576637782 70896.284275243321 12130.100161982218 23237.543285621367 160641.77573384877 71063.459139507773 1052479.0267007516 114560.1513404382 34641.676165774355 325733.92862922925 1695189.4492380847 279301.84113816719 33488.918645214755 189414.47419467889 4005498.2942007128 98277.158489704088 345359.66996323294 435368.26054505794 121575.3758241446 1920239.8643170893 1355818.8045064171 88851304.760463208 770719.97860772803 239229.88802405895 1785877.7662802257 5369589.5084603913 151870.84231423758 20240.15951196109 123417.8007995057 96788.029169538757 -19281600.078218024 -102143.09357753918 221079.53022995038 1332157.2850145376
leaf_weight=672493 84 1464 695 1504 289 2447 848 398 97 142 130 60 116 37 120 2715 113 656 281 46 5682 222 890 798 40 1352 337 692 477 1891 303 317 202 24 196 28 236 25 197 313 126 34 148 37 532 45 36 43 129 242 20 588 366 354 452 124 26 100 61 22 24 418 176
leaf_count=672493 84 1464 695 1504 289 2447 848 398 97 142 130 60 116 37 120 2715 113 656 281 46 5682 222 890 798 40 1352 337 692 477 1891 303 317 202 24 196 28 236 25 197 313 126 34 148 37 532 45 36 43 129 242 20 588 366 354 452 124 26 100 61 22 24 418 176
internal_value=-0.000852878 0.0104406 0.0181668 0.013251 -0.00117226 0.00290368 0.00647438 0.0241955 0.0219365 0.0157463 0.0381169 0.0362858 0.0178585 0.02375 0.0308148 0.00471525 0.00644231 0.00803316 0.0138096 0.0187826 0.000715652 0.00290623 0.00808642 0.0125071 0.0307143 0.00673687 0.00320183 0.00655213 0.0111579 0.00227801 0.0142946 0.0103544 0.0169038 0.0156976 0.0149377 0.00392799 0.0115007 0.0364746 0.041312 0.0370362 0.0284714 0.00920673 0.017774 0.00881882 0.0245617 0.0370376 0.0222068 0.0283726 0.035497 0.0084967 0.00989604 0.0115633 0.0150198 0.0116667 0.00425848 0.0354167 0.0296443 0.0239927 0.0173835 0.0234028 0.0254417 0.0392704 0.0320833
internal_weight=703060 19336 8230 6603 683724 11231 4078 2525 1158 809 1627 349 1290 296 1235 11106 6500 5036 923 614 10073 4391 1944 1054 280 4113 3010 1506 814 4606 1010 642 325 1068 1044 309 349 167 1331 636 323 832 707 2761 616 619 81 265 166 2724 2068 1596 1008 720 472 240 123 309 161 288 266 538 222
internal_count=703060 19336 8230 6603 683724 11231 4078 2525 1158 809 1627 349 1290 296 1235 11106 6500 5036 923 614 10073 4391 1944 1054 280 4113 3010 1506 814 4606 1010 642 325 1068 1044 309 349 167 1331 636 323 832 707 2761 616 619 81 265 166 2724 2068 1596 1008 720 472 240 123 309 161 288 266 538 222
is_linear=0
shrinkage=0.05


Tree=8
num_leaves=64
num_cat=0
split_feature=0 1 0 1 0 1 0 2 0 1 0 2 756 0 0 1 2 0 1 1051 4 0 1 2 1 0 1 1 2 756 1 2 3 0 2 3 1 3 708 2 1065 3 2 4 756 0 1065 1043 0 0 1 1 0 1065 4 0 1 1069 1 1043 1 1 1069
split_gain=826.128 296.379 248.472 167.334 63.8319 153.95 41.827 40.8924 36.4151 34.3572 47.0259 32.4714 25.189 18.601 18.2391 18.0726 16.0762 20.3839 23.2491 21.3006 13.6721 13.0864 32.3798 14.0659 12.3547 11.1987 11.0344 10.8594 11.8372 10.1317 9.39885 8.88896 8.86967 8.70541 8.48184 8.46245 8.1538 7.94606 7.87761 7.78707 7.8812 8.82012 7.57436 7.52543 7.29448 7.26513 7.053 6.87863 6.79815 6.34139 6.16294 6.03717 5.90082 5.89937 5.29827 5.25161 5.94814 8.22493 6.50332 5.19289 4.98248 4.84699 7.24974
threshold=11438241.000000002 12163066.500000002 23432836.500000004 5712324.5000000009 5640284.5000000009 1469496.0000000002 17832843.000000004 41.500000000000007 32170843.000000004 2057171.0000000002 8214330.5000000009 40.500000000000007 1.0000000180025095e-35 17832843.000000004 17832843.000000004 1131420.0000000002 129.50000000000003 32170843.000000004 17423264.000000004 1.0000000180025095e-35 207255.65000000002 8214330.5000000009 4126641.5000000005 27.500000000000004 2252173.5000000005 14106839.000000002 2500385.5000000005 9033041.5000000019 38.500000000000007 1.0000000180025095e-35 5712324.5000000009 79.500000000000014 77146.500000000015 7128192.5000000009 14.500000000000002 5963310.5000000009 4825249.5000000009 1050402.5000000002 1.0000000180025095e-35 60.500000000000007 1.0000000180025095e-35 19349646.500000004 124.50000000000001 2683692.1428571432 1.0000000180025095e-35 50730407.000000007 1.0000000180025095e-35 1.0000000180025095e-35 14106839.000000002 117361024.00000001 1870167.0000000002 1588115.0000000002 50730407.000000007 1.0000000180025095e-35 255503.62500000003 14106839.000000002 4126641.5000000005 1.0000000180025095e-35 3116991.5000000005 1.0000000180025095e-35 4825249.5000000009 68165589.000000015 1.0000000180025095e-35
decision_type=2 2 2 2 2 2 2 2 2 2 2 2 2 2 2 2 2 2 2 2 2 2 2 2 2 2 2 2 2 2 2 2 2 2 2 2 2 2 2 2 2 2 2 2 2 2 2 2 2 2 2 2 2 2 2 2 2 2 2 2 2 2 2
left_child=4 2 3 7 -1 11 25 13 12 10 33 15 30 24 36 -6 17 -3 19 46 44 -11 23 26 -2 -5 -23 28 -27 -16 -4 -12 -10 -7 54 47 51 50 -28 59 41 -41 53 52 61 -21 -19 48 -26 -22 -35 -9 -18 -8 -17 -53 58 -58 -57 -32 -50 62 -20
right_child=1 16 8 6 5 9 42 14 32 21 31 -13 -14 -15 29 34 43 18 20 45 49 22 -24 -25 35 27 38 -29 -30 -31 39 -33 -34 37 -36 -37 -38 -39 -40 40 -42 -43 -44 -45 -46 -47 -48 -49 60 -51 -52 55 -54 -55 -56 56 57 -59 -60 -61 -62 -63 -64
leaf_value=-147099.14536081575 268789.73335620383 91245.647473408899 821497.04838335025 -5833.6417362829443 123299.3099271118 7652.3704534579756 140850.42514391377 261583.15752246112 2882975.9555930756 -38986.145386207289 66129.773149542001 53039.271261150963 -51110.758327765652 441524.41617367923 307743.09004100005 91413.805409480294 -870916.76823689963 2448162.4286458935 1123737.3061558444 120016.93556079274 -288444.88761705271 49994.901536121171 -18856.080763728187 28470.877505754284 97901.627917772625 99208.396861405825 41347.207713463809 20653.362385893823 52948.855979038453 3677.6030373556541 334172.4761606853 10367.247437523489 3391498.5278055575 33276.186582805029 84296.773391996889 88805.545869844849 53361.861096119756 22710.11466501317 32652.529290943959 324814.39873941126 233091.09177159995 22943.088613417534 98691.147673136089 808258878.34636545 1516471.4095937461 1094735.3192659067 328221.96001867275 57957.967158488085 176550.92570988729 24266393.597329352 9540.2941058657489 54145.348330481436 10334574.466319699 152970.75660281311 79429.954304172948 146754.70476133149 84745.388295375349 116183.72668297622 103423.2035674605 522525.26332996995 135864.72966426617 10929423.048683474 990376.76115455781
leaf_weight=669345 56 2698 117 1486 183 703 855 24 74 6792 144 185 73 228 231 117 1397 216 1020 183 780 199 3544 962 424 324 710 693 474 36 361 21 606 93 119 216 286 175 32 179 133 62 225 75 40 29 45 61 161 416 54 382 3090 22 35 45 61 45 136 33 94 488 601
leaf_count=669345 56 2698 117 1486 183 703 855 24 74 6792 144 185 73 228 231 117 1397 216 1020 183 780 199 3544 962 424 324 710 693 474 36 361 21 606 93 119 216 286 175 32 179 133 62 225 75 40 29 45 61 161 416 54 382 3090 22 35 45 61 45 136 33 94 488 601
internal_value=-0.000886754 0.00931999 0.016524 0.0121773 -0.00117471 0.00215845 0.00594539 0.0224025 0.0339454 0.00101748 0.00912815 0.0261365 0.0276644 0.0288306 0.0160052 0.0333315 0.0039856 0.00557934 0.0079302 0.018306 0.00646301 0.00022888 0.00205457 0.00731542 0.0259239 0.00286488 0.0116618 0.00592639 0.00990288 0.027589 0.0299929 0.0339015 0.0427941 0.00514025 0.0251338 0.0245868 0.012846 0.0119488 0.00885782 0.0279818 0.0228142 0.0174222 0.0142672 0.00170923 0.00884772 0.00653302 0.0278688 0.0271284 0.0285733 0.00217809 0.0205187 0.0157774 0.00144668 0.0163669 0.0329605 0.0148935 0.0200044 0.0294104 0.0144959 0.0328871 0.0350245 0.00844654 0.00976172
internal_weight=702694 19281 8203 6565 683413 14068 4079 2486 1638 13429 1190 639 958 1240 1246 454 11078 6516 3818 473 3345 12239 5447 1903 1012 2977 941 1491 798 267 885 165 680 1025 271 956 979 322 742 768 374 241 1102 4562 2149 212 261 740 679 1196 147 693 4487 877 152 669 287 106 181 394 255 2109 1621
internal_count=702694 19281 8203 6565 683413 14068 4079 2486 1638 13429 1190 639 958 1240 1246 454 11078 6516 3818 473 3345 12239 5447 1903 1012 2977 941 1491 798 267 885 165 680 1025 271 956 979 322 742 768 374 241 1102 4562 2149 212 261 740 679 1196 147 693 4487 877 152 669 287 106 181 394 255 2109 1621
is_linear=0
shrinkage=0.05


Tree=9
num_leaves=64
num_cat=0
split_feature=0 1 1 0 0 1 0 1 0 756 0 0 1 1 2 0 2 3 36 2 756 1 1 2 2 1 0 0 3 1043 2 1 0 36 4 0 3 2 0 0 1086 36 0 1 3 756 3 1 1071 2 2 0 1 2 1 2 2 1 4 2 1043 3 1071
split_gain=713.725 194.419 101.964 387.315 85.2411 72.8747 62.4433 26.7506 27.0564 26.5751 20.0531 16.6676 114.242 31.6471 18.1547 16.6253 15.2353 14.3791 14.3301 13.8045 14.1054 13.7069 12.9414 12.6707 11.9714 14.5083 11.7336 11.4149 11.3356 11.0417 10.3387 9.31488 9.7731 10.33 9.51619 8.73366 8.50894 8.17659 12.5692 8.13356 12.4883 7.82033 7.2921 7.2363 8.63593 6.94553 7.32323 6.89763 10.5613 6.6333 5.88491 5.77982 17.1348 11.5056 5.34641 5.33785 5.20427 6.20231 4.78223 5.63753 4.49589 4.37945 4.33222
threshold=8214330.5000000009 2057171.0000000002 12163066.500000002 17832843.000000004 32170843.000000004 4825249.5000000009 11438241.000000002 7034737.5000000009 23432836.500000004 1.0000000180025095e-35 14106839.000000002 5061425.5000000009 1008413.0000000001 1717473.0000000002 59.500000000000007 6348644.5000000009 65.500000000000014 686585.50000000012 1.0000000180025095e-35 129.50000000000003 1.0000000180025095e-35 9033041.5000000019 4825249.5000000009 38.500000000000007 41.500000000000007 2500385.5000000005 23432836.500000004 14106839.000000002 216509.00000000003 1.0000000180025095e-35 32.500000000000007 17423264.000000004 50730407.000000007 1.0000000180025095e-35 207255.65000000002 117361024.00000001 4621674.5000000009 54.500000000000007 14106839.000000002 50730407.000000007 1.0000000180025095e-35 1.0000000180025095e-35 9594694.0000000019 3116991.5000000005 524051.00000000006 1.0000000180025095e-35 19349646.500000004 4126641.5000000005 1.0000000180025095e-35 82.500000000000014 75.500000000000014 11438241.000000002 5712324.5000000009 35.500000000000007 2795856.5000000005 53.500000000000007 14.500000000000002 1369287.5000000002 1254428.5000000002 612.50000000000011 1.0000000180025095e-35 2505812.5000000005 1.0000000180025095e-35
decision_type=2 2 2 2 2 2 2 2 2 2 2 2 2 2 2 2 2 2 2 2 2 2 2 2 2 2 2 2 2 2 2 2 2 2 2 2 2 2 2 2 2 2 2 2 2 2 2 2 2 2 2 2 2 2 2 2 2 2 2 2 2 2 2
left_child=11 37 3 5 7 6 24 9 49 22 51 -1 14 15 -13 56 27 30 45 20 26 23 41 -12 25 -3 -4 36 -22 -6 -17 32 62 -34 -33 -21 -8 -2 -39 40 -31 60 54 -44 -45 46 -10 -18 -49 -9 -30 -7 53 -53 -27 -48 57 -14 -37 -60 -5 -29 -28
right_child=1 2 19 4 29 10 16 8 18 -11 21 12 13 -15 -16 17 47 -19 -20 35 28 -23 -24 -25 -26 42 31 61 50 39 -32 34 33 -35 -36 58 -38 38 -40 -41 -42 -43 43 44 -46 -47 55 48 -50 -51 -52 52 -54 -55 -56 -57 -58 -59 59 -61 -62 -63 -64
leaf_value=-143427.18192734261 6802940.1152884783 45167.941875344819 21130.181127710326 509015.77094958536 2101973.7428618623 -42321.77036234831 99637.620985636313 120400.05408596429 304030.54661775887 136489.4624562721 104737.1844517485 69621.291891057132 14961.243897137576 -23104.217071424999 16561.99787825203 39296.959176767712 53291.285827755499 24609.486994186933 262054.81975604236 -406439.35405790259 2627990.6726064477 17825.073478028855 276438.78579196573 54901.688068850039 11437.922199562909 30368.379713283197 361148.52298036101 172849.93474213732 -360732.41337290744 378757.6155773605 17356.26672818459 1299011.2839005794 2771430.2105575018 -94128.209356110034 4254197.9459319841 17235447.683455288 48531.983171736349 60536.213977174266 1927913.1733101865 4901275.5683649052 278445.7442820929 61667.229312227297 483.22648049405325 61797.643821043406 46132.713660628397 125646.27331505121 303309.05598769675 85721.996914119693 59694.227606424691 80396.94008517616 1815274.5251707172 55579.8784575018 -721.29952654975898 61556.099204760743 3060.2245018913404 48802.508755173803 1416.8927890891619 5719.3250915667049 246432378.25351316 830092928.00686598 554435.89552837086 134575.63274724293 277620.53452106682
leaf_weight=667317 311 266 1482 174 483 2916 401 575 428 91 439 207 138 9767 38 134 334 209 91 2682 53 693 640 594 860 95 693 167 55 58 47 2705 76 28 1315 1759 164 71 58 47 61 46 137 167 305 40 43 75 50 279 48 143 1501 202 645 60 502 186 79 40 42 133 33
leaf_count=667317 311 266 1482 174 483 2916 401 575 428 91 439 207 138 9767 38 134 334 209 91 2682 53 693 640 594 860 95 693 167 55 58 47 2705 76 28 1315 1759 164 71 58 47 61 46 137 167 305 40 43 75 50 279 48 143 1501 202 645 60 502 186 79 40 42 133 33
internal_value=-0.000909121 0.00739918 0.00680741 0.00973178 0.0250483 0.00502977 0.0105294 0.0208704 0.016692 0.0272495 0.0018095 -0.00121441 0.000696029 -5.72464e-05 0.0344643 0.00754934 0.0192938 0.0160577 0.0242787 0.00324855 0.00473027 0.00642671 0.0298476 0.0100762 0.00584091 0.00837848 0.00436434 0.0232009 0.0195833 0.0411999 0.0263743 0.00555412 0.0103765 0.0247115 0.00455846 0.00114035 0.0190155 0.0403409 0.0297578 0.0300753 0.0231197 0.039208 0.00627409 0.0103264 0.0132627 0.0213419 0.0228555 0.0119308 0.02195 0.0108109 0.00991505 0.000135973 0.0023253 0.0123732 0.00293919 0.0108859 0.00353208 0.00847222 0.00375533 0.0134559 0.0431944 0.0310833 0.008323
internal_weight=703478 24933 24493 13445 3158 10287 3799 2509 1516 993 6488 678545 11228 10983 245 1216 1324 390 662 11048 6488 1726 902 1033 2475 1615 6332 865 156 649 181 4850 830 104 4020 4560 565 440 129 166 119 262 1349 609 472 571 531 459 125 854 103 4762 1846 345 740 103 826 324 1878 119 216 300 726
internal_count=703478 24933 24493 13445 3158 10287 3799 2509 1516 993 6488 678545 11228 10983 245 1216 1324 390 662 11048 6488 1726 902 1033 2475 1615 6332 865 156 649 181 4850 830 104 4020 4560 565 440 129 166 119 262 1349 609 472 571 531 459 125 854 103 4762 1846 345 740 103 826 324 1878 119 216 300 726
is_linear=0
shrinkage=0.05


Tree=10
num_leaves=64
num_cat=0
split_feature=0 1 0 1 0 1 0 2 0 2 756 0 36 1 1 0 1 4 1 0 2 0 1 36 0 1 2 2 0 1 708 4 2 0 1 756 4 2 4 2 0 756 2 36 1 1 36 4 1 0 0 4 0 4 1 1 1 0 2 2 2 1 1
split_gain=550.681 250.225 233.022 98.3826 33.4565 74.5901 32.4712 27.8559 25.6759 21.3617 19.325 14.9992 14.3988 13.5302 12.8805 10.6865 11.5966 10.8366 9.76734 8.8296 8.26392 12.015 13.0441 8.60188 8.14387 8.4526 8.14286 7.882 7.66634 20.3432 9.88045 7.42447 6.98707 6.88095 6.8691 8.33771 6.77544 6.50414 6.30257 6.2106 6.12791 5.8237 5.19821 4.81674 4.82305 4.50173 9.90853 4.04049 4.01371 3.93464 3.76628 3.76499 3.5528 3.45256 3.47649 7.11501 3.43108 4.14943 3.40031 3.36235 3.32648 3.29542 3.04466
threshold=11438241.000000002 12163066.500000002 23432836.500000004 5712324.5000000009 5640284.5000000009 1717473.0000000002 32170843.000000004 40.500000000000007 17832843.000000004 14.500000000000002 1.0000000180025095e-35 17832843.000000004 1.0000000180025095e-35 5712324.5000000009 954442.50000000012 8214330.5000000009 1066481.0000000002 333213.75000000006 2057171.0000000002 14106839.000000002 129.50000000000003 50730407.000000007 17423264.000000004 1.0000000180025095e-35 14106839.000000002 9033041.5000000019 38.500000000000007 70.500000000000014 8214330.5000000009 4126641.5000000005 1.0000000180025095e-35 2548.0625000000005 27.500000000000004 50730407.000000007 4825249.5000000009 1.0000000180025095e-35 71497.48076923078 129.50000000000003 468261.84722222231 106.50000000000001 117361024.00000001 1.0000000180025095e-35 73.500000000000014 1.0000000180025095e-35 7034737.5000000009 4126641.5000000005 1.0000000180025095e-35 158590.78125000003 1870167.0000000002 17832843.000000004 7128192.5000000009 10764.833333333334 7128192.5000000009 94307.500000000015 2057171.0000000002 2500385.5000000005 1369287.5000000002 6348644.5000000009 84.500000000000014 14.500000000000002 370.50000000000006 4825249.5000000009 7034737.5000000009
decision_type=2 2 2 2 2 2 2 2 2 2 2 2 2 2 2 2 2 2 2 2 2 2 2 2 2 2 2 2 2 2 2 2 2 2 2 2 2 2 2 2 2 2 2 2 2 2 2 2 2 2 2 2 2 2 2 2 2 2 2 2 2 2 2
left_child=4 2 3 7 -1 9 10 11 24 15 13 18 37 -4 27 16 -6 50 -2 -9 21 -3 23 -23 -5 26 -26 -11 48 30 32 33 53 58 35 39 41 -10 45 49 -22 -24 -15 47 -45 46 51 -44 52 -21 56 -20 -7 54 -30 -56 -18 -58 -8 -47 -33 -13 -28
right_child=1 20 6 8 5 28 31 19 12 14 -12 61 -14 42 -16 -17 17 -19 38 34 40 22 36 -25 25 -27 62 -29 29 -31 -32 60 -34 -35 -36 -37 -38 -39 -40 -41 -42 -43 43 44 -46 59 -48 -49 -50 -51 -52 -53 -54 -55 55 -57 57 -59 -60 -61 -62 -63 -64
leaf_value=-132891.72594667872 -102217.51563467459 101201.07555870811 590514.74355337641 -667.37250060849499 69772.027012663151 2967.9895854072524 518004.86004247563 49571.586947044671 122651.324655531 68738.482360621187 -15095.716272202973 309757.62644009915 130417.07051610379 303832.84978750016 16777.456414859465 -187829.04776000502 22675.464638925903 8456.1854839326443 145177.57986736842 106317.54781191 -432210.32863297733 2541616.5606612042 6633897.9039306184 -89421.798888304693 88630.727609185822 18462.702158777949 19626.680430568573 18954.415361134201 -277485.64628698601 -19455.119888726113 13589.65318743488 3953562.8407262857 20760.249259649161 2473132.1484048781 98094.841583297995 9660.9497151361466 8560754.5169524085 54794.541833077936 86439.383906346062 177878.19303589241 30450468.603224315 2531175.2298903139 289536.65117411403 77743.279658270636 216972.80628164375 106619.64022499586 27819.685267310026 145416.54008063706 -27191.342331638334 272257.66231914843 39926.05625304766 141463.74735986957 24791.354168926231 31623.353904630327 46920.351887802011 42233.74711726603 7557.2508992947642 27991.481500301139 553999.49973203614 105961.60246614582 1853058.7646857575 185181.63225436374 72086.205362523804
leaf_weight=670007 50 4215 110 1494 69 183 49 548 878 73 73 141 28 433 565 40 63 67 76 144 2717 88 735 28 337 700 278 31 54 3498 32 563 1022 30 242 66 1364 194 187 184 1879 39 173 65 48 173 54 56 7187 59 45 214 96 443 107 383 58 50 26 251 20 92 208
leaf_count=670007 50 4215 110 1494 69 183 49 548 878 73 73 141 28 433 565 40 63 67 76 144 2717 88 735 28 337 700 278 31 54 3498 32 563 1022 30 242 66 1364 194 187 184 1879 39 173 65 48 173 54 56 7187 59 45 214 96 443 107 383 58 50 26 251 20 92 208
internal_value=-0.000954214 0.00737292 0.0139671 0.00976849 -0.00118926 0.00122405 0.0307974 0.0176335 0.00502885 0.0139715 0.024846 0.0229422 0.0115682 0.0268856 0.00854073 0.0232398 0.0260227 0.0215415 0.0202923 0.0123461 0.0024599 0.00361165 0.00655834 0.0228879 0.0026446 0.0052175 0.0086528 0.0247115 0.000184065 0.00159347 0.00556039 0.0390843 0.00512133 0.0268452 0.0160881 0.0197213 0.00567236 0.0106437 0.0214202 0.0225226 0.000838774 0.00940892 0.0245565 0.0199488 0.028396 0.0234245 0.0276744 0.0157806 -0.000861571 0.028553 0.0269907 0.0313362 0.0050224 0.00812184 0.0107904 0.0121173 0.0236038 0.0181944 0.01875 0.0199764 0.0412886 0.0343723 0.00451132
internal_weight=703382 19309 8244 6598 684073 14066 1646 2481 4117 1061 958 1238 1100 885 669 392 352 283 1005 1243 11065 6469 2254 116 3017 1523 823 104 13005 5539 2041 688 2009 105 695 453 2138 1072 955 387 4596 774 775 342 113 768 344 229 7466 203 216 290 279 987 544 490 171 108 75 424 583 233 486
internal_count=703382 19309 8244 6598 684073 14066 1646 2481 4117 1061 958 1238 1100 885 669 392 352 283 1005 1243 11065 6469 2254 116 3017 1523 823 104 13005 5539 2041 688 2009 105 695 453 2138 1072 955 387 4596 774 775 342 113 768 344 229 7466 203 216 290 279 987 544 490 171 108 75 424 583 233 486
is_linear=0
shrinkage=0.05


Tree=11
num_leaves=64
num_cat=0
split_feature=0 1 0 1 1 0 1 0 1 1043 0 0 2 1 2 0 0 1 756 708 36 1 1 3 3 1 0 1 2 0 1 2 3 0 1 2 0 1 1051 1 2 1 0 2 0 1 2 3 2 2 1 1069 2 2 3 3 3 1 1043 0 36 1043 2
split_gain=441.242 207.275 140.097 66.778 51.4645 35.1653 123.468 29.007 21.701 20.0167 26.6842 19.5025 16.1109 15.594 15.1516 13.1734 10.1762 21.1933 10.0066 9.6057 8.72228 10.9937 8.69073 8.41404 7.90123 7.88635 7.04863 8.18326 6.75445 6.58614 7.91178 7.03483 6.04716 6.03373 7.97452 5.68646 5.74967 9.55659 7.10143 5.63045 5.57322 7.57576 5.45893 5.36748 5.2295 7.16266 8.58814 10.6021 5.15127 5.02399 4.95127 14.1398 5.63794 4.94177 4.73583 4.65553 4.618 4.58946 4.42184 11.3457 6.27177 4.1815 4.18026
threshold=11438241.000000002 12163066.500000002 17832843.000000004 5712324.5000000009 4126641.5000000005 4570155.0000000009 858355.50000000012 23432836.500000004 1717473.0000000002 1.0000000180025095e-35 50730407.000000007 6348644.5000000009 67.500000000000014 7034737.5000000009 41.500000000000007 8214330.5000000009 8214330.5000000009 4126641.5000000005 1.0000000180025095e-35 1.0000000180025095e-35 1.0000000180025095e-35 7034737.5000000009 2057171.0000000002 686585.50000000012 19349646.500000004 9033041.5000000019 32170843.000000004 7034737.5000000009 14.500000000000002 14106839.000000002 9033041.5000000019 38.500000000000007 876785.00000000012 14106839.000000002 4825249.5000000009 129.50000000000003 32170843.000000004 17423264.000000004 1.0000000180025095e-35 4825249.5000000009 62.500000000000007 4825249.5000000009 50730407.000000007 85.500000000000014 5061425.5000000009 1369287.5000000002 14.500000000000002 491985.00000000006 1251.5000000000002 38.500000000000007 4126641.5000000005 1.0000000180025095e-35 76.500000000000014 42.500000000000007 8238902.5000000009 101432.50000000001 524051.00000000006 1202249.0000000002 1.0000000180025095e-35 50730407.000000007 1.0000000180025095e-35 1.0000000180025095e-35 33.500000000000007
decision_type=2 2 2 2 2 2 2 2 2 2 2 2 2 2 2 2 2 2 2 2 2 2 2 2 2 2 2 2 2 2 2 2 2 2 2 2 2 2 2 2 2 2 2 2 2 2 2 2 2 2 2 2 2 2 2 2 2 2 2 2 2 2 2
left_child=5 2 3 14 -4 -1 12 13 11 20 -11 44 15 18 22 54 -10 19 40 32 21 -9 -2 28 42 26 27 -22 -13 -5 31 -31 53 -24 61 36 -3 38 58 50 41 -6 -23 -15 -8 46 47 -46 -37 -26 52 -52 56 -18 -7 -39 -16 -25 60 -60 62 -35 -38
right_child=1 35 4 29 7 6 8 9 16 10 -12 23 -14 43 39 -17 17 -19 -20 -21 25 24 33 57 49 -27 -28 -29 -30 30 -32 -33 -34 34 -36 48 37 55 -40 -41 -42 -43 -44 -45 45 -47 -48 -49 -50 -51 51 -53 -54 -55 -56 -57 -58 -59 59 -61 -62 -63 -64
leaf_value=-132819.67451559321 -78381.46189384567 53029.602644098704 6504024.6849947609 355.05667350862109 225544.35796487518 61709.649177423998 -6888.8744070173943 1812876.8075165574 -24821.02131653027 435036.48237797013 3708383.8659514226 37407.135130914889 5677.7616000474873 110660.38361844054 106584.17328855825 100753.85888064427 41889.205095778467 -20229.547710515675 -11976.628874510807 26659.21200588781 77508.603065660791 401515.34125644172 79545.15314770749 37185.659002268825 1091252.3753993253 581377.63842073851 232928.79666782144 231793.46319634013 26697.930891805488 90728.581631621739 13846.226492555223 46053.615121480456 23287.756844004671 151324.18437964897 102227.7379184412 260022.46590062408 1505901.7231517844 14068199.520136386 177518.10469190055 53586.337170254512 159306.2436386802 168117.66897261265 3385910.4673255384 69517.076584147042 20506.053822609087 1681.0342478208906 5639.8266349549413 7085.8844966274264 163785417.46967185 563974.19662492187 53102.53865419401 72621.338796442054 69325.810726560085 14083.778153500873 36064.451319376778 1582192.3348837022 93531.532376869698 20553.057604136684 -27510.039853122624 2436985.1935510444 72897.593839898938 148012.50872533704 1664510.3072116126
leaf_weight=664487 53 2707 263 1477 66 194 691 152 11705 234 43 102 33 609 55 27 624 3565 51 35 91 578 588 60 41 135 34 81 116 325 689 458 1154 229 129 4263 31 228 213 290 223 264 21 289 75 471 261 71 326 105 69 120 255 234 38 3076 183 222 87 35 46 28 75
leaf_count=664487 53 2707 263 1477 66 194 691 152 11705 234 43 102 33 609 55 27 624 3565 51 35 91 578 588 60 41 135 34 81 116 325 689 458 1154 229 129 4263 31 228 213 290 223 264 21 289 75 471 261 71 326 105 69 120 255 234 38 3076 183 222 87 35 46 28 75
internal_value=-0.000975577 0.00647716 0.0124897 0.00717765 0.020503 -0.00118598 0.000897069 0.0186539 0.000410994 0.0235355 0.0113854 0.00525073 0.0331678 0.01373 0.0142327 0.03736 -0.000167248 0.00158322 0.0199421 0.00563813 0.026254 0.0236664 0.0184676 0.01385 0.0211661 0.0330609 0.0269053 0.0310174 0.0212271 0.0023953 0.00476223 0.00820083 0.00518638 0.0195406 0.0243977 0.00201509 0.00296668 0.00422349 0.0107623 0.00975823 0.0218965 0.0260227 0.0237083 0.00955178 0.00251036 0.00507119 0.00992936 0.0196404 0.00066763 0.0107363 0.0122397 0.0191204 0.00960193 0.00836539 0.0412069 0.00325969 0.0151366 0.00814716 0.0160858 0.0089959 0.0217763 0.0294893 0.028467
internal_weight=703480 19315 8228 4948 3280 684165 19678 3017 19386 1515 277 2069 292 1502 1999 259 17317 5612 604 2047 1238 897 1027 500 745 341 206 172 218 2949 1472 783 2012 974 386 11087 6498 3791 487 972 553 330 599 898 1569 878 407 146 4589 146 682 189 493 858 232 3304 238 282 274 122 152 257 106
internal_count=703480 19315 8228 4948 3280 684165 19678 3017 19386 1515 277 2069 292 1502 1999 259 17317 5612 604 2047 1238 897 1027 500 745 341 206 172 218 2949 1472 783 2012 974 386 11087 6498 3791 487 972 553 330 599 898 1569 878 407 146 4589 146 682 189 493 858 232 3304 238 282 274 122 152 257 106
is_linear=0
shrinkage=0.05


Tree=12
num_leaves=64
num_cat=0
split_feature=2 36 3 911 1051 1064 2 2 3 744 911 2 2 911 1083 3 2 37 502 3 3 804 813 708 1072 1252 1043 2 469 1072 3 3 3 756 3 1083 1077 2 2 3 36 1051 690 1252 574 36 3 2 591 481 3 1057 2 2 2 2 469 1044 2 2 1066 1095 1044
split_gain=91.3712 37.7931 11.888 9.5751 7.15765 5.39017 4.47473 3.85712 3.35009 3.4093 3.30956 3.14162 3.0777 2.7924 7.95836 2.66204 2.64842 3.03565 2.49301 2.3826 2.37411 1.91125 1.77083 1.76021 2.32476 1.66664 1.64843 1.5592 1.98473 1.8642 1.52632 1.50982 6.40246 1.47471 2.08333 1.6 1.47237 1.62647 1.46994 1.55726 1.46066 1.44975 1.43581 1.41112 3.19553 1.40943 1.38289 1.36228 1.32587 1.31859 1.26393 1.2133 1.20182 1.17319 1.28403 1.17075 1.2467 1.16357 1.14182 1.12466 1.16296 1.16424 1.12576
threshold=26.500000000000004 1.0000000180025095e-35 686585.50000000012 1.0000000180025095e-35 1.0000000180025095e-35 1.0000000180025095e-35 45.500000000000007 50.500000000000007 3659856.0000000005 1.0000000180025095e-35 1.0000000180025095e-35 380.50000000000006 77.500000000000014 1.0000000180025095e-35 1.0000000180025095e-35 2505812.5000000005 792.50000000000011 1.0000000180025095e-35 1.0000000180025095e-35 1050402.5000000002 1444804.0000000002 1.0000000180025095e-35 1.0000000180025095e-35 1.0000000180025095e-35 1.0000000180025095e-35 1.0000000180025095e-35 1.0000000180025095e-35 11.500000000000002 1.0000000180025095e-35 1.0000000180025095e-35 11895337.000000002 78819.500000000015 73789.500000000015 1.0000000180025095e-35 348445.00000000006 1.0000000180025095e-35 1.0000000180025095e-35 145.50000000000003 307.50000000000006 5963310.5000000009 1.0000000180025095e-35 1.0000000180025095e-35 1.0000000180025095e-35 1.0000000180025095e-35 1.0000000180025095e-35 1.0000000180025095e-35 19349646.500000004 3834.5000000000005 1.0000000180025095e-35 1.0000000180025095e-35 1643994.5000000002 1.0000000180025095e-35 13.500000000000002 114.50000000000001 75.500000000000014 93.500000000000014 1.0000000180025095e-35 1.0000000180025095e-35 55.500000000000007 129.50000000000003 1.0000000180025095e-35 1.0000000180025095e-35 1.0000000180025095e-35
decision_type=2 2 2 2 2 2 2 2 2 2 2 2 2 2 2 2 2 2 2 2 2 2 2 2 2 2 2 2 2 2 2 2 2 2 2 2 2 2 2 2 2 2 2 2 2 2 2 2 2 2 2 2 2 2 2 2 2 2 2 2 2 2 2
left_child=2 4 13 8 5 7 -3 19 23 45 16 36 22 27 -15 -14 21 47 43 33 -5 26 30 40 -25 50 51 -1 41 -30 -7 32 -28 42 -35 -36 37 46 -33 -40 52 -29 -2 48 49 -10 -8 -18 55 -45 -24 59 -4 54 -38 56 -6 -21 -27 60 61 -9 -61
right_child=1 6 3 20 18 12 11 10 9 -11 -12 -13 15 14 -16 -17 17 -19 -20 57 -22 -23 25 24 -26 58 31 28 29 -31 -32 38 -34 34 35 -37 53 -39 39 -41 -42 -43 -44 44 -46 -47 -48 -49 -50 -51 -52 -53 -54 -55 -56 -57 -58 -59 -60 62 -62 -63 -64
leaf_value=-142852.64668448642 -16546.314742328228 126662.42809531209 -39615.219475857069 6208914.3085636878 49123.978476197852 31735.587487331155 265733.08270786086 49572.971307078049 12650.735668072854 102068.10550590791 1286765.9877357848 20533988.415367771 269099.28420663689 608.84780189977027 55290.314311768627 326867.39449066657 29654320.243320096 387797.7695231617 550953.60944606853 28051.20071905943 580215.42321295256 10462423.850270212 -5989.1482328709872 -50888.42440207646 52.838923791842539 17917.863641891963 3647217.7816953287 -73260.267894127202 34406.544837500878 152119.52969765701 140558.40643502405 131258.98748764754 2139465.4548374284 509887.98088253889 3636.628347819792 39287.20001907782 147539.408595199 402264.71696981229 9319222.1395208426 26348157.314145461 42298.758825643272 -9487.0723170257424 60010.908427024464 179906.146190481 8256508.4204524178 80370.266746307549 526479.70842484932 502090489.52886403 716905.17263170227 200022.67578725127 75758.139622346411 113298427.2030403 -2499.955170582788 110087.82064366192 141996.07961001247 168922.81287863219 108063.72080318881 269829.822967724 39617.976890365026 4576.3923499632792 200114.7190172578 243363.62387925514 4285712.9827521397
leaf_weight=589167 7094 347 20857 46 3284 947 369 7789 7581 29 178 71 58 185 34 152 489 35 34 3952 49 57 69 36 23 67 79 35576 158 20 58 809 28 200 20 20 40 384 20 38 589 7939 85 861 26 377 136 52 33 72 20 60 7069 59 32 529 217 296 21 4345 67 96 109
leaf_count=589167 7094 347 20857 46 3284 947 369 7789 7581 29 178 71 58 185 34 152 489 35 34 3952 49 57 69 36 23 67 79 35576 158 20 58 809 28 200 20 20 40 384 20 38 589 7939 85 861 26 377 136 52 33 72 20 60 7069 59 32 529 217 296 21 4345 67 96 109
internal_value=-0.00100851 0.00152778 -0.00113652 -0.000261075 0.00117539 0.000855457 0.00945932 0.000692667 -0.000302268 0.000603012 0.00124456 0.0110323 0.0038865 -0.00118721 0.00445776 0.00946429 0.00115887 0.00447917 0.00290348 1.85364e-05 0.0155921 0.00101717 0.00289552 -0.000555311 0.00807204 0.00750706 0.000978424 -0.00118916 -0.000900973 0.00436798 0.00208333 0.00295945 0.00856309 -0.000522138 0.00333333 0.01375 0.0117402 0.011011 0.00226788 0.0099569 -0.000573162 -0.000922526 -0.00065103 0.00281213 0.00453728 0.000540652 0.00914604 0.00355592 0.00240494 0.00405547 0.00268259 0.000823641 -0.000625133 0.0166889 0.0209722 0.0023232 0.00199193 0.000962807 0.0123864 0.000789337 0.00114562 0.00108989 0.000153234
internal_weight=703539 33804 669735 36656 32366 27310 1438 25918 36561 7987 14251 1091 1392 633079 219 210 14073 576 5056 11667 95 13497 1182 28574 59 177 13440 632860 43693 178 1005 974 107 7419 240 40 1020 889 867 58 28515 43515 7179 5022 959 7958 505 541 4063 933 89 12466 27926 131 72 4030 3501 4248 88 12406 7952 7885 4454
internal_count=703539 33804 669735 36656 32366 27310 1438 25918 36561 7987 14251 1091 1392 633079 219 210 14073 576 5056 11667 95 13497 1182 28574 59 177 13440 632860 43693 178 1005 974 107 7419 240 40 1020 889 867 58 28515 43515 7179 5022 959 7958 505 541 4063 933 89 12466 27926 131 72 4030 3501 4248 88 12406 7952 7885 4454
is_linear=0
shrinkage=0.05


Tree=13
num_leaves=64
num_cat=0
split_feature=1 1065 1069 1 1 1047 1 1054 1 1 1 1 481 813 744 1081 1049 1 2 1 1 4 2 1043 1044 1049 1039 911 1083 3 1057 2 1044 756 1043 3 4 969 2 756 1 1 588 3 835 1 1069 2 3 911 727 2 1041 1072 1195 3 923 37 776 647 4 4 2
split_gain=172.374 55.4238 40.2251 23.8923 31.7064 10.1719 8.61657 8.36477 7.90072 11.6485 8.10756 7.60616 6.32524 6.3965 5.77457 5.6925 4.47917 4.41777 4.15571 4.96471 3.83104 3.75135 3.72197 3.22291 3.85856 4.52602 4.35964 3.14518 3.79248 4.86237 3.12517 3.11808 2.91031 2.88534 2.78081 2.76289 2.8379 2.69974 2.63766 2.61201 2.57516 2.57488 2.5635 3.38576 2.81826 2.34992 2.00385 1.99478 1.95253 2.23234 1.7933 1.74923 2.00442 1.73178 1.7041 1.92701 1.67787 1.66515 1.66326 1.64704 1.61585 1.69039 1.56946
threshold=3116991.5000000005 1.0000000180025095e-35 1.0000000180025095e-35 12163066.500000002 7034737.5000000009 1.0000000180025095e-35 4126641.5000000005 1.0000000180025095e-35 12163066.500000002 9033041.5000000019 68165589.000000015 1008413.0000000001 1.0000000180025095e-35 1.0000000180025095e-35 1.0000000180025095e-35 1.0000000180025095e-35 1.0000000180025095e-35 4126641.5000000005 17.500000000000004 4126641.5000000005 68165589.000000015 2683692.1428571432 38.500000000000007 1.0000000180025095e-35 1.0000000180025095e-35 1.0000000180025095e-35 1.0000000180025095e-35 1.0000000180025095e-35 1.0000000180025095e-35 289230.50000000006 1.0000000180025095e-35 14.500000000000002 1.0000000180025095e-35 1.0000000180025095e-35 1.0000000180025095e-35 1297766.5000000002 126571.83333333336 1.0000000180025095e-35 55.500000000000007 1.0000000180025095e-35 9033041.5000000019 7034737.5000000009 1.0000000180025095e-35 5963310.5000000009 1.0000000180025095e-35 17423264.000000004 1.0000000180025095e-35 127.50000000000001 19349646.500000004 1.0000000180025095e-35 1.0000000180025095e-35 61.500000000000007 1.0000000180025095e-35 1.0000000180025095e-35 1.0000000180025095e-35 29869.500000000004 1.0000000180025095e-35 1.0000000180025095e-35 1.0000000180025095e-35 1.0000000180025095e-35 30656.333333333339 16439.125000000004 39.500000000000007
decision_type=2 2 2 2 2 2 2 2 2 2 2 2 2 2 2 2 2 2 2 2 2 2 2 2 2 2 2 2 2 2 2 2 2 2 2 2 2 2 2 2 2 2 2 2 2 2 2 2 2 2 2 2 2 2 2 2 2 2 2 2 2 2 2
left_child=11 2 21 4 6 7 31 8 9 12 45 27 13 15 23 16 17 59 19 -9 -5 41 33 24 25 26 48 56 -29 -30 -23 -3 39 -17 37 -12 -37 46 -8 42 -6 -2 43 44 51 -10 57 -43 49 -11 -34 52 54 -42 55 -19 -1 -13 -45 -4 61 -57 -50
right_child=1 3 5 20 40 -7 38 18 10 14 35 34 -14 -15 -16 22 -18 32 -20 -21 -22 30 -24 -25 -26 -27 -28 28 29 -31 -32 -33 50 -35 -36 36 -38 -39 -40 -41 53 47 -44 58 -46 -47 -48 -49 62 -51 -52 -53 -54 -55 -56 60 -58 -59 -60 -61 -62 -63 -64
