tree
version=v4
num_class=1
num_tree_per_iteration=1
label_index=0
max_feature_idx=1254
objective=quantile
feature_names=Column_0 Column_1 Column_2 Column_3 Column_4 Column_5 Column_6 Column_7 Column_8 Column_9 Column_10 Column_11 Column_12 Column_13 Column_14 Column_15 Column_16 Column_17 Column_18 Column_19 Column_20 Column_21 Column_22 Column_23 Column_24 Column_25 Column_26 Column_27 Column_28 Column_29 Column_30 Column_31 Column_32 Column_33 Column_34 Column_35 Column_36 Column_37 Column_38 Column_39 Column_40 Column_41 Column_42 Column_43 Column_44 Column_45 Column_46 Column_47 Column_48 Column_49 Column_50 Column_51 Column_52 Column_53 Column_54 Column_55 Column_56 Column_57 Column_58 Column_59 Column_60 Column_61 Column_62 Column_63 Column_64 Column_65 Column_66 Column_67 Column_68 Column_69 Column_70 Column_71 Column_72 Column_73 Column_74 Column_75 Column_76 Column_77 Column_78 Column_79 Column_80 Column_81 Column_82 Column_83 Column_84 Column_85 Column_86 Column_87 Column_88 Column_89 Column_90 Column_91 Column_92 Column_93 Column_94 Column_95 Column_96 Column_97 Column_98 Column_99 Column_100 Column_101 Column_102 Column_103 Column_104 Column_105 Column_106 Column_107 Column_108 Column_109 Column_110 Column_111 Column_112 Column_113 Column_114 Column_115 Column_116 Column_117 Column_118 Column_119 Column_120 Column_121 Column_122 Column_123 Column_124 Column_125 Column_126 Column_127 Column_128 Column_129 Column_130 Column_131 Column_132 Column_133 Column_134 Column_135 Column_136 Column_137 Column_138 Column_139 Column_140 Column_141 Column_142 Column_143 Column_144 Column_145 Column_146 Column_147 Column_148 Column_149 Column_150 Column_151 Column_152 Column_153 Column_154 Column_155 Column_156 Column_157 Column_158 Column_159 Column_160 Column_161 Column_162 Column_163 Column_164 Column_165 Column_166 Column_167 Column_168 Column_169 Column_170 Column_171 Column_172 Column_173 Column_174 Column_175 Column_176 Column_177 Column_178 Column_179 Column_180 Column_181 Column_182 Column_183 Column_184 Column_185 Column_186 Column_187 Column_188 Column_189 Column_190 Column_191 Column_192 Column_193 Column_194 Column_195 Column_196 Column_197 Column_198 Column_199 Column_200 Column_201 Column_202 Column_203 Column_204 Column_205 Column_206 Column_207 Column_208 Column_209 Column_210 Column_211 Column_212 Column_213 Column_214 Column_215 Column_216 Column_217 Column_218 Column_219 Column_220 Column_221 Column_222 Column_223 Column_224 Column_225 Column_226 Column_227 Column_228 Column_229 Column_230 Column_231 Column_232 Column_233 Column_234 Column_235 Column_236 Column_237 Column_238 Column_239 Column_240 Column_241 Column_242 Column_243 Column_244 Column_245 Column_246 Column_247 Column_248 Column_249 Column_250 Column_251 Column_252 Column_253 Column_254 Column_255 Column_256 Column_257 Column_258 Column_259 Column_260 Column_261 Column_262 Column_263 Column_264 Column_265 Column_266 Column_267 Column_268 Column_269 Column_270 Column_271 Column_272 Column_273 Column_274 Column_275 Column_276 Column_277 Column_278 Column_279 Column_280 Column_281 Column_282 Column_283 Column_284 Column_285 Column_286 Column_287 Column_288 Column_289 Column_290 Column_291 Column_292 Column_293 Column_294 Column_295 Column_296 Column_297 Column_298 Column_299 Column_300 Column_301 Column_302 Column_303 Column_304 Column_305 Column_306 Column_307 Column_308 Column_309 Column_310 Column_311 Column_312 Column_313 Column_314 Column_315 Column_316 Column_317 Column_318 Column_319 Column_320 Column_321 Column_322 Column_323 Column_324 Column_325 Column_326 Column_327 Column_328 Column_329 Column_330 Column_331 Column_332 Column_333 Column_334 Column_335 Column_336 Column_337 Column_338 Column_339 Column_340 Column_341 Column_342 Column_343 Column_344 Column_345 Column_346 Column_347 Column_348 Column_349 Column_350 Column_351 Column_352 Column_353 Column_354 Column_355 Column_356 Column_357 Column_358 Column_359 Column_360 Column_361 Column_362 Column_363 Column_364 Column_365 Column_366 Column_367 Column_368 Column_369 Column_370 Column_371 Column_372 Column_373 Column_374 Column_375 Column_376 Column_377 Column_378 Column_379 Column_380 Column_381 Column_382 Column_383 Column_384 Column_385 Column_386 Column_387 Column_388 Column_389 Column_390 Column_391 Column_392 Column_393 Column_394 Column_395 Column_396 Column_397 Column_398 Column_399 Column_400 Column_401 Column_402 Column_403 Column_404 Column_405 Column_406 Column_407 Column_408 Column_409 Column_410 Column_411 Column_412 Column_413 Column_414 Column_415 Column_416 Column_417 Column_418 Column_419 Column_420 Column_421 Column_422 Column_423 Column_424 Column_425 Column_426 Column_427 Column_428 Column_429 Column_430 Column_431 Column_432 Column_433 Column_434 Column_435 Column_436 Column_437 Column_438 Column_439 Column_440 Column_441 Column_442 Column_443 Column_444 Column_445 Column_446 Column_447 Column_448 Column_449 Column_450 Column_451 Column_452 Column_453 Column_454 Column_455 Column_456 Column_457 Column_458 Column_459 Column_460 Column_461 Column_462 Column_463 Column_464 Column_465 Column_466 Column_467 Column_468 Column_469 Column_470 Column_471 Column_472 Column_473 Column_474 Column_475 Column_476 Column_477 Column_478 Column_479 Column_480 Column_481 Column_482 Column_483 Column_484 Column_485 Column_486 Column_487 Column_488 Column_489 Column_490 Column_491 Column_492 Column_493 Column_494 Column_495 Column_496 Column_497 Column_498 Column_499 Column_500 Column_501 Column_502 Column_503 Column_504 Column_505 Column_506 Column_507 Column_508 Column_509 Column_510 Column_511 Column_512 Column_513 Column_514 Column_515 Column_516 Column_517 Column_518 Column_519 Column_520 Column_521 Column_522 Column_523 Column_524 Column_525 Column_526 Column_527 Column_528 Column_529 Column_530 Column_531 Column_532 Column_533 Column_534 Column_535 Column_536 Column_537 Column_538 Column_539 Column_540 Column_541 Column_542 Column_543 Column_544 Column_545 Column_546 Column_547 Column_548 Column_549 Column_550 Column_551 Column_552 Column_553 Column_554 Column_555 Column_556 Column_557 Column_558 Column_559 Column_560 Column_561 Column_562 Column_563 Column_564 Column_565 Column_566 Column_567 Column_568 Column_569 Column_570 Column_571 Column_572 Column_573 Column_574 Column_575 Column_576 Column_577 Column_578 Column_579 Column_580 Column_581 Column_582 Column_583 Column_584 Column_585 Column_586 Column_587 Column_588 Column_589 Column_590 Column_591 Column_592 Column_593 Column_594 Column_595 Column_596 Column_597 Column_598 Column_599 Column_600 Column_601 Column_602 Column_603 Column_604 Column_605 Column_606 Column_607 Column_608 Column_609 Column_610 Column_611 Column_612 Column_613 Column_614 Column_615 Column_616 Column_617 Column_618 Column_619 Column_620 Column_621 Column_622 Column_623 Column_624 Column_625 Column_626 Column_627 Column_628 Column_629 Column_630 Column_631 Column_632 Column_633 Column_634 Column_635 Column_636 Column_637 Column_638 Column_639 Column_640 Column_641 Column_642 Column_643 Column_644 Column_645 Column_646 Column_647 Column_648 Column_649 Column_650 Column_651 Column_652 Column_653 Column_654 Column_655 Column_656 Column_657 Column_658 Column_659 Column_660 Column_661 Column_662 Column_663 Column_664 Column_665 Column_666 Column_667 Column_668 Column_669 Column_670 Column_671 Column_672 Column_673 Column_674 Column_675 Column_676 Column_677 Column_678 Column_679 Column_680 Column_681 Column_682 Column_683 Column_684 Column_685 Column_686 Column_687 Column_688 Column_689 Column_690 Column_691 Column_692 Column_693 Column_694 Column_695 Column_696 Column_697 Column_698 Column_699 Column_700 Column_701 Column_702 Column_703 Column_704 Column_705 Column_706 Column_707 Column_708 Column_709 Column_710 Column_711 Column_712 Column_713 Column_714 Column_715 Column_716 Column_717 Column_718 Column_719 Column_720 Column_721 Column_722 Column_723 Column_724 Column_725 Column_726 Column_727 Column_728 Column_729 Column_730 Column_731 Column_732 Column_733 Column_734 Column_735 Column_736 Column_737 Column_738 Column_739 Column_740 Column_741 Column_742 Column_743 Column_744 Column_745 Column_746 Column_747 Column_748 Column_749 Column_750 Column_751 Column_752 Column_753 Column_754 Column_755 Column_756 Column_757 Column_758 Column_759 Column_760 Column_761 Column_762 Column_763 Column_764 Column_765 Column_766 Column_767 Column_768 Column_769 Column_770 Column_771 Column_772 Column_773 Column_774 Column_775 Column_776 Column_777 Column_778 Column_779 Column_780 Column_781 Column_782 Column_783 Column_784 Column_785 Column_786 Column_787 Column_788 Column_789 Column_790 Column_791 Column_792 Column_793 Column_794 Column_795 Column_796 Column_797 Column_798 Column_799 Column_800 Column_801 Column_802 Column_803 Column_804 Column_805 Column_806 Column_807 Column_808 Column_809 Column_810 Column_811 Column_812 Column_813 Column_814 Column_815 Column_816 Column_817 Column_818 Column_819 Column_820 Column_821 Column_822 Column_823 Column_824 Column_825 Column_826 Column_827 Column_828 Column_829 Column_830 Column_831 Column_832 Column_833 Column_834 Column_835 Column_836 Column_837 Column_838 Column_839 Column_840 Column_841 Column_842 Column_843 Column_844 Column_845 Column_846 Column_847 Column_848 Column_849 Column_850 Column_851 Column_852 Column_853 Column_854 Column_855 Column_856 Column_857 Column_858 Column_859 Column_860 Column_861 Column_862 Column_863 Column_864 Column_865 Column_866 Column_867 Column_868 Column_869 Column_870 Column_871 Column_872 Column_873 Column_874 Column_875 Column_876 Column_877 Column_878 Column_879 Column_880 Column_881 Column_882 Column_883 Column_884 Column_885 Column_886 Column_887 Column_888 Column_889 Column_890 Column_891 Column_892 Column_893 Column_894 Column_895 Column_896 Column_897 Column_898 Column_899 Column_900 Column_901 Column_902 Column_903 Column_904 Column_905 Column_906 Column_907 Column_908 Column_909 Column_910 Column_911 Column_912 Column_913 Column_914 Column_915 Column_916 Column_917 Column_918 Column_919 Column_920 Column_921 Column_922 Column_923 Column_924 Column_925 Column_926 Column_927 Column_928 Column_929 Column_930 Column_931 Column_932 Column_933 Column_934 Column_935 Column_936 Column_937 Column_938 Column_939 Column_940 Column_941 Column_942 Column_943 Column_944 Column_945 Column_946 Column_947 Column_948 Column_949 Column_950 Column_951 Column_952 Column_953 Column_954 Column_955 Column_956 Column_957 Column_958 Column_959 Column_960 Column_961 Column_962 Column_963 Column_964 Column_965 Column_966 Column_967 Column_968 Column_969 Column_970 Column_971 Column_972 Column_973 Column_974 Column_975 Column_976 Column_977 Column_978 Column_979 Column_980 Column_981 Column_982 Column_983 Column_984 Column_985 Column_986 Column_987 Column_988 Column_989 Column_990 Column_991 Column_992 Column_993 Column_994 Column_995 Column_996 Column_997 Column_998 Column_999 Column_1000 Column_1001 Column_1002 Column_1003 Column_1004 Column_1005 Column_1006 Column_1007 Column_1008 Column_1009 Column_1010 Column_1011 Column_1012 Column_1013 Column_1014 Column_1015 Column_1016 Column_1017 Column_1018 Column_1019 Column_1020 Column_1021 Column_1022 Column_1023 Column_1024 Column_1025 Column_1026 Column_1027 Column_1028 Column_1029 Column_1030 Column_1031 Column_1032 Column_1033 Column_1034 Column_1035 Column_1036 Column_1037 Column_1038 Column_1039 Column_1040 Column_1041 Column_1042 Column_1043 Column_1044 Column_1045 Column_1046 Column_1047 Column_1048 Column_1049 Column_1050 Column_1051 Column_1052 Column_1053 Column_1054 Column_1055 Column_1056 Column_1057 Column_1058 Column_1059 Column_1060 Column_1061 Column_1062 Column_1063 Column_1064 Column_1065 Column_1066 Column_1067 Column_1068 Column_1069 Column_1070 Column_1071 Column_1072 Column_1073 Column_1074 Column_1075 Column_1076 Column_1077 Column_1078 Column_1079 Column_1080 Column_1081 Column_1082 Column_1083 Column_1084 Column_1085 Column_1086 Column_1087 Column_1088 Column_1089 Column_1090 Column_1091 Column_1092 Column_1093 Column_1094 Column_1095 Column_1096 Column_1097 Column_1098 Column_1099 Column_1100 Column_1101 Column_1102 Column_1103 Column_1104 Column_1105 Column_1106 Column_1107 Column_1108 Column_1109 Column_1110 Column_1111 Column_1112 Column_1113 Column_1114 Column_1115 Column_1116 Column_1117 Column_1118 Column_1119 Column_1120 Column_1121 Column_1122 Column_1123 Column_1124 Column_1125 Column_1126 Column_1127 Column_1128 Column_1129 Column_1130 Column_1131 Column_1132 Column_1133 Column_1134 Column_1135 Column_1136 Column_1137 Column_1138 Column_1139 Column_1140 Column_1141 Column_1142 Column_1143 Column_1144 Column_1145 Column_1146 Column_1147 Column_1148 Column_1149 Column_1150 Column_1151 Column_1152 Column_1153 Column_1154 Column_1155 Column_1156 Column_1157 Column_1158 Column_1159 Column_1160 Column_1161 Column_1162 Column_1163 Column_1164 Column_1165 Column_1166 Column_1167 Column_1168 Column_1169 Column_1170 Column_1171 Column_1172 Column_1173 Column_1174 Column_1175 Column_1176 Column_1177 Column_1178 Column_1179 Column_1180 Column_1181 Column_1182 Column_1183 Column_1184 Column_1185 Column_1186 Column_1187 Column_1188 Column_1189 Column_1190 Column_1191 Column_1192 Column_1193 Column_1194 Column_1195 Column_1196 Column_1197 Column_1198 Column_1199 Column_1200 Column_1201 Column_1202 Column_1203 Column_1204 Column_1205 Column_1206 Column_1207 Column_1208 Column_1209 Column_1210 Column_1211 Column_1212 Column_1213 Column_1214 Column_1215 Column_1216 Column_1217 Column_1218 Column_1219 Column_1220 Column_1221 Column_1222 Column_1223 Column_1224 Column_1225 Column_1226 Column_1227 Column_1228 Column_1229 Column_1230 Column_1231 Column_1232 Column_1233 Column_1234 Column_1235 Column_1236 Column_1237 Column_1238 Column_1239 Column_1240 Column_1241 Column_1242 Column_1243 Column_1244 Column_1245 Column_1246 Column_1247 Column_1248 Column_1249 Column_1250 Column_1251 Column_1252 Column_1253 Column_1254
feature_infos=[1:16405] [11:49974246932] [0.33333333333333331:1051490536] [1:79538377660] [0:1] [0:1] none [0:1] [0:1] [0:1] [0:1] [0:1] [0:1] [0:1] none none [0:1] none none [0:1] none [0:1] none none none [0:1] [0:1] [0:1] none none none [0:1] none none none [0:1] [0:1] [0:1] none none none [0:1] none none [0:1] [0:1] [0:1] [0:1] [0:1] [0:1] [0:1] none [0:1] none [0:1] [0:1] [0:1] none none [0:1] [0:1] [0:1] none none [0:1] none [0:1] none [0:1] [0:1] none none none none [0:1] none [0:1] [0:1] [0:1] none [0:1] none none [0:1] [0:1] [0:1] none [0:1] [0:1] none [0:1] [0:1] [0:1] [0:1] [0:1] none [0:1] [0:1] none [0:1] [0:1] [0:1] none [0:1] none none [0:1] [0:1] none [0:1] [0:1] [0:1] [0:1] [0:1] [0:1] [0:1] none [0:1] [0:1] [0:1] none [0:1] none [0:1] [0:1] [0:1] [0:1] none [0:1] [0:1] none [0:1] [0:1] [0:1] [0:1] [0:1] [0:1] [0:1] [0:1] [0:1] none [0:1] [0:1] [0:1] [0:1] [0:1] [0:1] none [0:1] none [0:1] [0:1] [0:1] [0:1] none none [0:1] [0:1] [0:1] [0:1] none [0:1] [0:1] [0:1] [0:1] [0:1] none [0:1] [0:1] [0:1] [0:1] [0:1] [0:1] [0:1] [0:1] [0:1] [0:1] [0:1] [0:1] [0:1] [0:1] [0:1] [0:1] none [0:1] [0:1] [0:1] [0:1] [0:1] none [0:1] none [0:1] [0:1] [0:1] [0:1] [0:1] [0:1] [0:1] [0:1] [0:1] [0:1] [0:1] [0:1] [0:1] [0:1] [0:1] [0:1] [0:1] [0:1] [0:1] [0:1] [0:1] [0:1] [0:1] [0:1] [0:1] [0:1] [0:1] [0:1] [0:1] [0:1] none [0:1] [0:1] none [0:1] [0:1] [0:1] [0:1] [0:1] [0:1] none [0:1] none [0:1] [0:1] [0:1] none [0:1] [0:1] [0:1] [0:1] [0:1] [0:1] [0:1] [0:1] [0:1] [0:1] [0:1] [0:1] [0:1] [0:1] [0:1] [0:1] [0:1] none [0:1] [0:1] [0:1] [0:1] [0:1] [0:1] [0:1] [0:1] [0:1] [0:1] [0:1] [0:1] [0:1] [0:1] [0:1] none [0:1] none [0:1] [0:1] [0:1] [0:1] [0:1] [0:1] [0:1] [0:1] [0:1] [0:1] [0:1] none [0:1] [0:1] [0:1] [0:1] [0:1] [0:1] [0:1] [0:1] [0:1] [0:1] [0:1] [0:1] none [0:1] [0:1] [0:1] [0:1] [0:1] [0:1] [0:1] none [0:1] [0:1] none none [0:1] [0:1] [0:1] [0:1] [0:1] [0:1] [0:1] [0:1] [0:1] [0:1] [0:1] [0:1] [0:1] none [0:1] [0:1] none [0:1] [0:1] [0:1] [0:1] [0:1] [0:1] [0:1] [0:1] none [0:1] [0:1] none [0:1] [0:1] [0:1] [0:1] none [0:1] none [0:1] none [0:1] [0:1] [0:1] [0:1] [0:1] [0:1] [0:1] none [0:1] [0:1] [0:1] [0:1] [0:1] [0:1] [0:1] [0:1] [0:1] none [0:1] [0:1] [0:1] [0:1] [0:1] none none none [0:1] none [0:1] [0:1] [0:1] none [0:1] [0:1] [0:1] [0:1] [0:1] none [0:1] [0:1] [0:1] [0:1] none [0:1] [0:1] none [0:1] [0:1] [0:1] [0:1] [0:1] [0:1] [0:1] [0:1] [0:1] none [0:1] [0:1] [0:1] [0:1] [0:1] [0:1] [0:1] [0:1] [0:1] [0:1] [0:1] [0:1] [0:1] [0:1] [0:1] [0:1] [0:1] [0:1] [0:1] [0:1] none [0:1] [0:1] [0:1] [0:1] [0:1] [0:1] none [0:1] [0:1] [0:1] [0:1] [0:1] [0:1] [0:1] [0:1] [0:1] [0:1] [0:1] [0:1] [0:1] [0:1] [0:1] [0:1] [0:1] [0:1] [0:1] [0:1] [0:1] [0:1] [0:1] [0:1] [0:1] [0:1] [0:1] [0:1] [0:1] [0:1] [0:1] [0:1] [0:1] [0:1] [0:1] [0:1] [0:1] [0:1] [0:1] [0:1] [0:1] [0:1] [0:1] [0:1] [0:1] [0:1] [0:1] [0:1] [0:1] [0:1] [0:1] [0:1] [0:1] [0:1] [0:1] [0:1] [0:1] [0:1] [0:1] [0:1] [0:1] [0:1] [0:1] [0:1] [0:1] [0:1] [0:1] [0:1] [0:1] [0:1] [0:1] [0:1] [0:1] [0:1] none [0:1] [0:1] [0:1] [0:1] [0:1] [0:1] [0:1] [0:1] [0:1] [0:1] [0:1] [0:1] [0:1] [0:1] [0:1] [0:1] [0:1] [0:1] [0:1] [0:1] [0:1] [0:1] [0:1] [0:1] [0:1] [0:1] [0:1] [0:1] [0:1] [0:1] [0:1] [0:1] [0:1] [0:1] [0:1] [0:1] [0:1] [0:1] [0:1] [0:1] [0:1] [0:1] [0:1] [0:1] [0:1] [0:1] [0:1] [0:1] [0:1] [0:1] [0:1] [0:1] [0:1] [0:1] [0:1] [0:1] [0:1] [0:1] [0:1] [0:1] [0:1] [0:1] [0:1] [0:1] [0:1] [0:1] [0:1] [0:1] [0:1] [0:1] [0:1] [0:1] [0:1] [0:1] [0:1] [0:1] [0:1] [0:1] [0:1] [0:1] [0:1] [0:1] [0:1] [0:1] [0:1] [0:1] [0:1] [0:1] [0:1] [0:1] [0:1] [0:1] [0:1] [0:1] [0:1] [0:1] [0:1] [0:1] [0:1] [0:1] [0:1] [0:1] [0:1] [0:1] [0:1] [0:1] [0:1] [0:1] [0:1] [0:1] [0:1] [0:1] [0:1] [0:1] [0:1] [0:1] [0:1] [0:1] [0:1] [0:1] [0:1] [0:1] [0:1] [0:1] [0:1] [0:1] [0:1] [0:1] [0:1] [0:1] [0:1] [0:1] [0:1] [0:1] [0:1] [0:1] [0:1] [0:1] none [0:1] [0:1] none [0:1] [0:1] [0:1] [0:1] [0:1] [0:1] [0:1] [0:1] [0:1] [0:1] [0:1] [0:1] [0:1] [0:1] [0:1] [0:1] [0:1] [0:1] [0:1] none none none [0:1] [0:1] [0:1] [0:1] [0:1] [0:1] [0:1] [0:1] [0:1] [0:1] none none none [0:1] [0:1] [0:1] [0:1] [0:1] [0:1] [0:1] [0:1] [0:1] [0:1] [0:1] [0:1] [0:1] [0:1] [0:1] [0:1] [0:1] [0:1] [0:1] [0:1] [0:1] [0:1] [0:1] [0:1] [0:1] [0:1] [0:1] [0:1] [0:1] [0:1] [0:1] [0:1] [0:1] [0:1] [0:1] [0:1] [0:1] [0:1] [0:1] [0:1] [0:1] [0:1] [0:1] [0:1] [0:1] [0:1] [0:1] [0:1] [0:1] [0:1] [0:1] [0:1] [0:1] [0:1] [0:1] [0:1] [0:1] [0:1] [0:1] [0:1] [0:1] [0:1] [0:1] [0:1] [0:1] [0:1] [0:1] [0:1] none [0:1] [0:1] [0:1] [0:1] [0:1] [0:1] [0:1] [0:1] [0:1] [0:1] [0:1] none none [0:1] [0:1] [0:1] [0:1] [0:1] none [0:1] [0:1] [0:1] [0:1] [0:1] [0:1] none none [0:1] [0:1] [0:1] none none none none none [0:1] [0:1] [0:1] none [0:1] [0:1] [0:1] [0:1] [0:1] [0:1] none [0:1] [0:1] [0:1] [0:1] [0:1] [0:1] [0:1] [0:1] [0:1] [0:1] [0:1] [0:1] [0:1] [0:1] [0:1] [0:1] [0:1] [0:1] [0:1] [0:1] [0:1] [0:1] [0:1] [0:1] [0:1] [0:1] [0:1] [0:1] [0:1] [0:1] [0:1] none [0:1] [0:1] [0:1] [0:1] [0:1] [0:1] [0:1] [0:1] [0:1] [0:1] [0:1] [0:1] [0:1] [0:1] [0:1] [0:1] [0:1] [0:1] none none [0:1] none [0:1] [0:1] [0:1] none none none none [0:1] [0:1] [0:1] [0:1] none [0:1] [0:1] [0:1] [0:1] [0:1] [0:1] [0:1] [0:1] [0:1] [0:1] [0:1] [0:1] [0:1] none [0:1] [0:1] [0:1] [0:1] [0:1] [0:1] [0:1] [0:1] none [0:1] [0:1] [0:1] [0:1] none [0:1] [0:1] [0:1] [0:1] [0:1] [0:1] [0:1] [0:1] [0:1] [0:1] [0:1] [0:1] [0:1] [0:1] [0:1] [0:1] [0:1] [0:1] [0:1] [0:1] [0:1] [0:1] [0:1] [0:1] [0:1] [0:1] [0:1] [0:1] [0:1] [0:1] [0:1] [0:1] [0:1] [0:1] [0:1] [0:1] [0:1] [0:1] [0:1] [0:1] [0:1] [0:1] none [0:1] [0:1] none [0:1] [0:1] [0:1] [0:1] [0:1] [0:1] [0:1] [0:1] [0:1] [0:1] none none [0:1] [0:1] [0:1] none none [0:1] none [0:1] none [0:1] [0:1] none none [0:1] none [0:1] [0:1] [0:1] [0:1] [0:1] [0:1] none [0:1] [0:1] [0:1] [0:1] [0:1] [0:1] none [0:1] [0:1] [0:1] [0:1] [0:1] [0:1] [0:1] [0:1] none [0:1] [0:1] [0:1] [0:1] [0:1] [0:1] none [0:1] [0:1] none [0:1] [0:1] none [0:1] [0:1] [0:1] [0:1] [0:1] [0:1] [0:1] [0:1] [0:1] none none [0:1] [0:1] [0:1] [0:1] [0:1] [0:1] [0:1] [0:1] [0:1] [0:1] [0:1] [0:1] [0:1] [0:1] [0:1] none [0:1] [0:1] [0:1] [0:1] [0:1] [0:1] [0:1] [0:1] [0:1] [0:1] [0:1] [0:1] [0:1] [0:1] [0:1] [0:1] [0:1] [0:1] [0:1] [0:1] [0:1] [0:1] [0:1] [0:1] [0:1] [0:1] [0:1] [0:1] [0:1] [0:1] [0:1] [0:1] [0:1] [0:1] [0:1] [0:1] [0:1] [0:1] [0:1] [0:1] [0:1] [0:1] [0:1] [0:1] [0:1] [0:1] [0:1] [0:1] [0:1] [0:1] [0:1] [0:1] [0:1] [0:1] [0:1] [0:1] [0:1] [0:1] [0:1] [0:1] [0:1] [0:1] [0:1] [0:1] [0:1] [0:1] [0:1] [0:1] [0:1] [0:1] [0:1] [0:1] [0:1] [0:1] [0:1] [0:1] none [0:1] [0:1] [0:1] [0:1] none [0:1] [0:1] [0:1] [0:1] [0:1] [0:1] [0:1] [0:1] [0:1] [0:1] [0:1] [0:1] [0:1] [0:1] [0:1] [0:1] [0:1] [0:1] [0:1] [0:1] [0:1] [0:1] [0:1] [0:1] [0:1] [0:1] [0:1] [0:1] [0:1] [0:1] [0:1] [0:1] [0:1] [0:1] [0:1] [0:1] [0:1] [0:1] [0:1] [0:1] [0:1] [0:1] [0:1] [0:1] [0:1] [0:1] [0:1] [0:1] [0:1] [0:1] [0:1] none [0:1] [0:1] [0:1] [0:1] [0:1] [0:1] [0:1] [0:1] [0:1] [0:1] [0:1] none [0:1] [0:1] [0:1] [0:1] [0:1] [0:1] [0:1] [0:1] none [0:1] [0:1] [0:1] [0:1] [0:1] [0:1] [0:1] [0:1] [0:1] [0:1] [0:1] [0:1] [0:1] [0:1] [0:1] [0:1] [0:1] [0:1] [0:1] [0:1] [0:1] [0:1] [0:1] [0:1] [0:1] [0:1] [0:1] [0:1] none [0:1] [0:1] [0:1] [0:1] [0:1] [0:1] [0:1] [0:1] [0:1] none [0:1] [0:1] [0:1] [0:1] [0:1] [0:1] [0:1] [0:1] [0:1] [0:1] [0:1] [0:1] [0:1] [0:1] [0:1] [0:1] [0:1] [0:1] [0:1] [0:1] [0:1] [0:1] [0:1] [0:1] [0:1] [0:1] [0:1] [0:1] [0:1] [0:1]
tree_sizes=5935 5592 5575 5586 5629 5671 5590 5590 5696 5713 5637 5710 5565 5581 5761 5575 5628 5608 5745 5560 5681 5560 5586 5575 5512 5760 5534 5532 5528 5535 5580 5530 5610 5544 5539 5501 5586 5516 5482 5534 5522 5519 5530 5559 5853 5564 5519 5530 5517 5502 5766 5518 5536 5483 5493 5491 5512 5489 5772 5488 5656 5513 5619 5508 5506 5597 5507 5870 5523 5528 5615 5612 5871 5520 5585 5558 5572 5552 5553 5565 5626 5569 5583 5615 5595 5590 5630 5522 5569 5586 6048 5845 5798 5947 5560 5597 5848 5624 5618 5850 5589 5642 5632 5639 5639 5604 5605 5884 5659 5914 5690 5692 5860 5756 5807 5638 5664 5636 6011 5743 5662 5830 5812 5726 5920 5802 5644 5722 5629 5639 5649 5705 5659 6005 5657 5654 5990 5698 5690 5645 5642 5801 5702 5732 5710 5683 5937 5784 5691 5601 5647 5679 5666 5871 5726 5724 5802 5664 5690 5661 5589 5676 5760 5668 5693 5683 5701 5726 5795 5705 5777 5713 5749 5718 5715 5687 5793 5757 5733 5799 5761 5692 5833 5683 5751 5749 5936 5748 5737 5641 5714 5659 5685 5770 5753 5822 5797 5780 5780 5756 5822 5759 5777 5723 5649 5860 5738 5694 5797 5704 5711 5709 5722 5786 5713 5745 5802 5720 5855 5895 5746 5703 5810 5823 5763 5887 5757 5848 5964 5753 5905 5856 5745 5786 5803 5771 6007 5732 5834 5777 5766 5739 5980 5779 5811 5839 5794 5983 5766 5813 5819 6014 5843 5804 5813 5841 5751 5812 6012 5823 5780 5754 5781 5768 5756 5789 5788 5841 5741 5863 5759 5753 5824 5822 5719 5751 5832 5876 5767 5770 5754 5774 5814 5828 5999 5717 5807 5796 5865 5969 5856 5860 5815 5819 5835 5789 5852 5898 5881 5774

Tree=0
num_leaves=64
num_cat=0
split_feature=3 1068 755 2 3 3 1068 1070 2 3 3 1070 3 2 3 2 2 3 3 775 775 2 804 2 2 1070 2 2 3 755 1053 1085 1066 1066 1085 756 2 806 1082 1063 1063 803 2 1043 2 3 3 1113 1050 1063 573 1050 2 1063 3 878 922 3 3 1085 878 1041 1194
split_gain=3671.96 626.762 358.257 351.918 316.872 230.605 128.916 98.2702 94.1597 86.4088 83.2832 81.1586 81.0393 60.8817 43.7206 32.9267 30.0133 29.9809 29.9738 29.8165 26.5955 25.926 25.1746 24.7171 23.7364 23.6775 22.3783 22.2408 21.8553 21.5624 19.7284 19.1475 21.3376 18.7675 40.8599 18.3582 18.2196 17.9685 17.8432 17.1978 17.0212 16.059 15.3221 14.9165 14.7089 13.5335 13.5182 12.5414 12.0602 11.021 10.6409 9.80269 9.47153 9.213 9.11095 8.8816 8.60876 9.62841 8.47672 8.22933 8.15139 7.87561 7.74936
threshold=2505812.5000000005 1.0000000180025095e-35 1.0000000180025095e-35 54659.889610389619 643874.00000000012 8238902.5000000009 1.0000000180025095e-35 1.0000000180025095e-35 77361.571428571449 58770.500000000007 11895337.000000002 1.0000000180025095e-35 8238902.5000000009 165910.07142857145 1297766.5000000002 34900.500000000007 59174.366666666676 216509.00000000003 43787680.000000007 1.0000000180025095e-35 1.0000000180025095e-35 39950.833333333336 1.0000000180025095e-35 36412.009259259263 18668.613095238099 1.0000000180025095e-35 103568.10000000002 86270.000000000015 19349646.500000004 1.0000000180025095e-35 1.0000000180025095e-35 1.0000000180025095e-35 1.0000000180025095e-35 1.0000000180025095e-35 1.0000000180025095e-35 1.0000000180025095e-35 44136.320930232563 1.0000000180025095e-35 1.0000000180025095e-35 1.0000000180025095e-35 1.0000000180025095e-35 1.0000000180025095e-35 62032.833333333336 1.0000000180025095e-35 56041.547619047626 43787680.000000007 5963310.5000000009 1.0000000180025095e-35 1.0000000180025095e-35 1.0000000180025095e-35 1.0000000180025095e-35 1.0000000180025095e-35 28800.166666666668 1.0000000180025095e-35 233662.00000000003 1.0000000180025095e-35 1.0000000180025095e-35 43787680.000000007 1171597.5000000002 1.0000000180025095e-35 1.0000000180025095e-35 1.0000000180025095e-35 1.0000000180025095e-35
decision_type=2 2 2 2 2 2 2 2 2 2 2 2 2 2 2 2 2 2 2 2 2 2 2 2 2 2 2 2 2 2 2 2 2 2 2 2 2 2 2 2 2 2 2 2 2 2 2 2 2 2 2 2 2 2 2 2 2 2 2 2 2 2 2
left_child=2 5 4 10 13 11 14 28 23 27 15 21 26 17 31 -3 59 -1 -9 29 22 38 24 60 -12 36 40 -4 52 39 58 44 -33 42 -35 61 47 41 46 43 -5 50 55 45 -6 48 -2 -16 -14 -17 53 -47 -7 56 62 -19 57 -26 -25 -11 -8 -15 -18
right_child=1 3 9 12 6 7 8 18 -10 16 20 -13 19 35 25 49 54 33 -20 -21 -22 -23 -24 30 37 -27 -28 -29 -30 -31 -32 32 -34 34 -36 -37 -38 -39 -40 -41 -42 -43 -44 -45 -46 51 -48 -49 -50 -51 -52 -53 -54 -55 -56 -57 -58 -59 -60 -61 -62 -63 -64
leaf_value=1804976.2263817131 2343777.0513540148 1992431.1116486907 1901251.25 2236879.8093570946 2015975.5708762407 2855805.9523366215 1865899.5747835874 2243339.9053449631 2362108.734934187 2019670.8308416964 2147609.2227983773 2117438.4055688442 3534563.1036468507 2317149.2870621802 2205529.2202603696 2154399.1995641766 2321490.6867250442 1850782.1700109183 2797746.4388748645 2326642.399676776 2126799.7040736438 2877726.6136401654 1866482.7057101012 1918632.9674550176 2513576.0816068649 2027674.5662784576 2884783.6499999999 2052378.45 10599930.411529923 2662861.25 1982298.2 2019194.6816859543 2911321.7438672422 1958228.1846481324 2231232.1936673163 2451754.6414151015 2472849.9573825835 1861649.4588786245 2696908.2718955041 5318456.01290741 2299551.9497992517 1917058.835253197 1968574.7843948007 11319583.245682335 2476827.2511701942 13668653.954801369 2526561.8314823867 2316307.7570817708 3131149.5553731918 2066610.8827023983 2108111.2991331816 25721609.376315311 3381653.2680485249 2939747.8867523433 3212337.7314067958 2050475.9284687401 4422658.859452581 4939281.6930226088 1987882.8646466255 1972788.7956062078 2215797.6927085398 1948095.0763090611 2483967.4871178209
leaf_weight=581996 1494 5087 298 1459 5290 475 15187 762 2059 142 396 1078 553 1492 2622 2684 205 47216 334 165 307 1173 205 4839 1090 745 532 85 1707 198 61 126 144 5017 409 34 545 99 809 141 213 108 4446 255 296 432 414 109 561 213 77 137 1127 51 356 167 47 474 4057 21 73 381 70
leaf_count=581996 1494 5087 298 1459 5290 475 15187 762 2059 142 396 1078 553 1492 2622 2684 205 47216 334 165 307 1173 205 4839 1090 745 532 85 1707 198 61 126 144 5017 409 34 545 99 809 141 213 108 4446 255 296 432 414 109 561 213 77 137 1127 51 356 167 47 474 4057 21 73 381 70
internal_value=1.87381e+06 1.87381e+06 1.87381e+06 1.87381e+06 1.87381e+06 1.87381e+06 1.87381e+06 1.87381e+06 1.87381e+06 1.87381e+06 1.87381e+06 1.87381e+06 1.87381e+06 1.87381e+06 1.87381e+06 1.87381e+06 1.87381e+06 1.87381e+06 1.87381e+06 1.87381e+06 1.87381e+06 1.87381e+06 1.87381e+06 1.87381e+06 1.87381e+06 1.87381e+06 1.87381e+06 1.87381e+06 1.87381e+06 1.87381e+06 1.87381e+06 1.87381e+06 1.87381e+06 1.87381e+06 1.87381e+06 1.87381e+06 1.87381e+06 1.87381e+06 1.87381e+06 1.87381e+06 1.87381e+06 1.87381e+06 1.87381e+06 1.87381e+06 1.87381e+06 1.87381e+06 1.87381e+06 1.87381e+06 1.87381e+06 1.87381e+06 1.87381e+06 1.87381e+06 1.87381e+06 1.87381e+06 1.87381e+06 1.87381e+06 1.87381e+06 1.87381e+06 1.87381e+06 1.87381e+06 1.87381e+06 1.87381e+06 1.87381e+06
internal_weight=703345 24857 678488 15484 677311 9373 36153 4405 26276 1177 10838 4968 4646 641158 9877 7984 794 639251 1096 2442 2854 3890 2547 24217 2342 4021 2204 383 3309 2277 8957 5856 270 57255 5426 1907 3276 1946 2717 2079 1672 1847 51829 1938 5586 1683 1908 2731 1114 2897 1739 569 1602 1662 631 47383 1611 1564 8896 163 15260 1873 275
internal_count=703345 24857 678488 15484 677311 9373 36153 4405 26276 1177 10838 4968 4646 641158 9877 7984 794 639251 1096 2442 2854 3890 2547 24217 2342 4021 2204 383 3309 2277 8957 5856 270 57255 5426 1907 3276 1946 2717 2079 1672 1847 51829 1938 5586 1683 1908 2731 1114 2897 1739 569 1602 1662 631 47383 1611 1564 8896 163 15260 1873 275
is_linear=0
shrinkage=1


Tree=1
num_leaves=64
num_cat=0
split_feature=0 2 0 0 2 0 2 3 0 2 0 2 1067 3 2 0 2 0 3 3 3 2 0 2 2 3 1068 3 0 2 3 0 0 2 0 2 3 3 0 3 1043 3 1043 1066 1067 0 2 3 0 468 775 1085 1067 0 1068 2 3 0 755 1068 0 3 2
split_gain=7444.05 451.133 447.458 432.416 926.104 108.874 151.135 94.9627 113.403 87.5365 124.768 86.7359 83.9902 74.9957 69.2554 88.7258 52.7817 96.4678 45.3796 40.3369 39.6466 36.0907 31.1577 47.2424 30.3725 26.2208 24.0913 22.2568 21.5086 21.219 22.0676 21.1542 20.7621 25.4376 20.5051 201.811 30.6398 19.0844 17.8559 16.0204 15.1713 14.6387 17.1073 14.2662 14.2077 13.932 13.3094 13.2795 17.1887 11.1735 11.1228 33.6008 10.4602 10.2608 10.807 10.1947 11.3544 10.1231 9.7264 12.6332 9.09418 22.7082 20.4347
threshold=61.500000000000007 23700.750000000004 116.50000000000001 31.500000000000004 45914.875000000007 83.500000000000014 28800.166666666668 19349646.500000004 261.50000000000006 165910.07142857145 7.5000000000000009 10264.750000000002 1.0000000180025095e-35 8238902.5000000009 68313.10000000002 41.500000000000007 37118.433333333342 46.500000000000007 8238902.5000000009 1171597.5000000002 3659856.0000000005 59174.366666666676 97.500000000000014 17363.187500000004 53369.846153846163 2505812.5000000005 1.0000000180025095e-35 253525.50000000003 12.500000000000002 33986.755952380961 1444804.0000000002 792.50000000000011 136.50000000000003 17024.300000000003 26.500000000000004 65968.925000000017 8238902.5000000009 43787680.000000007 147.50000000000003 2505812.5000000005 1.0000000180025095e-35 43787680.000000007 1.0000000180025095e-35 1.0000000180025095e-35 1.0000000180025095e-35 72.500000000000014 81138.800000000017 43787680.000000007 118.50000000000001 1.0000000180025095e-35 1.0000000180025095e-35 1.0000000180025095e-35 1.0000000180025095e-35 74.500000000000014 1.0000000180025095e-35 45271.750000000007 19349646.500000004 55.500000000000007 1.0000000180025095e-35 1.0000000180025095e-35 103.50000000000001 8238902.5000000009 34900.500000000007
decision_type=2 2 2 2 2 2 2 2 2 2 2 2 2 2 2 2 2 2 2 2 2 2 2 2 2 2 2 2 2 2 2 2 2 2 2 2 2 2 2 2 2 2 2 2 2 2 2 2 2 2 2 2 2 2 2 2 2 2 2 2 2 2 2
left_child=3 2 22 9 16 6 27 60 12 34 50 31 43 29 15 24 -5 -18 -16 -19 -17 -14 -2 -24 -6 58 55 45 -12 30 -8 -4 33 -13 -1 -36 46 40 -23 -25 -28 42 -20 47 -22 -3 -37 -9 -49 -50 -11 -52 57 54 -32 -15 -57 -21 59 -26 61 -7 -63
right_child=1 5 11 4 14 7 13 8 -10 10 28 32 21 26 18 20 17 19 41 52 44 38 23 39 25 -27 37 -29 -30 -31 53 -33 -34 -35 35 36 -38 -39 -40 -41 -42 -43 -44 -45 -46 -47 -48 48 49 -51 51 -53 -54 -55 -56 56 -58 -59 -60 -61 -62 62 -64
leaf_value=-63693.337580164967 4558.2858886340337 7474.4027529570512 37435.840384765361 -6550.1714152541717 9415.7696596655296 512426.36342966021 39644.735552269442 759898.71725768968 20782145.527657151 158067.02062938153 236096.49131771267 10809.330894304872 65132.436164157378 19887.626876139642 401177.57609803061 81684.822887184651 1479.0126675106551 35739.34387780718 557265.09481765749 13414.687623742293 51755.663686221305 264964.3923817444 -3340.2956694404479 36400.966182759708 27372.964855941707 11903.361837566938 605501.96960088215 9957.0980327308189 815346.90978132992 409124.65627223987 5429.7905954698799 700642.34194935532 1111537.2937597365 53517.0053912109 -4955.1483727508812 22950.190141467363 31815.284410670669 660196.3827025271 1158846.6649214316 23446.110902180244 71444.691444567681 325017.85651349509 -227905.56375980258 306291.09755766869 15458.40146229982 24374.377637765116 102898.10305904741 1351211.6252103141 1355312.7188812478 74141.807312697172 -35895.582914641585 189327.58564689101 12045.925129163872 33614.693921779995 22004.469574579743 196794.91769725681 296478.64480161824 32498.901863812091 2292.5696581840516 30345.837719041705 1866896.2244263054 51622.616892381331 341973.35142609337
leaf_weight=666995 1559 42 197 8877 397 1108 219 297 1118 1949 207 75 392 148 889 563 1083 217 264 156 227 49 245 156 67 171 260 530 239 1272 98 43 1407 202 5095 183 73 87 78 116 40 62 36 41 84 56 227 91 258 22 145 77 134 72 29 54 51 60 25 195 3950 100 160
leaf_count=666995 1559 42 197 8877 397 1108 219 297 1118 1949 207 75 392 148 889 563 1083 217 264 156 227 49 245 156 67 171 260 530 239 1272 98 43 1407 202 5095 183 73 87 78 116 40 62 36 41 84 56 227 91 258 22 145 77 134 72 29 54 51 60 25 195 3950 100 160
internal_value=-0.000241068 0.0350617 0.02075 -0.000990596 0.0078675 0.0404512 0.0323031 0.043596 0.0352163 -0.0011678 0.00795902 0.0381211 0.0247272 0.0381706 0.0324748 0.0259912 0.000901611 0.00911364 0.0414359 0.0258223 0.0371939 0.00944364 0.00465077 0.0152877 0.0145395 0.0233133 0.0235938 0.0105334 0.032046 0.0436908 0.0339175 0.01 0.0421289 0.0296164 -0.00120331 0.00181562 0.0327045 0.0314373 0.0326083 0.0296324 0.0374167 0.0265124 0.0310833 0.035915 0.0228658 0.0324235 0.0380183 0.0376722 0.0313646 0.0375 0.00301071 0.0136149 0.0153214 0.0218656 0.0133169 0.0115959 0.0235119 0.0221296 0.0325479 0.0353912 0.0472927 0.0437792 0.0304808
internal_weight=703319 14622 4000 688697 13507 10622 2958 7664 2346 675190 2617 1924 1228 2330 2980 1729 10527 1650 1251 567 874 519 2076 517 855 458 640 628 446 1690 418 240 1684 277 672573 5578 483 387 127 272 300 362 300 709 311 98 410 668 371 280 2171 222 350 199 127 253 105 216 287 262 5318 1368 260
internal_count=703319 14622 4000 688697 13507 10622 2958 7664 2346 675190 2617 1924 1228 2330 2980 1729 10527 1650 1251 567 874 519 2076 517 855 458 640 628 446 1690 418 240 1684 277 672573 5578 483 387 127 272 300 362 300 709 311 98 410 668 371 280 2171 222 350 199 127 253 105 216 287 262 5318 1368 260
is_linear=0
shrinkage=0.05


Tree=2
num_leaves=64
num_cat=0
split_feature=0 2 0 0 2 1067 2 0 2 0 2 0 2 2 2 0 0 2 0 1067 0 2 0 1 1067 755 1 0 1 0 2 2 0 0 2 755 1 2 2 2 0 572 2 1066 0 0 1 0 0 1 0 2 0 0 2 0 0 2 1 0 0 2 0
split_gain=4729.96 716.454 588.903 192.996 596.85 103.026 81.4587 75.0635 68.8551 64.4509 59.7193 141.009 49.7689 49.309 32.3298 66.4295 31.6793 24.0695 31.5328 21.2237 20.6775 20.2158 18.0518 25.4238 15.0549 13.0137 12.934 12.8441 13.3022 12.4995 35.0284 28.15 14.9192 15.9352 12.4631 11.5764 9.73459 9.41816 9.41701 9.18252 8.92576 8.86039 8.53675 8.47822 8.47604 11.645 8.10134 7.71234 7.47939 7.47652 7.4045 7.37725 7.34546 7.27355 8.8233 7.25463 8.55968 7.09859 10.2507 6.87821 6.75785 7.72347 6.50473
threshold=51.500000000000007 31500.800000000003 157.50000000000003 28.500000000000004 51286.333333333336 1.0000000180025095e-35 86270.000000000015 70.500000000000014 18973.916666666668 35.500000000000007 121655.00000000001 14.500000000000002 45914.875000000007 13481.91666666667 41871.910274454618 41.500000000000007 71.500000000000014 37118.433333333342 71.500000000000014 1.0000000180025095e-35 253.50000000000003 63896.000000000007 912.50000000000011 117361024.00000001 1.0000000180025095e-35 1.0000000180025095e-35 7128192.5000000009 174.50000000000003 50730407.000000007 90.500000000000014 25729.583333333339 23700.750000000004 102.50000000000001 133.50000000000003 19113.383333333335 1.0000000180025095e-35 23432836.500000004 23700.750000000004 165910.07142857145 26517.813063063066 632.00000000000011 1.0000000180025095e-35 2509.1666666666674 1.0000000180025095e-35 125.50000000000001 103.50000000000001 23432836.500000004 20.500000000000004 44.500000000000007 11438241.000000002 48.500000000000007 37436.090909090919 31.500000000000004 269.50000000000006 86270.000000000015 1251.5000000000002 292.50000000000006 28800.166666666668 14106839.000000002 574.50000000000011 136.50000000000003 23007.137500000004 96.500000000000014
decision_type=2 2 2 2 2 2 2 2 2 2 2 2 2 2 2 2 2 2 2 2 2 2 2 2 2 2 2 2 2 2 2 2 2 2 2 2 2 2 2 2 2 2 2 2 2 2 2 2 2 2 2 2 2 2 2 2 2 2 2 2 2 2 2
left_child=3 2 7 10 14 17 9 -2 -9 21 -1 26 16 20 -5 -16 -7 18 -3 29 -4 52 23 44 41 49 -12 34 -29 30 -10 60 -33 -34 -15 36 -19 -30 -28 -35 53 46 -22 55 45 -18 -11 -13 -17 -23 -43 -47 -6 -14 -55 56 -39 -21 -59 -38 62 -62 -31
right_child=1 5 13 4 6 12 -8 8 19 24 11 47 40 27 15 48 22 35 -20 57 42 25 -24 -25 -26 -27 38 28 37 31 -32 32 33 39 -36 -37 59 43 -40 -41 -42 50 -44 -45 -46 51 -48 -49 -50 -51 -52 -53 -54 54 -56 -57 -58 58 -60 -61 61 -63 -64
leaf_value=-60058.210349665751 -234.09187922528588 17218.285307475187 -3791.3683127092336 -10634.730792051494 -304.0985194513666 27156.813249394723 523734.51374980598 6924.9601920860287 5840.2215479953511 64375.312324791885 133491.61927564323 429678.74612440023 647103.99076751026 5017.5245385000253 251.01797370309555 10629.955786432012 64020.112461673038 552695.75787649583 993896.27562288404 28263.641800174795 172994.68189717777 27461.561619205517 11078831.403720425 1149380.8454956585 49449.399832301686 -2015.9795088434128 -5418.2067544762513 484963.45513135177 2286107.2306789011 16369.308422140592 27004.550304609638 27018.959512556918 14826.575407881319 28080.547659220734 63502.099833109969 1281009.2022083451 1656908.8798509275 196588.72529130836 419080.8278438336 49824.069972675439 26376547.472655822 4193.439292572416 651799.01705804653 3888367.9115693267 603662.83314375498 21257.070948998302 63238.660201889652 300157.23813319544 27726.200893959049 26912.317048827117 -7042.8825095424663 62773.493111924807 11937.416235569119 1309565.7760708802 5107524.7152238358 5062168.9941659346 826805.41999133537 30540.918661553227 28605.42564573753 38951601.232254215 20497.3755783919 34483.342302542369 50149.090979577551
leaf_weight=667068 2285 343 114 10354 290 460 711 1163 411 569 4004 225 885 40 925 119 388 1672 791 783 45 202 93 395 160 60 178 1105 328 55 285 147 264 61 220 542 1728 135 351 103 137 23 102 104 485 102 154 143 257 115 33 80 209 174 42 36 215 66 176 184 70 28 264
leaf_count=667068 2285 343 114 10354 290 460 711 1163 411 569 4004 225 885 40 925 119 388 1672 791 783 45 202 93 395 160 60 178 1105 328 55 285 147 264 61 220 542 1728 135 351 103 137 23 102 104 485 102 154 143 257 115 33 80 209 174 42 36 215 66 176 184 70 28 264
internal_value=-0.000419789 0.0255505 0.0153799 -0.00106724 0.00470515 0.0358456 0.0267389 0.0071415 0.011379 0.0211191 -0.00118906 0.00431009 0.0288333 0.0361477 -7.02476e-05 0.00735876 0.0239622 0.0401664 0.0337147 0.0157423 0.0156082 0.0113642 0.0273955 0.0260259 0.0302196 0.0201028 0.00189361 0.0386034 0.0400137 0.0191884 0.0140517 0.0227923 0.0156196 0.0108995 0.0281731 0.0419395 0.0409096 0.0351803 0.00924149 0.0231402 0.0367145 0.0330889 0.0280017 0.0307908 0.030077 0.025943 0.034573 0.0340761 0.0250798 0.0241443 0.0139286 0.0155082 0.00476203 0.0352168 0.0269907 0.0273769 0.0251786 0.0100671 0.0175517 0.0384728 0.0326829 0.021199 0.0362108
internal_weight=703256 17106 8605 686150 14181 8501 2526 6161 3876 1815 671969 4901 3241 2444 11655 1301 2003 5260 1134 2713 261 876 1543 1450 939 377 4533 2183 1923 1688 696 992 575 428 260 4126 3584 818 529 164 1238 779 147 490 1055 570 723 368 376 317 56 182 499 1101 216 386 350 1025 242 1912 417 98 319
internal_count=703256 17106 8605 686150 14181 8501 2526 6161 3876 1815 671969 4901 3241 2444 11655 1301 2003 5260 1134 2713 261 876 1543 1450 939 377 4533 2183 1923 1688 696 992 575 428 260 4126 3584 818 529 164 1238 779 147 490 1055 570 723 368 376 317 56 182 499 1101 216 386 350 1025 242 1912 417 98 319
is_linear=0
shrinkage=0.05


Tree=3
num_leaves=64
num_cat=0
split_feature=0 2 0 0 2 3 3 3 2 2 0 3 2 2 0 0 1067 2 3 3 2 3 0 1068 2 0 2 0 0 0 2 1 573 2 1 3 3 0 3 0 2 2 0 2 0 0 0 0 2 3 755 3 775 1085 2 2 0 2 1066 0 1070 2 2
split_gain=3176.66 300.135 347.305 275.681 563.205 175.947 143.133 133.677 114.549 68.8676 278.077 65.9187 88.3932 60.0834 56.0556 38.9602 36.6919 35.9353 41.7847 35.9231 27.9793 26.5938 48.8039 25.5347 23.7182 23.7055 24.4257 21.7046 20.3961 19.0172 18.2242 16.6727 16.0806 15.9378 19.7431 14.6489 14.6031 14.2232 13.3297 14.8578 12.95 12.8541 18.448 30.2838 14.733 17.6751 12.2857 11.9356 112.81 29.7072 16.2388 14.1987 11.2978 31.9037 11.0072 10.7795 14.0371 10.6916 10.6522 10.2023 9.56975 9.25712 8.98221
threshold=66.500000000000014 42418.350000000006 152.50000000000003 36.500000000000007 46516.312500000007 19349646.500000004 19349646.500000004 8238902.5000000009 17250.05263157895 92747.553571428594 17.500000000000004 2170910.0000000005 19563.166666666668 77361.571428571449 1142.5000000000002 1142.5000000000002 1.0000000180025095e-35 62032.833333333336 1297766.5000000002 4621674.5000000009 32011.625000000004 1297766.5000000002 48.500000000000007 1.0000000180025095e-35 37118.433333333342 198.50000000000003 26333.166666666668 230.50000000000003 81.500000000000014 150.50000000000003 165910.07142857145 23432836.500000004 1.0000000180025095e-35 65968.925000000017 17832843.000000004 224716.00000000003 1444804.0000000002 7.5000000000000009 643874.00000000012 21.500000000000004 165910.07142857145 27771.781609195405 94.500000000000014 23700.750000000004 103.50000000000001 133.50000000000003 41.500000000000007 25.500000000000004 62032.833333333336 2505812.5000000005 1.0000000180025095e-35 253525.50000000003 1.0000000180025095e-35 1.0000000180025095e-35 12666.59404761905 42418.350000000006 41.500000000000007 86270.000000000015 1.0000000180025095e-35 1550.5000000000002 1.0000000180025095e-35 59174.366666666676 103568.10000000002
decision_type=2 2 2 2 2 2 2 2 2 2 2 2 2 2 2 2 2 2 2 2 2 2 2 2 2 2 2 2 2 2 2 2 2 2 2 2 2 2 2 2 2 2 2 2 2 2 2 2 2 2 2 2 2 2 2 2 2 2 2 2 2 2 2
left_child=3 2 11 9 20 8 28 17 27 47 30 12 -2 15 16 31 60 18 -6 38 -5 22 55 -20 35 26 36 -4 33 -15 -11 -8 -13 34 -3 -14 -10 52 -12 -40 -21 42 -37 -44 58 -46 -25 -1 -49 50 51 -50 -32 -54 59 -22 -57 -9 -43 -29 -7 -36 -41
right_child=1 6 5 4 7 14 13 57 25 10 19 32 24 29 -16 -17 -18 -19 23 40 21 -23 -24 46 -26 -27 -28 54 -30 -31 37 -33 -34 -35 61 41 -38 -39 39 62 -42 44 43 -45 45 -47 -48 48 49 -51 -52 -53 53 -55 -56 56 -58 -59 -60 -61 -62 -63 -64
leaf_value=-59113.09966118414 14069.21026000894 76113.816188678684 -2495.3665634549257 -8367.2537530262834 45875.060680922412 297545.14623596042 335676.28856996988 13783.363326934603 45318.265702522622 -15939.382694157955 353767.46530051826 26284.175526224572 43843.761908088636 1295605.5897076863 8363039.9867419899 22983187.686668754 15362.001516480041 344440.44832150708 11663.992276605377 45851.749260632714 107.34783293515423 2145.9259231198225 20659.514266029284 11985.02287008396 70964.9204807442 1307291.013009313 121110.64291156031 248699.96077420446 1856547.6469802849 31788080.536976237 141296.45568897499 307096.78725911537 76319.411286631643 736801.22077249456 51016.509298975187 9326.3730129003343 31081.177071985876 471537.58372107963 433707.28036558116 22555.093249131089 690607.87024811283 42202.802846140883 48374.53430759332 13259.236321465643 14329.627523851343 38357.330071277676 36407.51500967882 -6060.3834166970828 34100.628422633054 8376.6403223058805 8418.3230076081582 18835.353597475059 -40598.679688875418 173186.62540076429 392844.56640239223 -628.11769628274487 9976.8144773581553 511475.88299161952 20986.799158974231 650586.79937966587 483539.78622342407 92321.53786981036 273533.22904023225
leaf_weight=658583 811 217 175 5787 409 306 112 429 126 6665 291 2885 462 182 137 93 459 838 177 178 618 1331 474 84 237 1370 453 88 1795 348 1923 752 26 262 165 421 188 325 99 89 56 301 171 167 139 55 176 9610 129 248 84 256 143 76 80 56 53 149 142 22 265 39 144
leaf_count=658583 811 217 175 5787 409 306 112 429 126 6665 291 2885 462 182 137 93 459 838 177 178 618 1331 474 84 237 1370 453 88 1795 348 1923 752 26 262 165 421 188 325 99 89 56 301 171 167 139 55 176 9610 129 248 84 256 143 76 80 56 53 149 142 22 265 39 144
internal_value=-0.000562022 0.0235028 0.0186741 -0.0010315 0.00697701 0.0307206 0.0350552 0.0290992 0.0381984 -0.00115632 0.00296464 0.0110759 0.0164031 0.0227917 0.0146883 0.0153122 0.0106917 0.0362203 0.0289509 0.0301969 0.000961805 0.00534558 0.01074 0.0182008 0.0218288 0.0426199 0.0355818 0.0123116 0.0424142 0.0362972 0.000409003 0.0120023 0.0057579 0.0350604 0.029035 0.0199287 0.0248647 0.00408036 0.0364707 0.0296235 0.0134936 0.0173746 0.0129793 0.021679 0.0226119 0.0111211 0.0281731 -0.00121786 0.000468797 0.0196008 0.0270016 0.0313474 0.00260154 0.0133619 0.0240132 0.00260145 0.0170986 0.00835208 0.0276439 0.01375 0.0191528 0.0178676 0.0365182
internal_weight=702931 13451 9486 689480 10581 3669 3965 2262 2502 678899 9989 5817 2906 1487 1167 957 1030 1684 846 857 8319 2532 1201 437 2095 2137 767 365 2478 530 9132 864 2911 683 421 1858 314 2467 623 332 234 1396 759 338 637 194 260 668910 10327 717 469 385 2142 219 190 727 109 578 443 110 571 204 233
internal_count=702931 13451 9486 689480 10581 3669 3965 2262 2502 678899 9989 5817 2906 1487 1167 957 1030 1684 846 857 8319 2532 1201 437 2095 2137 767 365 2478 530 9132 864 2911 683 421 1858 314 2467 623 332 234 1396 759 338 637 194 260 668910 10327 717 469 385 2142 219 190 727 109 578 443 110 571 204 233
is_linear=0
shrinkage=0.05


Tree=4
num_leaves=64
num_cat=0
split_feature=0 0 2 3 0 2 2 0 3 3 2 3 0 2 0 0 2 2 2 0 2 3 3 2 1070 2 1068 0 3 2 0 2 3 3 1067 2 755 0 2 755 3 2 755 1 2 3 1043 2 1 0 0 0 0 2 1068 2 0 3 1068 775 1085 1 2
split_gain=2137.5 294.65 262.679 253.974 157.728 412.635 136.294 97.6394 90.0482 76.912 73.7312 124.885 45.4155 41.7801 48.0872 40.7604 33.6014 39.3127 29.7179 39.1226 27.5259 25.8779 23.7715 22.6046 21.6367 21.6125 20.51 20.0565 33.1486 19.2348 18.1828 189.097 44.2191 17.6365 18.8146 16.2406 25.3694 23.1484 21.8716 16.0625 16.8263 15.5288 20.0416 14.6245 14.4134 15.4128 14.3704 13.8895 12.973 12.1406 12.0694 11.0401 10.7743 10.5667 9.16571 9.09334 8.96568 13.018 21.4964 8.94575 27.6339 10.9107 8.58498
threshold=56.500000000000007 154.50000000000003 60508.900000000009 19349646.500000004 33.500000000000007 48605.900000000001 21520.753623188411 1325.5000000000002 2505812.5000000005 8238902.5000000009 27771.781609195405 2505812.5000000005 269.50000000000006 165910.07142857145 16.500000000000004 97.500000000000014 16876.100000000002 23700.750000000004 27547.187500000004 244.50000000000003 77361.571428571449 8238902.5000000009 5963310.5000000009 13580.250000000002 1.0000000180025095e-35 39116.311904761911 1.0000000180025095e-35 42.500000000000007 960484.50000000012 20316.812500000004 22.500000000000004 71087.000000000015 2170910.0000000005 643874.00000000012 1.0000000180025095e-35 86270.000000000015 1.0000000180025095e-35 39.500000000000007 53369.846153846163 1.0000000180025095e-35 491985.00000000006 68313.10000000002 1.0000000180025095e-35 23432836.500000004 121655.00000000001 43787680.000000007 1.0000000180025095e-35 165910.07142857145 23432836.500000004 198.50000000000003 140.50000000000003 140.50000000000003 68.500000000000014 63896.000000000007 1.0000000180025095e-35 31500.800000000003 41.500000000000007 8238902.5000000009 1.0000000180025095e-35 1.0000000180025095e-35 1.0000000180025095e-35 5640284.5000000009 47168.625000000007
decision_type=2 2 2 2 2 2 2 2 2 2 2 2 2 2 2 2 2 2 2 2 2 2 2 2 2 2 2 2 2 2 2 2 2 2 2 2 2 2 2 2 2 2 2 2 2 2 2 2 2 2 2 2 2 2 2 2 2 2 2 2 2 2 2
left_child=4 2 10 6 13 25 12 24 35 41 15 33 -3 30 59 -2 -17 22 19 49 56 -22 29 -14 47 -6 -13 -27 -29 -18 -1 53 39 34 48 36 37 38 -7 40 -33 42 -4 62 45 46 52 -5 -12 -8 -45 -35 -11 -32 -39 -50 -10 58 -58 61 -61 -15 -28
right_child=1 3 9 7 5 8 18 -9 20 44 11 26 23 14 -16 16 17 -19 -20 -21 21 -23 -24 -25 -26 27 43 28 -30 -31 31 32 -34 51 -36 -37 -38 54 -40 -41 -42 -43 -44 50 -46 -47 -48 -49 55 -51 -52 -53 -54 -55 -56 -57 57 -59 -60 60 -62 -63 -64
leaf_value=-57070.14002478536 4106.2541883911827 14635.179626167359 114276.35831198181 401608.07407376333 -7732.8043638988311 5139.9081926799154 40460.222428944289 33972817.223807149 1670.4840185014973 41272.674004785025 51845.288614547346 22612.322900510815 518576.87691606389 107353.19946623628 737279.82398452004 -2289.0346999907597 25300.723577639641 15715.136150316863 2010385.7516707731 1598881.4321428407 296369.88180853811 477641.3202397034 17711.977356338801 1161012.2824332782 462816.34321248857 -769.51222884088975 60238.485645714543 17330.209907854271 7536.0458094936039 46614.890663473663 -11444.943215477126 60354.952833963747 17964.073197112488 42990.13714298002 59417.462698340976 386502.33663542295 22034.848663270241 42672.504602252426 24623.784763040985 13677.017078727557 45223.048589615457 838429.9478153917 19086.625392499245 11834.832324039431 1797369.5916447476 20160.761073752794 -72312.287378668887 14227305.017116183 30051.960785854888 33725.473021228107 125185.22780644571 83604.720247115954 228187.13466846451 8427.0779866898756 53469.541244582448 26151.098555125711 9205.6198046928057 11698.620533102612 32828.406228048851 -5097.2593916005062 164527.29413072608 273752.22043878149 74481.879934874974
leaf_weight=660666 2735 390 169 1528 7249 108 234 237 278 77 558 1658 110 1786 138 441 208 463 1764 328 135 166 186 197 275 600 427 204 400 262 12555 202 335 1146 227 273 90 134 236 60 266 570 49 332 103 124 60 46 25 150 31 45 203 264 299 128 67 182 92 142 81 426 197
leaf_count=660666 2735 390 169 1528 7249 108 234 237 278 77 558 1658 110 1786 138 441 208 463 1764 328 135 166 186 197 275 600 427 204 400 262 12555 202 335 1146 227 273 90 134 236 60 266 570 49 332 103 124 60 46 25 150 31 45 203 264 299 128 67 182 92 142 81 426 197
internal_value=-0.000666312 0.0175857 0.0127178 0.0272345 -0.00108271 0.00499465 0.0361436 0.0136829 0.0250607 0.0332518 0.00964977 0.013926 0.0166123 -0.0011771 0.00518218 0.00489668 0.0113462 0.0159529 0.0416418 0.0330197 0.0134239 0.0258264 0.0238262 0.0309976 0.00981003 0.00010455 0.00667061 0.00630814 0.0127401 0.0298138 -0.00120136 0.0006028 0.0232575 0.0229398 0.0280677 0.0344518 0.0311029 0.0340138 0.0243314 0.0322727 0.0353953 0.0433566 0.0320069 0.0123772 0.0192086 0.0154526 0.0209559 0.00754924 0.0240665 0.0221875 0.00439738 0.0189011 0.0257143 -0.00092236 0.0417061 0.0111683 0.00739297 0.0128262 0.0232783 0.00355493 0.0130998 0.00259268 0.0170192
internal_weight=703117 15683 10424 5259 687434 10513 3173 2086 2060 1355 9069 4774 697 676921 2573 4295 1560 1119 2476 712 920 301 656 307 1849 8453 2645 1204 604 470 674348 13682 863 2129 938 1140 867 777 344 528 468 788 218 987 567 464 340 1574 711 384 363 1191 280 12819 433 153 619 341 159 2435 223 2212 624
internal_count=703117 15683 10424 5259 687434 10513 3173 2086 2060 1355 9069 4774 697 676921 2573 4295 1560 1119 2476 712 920 301 656 307 1849 8453 2645 1204 604 470 674348 13682 863 2129 938 1140 867 777 344 528 468 788 218 987 567 464 340 1574 711 384 363 1191 280 12819 433 153 619 341 159 2435 223 2212 624
is_linear=0
shrinkage=0.05


Tree=5
num_leaves=64
num_cat=0
split_feature=0 0 3 1068 0 0 0 3 1053 3 1 1043 1064 0 1 0 1068 0 3 1070 3 1 1043 1042 1063 3 1194 1 3 755 1 0 1050 0 0 755 1 0 3 0 1 820 1 3 572 756 1 0 1 693 3 0 3 1 701 1085 0 3 1 521 1 744 1
split_gain=1432.19 147.198 161.575 70.5944 52.3438 49.8031 44.53 60.4091 42.0528 44.7977 54.6998 32.1635 22.5923 19.1676 18.137 17.7783 15.5363 15.1232 23.3446 14.0433 11.4704 12.042 11.2248 11.0678 10.9635 10.6159 10.1626 10.2311 9.54628 8.69548 14.2029 11.2123 12.7524 8.51534 8.34088 7.37871 7.18756 7.0859 6.95864 7.35526 6.61429 10.0791 6.48001 6.31694 6.14539 6.05886 6.05217 5.95862 6.05171 5.85048 5.62964 5.57912 6.07428 5.05728 5.03016 4.93469 5.09988 4.90986 5.06144 4.46997 4.46393 4.38779 4.32009
threshold=45.500000000000007 300.50000000000006 19349646.500000004 1.0000000180025095e-35 24.500000000000004 2670.5000000000005 73.500000000000014 2505812.5000000005 1.0000000180025095e-35 8238902.5000000009 9594694.0000000019 1.0000000180025095e-35 1.0000000180025095e-35 142.50000000000003 6348644.5000000009 68.500000000000014 1.0000000180025095e-35 73.500000000000014 43787680.000000007 1.0000000180025095e-35 1297766.5000000002 14106839.000000002 1.0000000180025095e-35 1.0000000180025095e-35 1.0000000180025095e-35 643874.00000000012 1.0000000180025095e-35 23432836.500000004 436396.50000000006 1.0000000180025095e-35 32170843.000000004 125.50000000000001 1.0000000180025095e-35 217.50000000000003 82.500000000000014 1.0000000180025095e-35 17832843.000000004 380.50000000000006 8238902.5000000009 39.500000000000007 8214330.5000000009 1.0000000180025095e-35 8214330.5000000009 19349646.500000004 1.0000000180025095e-35 1.0000000180025095e-35 117361024.00000001 748.00000000000011 14106839.000000002 1.0000000180025095e-35 11522.000000000002 40.500000000000007 8238902.5000000009 11438241.000000002 1.0000000180025095e-35 1.0000000180025095e-35 257.50000000000006 19349646.500000004 117361024.00000001 1.0000000180025095e-35 6348644.5000000009 1.0000000180025095e-35 50730407.000000007
decision_type=2 2 2 2 2 2 2 2 2 2 2 2 2 2 2 2 2 2 2 2 2 2 2 2 2 2 2 2 2 2 2 2 2 2 2 2 2 2 2 2 2 2 2 2 2 2 2 2 2 2 2 2 2 2 2 2 2 2 2 2 2 2 2
left_child=4 3 12 6 40 19 20 25 9 10 15 14 37 24 -6 22 -16 -11 29 47 21 -2 54 62 26 42 -12 -28 36 31 -31 32 -19 -9 -26 -17 -18 -3 39 61 -1 45 -8 -34 49 59 -29 48 -4 51 -47 -30 -53 -33 60 56 -27 58 -35 -42 -5 -13 -15
right_child=1 2 5 8 11 -7 7 33 -10 17 13 38 -14 23 16 35 28 18 -20 -21 -22 -23 -24 -25 34 55 27 46 44 30 -32 53 43 57 -36 -37 -38 -39 -40 -41 41 -43 -44 -45 -46 50 -48 -49 -50 -51 -52 52 -54 -55 -56 -57 -58 -59 -60 -61 -62 -63 -64
leaf_value=-53984.713727319497 19032.638486684336 1023946.4862831718 421178.82086059632 32742.763216597075 199.08625584846061 39556330.880469017 35600.726776043783 106450.129027175 20964.893179525097 44370.10546776111 366193.01309914392 26130.530178457549 503211.08635601384 390914.26810773672 5455.568651069143 192232.81238337216 35011.519689421868 179229.5822116551 178437.8505470728 528599.65910464234 9288.2488423941431 78248.759050638517 153086.24290462839 1237562.4945612343 88746.621721287287 64831.812315607152 337676.15770766488 459340.7869763624 36313.315317950619 -19420.302069619112 102463.94543031925 237065.92211652623 1021146.8230882895 191383.4114613925 48052.258201535064 374204.77216537483 151817.67192350948 4287374.906610786 -47417.031756415716 52804.751475467026 -675.93945659026292 19997.46489220066 110069.69298236654 358625.28454241389 513.95253543177387 282963.6284403819 494338.98950208235 3627293.554003153 850564.31340977387 14321.343929860952 93031.788453729154 162739.02347222902 -11931.122053269284 495401.41906343197 19574.274242912306 68978.363442532587 218022.6245964483 202441.25617007865 717531.41138807219 37463.940250011117 37124.819689421871 48062.388029538306 1086639.3024142438
leaf_weight=660107 1460 320 20 1078 11056 94 284 3125 651 681 1286 375 102 233 2563 972 571 338 480 115 1848 289 49 163 214 1170 159 115 1884 20 49 102 61 255 50 51 209 575 70 54 6268 50 818 63 22 28 30 352 585 26 23 263 97 323 22 128 38 274 51 38 357 51 74
leaf_count=660107 1460 320 20 1078 11056 94 284 3125 651 681 1286 375 102 233 2563 972 571 338 480 115 1848 289 49 163 214 1170 159 115 1884 20 49 102 61 255 50 51 209 575 70 54 6268 50 818 63 22 28 30 352 585 26 23 263 97 323 22 128 38 274 51 38 357 51 74
internal_value=-0.000758302 0.0125945 0.0248942 0.0110621 -0.00113958 0.0122577 0.00824179 0.0108288 0.0146665 0.0158017 0.0184492 0.00158046 0.0396728 0.0239867 0.00118844 0.0133605 0.00349712 0.00973252 0.0126428 0.00919776 0.00382367 0.00672599 0.00990538 0.0330053 0.0217004 0.0169411 0.0201336 0.0283553 0.00589518 0.01716 0.0342572 0.01583 0.0104383 0.00680668 0.0311364 0.018447 0.0106731 0.0422137 0.0134773 0.015625 -0.00120994 0.000388834 0.020574 0.0241532 0.0042692 0.000212955 0.01875 0.00721395 0.00420455 0.00401432 0.0173775 0.00374109 0.00944445 0.0216912 0.00911376 0.0139446 0.0149338 0.0123707 0.0167239 7.41369e-05 0.00875 0.0134214 0.0274145
internal_weight=703279 19524 2163 17361 683755 1166 9740 6143 7621 6970 4853 17241 997 2324 16691 2529 5635 2117 1436 1072 3597 1749 1506 470 1854 2438 1590 304 3072 956 69 887 462 3705 264 1023 780 895 550 480 666514 6407 1102 124 2292 6357 145 957 605 2270 51 2244 360 425 1457 1336 1208 580 306 6306 1435 426 307
internal_count=703279 19524 2163 17361 683755 1166 9740 6143 7621 6970 4853 17241 997 2324 16691 2529 5635 2117 1436 1072 3597 1749 1506 470 1854 2438 1590 304 3072 956 69 887 462 3705 264 1023 780 895 550 480 666514 6407 1102 124 2292 6357 145 957 605 2270 51 2244 360 425 1457 1336 1208 580 306 6306 1435 426 307
is_linear=0
shrinkage=0.05


Tree=6
num_leaves=64
num_cat=0
split_feature=0 2 3 0 3 2 2 2 0 0 3 2 0 3 0 1 755 0 2 3 0 2 2 3 0 1068 2 0 2 3 755 0 3 2 0 3 2 1067 2 2 2 0 2 775 1085 2 2 3 3 0 1 2 0 2 573 2 0 1 0 3 2 0 1042
split_gain=886.098 425.839 178.131 112.376 64.8218 70.5423 63.6566 61.5621 183.539 42.0587 40.9598 45.8204 38.6655 30.987 28.4436 37.1375 31.5574 27.7142 25.6504 23.2298 47.9385 20.8754 18.5619 25.3079 18.4363 18.3997 18.2007 17.6411 119.489 52.8244 34.5336 17.3269 17.2779 15.9917 27.0994 20.1636 15.0738 14.928 12.4377 12.4033 11.1802 10.9635 10.9495 9.94475 28.9932 9.75137 9.67652 11.8317 9.44902 9.36105 9.32184 8.88255 9.41307 8.86429 8.74517 8.54018 9.66359 7.97374 7.96872 7.94114 7.69514 9.81998 10.7755
threshold=43.500000000000007 48605.900000000001 8238902.5000000009 276.50000000000006 19349646.500000004 28358.178571428576 77361.571428571449 103568.10000000002 16.500000000000004 69.500000000000014 2505812.5000000005 19859.333333333339 542.00000000000011 643874.00000000012 139.50000000000003 23432836.500000004 1.0000000180025095e-35 2214.5000000000005 23700.750000000004 19349646.500000004 179.50000000000003 86270.000000000015 32290.114285714288 643874.00000000012 21.500000000000004 1.0000000180025095e-35 37436.090909090919 21.500000000000004 63896.000000000007 596944.50000000012 1.0000000180025095e-35 3834.5000000000005 1171597.5000000002 52248.000000000007 31.500000000000004 2505812.5000000005 14088.589285714288 1.0000000180025095e-35 121655.00000000001 42418.350000000006 71087.000000000015 83.500000000000014 165910.07142857145 1.0000000180025095e-35 1.0000000180025095e-35 57581.107142857152 121655.00000000001 2505812.5000000005 224716.00000000003 447.50000000000006 23432836.500000004 37118.433333333342 217.50000000000003 59174.366666666676 1.0000000180025095e-35 40428.65151515152 50.500000000000007 5640284.5000000009 69.500000000000014 4621674.5000000009 92747.553571428594 70.500000000000014 1.0000000180025095e-35
decision_type=2 2 2 2 2 2 2 2 2 2 2 2 2 2 2 2 2 2 2 2 2 2 2 2 2 2 2 2 2 2 2 2 2 2 2 2 2 2 2 2 2 2 2 2 2 2 2 2 2 2 2 2 2 2 2 2 2 2 2 2 2 2 2
left_child=7 3 6 9 5 12 14 27 42 22 11 -11 -5 -10 15 16 25 19 -6 20 21 -4 -2 55 -15 32 48 -1 33 30 40 -20 -3 -29 -35 -36 -14 50 -21 -39 -30 -27 -9 57 -45 -17 47 -26 -13 -40 -28 -12 54 -43 -53 56 -24 -44 -23 -31 61 62 -8
right_child=1 2 17 4 18 -7 60 8 13 10 51 26 36 24 -16 45 -18 -19 31 38 -22 58 23 -25 46 41 37 28 29 59 -32 -33 -34 34 35 -37 -38 39 49 -41 -42 53 43 44 -46 -47 -48 -49 -50 -51 -52 52 -54 -55 -56 -57 -58 -59 -60 -61 -62 -63 -64
leaf_value=-52732.573305594902 -7254.2847194561591 55300.716618366714 58525.64299545464 62824.219578380864 426582.6059811064 1467508.6072288591 57967.48288028891 -9872.7405022569055 445773.6836401489 5078.1113119490947 15790.212827982738 34117.323786634595 521090.9753654782 138381.17725391249 1369975.2620313363 19988.120772127262 19295.968069276867 72897232.750401497 34815.279345906551 283188.92434694979 4172196.5077595096 426157.31635765167 994.42268419961988 4394.798815440864 34195.345686303524 61834.269705225168 48159.912360806309 -16489.046563070293 16997.323725317772 13605.276733367902 7127.3410757477168 14876661.370668739 46484.30893728276 -1447.3352264820869 16482.642403658992 2077.5172457053318 2269414.0687626246 74426.291393519612 1300035.0822293428 46900.61579008081 26703.62797002435 12790.343084517564 116721.00658024517 -3372.3843081103682 159000.16511055574 63219.916290323265 451943.58846182062 24276.968051878852 26019.576063973611 15718817.322582752 84355.203515410743 38007.248819203865 149088.03021923269 101697.80073455372 95917.579317973839 25155.031753144107 13798.227696362557 312213.798834769 674775.3296671164 5201.9131089595867 1932512.908212191 882307.54408587539 17263.32944696923
leaf_weight=653957 4016 91 439 385 223 411 81 4324 264 1035 3283 516 56 153 235 194 117 55 578 1157 158 52 153 1357 73 402 262 18856 122 569 95 21 130 810 274 159 107 100 147 50 275 53 1809 148 82 214 176 84 1817 33 124 905 97 40 25 153 184 414 115 381 495 189 51
leaf_count=653957 4016 91 439 385 223 411 81 4324 264 1035 3283 516 56 153 235 194 117 55 578 1157 158 52 153 1357 73 402 262 18856 122 569 95 21 130 810 274 159 107 100 147 50 275 53 1809 148 82 214 176 84 1817 33 124 905 97 40 25 153 184 414 115 381 495 189 51
internal_value=-0.000844073 0.00944881 0.0231205 0.00561404 0.0174474 0.0262787 0.032825 -0.00115008 0.00334679 0.00411691 0.00642592 0.0101358 0.0145347 0.0268167 0.0266294 0.023609 0.0296624 0.0128038 0.00714416 0.0118866 0.0188416 0.0124464 0.000882016 0.00503046 0.0193261 0.0335964 0.0133892 -0.00120018 0.000207687 0.0141106 0.0274085 0.00175501 0.0216007 -0.000789777 0.00470334 0.0148008 0.0349463 0.0216978 0.0079123 0.0350833 0.0338885 0.038952 0.000749411 0.00341775 0.0133152 0.01125 0.0259272 0.0169029 0.0114804 0.0201389 0.0164961 0.00306555 0.00712391 0.0234812 0.00557796 0.0147704 0.0103227 0.00239373 0.0274925 0.00722369 0.0440319 0.0380023 0.0275379
internal_weight=703331 20306 4448 15858 1781 959 2292 683025 7527 14077 8214 3904 548 750 1476 1241 833 2156 822 2101 764 606 5863 1847 486 716 2869 675498 21541 1442 492 599 221 20099 1243 433 163 536 1337 150 397 495 6777 2453 230 408 333 157 2333 180 386 4310 1027 93 930 490 337 2223 167 950 816 321 132
internal_count=703331 20306 4448 15858 1781 959 2292 683025 7527 14077 8214 3904 548 750 1476 1241 833 2156 822 2101 764 606 5863 1847 486 716 2869 675498 21541 1442 492 599 221 20099 1243 433 163 536 1337 150 397 495 6777 2453 230 408 333 157 2333 180 386 4310 1027 93 930 490 337 2223 167 950 816 321 132
is_linear=0
shrinkage=0.05


Tree=7
num_leaves=64
num_cat=0
split_feature=0 2 3 0 3 2 0 2 0 0 2 3 2 755 1 0 2 3 2 0 3 0 2 3 755 1067 1068 2 3 2 2 0 0 0 2 2 0 3 0 2 0 3 0 775 1085 1043 3 0 0 2 2 2 0 3 2 1 2 2 3 0 1 1 0
split_gain=665.015 322.626 134.083 76.7609 43.0761 41.4135 57.5693 38.7983 38.4492 37.4859 43.0676 35.1248 36.9936 35.0486 39.9831 24.6004 22.9891 29.2993 22.8968 20.7224 19.8214 19.1186 135.578 43.5985 31.5397 17.7383 16.8632 16.7221 17.4627 15.6121 13.3588 16.1022 12.5342 11.6347 11.5592 11.4299 14.9134 13.201 10.9253 10.8127 10.4273 14.4438 10.0079 9.96924 28.2357 9.90635 9.25961 9.10451 9.07139 8.42885 8.40923 8.40095 13.2101 25.0164 8.00013 7.15017 7.66892 7.00669 11.0498 18.861 6.73862 6.58072 6.52322
threshold=40.500000000000007 50359.758823529417 8238902.5000000009 318.50000000000006 19349646.500000004 165910.07142857145 17.500000000000004 30484.055555555558 70.500000000000014 179.50000000000003 121655.00000000001 1643994.5000000002 19412.061797752813 1.0000000180025095e-35 23432836.500000004 689.00000000000011 41334.980000000003 1297766.5000000002 23700.750000000004 1706.5000000000002 643874.00000000012 22.500000000000004 63896.000000000007 596944.50000000012 1.0000000180025095e-35 1.0000000180025095e-35 1.0000000180025095e-35 92747.553571428594 19349646.500000004 11040.187500000002 28800.166666666668 103.50000000000001 2214.5000000000005 91.500000000000014 71087.000000000015 37828.416666666679 225.50000000000003 19349646.500000004 72.500000000000014 59174.366666666676 109.50000000000001 43787680.000000007 28.500000000000004 1.0000000180025095e-35 1.0000000180025095e-35 1.0000000180025095e-35 2505812.5000000005 912.50000000000011 114.50000000000001 165910.07142857145 19704.750000000004 53369.846153846163 31.500000000000004 253525.50000000003 103568.10000000002 11438241.000000002 44136.320930232563 30247.375000000004 643874.00000000012 54.500000000000007 23432836.500000004 5640284.5000000009 46.500000000000007
decision_type=2 2 2 2 2 2 2 2 2 2 2 2 2 2 2 2 2 2 2 2 2 2 2 2 2 2 2 2 2 2 2 2 2 2 2 2 2 2 2 2 2 2 2 2 2 2 2 2 2 2 2 2 2 2 2 2 2 2 2 2 2 2 2
left_child=5 3 9 8 7 21 43 15 16 10 13 12 -10 14 20 -5 57 55 50 27 -3 -1 51 24 34 -14 -22 40 38 -17 -27 -32 -20 -15 -24 -13 60 -38 -29 -16 -4 -42 -8 61 -45 -40 54 49 -41 -30 -6 -23 -53 -54 -25 56 -18 -2 59 -59 -37 -7 -28
right_child=1 2 19 4 18 6 42 -9 11 -11 -12 35 25 33 39 29 17 -19 32 -21 26 22 23 46 -26 30 62 28 47 -31 31 -33 -34 -35 -36 36 37 -39 45 48 41 -43 -44 44 -46 -47 -48 -49 -50 -51 -52 52 53 -55 -56 -57 -58 58 -60 -61 -62 -63 -64
leaf_value=-49068.000549493096 -10857.896515462437 117970.94260950913 23247.895338891936 130511.29948138495 350464.02459886234 107170.93921732812 694324.37338575022 2375023.8732413952 6788.5159813589871 2499419.5713241519 1066864.3417252975 16686.738735090199 31075.194568234689 18041.529987675833 25432.03878276817 313408.20194391726 18695.781870225685 4557.2111610007587 -151988.86916150301 44871714.926467583 77902.401308811022 -16516.932589874192 12190.810740225699 12925.012896699505 16398.550676487128 28238.529972460507 32158.160795920692 433029.02459457715 169828.18149857735 4913145.1223261533 47651.480827248801 92501.647401260445 11974512.368483432 289142.50443392136 47708.837583386354 50147.542234275927 109591.64246153955 246132.28404553735 2653892.3676517513 64522.115538798382 815508.87433484965 210753.96955261423 570975.28771625028 -1974.5415202489655 151050.15685502795 800905.79459764773 15990.341422925261 15471444.21909222 252355.46966008694 7054112.7348903259 517860.57054527453 -1177.2680027147289 15013.8426157992 6843.4971919776326 46399.495118411141 17659.62229840428 20157.104842534347 2020.6640987622691 -85.677472889402793 14478.84718944936 34107.709738669648 288945.20004664717 132295.15888263116
leaf_weight=660316 4329 283 699 360 107 1832 114 252 807 286 233 4208 1715 247 197 45 110 515 485 76 178 15885 125 375 103 304 119 45 227 83 160 136 51 29 307 407 69 77 84 284 380 418 74 142 75 36 570 20 84 91 87 641 67 258 90 117 118 398 1447 207 679 428 369
leaf_count=660316 4329 283 699 360 107 1832 114 252 807 286 233 4208 1715 247 197 45 110 515 485 76 178 15885 125 375 103 304 119 45 227 83 160 136 51 29 307 407 69 77 84 284 380 418 74 142 75 36 570 20 84 91 87 641 67 258 90 117 118 398 1447 207 679 428 369
internal_value=-0.000892632 0.00773283 0.0198446 0.00465807 0.0155867 -0.00116679 0.00505394 0.0240878 0.00364148 0.028135 0.0257396 0.00590954 0.0101369 0.0231075 0.0260948 0.0158607 0.000959641 0.00863372 0.00696918 0.0106238 0.0323643 -0.00119121 0.000397577 0.0144506 0.0260397 0.0133504 0.0276539 0.00965 0.0175373 0.0346875 0.02075 0.0283108 0.00164179 0.00672102 0.0319676 0.00348346 0.00771916 0.0227226 0.0308712 0.0155642 0.00699983 0.0109054 0.0317287 0.00302937 0.0132661 0.03875 0.00846015 0.0110281 0.020625 0.00897013 0.0216881 -0.00091174 0.00361543 0.0118269 0.0136962 0.0199094 0.0250658 -7.46344e-05 0.00233187 0.0080062 0.00570212 0.00204646 0.032459
internal_weight=703060 21658 4385 17273 1470 681402 2665 740 15803 2309 2023 8562 3122 1790 1514 488 7241 860 730 2076 949 678737 18421 1570 535 2315 666 2000 503 128 600 296 536 276 432 5440 1232 146 165 565 1497 798 188 2477 217 120 1035 338 368 318 194 16851 966 325 465 345 228 6381 2052 605 1086 2260 488
internal_count=703060 21658 4385 17273 1470 681402 2665 740 15803 2309 2023 8562 3122 1790 1514 488 7241 860 730 2076 949 678737 18421 1570 535 2315 666 2000 503 128 600 296 536 276 432 5440 1232 146 165 565 1497 798 188 2477 217 120 1035 338 368 318 194 16851 966 325 465 345 228 6381 2052 605 1086 2260 488
is_linear=0
shrinkage=0.05


Tree=8
num_leaves=64
num_cat=0
split_feature=0 0 1042 3 3 0 0 3 1063 0 1067 3 1 0 3 3 1043 1064 1 1043 1043 1068 1 3 1050 0 1 3 1070 3 0 820 3 1043 0 701 1 3 0 1 1 1 0 1068 3 1063 693 3 1085 1 0 3 1085 3 0 0 3 0 1041 756 3 1042 1248
split_gain=506.08 62.4268 34.4484 29.487 26.1535 25.1234 21.3312 19.0619 19.0297 18.9046 17.0628 15.9978 15.7698 13.6628 42.9679 12.7247 12.0001 11.8491 9.7505 9.42995 9.32158 8.82884 8.55933 8.02443 7.40138 6.68545 6.41652 6.34608 6.13472 6.47203 8.80576 5.71439 5.4748 9.47191 6.17619 5.28016 5.26407 4.92308 4.75936 4.37993 4.11499 4.06138 4.03333 3.79033 5.68132 3.72098 3.72222 6.02679 3.68823 3.56583 3.74226 3.51803 3.46848 4.05723 3.45103 3.39918 3.25245 3.2125 3.106 2.97942 5.63333 2.97675 9.80271
threshold=41.500000000000007 118.50000000000001 1.0000000180025095e-35 19349646.500000004 2505812.5000000005 3834.5000000000005 19.500000000000004 2505812.5000000005 1.0000000180025095e-35 69.500000000000014 1.0000000180025095e-35 253525.50000000003 7128192.5000000009 476.50000000000006 19349646.500000004 1297766.5000000002 1.0000000180025095e-35 1.0000000180025095e-35 117361024.00000001 1.0000000180025095e-35 1.0000000180025095e-35 1.0000000180025095e-35 6348644.5000000009 216509.00000000003 1.0000000180025095e-35 37.500000000000007 17832843.000000004 43787680.000000007 1.0000000180025095e-35 19349646.500000004 237.50000000000003 1.0000000180025095e-35 19349646.500000004 1.0000000180025095e-35 257.50000000000006 1.0000000180025095e-35 117361024.00000001 92008.500000000015 136.50000000000003 117361024.00000001 17832843.000000004 50730407.000000007 225.50000000000003 1.0000000180025095e-35 8238902.5000000009 1.0000000180025095e-35 1.0000000180025095e-35 960484.50000000012 1.0000000180025095e-35 5640284.5000000009 102.50000000000001 144153.50000000003 1.0000000180025095e-35 13958.500000000002 165.50000000000003 142.50000000000003 2170910.0000000005 33.500000000000007 1.0000000180025095e-35 1.0000000180025095e-35 29869.500000000004 1.0000000180025095e-35 1.0000000180025095e-35
decision_type=2 2 2 2 2 2 2 2 2 2 2 2 2 2 2 2 2 2 2 2 2 2 2 2 2 2 2 2 2 2 2 2 2 2 2 2 2 2 2 2 2 2 2 2 2 2 2 2 2 2 2 2 2 2 2 2 2 2 2 2 2 2 2
left_child=6 4 5 11 8 7 59 18 9 20 19 51 -10 21 36 49 22 -16 38 39 24 28 61 25 35 31 -27 32 29 30 -9 -24 33 -23 54 40 -15 -28 -3 -11 -2 -32 -20 -6 -45 46 -25 -48 55 -12 -51 -4 -26 -54 -34 -40 57 -18 -57 -1 -61 -8 -63
right_child=1 2 3 -5 43 -7 16 13 12 10 15 -13 -14 14 17 -17 56 -19 42 -21 -22 27 23 45 52 26 37 -29 -30 -31 41 -33 34 -35 -36 -37 -38 -39 48 -41 -42 -43 -44 44 -46 -47 47 -49 -50 50 -52 -53 53 -55 -56 58 -58 -59 -60 60 -62 62 -64
leaf_value=-48317.57052848435 13435.521449107555 68939.195290231772 4599676.148090452 538064.85162946221 11234.940459333995 89844046.395613149 -3695.6438478646337 66781.914311365923 6722.406727306995 50844.228596256027 32207.477675296617 2992399.0849450668 49713.44805241334 1732029.8778690547 1719219.3585358812 35204.357545099279 14564.307995177349 454030.92482546822 1086165.9561201239 439015.45436092711 38936.613403100666 248159.64039532584 18031.399419868641 3494.4079225913465 26281.731918421719 21819.149943839646 94514.459033563733 139663.08315129663 102530.29550718048 2089.4378927823723 54532.495853528904 21488.993795214607 166189.62538215265 1208277.9342430842 131774.27010660383 13364.376205217295 2817962.0491623455 93389.33975951407 31997.618933990972 867192.68214194279 60684.406006624515 624359.10052422422 2135558.2031918564 49148.84203542598 25979.074647398123 13000.448257414197 12278.762251864526 -23638.649367688697 357450.40492425626 62381.499616496512 67099.65964100101 2666964.6067186906 -41438.759319368466 34206.396011283119 310917.89184359199 175914.81339686614 5218.8873230794379 28769.78099512526 2677089.7169518978 9588.4754287280994 31134.072396417243 7392.5284682288147 7202.8012947567222
leaf_weight=654892 3637 377 22 142 3010 55 18813 1014 104 2042 74 187 245 112 614 301 412 28 45 38 70 521 872 4986 701 103 26 304 559 802 159 30 91 60 63 33 152 26 80 39 507 251 90 1247 1466 300 21 27 250 294 89 36 34 146 69 1058 231 100 23 120 27 446 21
leaf_count=654892 3637 377 22 142 3010 55 18813 1014 104 2042 74 187 245 112 614 301 412 28 45 38 70 521 872 4986 701 103 26 304 559 802 159 30 91 60 63 33 152 26 80 39 507 251 90 1247 1466 300 21 27 250 294 89 36 34 146 69 1058 231 100 23 120 27 446 21
internal_value=-0.000931581 0.00666865 0.0104683 0.0249774 0.00473494 0.00963978 -0.00116848 0.0093644 0.00651873 0.00602046 0.00926443 0.0354847 0.0179477 0.00767894 0.0132092 0.0157025 0.000224598 0.00622664 0.0135706 0.00696142 0.00420047 0.00639192 4.32893e-05 0.00162905 0.00394968 0.00560904 0.0152016 0.010167 0.00489004 0.00371406 0.00573736 0.00396064 0.0124938 0.00993761 0.0191536 0.00307128 0.0301894 0.0295192 0.0125923 0.00651069 0.00291265 0.0119207 0.0265278 0.0021311 0.00348646 0.000840365 0.000517979 0.014375 0.0112589 0.0209601 0.0229014 0.0125431 0.00811436 0.0143056 0.024375 0.0124451 0.0064889 0.00871094 0.0131811 -0.00122466 0.00589286 -0.000482364 0.00346092
internal_weight=702694 21241 7164 387 14077 6777 681453 6722 8354 8005 2877 245 349 4799 906 758 26414 642 1923 2119 5128 3893 25671 6391 5058 1057 155 1108 2785 2226 1424 902 804 581 223 4177 264 52 1788 2081 4144 410 135 5723 2713 5334 5034 48 1411 457 383 58 881 180 160 1161 743 512 1081 655039 147 19280 467
internal_count=702694 21241 7164 387 14077 6777 681453 6722 8354 8005 2877 245 349 4799 906 758 26414 642 1923 2119 5128 3893 25671 6391 5058 1057 155 1108 2785 2226 1424 902 804 581 223 4177 264 52 1788 2081 4144 410 135 5723 2713 5334 5034 48 1411 457 383 58 881 180 160 1161 743 512 1081 655039 147 19280 467
is_linear=0
shrinkage=0.05


Tree=9
num_leaves=64
num_cat=0
split_feature=1 2 2 2 1 1 3 3 1 1063 1 1068 3 1 1063 2 775 1251 1 2 755 3 1068 1 3 3 3 1068 2 2 1 755 1038 3 755 3 573 2 2 3 1066 1 1064 3 2 1065 1 1079 2 755 3 1207 2 1056 3 1063 1248 2 1043 1 1066 1057 755
split_gain=242.665 106.81 24.18 21.8987 28.7527 15.9023 18.9094 12.901 13.3712 11.418 10.1037 9.69192 8.9756 8.07564 7.49903 6.99557 12.8563 30.0852 6.80034 7.08476 7.19113 6.72183 6.26576 6.04514 5.83848 5.72789 5.57924 5.2907 4.98596 4.95611 4.94546 4.90272 4.71147 4.74677 4.87619 4.61195 9.03119 9.3006 4.52768 4.26761 6.32599 4.19309 3.94401 7.26123 9.67689 4.39479 3.84683 3.57562 3.4922 3.44451 3.07015 2.97715 2.83397 2.77294 2.7432 2.68634 2.64313 2.59316 2.49118 2.31975 3.34225 2.319 2.29075
threshold=8214330.5000000009 60508.900000000009 121655.00000000001 71087.000000000015 2543390.5000000005 17832843.000000004 11895337.000000002 8238902.5000000009 117361024.00000001 1.0000000180025095e-35 50730407.000000007 1.0000000180025095e-35 643874.00000000012 4570155.0000000009 1.0000000180025095e-35 165910.07142857145 1.0000000180025095e-35 1.0000000180025095e-35 32170843.000000004 103568.10000000002 1.0000000180025095e-35 556365.00000000012 1.0000000180025095e-35 32170843.000000004 1444804.0000000002 19349646.500000004 253525.50000000003 1.0000000180025095e-35 49458.500000000007 54659.889610389619 5061425.5000000009 1.0000000180025095e-35 1.0000000180025095e-35 56693.500000000007 1.0000000180025095e-35 19349646.500000004 1.0000000180025095e-35 46516.312500000007 48605.900000000001 387002.50000000006 1.0000000180025095e-35 50730407.000000007 1.0000000180025095e-35 19349646.500000004 34900.500000000007 1.0000000180025095e-35 117361024.00000001 1.0000000180025095e-35 103568.10000000002 1.0000000180025095e-35 2505812.5000000005 1.0000000180025095e-35 35442.196428571435 1.0000000180025095e-35 1297766.5000000002 1.0000000180025095e-35 1.0000000180025095e-35 81138.800000000017 1.0000000180025095e-35 117361024.00000001 1.0000000180025095e-35 1.0000000180025095e-35 1.0000000180025095e-35
decision_type=2 2 2 2 2 2 2 2 2 2 2 2 2 2 2 2 2 2 2 2 2 2 2 2 2 2 2 2 2 2 2 2 2 2 2 2 2 2 2 2 2 2 2 2 2 2 2 2 2 2 2 2 2 2 2 2 2 2 2 2 2 2 2
left_child=3 9 7 13 15 -4 10 8 14 11 32 12 29 -1 18 62 -17 -18 31 27 58 38 25 -14 48 41 30 54 -15 52 55 39 33 49 -35 -13 -37 -38 -11 40 -3 -9 43 44 59 -45 50 61 -16 -7 -46 -44 -2 -8 -20 -6 -32 -43 -21 -25 -61 -48 -5
right_child=1 2 5 4 26 6 53 22 -10 21 -12 35 23 28 24 16 17 -19 19 20 -22 -23 -24 42 -26 -27 -28 -29 -30 -31 56 -33 -34 34 -36 36 37 -39 -40 -41 -42 57 51 45 46 -47 47 -49 -50 -51 -52 -53 -54 -55 -56 -57 -58 -59 -60 60 -62 -63 -64
leaf_value=-44853.780648817512 21837.26161837071 41822.307580861379 382580.97263632965 -17554.035109037675 24599.581163702307 271580.16681478749 10353166.139963828 41590.701631906471 2477989.0890011317 17128.907231083635 3339366.9286392853 826.23061480527986 9217.2770021304441 -3123.9157690707138 54068.990837310084 156988.44211327459 -45514.449987164728 145913.52753870076 205351.45641174857 159861.06135163922 202223.47032146994 37305.476127375601 371088.02354690764 6993.6876017976192 29984.028463963979 989581.20166519866 14322.641862566305 466341.62461188529 11269.087695665461 47865.820923254978 66479.52368556177 2105.5574711805275 237669.37106433569 572238.26631034201 917245.91056348104 116670.10344469693 73068.428648181769 -26511.968699552912 41145.203759183874 63805.120816425828 55688.764563388751 614190.38546476222 154086.04588022633 -41357.322220895541 107988.46564365779 255885.09159996195 712207.65949586045 1144931.8997758254 10352.977530446737 -1058.356595479534 83117.721857179829 185142.995785779 39142.983128646032 36366759.4090809 551280.14136312238 -3765.928248117139 72905.288368221125 1759675.1805666806 1081717.9040396728 624408.62434843695 2369719.4979442745 1607812.5787922693 94791.808677547247
leaf_weight=645601 1493 363 449 14898 793 31 298 59 141 47 170 6524 5309 10709 106 1588 123 77 40 41 29 294 1120 1007 135 317 2318 256 1830 48 270 217 39 162 28 1037 28 20 53 1173 33 62 441 1164 162 40 189 38 23 28 603 31 614 32 93 164 23 43 20 204 38 41 151
leaf_count=645601 1493 363 449 14898 793 31 298 59 141 47 170 6524 5309 10709 106 1588 123 77 40 41 29 294 1120 1007 135 317 2318 256 1830 48 270 217 39 162 28 1037 28 20 53 1173 33 62 441 1164 162 40 189 38 23 28 603 31 614 32 93 164 23 43 20 204 38 41 151
internal_value=-0.000974795 0.00386972 0.0100154 -0.00115281 0.000460366 0.0161712 0.0204505 0.00823256 0.0103605 0.00212709 0.0270251 0.00195267 0.00287362 -0.00120282 0.00952501 -0.000403649 0.00255313 0.0145 0.00859548 0.0138857 0.0265278 0.010552 0.00468379 0.00219772 0.0175 0.00945686 0.00453756 0.0109608 5.39329e-05 0.00578016 0.00723 0.00717665 0.0213194 0.0238504 0.0276974 0.000570214 0.00358871 0.0247917 0.02175 0.00815089 0.0126389 0.0170427 0.00367673 0.00309596 0.00475351 -4.56799e-05 0.00833374 0.0134888 0.0251066 0.0114619 0.00652778 0.0079661 0.00541825 0.0113258 0.0190508 0.00548981 0.0129138 0.0230357 0.0167828 0.00179244 0.00618802 0.0111413 -0.000754949
internal_weight=703478 24933 5508 678545 20405 1237 788 4271 2670 19425 458 19031 11422 658140 2529 16837 1788 200 2265 479 90 394 1601 9267 264 481 3568 389 12539 2155 1250 1786 288 249 190 7609 1085 48 100 1569 396 164 3958 3486 2282 1204 1033 268 129 59 765 472 2107 330 133 957 293 105 61 1249 242 230 15049
internal_count=703478 24933 5508 678545 20405 1237 788 4271 2670 19425 458 19031 11422 658140 2529 16837 1788 200 2265 479 90 394 1601 9267 264 481 3568 389 12539 2155 1250 1786 288 249 190 7609 1085 48 100 1569 396 164 3958 3486 2282 1204 1033 268 129 59 765 472 2107 330 133 957 293 105 61 1249 242 230 15049
is_linear=0
shrinkage=0.05


Tree=10
num_leaves=64
num_cat=0
split_feature=0 2 2 2 0 0 0 0 755 2 775 1085 2 755 0 1067 2 2 0 0 35 0 35 0 756 755 1063 0 0 2 572 0 0 2 0 2 2 0 0 1067 2 2 0 2 0 1038 0 0 1047 2 0 0 0 1067 0 2 0 2 0 0 0 1067 2
split_gain=278.989 143.192 31.9985 26.2949 98.1128 25.6088 16.4419 16.2809 13.6886 12.2446 12.1889 30.1395 10.6142 12.5347 13.653 11.859 10.4807 9.34243 9.18598 8.36503 7.77208 7.4866 6.35251 6.29583 5.98322 5.84562 5.84525 5.64297 5.44325 4.87676 4.52651 4.44282 4.16919 4.26667 4.165 4.73241 4.28584 3.96759 3.66535 3.53799 3.5057 3.47591 4.31495 3.42389 5.57192 3.37075 3.17629 4.87265 3.11936 4.27878 4.7505 3.70541 6.46008 5.51283 4.59052 2.92746 6.73496 7.7055 6.058 15.2677 9.0307 5.13931 8.7002
threshold=39.500000000000007 38243.416666666679 103568.10000000002 74005.000000000015 14.500000000000002 491.00000000000006 76.500000000000014 93.500000000000014 1.0000000180025095e-35 165910.07142857145 1.0000000180025095e-35 1.0000000180025095e-35 47850.000000000007 1.0000000180025095e-35 233.50000000000003 1.0000000180025095e-35 165910.07142857145 20008.071428571431 1069.0000000000002 81.500000000000014 1.0000000180025095e-35 124.50000000000001 1.0000000180025095e-35 116.50000000000001 1.0000000180025095e-35 1.0000000180025095e-35 1.0000000180025095e-35 20.500000000000004 225.50000000000003 86270.000000000015 1.0000000180025095e-35 300.50000000000006 43.500000000000007 121655.00000000001 28.500000000000004 165910.07142857145 86270.000000000015 51.500000000000007 48.500000000000007 1.0000000180025095e-35 53369.846153846163 30484.055555555558 54.500000000000007 19704.750000000004 632.00000000000011 1.0000000180025095e-35 51.500000000000007 44.500000000000007 1.0000000180025095e-35 42418.350000000006 81.500000000000014 80.500000000000014 103.50000000000001 1.0000000180025095e-35 93.500000000000014 23700.750000000004 103.50000000000001 28192.318750000002 97.500000000000014 136.50000000000003 115.50000000000001 1.0000000180025095e-35 31500.800000000003
decision_type=2 2 2 2 2 2 2 2 2 2 2 2 2 2 2 2 2 2 2 2 2 2 2 2 2 2 2 2 2 2 2 2 2 2 2 2 2 2 2 2 2 2 2 2 2 2 2 2 2 2 2 2 2 2 2 2 2 2 2 2 2 2 2
left_child=3 5 12 -1 9 6 41 16 18 -5 24 -12 28 15 46 19 32 -8 -9 26 39 -21 55 -24 -11 27 29 -6 38 30 37 -30 33 -4 -29 36 -36 -14 -3 43 -17 -2 -43 -7 -45 -18 47 -15 49 51 -51 53 54 -40 -53 58 57 -57 -19 60 -60 62 -59
right_child=1 2 7 4 25 20 17 8 -10 10 11 -13 13 14 -16 40 45 22 -20 21 -22 -23 23 -25 -26 -27 -28 34 31 -31 -32 -33 -34 -35 35 -37 -38 -39 48 -41 -42 42 -44 44 -46 -47 -48 -49 -50 50 -52 52 -54 -55 -56 56 -58 61 59 -61 -62 -63 -64
leaf_value=-41179.735261762537 -9269.8474553123815 2465.0580841712308 31689.028645196609 -21612.563753095183 20216.831718562622 235419.54238032189 -2105.5714227496146 2735936.4803970936 2394662.8354038671 110964.30869760743 -30125.584599836446 138617.85116176572 28181.304361604853 -425.19194604905789 2936881.6850306592 65327.860926561247 899920.07895453181 -2163.0599498536153 80934670.371439621 41534.540830671031 483389.23318224476 1237120.717376326 76.159241956719782 94409.329247782647 14521.156873347216 10559.715816302458 47570.739072825629 34646.627666722241 120971.66441817002 33882.272066345802 -20934.002596397881 793853.86685031909 103298.57670607191 54845.73252609872 20443.311484912927 381493.87562497106 17653.947707300147 44548.554137229308 3242.036633109738 599078.97088063438 346706.98435101559 -4343.3592891502622 6527.9219310030048 87837.686167580308 1927241.6738823843 446034.78021074069 -3056.4134156159125 19000.00612641473 126145.2065271363 19353.371497641707 -5857.6574829494202 33925.270111399484 39758.074432983623 21155.638223480579 54440.940696195525 3058.3856336880763 11492.676753824035 14427.163027916904 13968.783568867431 13605.570240171644 34740.966532549573 30296.1860849984 -4705.184820815105
leaf_weight=661154 5314 514 30 15234 807 88 1761 277 71 2147 137 79 448 44 20 361 88 229 33 389 37 662 117 301 30 207 222 587 117 123 43 277 280 30 199 51 333 533 273 258 836 1034 810 71 145 21 418 42 68 484 416 107 339 191 55 451 2596 131 141 430 104 343 244
leaf_count=661154 5314 514 30 15234 807 88 1761 277 71 2147 137 79 448 44 20 361 88 229 33 389 37 662 117 301 30 207 222 587 117 123 43 277 280 30 199 51 333 533 273 258 836 1034 810 71 145 21 418 42 68 484 416 107 339 191 55 451 2596 131 141 430 104 343 244
internal_value=-0.00100163 0.00448672 0.00995072 -0.0011823 0.000612603 0.00156411 0.00113112 0.0192319 0.026834 -0.000625956 0.00269902 0.0140278 0.00884739 0.0104621 0.00323473 0.0115092 0.0127812 0.00288259 0.0222984 0.0135227 0.0116882 0.0101677 0.00396919 0.0098744 0.00157499 0.010609 0.0160984 0.011446 0.00649375 0.0146611 0.015791 0.011948 0.00845588 0.0204167 0.0136645 0.0106711 0.00927632 0.016487 0.00561555 0.0102269 0.00743839 -0.000544494 0.00132592 0.0138816 0.0172685 0.0262729 0.00162699 0.0103779 0.00661343 0.00622989 0.00375 0.00854275 0.0115245 0.00532328 0.0197377 0.00344051 0.00282703 0.0059784 0.00599558 0.00837963 0.0183418 0.00919568 0.00515
internal_weight=703382 22417 7812 680965 19811 14605 14006 830 381 17627 2393 216 6982 4141 524 3617 449 6848 310 2420 599 1051 5087 418 2177 2184 1369 1977 2841 1147 1024 394 340 60 1170 583 532 981 2447 562 1197 7158 1844 304 216 109 504 86 1933 1865 900 965 501 464 162 4669 3765 1169 904 675 245 718 375
internal_count=703382 22417 7812 680965 19811 14605 14006 830 381 17627 2393 216 6982 4141 524 3617 449 6848 310 2420 599 1051 5087 418 2177 2184 1369 1977 2841 1147 1024 394 340 60 1170 583 532 981 2447 562 1197 7158 1844 304 216 109 504 86 1933 1865 900 965 501 464 162 4669 3765 1169 904 675 245 718 375
is_linear=0
shrinkage=0.05


Tree=11
num_leaves=64
num_cat=0
split_feature=1 2 692 1082 2 2 1 2 3 1063 2 775 1085 2 756 1 1 3 2 1070 693 1 3 3 3 1057 1061 748 3 1080 1 3 1068 3 1 2 755 3 1068 2 3 1 1063 1 1 3 1057 3 2 2 1 1 2 2 2 1 1063 3 2 1045 1038 1067 3
split_gain=133.32 41.6496 23.5103 67.7453 12.8366 12.6735 16.8966 12.457 11.4007 9.0278 7.09579 12.7787 29.7566 6.43839 5.94069 4.71086 4.33161 5.51815 4.9642 4.27568 4.25078 4.19369 6.21731 5.70831 3.84678 3.22922 3.19417 3.07452 2.92903 3.15055 2.86347 2.72561 4.8903 2.72111 2.64787 3.28417 2.62369 2.57895 2.84271 2.34047 5.15888 2.39891 2.31473 2.22923 2.18338 7.80629 2.61693 2.3197 2.35751 2.055 1.96348 1.92509 1.92079 1.87933 1.85872 1.85735 3.74292 3.04251 2.15008 2.39025 1.83745 1.8049 4.62358
threshold=5640284.5000000009 53369.846153846163 1.0000000180025095e-35 1.0000000180025095e-35 63896.000000000007 65968.925000000017 2143072.5000000005 165910.07142857145 3013186.5000000005 1.0000000180025095e-35 165910.07142857145 1.0000000180025095e-35 1.0000000180025095e-35 37828.416666666679 1.0000000180025095e-35 17832843.000000004 8214330.5000000009 643874.00000000012 77361.571428571449 1.0000000180025095e-35 1.0000000180025095e-35 23432836.500000004 11895337.000000002 125235.50000000001 224716.00000000003 1.0000000180025095e-35 1.0000000180025095e-35 1.0000000180025095e-35 19349646.500000004 1.0000000180025095e-35 17832843.000000004 1297766.5000000002 1.0000000180025095e-35 6157.5000000000009 2707471.0000000005 50359.758823529417 1.0000000180025095e-35 387002.50000000006 1.0000000180025095e-35 103568.10000000002 2505812.5000000005 23432836.500000004 1.0000000180025095e-35 117361024.00000001 117361024.00000001 19349646.500000004 1.0000000180025095e-35 8238902.5000000009 92747.553571428594 92747.553571428594 117361024.00000001 117361024.00000001 71087.000000000015 81138.800000000017 18668.613095238099 9594694.0000000019 1.0000000180025095e-35 643874.00000000012 42418.350000000006 1.0000000180025095e-35 1.0000000180025095e-35 1.0000000180025095e-35 8238902.5000000009
decision_type=2 2 2 2 2 2 2 2 2 2 2 2 2 2 2 2 2 2 2 2 2 2 2 2 2 2 2 2 2 2 2 2 2 2 2 2 2 2 2 2 2 2 2 2 2 2 2 2 2 2 2 2 2 2 2 2 2 2 2 2 2 2 2
left_child=2 13 5 -4 -5 34 10 8 9 20 -7 -12 -13 15 21 -2 -11 49 -19 31 30 60 23 36 26 55 42 -26 -21 51 37 32 -17 -14 -1 -36 -23 38 -3 43 41 -41 -8 -32 47 46 -46 48 -10 -18 -24 -30 -40 -45 -31 -15 58 -58 61 -60 -9 -57 -63
right_child=1 7 3 4 -6 6 24 14 44 16 11 12 33 25 -16 19 17 18 -20 28 -22 22 50 -25 27 -27 -28 -29 29 54 39 -33 -34 -35 35 -37 -38 -39 52 40 -42 -43 -44 53 45 -47 -48 -49 -50 -51 -52 -53 -54 -55 -56 56 57 -59 59 -61 -62 62 -64
leaf_value=-43878.994251595337 -689.46316436091229 23308.38713613982 -23451.59029088727 790.81414005759871 4920.6153475322999 -19914.079799838895 16262.610808704761 338285.32917013165 26788.53198292177 10325.172356842886 109915.00154936785 -34796.162218704842 131686.95860367743 3585.1333983040154 362419.18184372247 32457.526174899849 61511.143611771149 44558.439462960399 9404.8113987957804 14830.067092404783 13497.821474011471 774110.62886499753 166107.46652387237 3127135.6152496221 6194.7118177963202 259759.85749561322 28194.873505513417 105103.99175085506 47278.881359246399 164950.96574471256 77012.116725260144 5596.0775675581399 -5686.2331814673307 131686.95860367743 -12623.822564606098 5318.5502835690422 -2191.0650726207532 17110.721448683853 10181.491925711794 91749.090041593998 49738.900332441553 1085531.916611776 590.45632259229649 3440882.4393336358 1427693.3297297526 459251.60368750407 2160072.0307249236 50946.707668478455 169651.15717733005 15873.815763306686 50688022.908076301 367087.2865390146 21897.785965526564 374937.91222954803 264605.11416199652 34149.988442247173 31536.301027846715 38239.869337114389 20803.950916569262 170728.08670395068 -43479.929575259986 42388.500583313966 118825.08348457553
leaf_weight=623118 10924 140 373 104 21 18584 1279 299 925 156 1529 139 37 2299 45 904 68 42 73 626 26 23 79 125 2333 433 22 73 195 42 827 4087 747 46 19741 2429 35 1535 432 77 39 170 286 60 194 666 21 1673 280 50 90 46 389 31 85 1004 42 149 2472 47 76 379 239
leaf_count=623118 10924 140 373 104 21 18584 1279 299 925 156 1529 139 37 2299 45 904 68 42 73 626 26 23 79 125 2333 433 22 73 195 42 827 4087 747 46 19741 2429 35 1535 432 77 39 170 286 60 194 666 21 1673 280 50 90 46 389 31 85 1004 42 149 2472 47 76 379 239
internal_value=-0.00101247 0.00207225 -0.00116606 0.00969378 0.04155 -0.00117413 -5.38462e-05 0.00505928 0.00446501 0.00628342 -0.000637754 0.00240506 0.0136149 0.00102751 0.0111205 0.000517106 0.0135315 0.0178487 0.0100543 0.00155749 0.00552671 0.0100292 0.0139489 0.0203347 0.0029198 0.00230323 0.00483066 0.00165939 0.00458501 0.008125 0.00538514 0.00103303 0.00274758 0.0373042 -0.00121637 -0.000679408 0.00737069 0.00441907 0.00645031 0.00738787 0.0113374 0.00866903 0.0045647 0.00615741 0.0024744 0.00465238 0.012936 0.00180768 0.00348029 0.0254449 0.00703402 0.0047666 0.00532735 0.0135852 0.014498 0.00203005 0.00263966 0.00948299 0.00232402 0.00140979 0.00635 0.00374384 0.00586974
internal_weight=703480 33366 670114 498 125 669616 24328 8646 7874 4115 20335 1751 222 24720 772 17656 389 233 115 6732 3726 727 352 183 3993 7064 1587 2406 994 368 3700 5738 1651 83 645288 22170 58 2496 961 1204 286 247 1565 918 3759 881 215 2878 1205 118 169 241 821 91 127 6631 4332 191 4141 2519 375 1622 618
internal_count=703480 33366 670114 498 125 669616 24328 8646 7874 4115 20335 1751 222 24720 772 17656 389 233 115 6732 3726 727 352 183 3993 7064 1587 2406 994 368 3700 5738 1651 83 645288 22170 58 2496 961 1204 286 247 1565 918 3759 881 215 2878 1205 118 169 241 821 91 127 6631 4332 191 4141 2519 375 1622 618
is_linear=0
shrinkage=0.05


Tree=12
num_leaves=64
num_cat=0
split_feature=0 2 1 3 0 0 755 1 3 3 3 2 0 3 3 2 0 3 2 0 0 3 2 2 573 1 2 0 2 1067 2 2 2 775 1085 2 0 0 1070 0 2 0 3 1067 3 3 1067 1 0 2 0 0 1 0 2 0 692 2 0 1068 1068 2 1
split_gain=200.986 129.783 91.4284 41.4684 39.5388 21.0051 16.4194 24.2104 22.6838 20.1636 14.6123 13.8796 37.9752 26.924 12.6655 13.254 12.0581 21.0502 11.8242 11.5202 11.2088 14.6553 12.9682 9.42926 9.61436 9.38362 8.98484 8.95001 8.18193 8.08189 7.83994 7.81449 7.76693 12.4592 28.7306 7.50978 8.35848 7.29135 7.00806 6.98019 6.9167 9.75647 17.4941 7.57381 8.89851 6.45857 11.4558 6.04113 5.90447 5.81603 5.54143 7.23869 5.39561 5.23912 5.10115 4.76994 4.73954 4.51059 4.53971 4.17699 4.16951 4.11727 4.06738
threshold=29.500000000000004 47168.625000000007 3296859.5000000005 3013186.5000000005 76.500000000000014 324.50000000000006 1.0000000180025095e-35 23432836.500000004 2505812.5000000005 317490.50000000006 2170910.0000000005 86270.000000000015 14.500000000000002 243636.50000000003 596944.50000000012 18239.17045454546 209.50000000000003 19349646.500000004 86270.000000000015 45.500000000000007 612.50000000000011 19349646.500000004 22165.557692307695 37436.090909090919 1.0000000180025095e-35 14106839.000000002 50359.758823529417 35.500000000000007 56041.547619047626 1.0000000180025095e-35 68313.10000000002 52248.000000000007 165910.07142857145 1.0000000180025095e-35 1.0000000180025095e-35 29258.833333333339 103.50000000000001 41.500000000000007 1.0000000180025095e-35 20.500000000000004 30716.568627450983 48.500000000000007 1297766.5000000002 1.0000000180025095e-35 179199.00000000003 2505812.5000000005 1.0000000180025095e-35 9594694.0000000019 328.50000000000006 165910.07142857145 2670.5000000000005 261.50000000000006 1857370.0000000002 721.50000000000011 38243.416666666679 202.50000000000003 1.0000000180025095e-35 43013.400000000009 103.50000000000001 1.0000000180025095e-35 1.0000000180025095e-35 86270.000000000015 4168117.0000000005
decision_type=2 2 2 2 2 2 2 2 2 2 2 2 2 2 2 2 2 2 2 2 2 2 2 2 2 2 2 2 2 2 2 2 2 2 2 2 2 2 2 2 2 2 2 2 2 2 2 2 2 2 2 2 2 2 2 2 2 2 2 2 2 2 2
left_child=11 4 10 5 40 6 7 9 -8 27 18 -1 32 25 15 -6 -5 30 26 60 23 22 -22 -16 45 39 37 28 -4 53 48 -21 -13 -34 -35 -31 -37 -3 -23 62 -2 -42 43 47 -45 46 -25 -43 -18 55 51 -19 -15 -17 -46 -9 -28 58 -48 -33 -11 -30 -14
right_child=1 2 3 16 14 -7 8 49 -10 19 -12 12 13 52 20 29 17 50 -20 31 21 38 -24 24 -26 -27 56 -29 61 35 -32 59 33 34 -36 36 -38 -39 -40 -41 41 42 -44 44 54 -47 57 -49 -50 -51 -52 -53 -54 -55 -56 -57 -58 -59 -60 -61 -62 -63 -64
leaf_value=-38424.372951532707 -11685.019213037074 4887.8827245517077 -231.982398148671 53376.953202008553 -1520.6994048294455 4348488.6546936436 10680.603526772304 21647.309014921066 274092.67600748356 4662.5910135784097 128202.38896428095 -15511.950901551229 488292.58490388491 98840.852183215946 12903.645035990776 25216.196199621016 59239.649073387118 288156.34847794194 670480.67746632826 21422.133901978388 1118500.827399337 122906.92729423492 2026913.8636950636 30695.308601622222 67132.873955969146 214987.25520507956 39620.060589417466 87427.177744658882 18512.592665487067 31042.099147142384 3573369.7993324767 93339.491334784543 100350.96278328999 -32830.998072686074 125102.61067349355 45133.628439103981 318819.02969519095 134362.45572907219 477252.46847523929 38757.07840141996 -2460.8889376864436 8098.5929093965406 -210.31007974261431 29939.760399691495 5637.8776364433379 44803.517317626283 43421.463525899497 1413.6162244952525 1590324.5739425358 922730.26688730088 63809303.446669132 176122.40236417504 21050.186616306004 1582058.5208267584 21740.597188548119 605783.03339876945 751.27343305471595 73109.117388738538 80592.380429805402 181060.1836648212 10144.392547364776 184255.71406137082 12119.977928594384
leaf_weight=660876 9585 34 48 2736 386 53 485 538 26 173 134 8730 75 43 5495 957 69 115 83 152 74 293 124 168 27 62 205 242 58 115 63 105 2163 138 83 56 64 37 28 79 3227 318 1163 42 131 986 28 246 70 41 51 477 717 20 57 43 97 28 40 236 457 30 57
leaf_count=660876 9585 34 48 2736 386 53 485 538 26 173 134 8730 75 43 5495 957 69 115 83 152 74 293 124 168 27 62 205 242 58 115 63 105 2163 138 83 56 64 37 28 79 3227 318 1163 42 131 986 28 246 70 41 51 477 717 20 57 43 97 28 40 236 457 30 57
internal_value=-0.00102428 0.00294452 0.0090008 0.00722958 0.00118892 0.0119245 0.0112975 0.0132342 0.00325098 0.0166714 0.0278178 -0.00120424 0.000470591 0.00964061 0.00382369 0.00785513 0.00370672 0.00892752 0.0320833 0.0133092 0.0029401 0.0100217 0.0207197 0.00239737 0.00626762 0.023109 0.0358814 0.0266601 0.0163971 0.0104249 0.0230074 0.019034 -0.000381725 0.00214765 0.0134559 0.01875 0.0275 0.0198768 0.0034229 0.0281339 -0.00039686 0.00107446 0.00385986 0.00958124 0.0172283 0.00563 0.0125758 0.00646277 0.0163759 0.00493971 0.00450428 0.00314189 0.00480263 0.00842247 0.0125798 0.00365534 0.039644 0.0263542 0.0333088 0.0232368 0.00882937 0.0254545 0.0210985
internal_weight=703539 30516 6858 6268 23658 2687 2634 2123 511 1501 590 673023 12147 1033 8889 1598 3581 845 456 1123 7291 519 198 6772 1277 273 373 378 136 1212 202 493 11114 2384 221 235 120 71 321 211 14769 5184 1957 794 230 1250 264 564 139 622 643 592 760 977 188 581 302 96 68 341 630 88 132
internal_count=703539 30516 6858 6268 23658 2687 2634 2123 511 1501 590 673023 12147 1033 8889 1598 3581 845 456 1123 7291 519 198 6772 1277 273 373 378 136 1212 202 493 11114 2384 221 235 120 71 321 211 14769 5184 1957 794 230 1250 264 564 139 622 643 592 760 977 188 581 302 96 68 341 630 88 132
is_linear=0
shrinkage=0.05


Tree=13
num_leaves=64
num_cat=0
split_feature=0 2 3 2 0 3 2 3 1042 0 0 0 2 2 2 775 1085 1042 3 3 0 2 0 3 35 3 2 0 0 0 2 1067 0 3 3 2 0 2 3 0 1066 0 0 1068 3 0 2 2 2 3 0 0 0 2 1068 1050 2 1067 0 2 2 2 0
split_gain=161.064 51.0129 39.1638 23.331 139.496 81.5561 21.6479 18.2062 20.4225 14.1989 13.7926 13.5314 11.5786 10.6621 10.309 12.4506 29.6383 10.1838 11.079 9.53951 27.4756 24.3625 8.6858 9.21714 7.90108 7.2776 7.19661 6.9625 6.95933 6.38721 7.21109 14.9971 6.3787 6.04942 5.62915 6.74089 5.62151 5.20766 7.21516 7.83297 4.96082 6.62956 4.53686 4.44187 4.40989 10.0104 12.8926 6.71139 4.22758 5.17094 4.08901 3.86852 3.81923 5.44019 6.25283 3.73149 3.70668 3.68518 4.60595 12.4237 5.67841 3.60528 5.10923
threshold=42.500000000000007 37828.416666666679 1892346.5000000002 60508.900000000009 18.500000000000004 686585.50000000012 62032.833333333336 216509.00000000003 1.0000000180025095e-35 491.00000000000006 29.500000000000004 127.50000000000001 165910.07142857145 86270.000000000015 165910.07142857145 1.0000000180025095e-35 1.0000000180025095e-35 1.0000000180025095e-35 302796.00000000006 19349646.500000004 426.50000000000006 103568.10000000002 78.500000000000014 596944.50000000012 1.0000000180025095e-35 2505812.5000000005 20008.071428571431 225.50000000000003 28.500000000000004 261.50000000000006 77361.571428571449 1.0000000180025095e-35 2670.5000000000005 57864.500000000007 8238902.5000000009 57581.107142857152 292.50000000000006 29511.062500000004 643874.00000000012 54.500000000000007 1.0000000180025095e-35 202.50000000000003 28.500000000000004 1.0000000180025095e-35 19349646.500000004 1069.0000000000002 14088.589285714288 29019.633333333335 54659.889610389619 43787680.000000007 20.500000000000004 188.50000000000003 25.500000000000004 77361.571428571449 1.0000000180025095e-35 1.0000000180025095e-35 65968.925000000017 1.0000000180025095e-35 110.50000000000001 29761.481818181823 24248.533333333336 23700.750000000004 100.50000000000001
decision_type=2 2 2 2 2 2 2 2 2 2 2 2 2 2 2 2 2 2 2 2 2 2 2 2 2 2 2 2 2 2 2 2 2 2 2 2 2 2 2 2 2 2 2 2 2 2 2 2 2 2 2 2 2 2 2 2 2 2 2 2 2 2 2
left_child=3 9 12 -1 14 6 10 8 13 22 -6 34 17 56 -5 -16 -17 18 -3 20 21 27 37 26 44 52 -24 -13 -10 30 31 48 -31 -19 35 -4 -35 -2 39 -39 41 -20 50 -37 45 47 -47 -11 51 -50 -15 55 -7 54 -54 -21 -8 61 59 -59 -60 62 -28
right_child=1 2 11 4 5 25 7 -9 28 24 -12 19 -14 42 15 16 -18 33 40 29 -22 -23 23 -25 -26 -27 57 -29 -30 32 -32 -33 -34 36 -36 43 -38 38 -40 -41 -42 -43 -44 -45 -46 46 -48 -49 49 -51 -52 -53 53 -55 -56 -57 -58 58 60 -61 -62 -63 -64
