tree
version=v4
num_class=1
num_tree_per_iteration=1
label_index=0
max_feature_idx=1255
objective=quantile
feature_names=Column_0 Column_1 Column_2 Column_3 Column_4 Column_5 Column_6 Column_7 Column_8 Column_9 Column_10 Column_11 Column_12 Column_13 Column_14 Column_15 Column_16 Column_17 Column_18 Column_19 Column_20 Column_21 Column_22 Column_23 Column_24 Column_25 Column_26 Column_27 Column_28 Column_29 Column_30 Column_31 Column_32 Column_33 Column_34 Column_35 Column_36 Column_37 Column_38 Column_39 Column_40 Column_41 Column_42 Column_43 Column_44 Column_45 Column_46 Column_47 Column_48 Column_49 Column_50 Column_51 Column_52 Column_53 Column_54 Column_55 Column_56 Column_57 Column_58 Column_59 Column_60 Column_61 Column_62 Column_63 Column_64 Column_65 Column_66 Column_67 Column_68 Column_69 Column_70 Column_71 Column_72 Column_73 Column_74 Column_75 Column_76 Column_77 Column_78 Column_79 Column_80 Column_81 Column_82 Column_83 Column_84 Column_85 Column_86 Column_87 Column_88 Column_89 Column_90 Column_91 Column_92 Column_93 Column_94 Column_95 Column_96 Column_97 Column_98 Column_99 Column_100 Column_101 Column_102 Column_103 Column_104 Column_105 Column_106 Column_107 Column_108 Column_109 Column_110 Column_111 Column_112 Column_113 Column_114 Column_115 Column_116 Column_117 Column_118 Column_119 Column_120 Column_121 Column_122 Column_123 Column_124 Column_125 Column_126 Column_127 Column_128 Column_129 Column_130 Column_131 Column_132 Column_133 Column_134 Column_135 Column_136 Column_137 Column_138 Column_139 Column_140 Column_141 Column_142 Column_143 Column_144 Column_145 Column_146 Column_147 Column_148 Column_149 Column_150 Column_151 Column_152 Column_153 Column_154 Column_155 Column_156 Column_157 Column_158 Column_159 Column_160 Column_161 Column_162 Column_163 Column_164 Column_165 Column_166 Column_167 Column_168 Column_169 Column_170 Column_171 Column_172 Column_173 Column_174 Column_175 Column_176 Column_177 Column_178 Column_179 Column_180 Column_181 Column_182 Column_183 Column_184 Column_185 Column_186 Column_187 Column_188 Column_189 Column_190 Column_191 Column_192 Column_193 Column_194 Column_195 Column_196 Column_197 Column_198 Column_199 Column_200 Column_201 Column_202 Column_203 Column_204 Column_205 Column_206 Column_207 Column_208 Column_209 Column_210 Column_211 Column_212 Column_213 Column_214 Column_215 Column_216 Column_217 Column_218 Column_219 Column_220 Column_221 Column_222 Column_223 Column_224 Column_225 Column_226 Column_227 Column_228 Column_229 Column_230 Column_231 Column_232 Column_233 Column_234 Column_235 Column_236 Column_237 Column_238 Column_239 Column_240 Column_241 Column_242 Column_243 Column_244 Column_245 Column_246 Column_247 Column_248 Column_249 Column_250 Column_251 Column_252 Column_253 Column_254 Column_255 Column_256 Column_257 Column_258 Column_259 Column_260 Column_261 Column_262 Column_263 Column_264 Column_265 Column_266 Column_267 Column_268 Column_269 Column_270 Column_271 Column_272 Column_273 Column_274 Column_275 Column_276 Column_277 Column_278 Column_279 Column_280 Column_281 Column_282 Column_283 Column_284 Column_285 Column_286 Column_287 Column_288 Column_289 Column_290 Column_291 Column_292 Column_293 Column_294 Column_295 Column_296 Column_297 Column_298 Column_299 Column_300 Column_301 Column_302 Column_303 Column_304 Column_305 Column_306 Column_307 Column_308 Column_309 Column_310 Column_311 Column_312 Column_313 Column_314 Column_315 Column_316 Column_317 Column_318 Column_319 Column_320 Column_321 Column_322 Column_323 Column_324 Column_325 Column_326 Column_327 Column_328 Column_329 Column_330 Column_331 Column_332 Column_333 Column_334 Column_335 Column_336 Column_337 Column_338 Column_339 Column_340 Column_341 Column_342 Column_343 Column_344 Column_345 Column_346 Column_347 Column_348 Column_349 Column_350 Column_351 Column_352 Column_353 Column_354 Column_355 Column_356 Column_357 Column_358 Column_359 Column_360 Column_361 Column_362 Column_363 Column_364 Column_365 Column_366 Column_367 Column_368 Column_369 Column_370 Column_371 Column_372 Column_373 Column_374 Column_375 Column_376 Column_377 Column_378 Column_379 Column_380 Column_381 Column_382 Column_383 Column_384 Column_385 Column_386 Column_387 Column_388 Column_389 Column_390 Column_391 Column_392 Column_393 Column_394 Column_395 Column_396 Column_397 Column_398 Column_399 Column_400 Column_401 Column_402 Column_403 Column_404 Column_405 Column_406 Column_407 Column_408 Column_409 Column_410 Column_411 Column_412 Column_413 Column_414 Column_415 Column_416 Column_417 Column_418 Column_419 Column_420 Column_421 Column_422 Column_423 Column_424 Column_425 Column_426 Column_427 Column_428 Column_429 Column_430 Column_431 Column_432 Column_433 Column_434 Column_435 Column_436 Column_437 Column_438 Column_439 Column_440 Column_441 Column_442 Column_443 Column_444 Column_445 Column_446 Column_447 Column_448 Column_449 Column_450 Column_451 Column_452 Column_453 Column_454 Column_455 Column_456 Column_457 Column_458 Column_459 Column_460 Column_461 Column_462 Column_463 Column_464 Column_465 Column_466 Column_467 Column_468 Column_469 Column_470 Column_471 Column_472 Column_473 Column_474 Column_475 Column_476 Column_477 Column_478 Column_479 Column_480 Column_481 Column_482 Column_483 Column_484 Column_485 Column_486 Column_487 Column_488 Column_489 Column_490 Column_491 Column_492 Column_493 Column_494 Column_495 Column_496 Column_497 Column_498 Column_499 Column_500 Column_501 Column_502 Column_503 Column_504 Column_505 Column_506 Column_507 Column_508 Column_509 Column_510 Column_511 Column_512 Column_513 Column_514 Column_515 Column_516 Column_517 Column_518 Column_519 Column_520 Column_521 Column_522 Column_523 Column_524 Column_525 Column_526 Column_527 Column_528 Column_529 Column_530 Column_531 Column_532 Column_533 Column_534 Column_535 Column_536 Column_537 Column_538 Column_539 Column_540 Column_541 Column_542 Column_543 Column_544 Column_545 Column_546 Column_547 Column_548 Column_549 Column_550 Column_551 Column_552 Column_553 Column_554 Column_555 Column_556 Column_557 Column_558 Column_559 Column_560 Column_561 Column_562 Column_563 Column_564 Column_565 Column_566 Column_567 Column_568 Column_569 Column_570 Column_571 Column_572 Column_573 Column_574 Column_575 Column_576 Column_577 Column_578 Column_579 Column_580 Column_581 Column_582 Column_583 Column_584 Column_585 Column_586 Column_587 Column_588 Column_589 Column_590 Column_591 Column_592 Column_593 Column_594 Column_595 Column_596 Column_597 Column_598 Column_599 Column_600 Column_601 Column_602 Column_603 Column_604 Column_605 Column_606 Column_607 Column_608 Column_609 Column_610 Column_611 Column_612 Column_613 Column_614 Column_615 Column_616 Column_617 Column_618 Column_619 Column_620 Column_621 Column_622 Column_623 Column_624 Column_625 Column_626 Column_627 Column_628 Column_629 Column_630 Column_631 Column_632 Column_633 Column_634 Column_635 Column_636 Column_637 Column_638 Column_639 Column_640 Column_641 Column_642 Column_643 Column_644 Column_645 Column_646 Column_647 Column_648 Column_649 Column_650 Column_651 Column_652 Column_653 Column_654 Column_655 Column_656 Column_657 Column_658 Column_659 Column_660 Column_661 Column_662 Column_663 Column_664 Column_665 Column_666 Column_667 Column_668 Column_669 Column_670 Column_671 Column_672 Column_673 Column_674 Column_675 Column_676 Column_677 Column_678 Column_679 Column_680 Column_681 Column_682 Column_683 Column_684 Column_685 Column_686 Column_687 Column_688 Column_689 Column_690 Column_691 Column_692 Column_693 Column_694 Column_695 Column_696 Column_697 Column_698 Column_699 Column_700 Column_701 Column_702 Column_703 Column_704 Column_705 Column_706 Column_707 Column_708 Column_709 Column_710 Column_711 Column_712 Column_713 Column_714 Column_715 Column_716 Column_717 Column_718 Column_719 Column_720 Column_721 Column_722 Column_723 Column_724 Column_725 Column_726 Column_727 Column_728 Column_729 Column_730 Column_731 Column_732 Column_733 Column_734 Column_735 Column_736 Column_737 Column_738 Column_739 Column_740 Column_741 Column_742 Column_743 Column_744 Column_745 Column_746 Column_747 Column_748 Column_749 Column_750 Column_751 Column_752 Column_753 Column_754 Column_755 Column_756 Column_757 Column_758 Column_759 Column_760 Column_761 Column_762 Column_763 Column_764 Column_765 Column_766 Column_767 Column_768 Column_769 Column_770 Column_771 Column_772 Column_773 Column_774 Column_775 Column_776 Column_777 Column_778 Column_779 Column_780 Column_781 Column_782 Column_783 Column_784 Column_785 Column_786 Column_787 Column_788 Column_789 Column_790 Column_791 Column_792 Column_793 Column_794 Column_795 Column_796 Column_797 Column_798 Column_799 Column_800 Column_801 Column_802 Column_803 Column_804 Column_805 Column_806 Column_807 Column_808 Column_809 Column_810 Column_811 Column_812 Column_813 Column_814 Column_815 Column_816 Column_817 Column_818 Column_819 Column_820 Column_821 Column_822 Column_823 Column_824 Column_825 Column_826 Column_827 Column_828 Column_829 Column_830 Column_831 Column_832 Column_833 Column_834 Column_835 Column_836 Column_837 Column_838 Column_839 Column_840 Column_841 Column_842 Column_843 Column_844 Column_845 Column_846 Column_847 Column_848 Column_849 Column_850 Column_851 Column_852 Column_853 Column_854 Column_855 Column_856 Column_857 Column_858 Column_859 Column_860 Column_861 Column_862 Column_863 Column_864 Column_865 Column_866 Column_867 Column_868 Column_869 Column_870 Column_871 Column_872 Column_873 Column_874 Column_875 Column_876 Column_877 Column_878 Column_879 Column_880 Column_881 Column_882 Column_883 Column_884 Column_885 Column_886 Column_887 Column_888 Column_889 Column_890 Column_891 Column_892 Column_893 Column_894 Column_895 Column_896 Column_897 Column_898 Column_899 Column_900 Column_901 Column_902 Column_903 Column_904 Column_905 Column_906 Column_907 Column_908 Column_909 Column_910 Column_911 Column_912 Column_913 Column_914 Column_915 Column_916 Column_917 Column_918 Column_919 Column_920 Column_921 Column_922 Column_923 Column_924 Column_925 Column_926 Column_927 Column_928 Column_929 Column_930 Column_931 Column_932 Column_933 Column_934 Column_935 Column_936 Column_937 Column_938 Column_939 Column_940 Column_941 Column_942 Column_943 Column_944 Column_945 Column_946 Column_947 Column_948 Column_949 Column_950 Column_951 Column_952 Column_953 Column_954 Column_955 Column_956 Column_957 Column_958 Column_959 Column_960 Column_961 Column_962 Column_963 Column_964 Column_965 Column_966 Column_967 Column_968 Column_969 Column_970 Column_971 Column_972 Column_973 Column_974 Column_975 Column_976 Column_977 Column_978 Column_979 Column_980 Column_981 Column_982 Column_983 Column_984 Column_985 Column_986 Column_987 Column_988 Column_989 Column_990 Column_991 Column_992 Column_993 Column_994 Column_995 Column_996 Column_997 Column_998 Column_999 Column_1000 Column_1001 Column_1002 Column_1003 Column_1004 Column_1005 Column_1006 Column_1007 Column_1008 Column_1009 Column_1010 Column_1011 Column_1012 Column_1013 Column_1014 Column_1015 Column_1016 Column_1017 Column_1018 Column_1019 Column_1020 Column_1021 Column_1022 Column_1023 Column_1024 Column_1025 Column_1026 Column_1027 Column_1028 Column_1029 Column_1030 Column_1031 Column_1032 Column_1033 Column_1034 Column_1035 Column_1036 Column_1037 Column_1038 Column_1039 Column_1040 Column_1041 Column_1042 Column_1043 Column_1044 Column_1045 Column_1046 Column_1047 Column_1048 Column_1049 Column_1050 Column_1051 Column_1052 Column_1053 Column_1054 Column_1055 Column_1056 Column_1057 Column_1058 Column_1059 Column_1060 Column_1061 Column_1062 Column_1063 Column_1064 Column_1065 Column_1066 Column_1067 Column_1068 Column_1069 Column_1070 Column_1071 Column_1072 Column_1073 Column_1074 Column_1075 Column_1076 Column_1077 Column_1078 Column_1079 Column_1080 Column_1081 Column_1082 Column_1083 Column_1084 Column_1085 Column_1086 Column_1087 Column_1088 Column_1089 Column_1090 Column_1091 Column_1092 Column_1093 Column_1094 Column_1095 Column_1096 Column_1097 Column_1098 Column_1099 Column_1100 Column_1101 Column_1102 Column_1103 Column_1104 Column_1105 Column_1106 Column_1107 Column_1108 Column_1109 Column_1110 Column_1111 Column_1112 Column_1113 Column_1114 Column_1115 Column_1116 Column_1117 Column_1118 Column_1119 Column_1120 Column_1121 Column_1122 Column_1123 Column_1124 Column_1125 Column_1126 Column_1127 Column_1128 Column_1129 Column_1130 Column_1131 Column_1132 Column_1133 Column_1134 Column_1135 Column_1136 Column_1137 Column_1138 Column_1139 Column_1140 Column_1141 Column_1142 Column_1143 Column_1144 Column_1145 Column_1146 Column_1147 Column_1148 Column_1149 Column_1150 Column_1151 Column_1152 Column_1153 Column_1154 Column_1155 Column_1156 Column_1157 Column_1158 Column_1159 Column_1160 Column_1161 Column_1162 Column_1163 Column_1164 Column_1165 Column_1166 Column_1167 Column_1168 Column_1169 Column_1170 Column_1171 Column_1172 Column_1173 Column_1174 Column_1175 Column_1176 Column_1177 Column_1178 Column_1179 Column_1180 Column_1181 Column_1182 Column_1183 Column_1184 Column_1185 Column_1186 Column_1187 Column_1188 Column_1189 Column_1190 Column_1191 Column_1192 Column_1193 Column_1194 Column_1195 Column_1196 Column_1197 Column_1198 Column_1199 Column_1200 Column_1201 Column_1202 Column_1203 Column_1204 Column_1205 Column_1206 Column_1207 Column_1208 Column_1209 Column_1210 Column_1211 Column_1212 Column_1213 Column_1214 Column_1215 Column_1216 Column_1217 Column_1218 Column_1219 Column_1220 Column_1221 Column_1222 Column_1223 Column_1224 Column_1225 Column_1226 Column_1227 Column_1228 Column_1229 Column_1230 Column_1231 Column_1232 Column_1233 Column_1234 Column_1235 Column_1236 Column_1237 Column_1238 Column_1239 Column_1240 Column_1241 Column_1242 Column_1243 Column_1244 Column_1245 Column_1246 Column_1247 Column_1248 Column_1249 Column_1250 Column_1251 Column_1252 Column_1253 Column_1254 Column_1255
feature_infos=[1:16405] [1:79538377660] [1:1974347955] [0.69314718055994529:9.7054024005626953] [0.0038610038610038611:22068628435] [0:1] [0:1] none [0:1] [0:1] [0:1] [0:1] [0:1] [0:1] [0:1] none none [0:1] none none [0:1] none [0:1] none none none [0:1] [0:1] [0:1] none none none [0:1] none none none [0:1] [0:1] [0:1] none none none [0:1] none none [0:1] [0:1] [0:1] [0:1] [0:1] [0:1] [0:1] none [0:1] none [0:1] [0:1] [0:1] none none [0:1] [0:1] [0:1] none none [0:1] none [0:1] none [0:1] [0:1] none none none none [0:1] none [0:1] [0:1] [0:1] none [0:1] none none [0:1] [0:1] [0:1] none [0:1] [0:1] none [0:1] [0:1] [0:1] [0:1] [0:1] none [0:1] [0:1] none [0:1] [0:1] [0:1] none [0:1] none none [0:1] [0:1] none [0:1] [0:1] [0:1] [0:1] [0:1] [0:1] [0:1] none [0:1] [0:1] [0:1] none [0:1] none [0:1] [0:1] [0:1] [0:1] none [0:1] [0:1] none [0:1] [0:1] [0:1] [0:1] [0:1] [0:1] [0:1] [0:1] [0:1] none [0:1] [0:1] [0:1] [0:1] [0:1] [0:1] none [0:1] none [0:1] [0:1] [0:1] [0:1] none none [0:1] [0:1] [0:1] [0:1] none [0:1] [0:1] [0:1] [0:1] [0:1] none [0:1] [0:1] [0:1] [0:1] [0:1] [0:1] [0:1] [0:1] [0:1] [0:1] [0:1] [0:1] [0:1] [0:1] [0:1] [0:1] none [0:1] [0:1] [0:1] [0:1] [0:1] none [0:1] none [0:1] [0:1] [0:1] [0:1] [0:1] [0:1] [0:1] [0:1] [0:1] [0:1] [0:1] [0:1] [0:1] [0:1] [0:1] [0:1] [0:1] [0:1] [0:1] [0:1] [0:1] [0:1] [0:1] [0:1] [0:1] [0:1] [0:1] [0:1] [0:1] [0:1] none [0:1] [0:1] none [0:1] [0:1] [0:1] [0:1] [0:1] [0:1] none [0:1] none [0:1] [0:1] [0:1] none [0:1] [0:1] [0:1] [0:1] [0:1] [0:1] [0:1] [0:1] [0:1] [0:1] [0:1] [0:1] [0:1] [0:1] [0:1] [0:1] [0:1] none [0:1] [0:1] [0:1] [0:1] [0:1] [0:1] [0:1] [0:1] [0:1] [0:1] [0:1] [0:1] [0:1] [0:1] [0:1] none [0:1] none [0:1] [0:1] [0:1] [0:1] [0:1] [0:1] [0:1] [0:1] [0:1] [0:1] [0:1] none [0:1] [0:1] [0:1] [0:1] [0:1] [0:1] [0:1] [0:1] [0:1] [0:1] [0:1] [0:1] none [0:1] [0:1] [0:1] [0:1] [0:1] [0:1] [0:1] none [0:1] [0:1] none none [0:1] [0:1] [0:1] [0:1] [0:1] [0:1] [0:1] [0:1] [0:1] [0:1] [0:1] [0:1] [0:1] none [0:1] [0:1] none [0:1] [0:1] [0:1] [0:1] [0:1] [0:1] [0:1] [0:1] none [0:1] [0:1] none [0:1] [0:1] [0:1] [0:1] none [0:1] none [0:1] none [0:1] [0:1] [0:1] [0:1] [0:1] [0:1] [0:1] none [0:1] [0:1] [0:1] [0:1] [0:1] [0:1] [0:1] [0:1] [0:1] none [0:1] [0:1] [0:1] [0:1] [0:1] none none none [0:1] none [0:1] [0:1] [0:1] none [0:1] [0:1] [0:1] [0:1] [0:1] none [0:1] [0:1] [0:1] [0:1] none [0:1] [0:1] none [0:1] [0:1] [0:1] [0:1] [0:1] [0:1] [0:1] [0:1] [0:1] none [0:1] [0:1] [0:1] [0:1] [0:1] [0:1] [0:1] [0:1] [0:1] [0:1] [0:1] [0:1] [0:1] [0:1] [0:1] [0:1] [0:1] [0:1] [0:1] [0:1] none [0:1] [0:1] [0:1] [0:1] [0:1] [0:1] none [0:1] [0:1] [0:1] [0:1] [0:1] [0:1] [0:1] [0:1] [0:1] [0:1] [0:1] [0:1] [0:1] [0:1] [0:1] [0:1] [0:1] [0:1] [0:1] [0:1] [0:1] [0:1] [0:1] [0:1] [0:1] [0:1] [0:1] [0:1] [0:1] [0:1] [0:1] [0:1] [0:1] [0:1] [0:1] [0:1] [0:1] [0:1] [0:1] [0:1] [0:1] [0:1] [0:1] [0:1] [0:1] [0:1] [0:1] [0:1] [0:1] [0:1] [0:1] [0:1] [0:1] [0:1] [0:1] [0:1] [0:1] [0:1] [0:1] [0:1] [0:1] [0:1] [0:1] [0:1] [0:1] [0:1] [0:1] [0:1] [0:1] [0:1] [0:1] [0:1] [0:1] [0:1] none [0:1] [0:1] [0:1] [0:1] [0:1] [0:1] [0:1] [0:1] [0:1] [0:1] [0:1] [0:1] [0:1] [0:1] [0:1] [0:1] [0:1] [0:1] [0:1] [0:1] [0:1] [0:1] [0:1] [0:1] [0:1] [0:1] [0:1] [0:1] [0:1] [0:1] [0:1] [0:1] [0:1] [0:1] [0:1] [0:1] [0:1] [0:1] [0:1] [0:1] [0:1] [0:1] [0:1] [0:1] [0:1] [0:1] [0:1] [0:1] [0:1] [0:1] [0:1] [0:1] [0:1] [0:1] [0:1] [0:1] [0:1] [0:1] [0:1] [0:1] [0:1] [0:1] [0:1] [0:1] [0:1] [0:1] [0:1] [0:1] [0:1] [0:1] [0:1] [0:1] [0:1] [0:1] [0:1] [0:1] [0:1] [0:1] [0:1] [0:1] [0:1] [0:1] [0:1] [0:1] [0:1] [0:1] [0:1] [0:1] [0:1] [0:1] [0:1] [0:1] [0:1] [0:1] [0:1] [0:1] [0:1] [0:1] [0:1] [0:1] [0:1] [0:1] [0:1] [0:1] [0:1] [0:1] [0:1] [0:1] [0:1] [0:1] [0:1] [0:1] [0:1] [0:1] [0:1] [0:1] [0:1] [0:1] [0:1] [0:1] [0:1] [0:1] [0:1] [0:1] [0:1] [0:1] [0:1] [0:1] [0:1] [0:1] [0:1] [0:1] [0:1] [0:1] [0:1] [0:1] [0:1] [0:1] none [0:1] [0:1] none [0:1] [0:1] [0:1] [0:1] [0:1] [0:1] [0:1] [0:1] [0:1] [0:1] [0:1] [0:1] [0:1] [0:1] [0:1] [0:1] [0:1] [0:1] [0:1] none none none [0:1] [0:1] [0:1] [0:1] [0:1] [0:1] [0:1] [0:1] [0:1] [0:1] none none none [0:1] [0:1] [0:1] [0:1] [0:1] [0:1] [0:1] [0:1] [0:1] [0:1] [0:1] [0:1] [0:1] [0:1] [0:1] [0:1] [0:1] [0:1] [0:1] [0:1] [0:1] [0:1] [0:1] [0:1] [0:1] [0:1] [0:1] [0:1] [0:1] [0:1] [0:1] [0:1] [0:1] [0:1] [0:1] [0:1] [0:1] [0:1] [0:1] [0:1] [0:1] [0:1] [0:1] [0:1] [0:1] [0:1] [0:1] [0:1] [0:1] [0:1] [0:1] [0:1] [0:1] [0:1] [0:1] [0:1] [0:1] [0:1] [0:1] [0:1] [0:1] [0:1] [0:1] [0:1] [0:1] [0:1] [0:1] [0:1] none [0:1] [0:1] [0:1] [0:1] [0:1] [0:1] [0:1] [0:1] [0:1] [0:1] [0:1] none none [0:1] [0:1] [0:1] [0:1] [0:1] none [0:1] [0:1] [0:1] [0:1] [0:1] [0:1] none none [0:1] [0:1] [0:1] none none none none none [0:1] [0:1] [0:1] none [0:1] [0:1] [0:1] [0:1] [0:1] [0:1] none [0:1] [0:1] [0:1] [0:1] [0:1] [0:1] [0:1] [0:1] [0:1] [0:1] [0:1] [0:1] [0:1] [0:1] [0:1] [0:1] [0:1] [0:1] [0:1] [0:1] [0:1] [0:1] [0:1] [0:1] [0:1] [0:1] [0:1] [0:1] [0:1] [0:1] [0:1] none [0:1] [0:1] [0:1] [0:1] [0:1] [0:1] [0:1] [0:1] [0:1] [0:1] [0:1] [0:1] [0:1] [0:1] [0:1] [0:1] [0:1] [0:1] none none [0:1] none [0:1] [0:1] [0:1] none none none none [0:1] [0:1] [0:1] [0:1] none [0:1] [0:1] [0:1] [0:1] [0:1] [0:1] [0:1] [0:1] [0:1] [0:1] [0:1] [0:1] [0:1] none [0:1] [0:1] [0:1] [0:1] [0:1] [0:1] [0:1] [0:1] none [0:1] [0:1] [0:1] [0:1] none [0:1] [0:1] [0:1] [0:1] [0:1] [0:1] [0:1] [0:1] [0:1] [0:1] [0:1] [0:1] [0:1] [0:1] [0:1] [0:1] [0:1] [0:1] [0:1] [0:1] [0:1] [0:1] [0:1] [0:1] [0:1] [0:1] [0:1] [0:1] [0:1] [0:1] [0:1] [0:1] [0:1] [0:1] [0:1] [0:1] [0:1] [0:1] [0:1] [0:1] [0:1] [0:1] none [0:1] [0:1] none [0:1] [0:1] [0:1] [0:1] [0:1] [0:1] [0:1] [0:1] [0:1] [0:1] none none [0:1] [0:1] [0:1] none none [0:1] none [0:1] none [0:1] [0:1] none none [0:1] none [0:1] [0:1] [0:1] [0:1] [0:1] [0:1] none [0:1] [0:1] [0:1] [0:1] [0:1] [0:1] none [0:1] [0:1] [0:1] [0:1] [0:1] [0:1] [0:1] [0:1] none [0:1] [0:1] [0:1] [0:1] [0:1] [0:1] none [0:1] [0:1] none [0:1] [0:1] none [0:1] [0:1] [0:1] [0:1] [0:1] [0:1] [0:1] [0:1] [0:1] none none [0:1] [0:1] [0:1] [0:1] [0:1] [0:1] [0:1] [0:1] [0:1] [0:1] [0:1] [0:1] [0:1] [0:1] [0:1] none [0:1] [0:1] [0:1] [0:1] [0:1] [0:1] [0:1] [0:1] [0:1] [0:1] [0:1] [0:1] [0:1] [0:1] [0:1] [0:1] [0:1] [0:1] [0:1] [0:1] [0:1] [0:1] [0:1] [0:1] [0:1] [0:1] [0:1] [0:1] [0:1] [0:1] [0:1] [0:1] [0:1] [0:1] [0:1] [0:1] [0:1] [0:1] [0:1] [0:1] [0:1] [0:1] [0:1] [0:1] [0:1] [0:1] [0:1] [0:1] [0:1] [0:1] [0:1] [0:1] [0:1] [0:1] [0:1] [0:1] [0:1] [0:1] [0:1] [0:1] [0:1] [0:1] [0:1] [0:1] [0:1] [0:1] [0:1] [0:1] [0:1] [0:1] [0:1] [0:1] [0:1] [0:1] [0:1] [0:1] none [0:1] [0:1] [0:1] [0:1] none [0:1] [0:1] [0:1] [0:1] [0:1] [0:1] [0:1] [0:1] [0:1] [0:1] [0:1] [0:1] [0:1] [0:1] [0:1] [0:1] [0:1] [0:1] [0:1] [0:1] [0:1] [0:1] [0:1] [0:1] [0:1] [0:1] [0:1] [0:1] [0:1] [0:1] [0:1] [0:1] [0:1] [0:1] [0:1] [0:1] [0:1] [0:1] [0:1] [0:1] [0:1] [0:1] [0:1] [0:1] [0:1] [0:1] [0:1] [0:1] [0:1] [0:1] [0:1] none [0:1] [0:1] [0:1] [0:1] [0:1] [0:1] [0:1] [0:1] [0:1] [0:1] [0:1] none [0:1] [0:1] [0:1] [0:1] [0:1] [0:1] [0:1] [0:1] none [0:1] [0:1] [0:1] [0:1] [0:1] [0:1] [0:1] [0:1] [0:1] [0:1] [0:1] [0:1] [0:1] [0:1] [0:1] [0:1] [0:1] [0:1] [0:1] [0:1] [0:1] [0:1] [0:1] [0:1] [0:1] [0:1] [0:1] [0:1] none [0:1] [0:1] [0:1] [0:1] [0:1] [0:1] [0:1] [0:1] [0:1] none [0:1] [0:1] [0:1] [0:1] [0:1] [0:1] [0:1] [0:1] [0:1] [0:1] [0:1] [0:1] [0:1] [0:1] [0:1] [0:1] [0:1] [0:1] [0:1] [0:1] [0:1] [0:1] [0:1] [0:1] [0:1] [0:1] [0:1] [0:1] [0:1] [0:1]
tree_sizes=5790 6027 6032 6039 6075 5992 6066 6017 6030 6059 6117 6049 6085 6017 6107 6054 6109 6085 6072 6107 6110 6086 6071 6100 6079 6122 6070 6096 6079 6075 6044 6104 6136 6097 6102 6103 6062 6053 5996 6043 6056 6023 6054 6157 6009 6122 6115 6143 6141 6134 6182 6129 6160 6306 6126 6091 6092 6070 6085 6136 6218 6155 6099 6177 6179 6156 6257 6155 6130 6078 6060 6154 6053 6116 6082 6150 6117 5982 6109 6100 6025 6218 6172 6163 6156 6171 6127 5993 6156 6137 6200 6128 6165 6172 6104 6087 6077 6127 6134 6085 6166 6067 6110 6111 6200 6071 6093 6045 6100 6052 6226 6037 6120 6166 6110 6217 6072 6065 6093 6083 6025 6050 6101 6174 6079 6143 6218 6137 6059 6055 6141 6042 6071 6099 6105 5995 6049 6071 6148 6096 6202 6164 6140 6117 6102 6110 6186 6110 6133 6133 6116 6063 6134 6123 6155 6096 6046 5959 6064 6020 6068 6166 6194 6000 6162 5995 5981 6001 6147 6197 6248 6084 6133 6033 6023 6096 6084 6095 5988 6168 6055 6121 6020 6094 5982 6104 6109 6199 5990 6065 5911 5976 6050 6142 5980 6072 5959 6020 6160 6151 6149 6173 6095 6059 6078 6087 6012 6013 5995 6048 6047 6110 6144 6101 6140 6096 6068 6095 6062 6178 6083 6013 6150 6041 6066 6041 5945 6077 5988 6137 6061 6026 6123 5973 6065 6066 6155 5936 6218 5995 6065 5963 6086 6056 6106 5966 6015 6158 6057 5945 5999 6027 5995 6068 6080 6013 6141 5964 6003 5942 6057 6077 6028 6119 6054 6150 6046 6049 6111 6027 6002 6030 6000 6088 6123 6002 5961 6068 6183 6100 6027 6078 6173 6154 6103 5936 6039 6060 6053 6035 6048 6046 6122 6051 6035 5984 5962 6033 6090 6013

Tree=0
num_leaves=64
num_cat=0
split_feature=776 3 796 2 1083 2 702 769 2 775 1086 797 1039 1063 3 2 1072 779 775 4 4 762 809 769 1080 808 810 2 808 1055 4 2 1083 1144 1 1077 578 3 812 1073 761 1140 1072 762 797 3 812 809 584 1085 1082 1 1082 1 1 1245 1074 1073 1 1207 1097 1170 1080
split_gain=4674.73 495.42 383.855 301.236 156.284 275.299 123.405 82.9543 75.0448 68.8924 66.1464 65.6054 62.8064 60.8213 70.7501 56.1149 53.5322 44.5938 43.4151 43.0512 37.2594 36.4022 34.0056 31.3045 30.5858 49.9548 30.3862 28.1672 27.121 26.1991 106.885 29.8997 27.5777 25.8328 25.7318 24.4653 36.9459 24.3643 23.906 23.8772 22.9395 22.0714 21.6876 21.4384 20.5466 20.0638 19.8883 22.4624 19.0833 18.6097 18.362 18.1841 17.8661 17.4879 17.4204 16.9657 16.8706 16.2062 15.9374 15.849 16.0273 16.5702 14.8778
threshold=1.0000000180025095e-35 1.4978661367769956 1.0000000180025095e-35 12336.500000000002 1.0000000180025095e-35 29195.500000000004 1.0000000180025095e-35 1.0000000180025095e-35 60507.000000000007 1.0000000180025095e-35 1.0000000180025095e-35 1.0000000180025095e-35 1.0000000180025095e-35 1.0000000180025095e-35 0.89587973461402759 50770.000000000007 1.0000000180025095e-35 1.0000000180025095e-35 1.0000000180025095e-35 11572.04807692308 44309.500000000007 1.0000000180025095e-35 1.0000000180025095e-35 1.0000000180025095e-35 1.0000000180025095e-35 1.0000000180025095e-35 1.0000000180025095e-35 22076.500000000004 1.0000000180025095e-35 1.0000000180025095e-35 3013.6250000000005 4981.0000000000009 1.0000000180025095e-35 1.0000000180025095e-35 552.50000000000011 1.0000000180025095e-35 1.0000000180025095e-35 0.89587973461402759 1.0000000180025095e-35 1.0000000180025095e-35 1.0000000180025095e-35 1.0000000180025095e-35 1.0000000180025095e-35 1.0000000180025095e-35 1.0000000180025095e-35 1.8688348091416842 1.0000000180025095e-35 1.0000000180025095e-35 1.0000000180025095e-35 1.0000000180025095e-35 1.0000000180025095e-35 23565.500000000004 1.0000000180025095e-35 73789.500000000015 24029.500000000004 1.0000000180025095e-35 1.0000000180025095e-35 1.0000000180025095e-35 12568.500000000002 1.0000000180025095e-35 1.0000000180025095e-35 1.0000000180025095e-35 1.0000000180025095e-35
decision_type=2 2 2 2 2 2 2 2 2 2 2 2 2 2 2 2 2 2 2 2 2 2 2 2 2 2 2 2 2 2 2 2 2 2 2 2 2 2 2 2 2 2 2 2 2 2 2 2 2 2 2 2 2 2 2 2 2 2 2 2 2 2 2
left_child=2 4 3 6 5 16 9 11 -4 13 33 12 17 14 22 -6 27 18 21 55 -17 40 23 26 37 46 28 56 29 38 31 -31 -33 34 -8 -16 48 -14 43 53 -5 59 50 44 -1 -3 47 -26 -37 52 57 -42 -15 -9 -28 -7 -2 -19 -49 60 61 62 -36
right_child=1 45 8 7 15 19 10 39 -10 -11 -12 -13 24 49 35 20 -18 42 -20 -21 -22 -23 -24 -25 25 -27 54 -29 -30 30 -32 32 -34 -35 41 36 -38 -39 -40 -41 51 -43 -44 -45 -46 -47 -48 58 -50 -51 -52 -53 -54 -55 -56 -57 -58 -59 -60 -61 -62 -63 -64
leaf_value=12777.412871823088 12435.549121305066 12527.142873340472 12458.624121335986 13712.617871093749 12432.21787109375 12457.192871284857 12552.705373398774 12501.3341225476 12480.719121101964 12435.84287145175 12509.991622503754 12470.386621134263 12599.915372673237 12725.192872290685 13123.812879657373 12480.26787129566 12534.132873265073 12843.375383662991 12457.855371314101 12478.197871514411 12453.149121154565 12463.246622854005 12498.430372099019 12432.350371510722 12862.177872234583 12864.147871337831 12433.774121211562 12463.067871165276 12463.76162118828 12505.70537110027 12914.017877336591 12840.207872523368 12789.770371096767 12624.730371110327 12666.66787109375 12717.617872180044 12621.621621156391 13040.955371469818 12491.427871378512 12450.110371104814 12490.504121583048 12764.117873745412 12475.375371319615 12444.644121109788 12464.067871164531 12708.56288191937 12469.947871121763 12717.011621678528 12631.915371414832 12621.242871605977 12457.211621507164 12675.241627576854 12629.657871254534 12618.430372048355 12449.68787111938 12456.107871098071 14286.117872690409 12499.660372031667 12839.83787110895 12536.880371140875 12551.599121717085 12743.862871228532 12582.120371211506
leaf_weight=13053 2270 741 766 624528 2903 1141 251 878 442 156 118 436 4039 919 20899 1085 387 830 131 1883 654 290 211 183 958 169 116 769 146 176 1996 370 163 90 3944 730 58 10096 99 67 242 41 259 42 39 1123 48 66 27 276 116 410 167 626 87 117 21 35 103 24 116 109 110
leaf_count=13053 2270 741 766 624528 2903 1141 251 878 442 156 118 436 4039 919 20899 1085 387 830 131 1883 654 290 211 183 958 169 116 769 146 176 1996 370 163 90 3944 730 58 10096 99 67 242 41 259 42 39 1123 48 66 27 276 116 410 167 626 87 117 21 35 103 24 116 109 110
internal_value=13075.7 13075.6 13075.7 13075.7 13075.6 13075.6 13075.6 13075.7 13075.6 13075.6 13075.6 13075.7 13075.7 13075.6 13075.6 13075.6 13075.6 13075.7 13075.7 13075.6 13075.6 13075.7 13075.6 13075.6 13075.6 13075.6 13075.6 13075.6 13075.6 13075.6 13075.6 13075.6 13075.6 13075.6 13075.6 13075.7 13075.6 13075.6 13075.6 13075.6 13075.7 13075.6 13075.6 13075.6 13075.6 13075.6 13075.6 13075.6 13075.6 13075.6 13075.6 13075.6 13075.6 13075.6 13075.6 13075.6 13075.6 13075.6 13075.6 13075.6 13075.6 13075.6 13075.6
internal_weight=703345 13094 690251 689043 11230 6588 44716 644327 1208 39913 4803 642756 642320 39757 38395 4642 3447 626841 625601 3141 1739 625470 16681 16470 15479 1344 16287 3060 16084 15938 2705 709 533 4685 4595 21714 815 14135 13233 1571 625180 4344 1240 13134 13092 1864 1175 1127 757 1362 981 652 1086 1504 203 1258 2291 865 169 4303 4279 4163 4054
internal_count=703345 13094 690251 689043 11230 6588 44716 644327 1208 39913 4803 642756 642320 39757 38395 4642 3447 626841 625601 3141 1739 625470 16681 16470 15479 1344 16287 3060 16084 15938 2705 709 533 4685 4595 21714 815 14135 13233 1571 625180 4344 1240 13134 13092 1864 1175 1127 757 1362 981 652 1086 1504 203 1258 2291 865 169 4303 4279 4163 4054
is_linear=0
shrinkage=1


Tree=1
num_leaves=64
num_cat=0
split_feature=1043 0 2 2 779 1083 702 1083 1086 1 769 2 1086 1039 1063 1039 1 1 777 1055 1 2 771 1077 2 584 802 1083 0 1 795 795 771 581 1140 582 1144 0 1 580 1 2 0 1082 1082 769 2 1 1086 769 795 779 1074 1245 808 2 1187 1076 812 1170 1097 1207 702
split_gain=3990.03 940.764 230.815 195.488 162.466 135.081 118.528 98.7106 184.481 134.29 87.2603 81.1024 68.5297 60.1849 56.6278 52.8243 66.52 49.746 40.7859 38.9912 96.884 42.2801 38.3491 37.7839 34.9911 34.2121 33.1778 30.375 27.9232 25.7231 25.4692 25.0834 26.6797 23.5239 23.2621 22.8453 22.7166 22.0873 22.0024 21.2423 20.971 20.2201 33.3188 20.1819 19.5966 18.9007 18.0313 17.4424 17.2522 16.1777 15.251 15.3138 14.8169 14.5492 42.4056 14.3991 14.3472 14.2424 15.1596 14.0448 14.3306 14.1109 13.7847
threshold=1.0000000180025095e-35 3.5000000000000004 12740.500000000002 45464.500000000007 1.0000000180025095e-35 1.0000000180025095e-35 1.0000000180025095e-35 1.0000000180025095e-35 1.0000000180025095e-35 85904.500000000015 1.0000000180025095e-35 22595.000000000004 1.0000000180025095e-35 1.0000000180025095e-35 1.0000000180025095e-35 1.0000000180025095e-35 75430.500000000015 224716.00000000003 1.0000000180025095e-35 1.0000000180025095e-35 1965.5000000000002 5910.0000000000009 1.0000000180025095e-35 1.0000000180025095e-35 24057.500000000004 1.0000000180025095e-35 1.0000000180025095e-35 1.0000000180025095e-35 1.5000000000000002 13681.500000000002 1.0000000180025095e-35 1.0000000180025095e-35 1.0000000180025095e-35 1.0000000180025095e-35 1.0000000180025095e-35 1.0000000180025095e-35 1.0000000180025095e-35 5.5000000000000009 46724.500000000007 1.0000000180025095e-35 552.50000000000011 123249.00000000001 1.5000000000000002 1.0000000180025095e-35 1.0000000180025095e-35 1.0000000180025095e-35 5910.0000000000009 4861.5000000000009 1.0000000180025095e-35 1.0000000180025095e-35 1.0000000180025095e-35 1.0000000180025095e-35 1.0000000180025095e-35 1.0000000180025095e-35 1.0000000180025095e-35 8551.5000000000018 1.0000000180025095e-35 1.0000000180025095e-35 1.0000000180025095e-35 1.0000000180025095e-35 1.0000000180025095e-35 1.0000000180025095e-35 1.0000000180025095e-35
decision_type=2 2 2 2 2 2 2 2 2 2 2 2 2 2 2 2 2 2 2 2 2 2 2 2 2 2 2 2 2 2 2 2 2 2 2 2 2 2 2 2 2 2 2 2 2 2 2 2 2 2 2 2 2 2 2 2 2 2 2 2 2 2 2
left_child=2 3 6 4 7 38 14 8 11 24 18 31 34 62 15 19 57 45 22 23 21 -21 26 -1 -10 33 30 -23 -15 -13 -9 32 43 35 36 39 40 -3 41 -25 55 -5 -43 49 -6 50 -22 -16 -18 52 51 -7 -2 -30 -55 -8 59 58 -17 60 61 -42 -4
right_child=1 37 13 5 44 17 12 10 9 -11 -12 29 -14 28 47 16 48 -19 -20 20 46 27 -24 25 -26 -27 -28 -29 53 -31 -32 -33 -34 -35 -36 -37 -38 -39 -40 -41 56 42 -44 -45 -46 -47 -48 -49 -50 -51 -52 -53 -54 54 -56 -57 -58 -59 -60 -61 -62 -63 -64
leaf_value=-3.5468929143995638 -604.32745606525339 -511.09841256547293 652.32536788577227 -583.54608086395262 -447.25813483877113 -582.2274559760699 -456.61026796772148 -610.71089355468746 -577.93692463286595 -425.26752184262682 -539.99751849626193 -586.91188077462164 -527.97458079028411 -464.79576863366185 -409.03289290037014 -585.02340120528856 -582.58933068541353 -551.93870599635409 -522.16679065781682 -540.82276849298739 -395.80526809188541 -170.2353934514523 138.39024275838997 -376.06451492238676 -455.1132918782418 -461.48689358320092 4522.825913961583 -282.33101790876128 -49.558893186164859 -568.03511840307124 -632.53089323058725 -638.70525531245471 -445.83939356014139 -468.07064351068811 -282.60964083673434 -420.86589307531716 -408.71401846800927 -186.57814287332823 -558.77862317332585 -455.77884351739959 -388.79589302662765 -643.68089355468749 -533.17933361148312 -617.51751857553609 -611.0005810737191 273.71959524181443 -43.025892090238635 -239.34670474611036 603.42929078324016 -605.93678709450342 -252.09338878203181 996.67498721680613 -7.5512040457548215 -236.43884335421609 -198.7823934070766 -503.34526856801477 -336.93339314490561 -618.44745595491031 -550.46139355909088 -308.28064342414967 -496.7574554462592 -511.83151850991885 -290.65589243896301
leaf_weight=31586 1456 1714 614206 2091 691 2193 131 3390 1620 327 267 1095 117 4223 1017 886 874 660 97 186 225 336 62 1247 784 62 48 142 10281 1255 61 143 112 37 44 30 88 4377 1328 33 4051 528 404 445 89 51 2511 368 1318 277 46 36 45 569 111 115 21 94 67 111 119 24 2397
leaf_count=31586 1456 1714 614206 2091 691 2193 131 3390 1620 327 267 1095 117 4223 1017 886 874 660 97 186 225 336 62 1247 784 62 48 142 10281 1255 61 143 112 37 44 30 88 4377 1328 33 4051 528 404 445 89 51 2511 368 1318 277 46 36 45 569 111 115 21 94 67 111 119 24 2397
internal_value=1.25814e-05 -0.0193284 0.000745888 -0.0246619 -0.0285241 -0.0182062 -0.00267997 -0.0300239 -0.0266836 -0.0370693 -0.036457 -0.0208088 -0.0100962 0.000994455 -0.00180834 -0.00146106 -0.00757989 -0.0263957 -0.0384712 -0.000916506 -0.00601471 -0.0231476 -0.0393425 -0.000391158 -0.0411585 -0.00840224 -0.0400332 -0.0152772 -0.00211538 -0.0141543 -0.0406074 -0.0271197 -0.0283646 -0.0067307 -0.00915604 -0.00562023 -0.00881438 -0.00216487 -0.0125859 -0.00460938 -0.00833005 -0.0149425 -0.0210676 -0.0295642 -0.00644231 -0.0298334 -0.00185673 -0.0117464 -0.00262774 -0.0271808 -0.0305082 -0.0310963 -0.0292297 -0.000784486 -0.00786765 -0.0225305 -0.00752254 -0.0179477 -0.0161162 -0.00732143 -0.00685682 -0.00635736 0.00107104
internal_weight=703319 25692 677627 19601 12264 7337 45840 11484 7559 2731 3925 4828 4821 631787 41019 39634 3239 2986 3658 36395 3400 664 3561 32995 2404 1409 3499 478 15184 2350 3451 2478 2335 1347 4704 1310 4660 6091 4351 1280 4572 3023 932 2223 780 2326 2736 1385 2192 1778 2275 2229 1501 10961 680 246 4326 1047 953 4305 4194 4075 616603
internal_count=703319 25692 677627 19601 12264 7337 45840 11484 7559 2731 3925 4828 4821 631787 41019 39634 3239 2986 3658 36395 3400 664 3561 32995 2404 1409 3499 478 15184 2350 3451 2478 2335 1347 4704 1310 4660 6091 4351 1280 4572 3023 932 2223 780 2326 2736 1385 2192 1778 2275 2229 1501 10961 680 246 4326 1047 953 4305 4194 4075 616603
is_linear=0
shrinkage=0.05


Tree=2
num_leaves=64
num_cat=0
split_feature=776 3 1043 2 3 1083 2 796 702 1086 1 1039 775 1063 2 1 1039 1 1072 1080 808 1073 1086 1055 1 2 1077 578 584 1 1083 2 1 2 1140 582 812 1144 580 809 1 1080 797 1072 2 2 1083 1 812 3 762 1 1055 1 1006 993 1009 994 997 1097 1 2 1170
split_gain=4438.39 466.176 456.909 214.164 173.517 170.172 299.379 134.718 115.756 76.2756 63.7481 56.9758 56.4523 51.6293 47.6569 45.2892 43.9946 59.3858 43.5026 36.6014 47.8528 35.708 35.6619 34.5494 91.0844 38.8036 38.6321 53.6187 43.0829 33.8665 30.5718 30.0484 29.4041 28.8411 27.3475 27.1873 24.9561 22.0024 21.5158 20.0572 19.6483 19.2665 19.11 18.9029 18.2321 17.8589 19.8385 17.3583 16.6593 15.9595 15.7657 15.5405 15.4165 39.5382 73.7296 48.9434 32.8641 27.6111 21.9894 14.982 14.8273 14.3965 14.3196
threshold=1.0000000180025095e-35 1.4978661367769956 1.0000000180025095e-35 12740.500000000002 1.4978661367769956 1.0000000180025095e-35 22595.000000000004 1.0000000180025095e-35 1.0000000180025095e-35 1.0000000180025095e-35 108225.50000000001 1.0000000180025095e-35 1.0000000180025095e-35 1.0000000180025095e-35 45464.500000000007 73789.500000000015 1.0000000180025095e-35 69503.500000000015 1.0000000180025095e-35 1.0000000180025095e-35 1.0000000180025095e-35 1.0000000180025095e-35 1.0000000180025095e-35 1.0000000180025095e-35 2079.5000000000005 5910.0000000000009 1.0000000180025095e-35 1.0000000180025095e-35 1.0000000180025095e-35 5460.5000000000009 1.0000000180025095e-35 43497.000000000007 13958.500000000002 41703.500000000007 1.0000000180025095e-35 1.0000000180025095e-35 1.0000000180025095e-35 1.0000000180025095e-35 1.0000000180025095e-35 1.0000000180025095e-35 552.50000000000011 1.0000000180025095e-35 1.0000000180025095e-35 1.0000000180025095e-35 48389.000000000007 101637.00000000001 1.0000000180025095e-35 2570.5000000000005 1.0000000180025095e-35 0.89587973461402759 1.0000000180025095e-35 12836.500000000002 1.0000000180025095e-35 5000.5000000000009 1.0000000180025095e-35 1.0000000180025095e-35 1.0000000180025095e-35 1.0000000180025095e-35 1.0000000180025095e-35 1.0000000180025095e-35 139868.00000000003 5910.0000000000009 1.0000000180025095e-35
decision_type=2 2 2 2 2 2 2 2 2 2 2 2 2 2 2 2 2 2 2 2 2 2 2 2 2 2 2 2 2 2 2 2 2 2 2 2 2 2 2 2 2 2 2 2 2 2 2 2 2 2 2 2 2 2 2 2 2 2 2 2 2 2 2
left_child=2 5 3 8 7 6 18 12 13 34 44 52 21 16 -9 22 23 48 60 49 36 32 29 26 25 -25 -1 28 35 41 -27 -12 42 -24 37 38 39 40 -28 -21 -10 -8 43 -4 -7 46 -3 -15 -18 -13 -34 -41 -5 54 55 56 57 58 -54 62 -2 -26 -42
right_child=1 45 4 11 -6 10 15 14 9 -11 31 19 -14 47 -16 -17 17 -19 -20 20 -22 -23 33 24 61 30 27 -29 -30 -31 -32 -33 50 -35 -36 -37 -38 -39 -40 51 59 -43 -44 -45 -46 -47 -48 -49 -50 -51 -52 -53 53 -55 -56 -57 -58 -59 -60 -61 -62 -63 -64
leaf_value=-4.1412905052192954 -576.46108325420221 -338.86347283775194 -552.21244636658867 662.43784906350356 -291.48726880425693 -580.97534887695315 -568.19529918772105 -558.68191036291512 -472.86800295495482 -529.87710086267941 -580.62534876072402 -405.84347925035337 -568.00164765034731 -395.58580509037654 -543.13101407617808 -554.82096237682106 -571.6192380097059 -482.18045796844757 -494.33527016105199 -230.99094699977269 -189.69327365178617 -631.87605975574752 -434.84647882195242 -515.06537987512581 -380.21500503821358 -149.03987312943119 -309.4239643426335 -443.61741771688503 -438.38629890364973 -553.64595438811045 -260.63946741230177 -560.46608286881235 -491.79023168173427 -559.03206743208978 -103.87541164543391 -396.11759836634246 -555.27510502035773 -407.92581761535206 -433.17688884613926 -313.24079200448989 -369.44359890335619 -558.00881550976464 -551.09284852100166 -598.90785729012657 -542.75827074372091 -395.2270536750342 -572.80565491891082 -266.99776738533029 -529.33243967015301 -34.20357223159936 -573.86661694342831 -230.66058142122202 -334.44965964976421 239.82784615688308 -510.22716190695485 -502.40591191930417 -511.81216194472927 -508.74716185658895 -496.56716166466197 -461.8545828033628 -585.09032999772808 -44.226595183378144 -298.7791113902191
leaf_weight=31870 2201 328 2873 591229 4264 2291 586 620 249 128 417 3931 256 764 432 1081 924 2188 319 937 181 230 570 194 252 344 1224 87 65 1245 135 749 3250 236 45 33 50 91 31 73 4091 177 194 414 1196 1342 140 578 62 10038 79 102 2940 21760 95 60 39 32 25 111 192 2514 102
leaf_count=31870 2201 328 2873 591229 4264 2291 586 620 249 128 417 3931 256 764 432 1081 924 2188 319 937 181 230 570 194 252 344 1224 87 65 1245 135 749 3250 236 45 33 50 91 31 73 4091 177 194 414 1196 1342 140 578 62 10038 79 102 2940 21760 95 60 39 32 25 111 192 2514 102
internal_value=1.55278e-05 -0.0288495 0.000562142 0.000737657 -0.00886735 -0.0326354 -0.0274771 -0.0130588 -0.002553 -0.00988764 -0.03996 0.000977788 -0.0106469 -0.00169681 -0.0297861 -0.018596 -0.00137255 -0.00702032 -0.0402323 -0.00203501 -0.00991902 -0.00980824 -0.0219376 -0.000884752 -0.00565608 -0.0221527 -0.00039215 -0.00840278 -0.00595621 -0.0183715 -0.014512 -0.0298392 -0.00915382 -0.030822 -0.0088481 -0.00395186 -0.00619406 -0.00847222 -0.0027739 -0.00464029 -0.00798567 -0.0266661 -0.0123668 -0.0114668 -0.0433442 -0.00529696 -0.0137073 -0.0113431 -0.0172084 -0.00127702 -0.00579416 -0.0201786 0.00105266 -0.000164773 -0.00536235 -0.00403101 -0.00314723 -0.0025538 -0.00205523 -0.00719563 -0.0425444 -0.00164226 -0.00671566
internal_weight=703256 13070 690186 677574 12612 11260 6607 8348 46082 4817 4653 631492 7296 41265 1052 3895 39923 3174 2712 15312 1343 7040 2814 36749 3439 673 33310 1440 1353 2008 479 1166 6810 806 4689 1288 1162 4644 1255 1112 4553 763 3481 3287 3487 1810 468 1342 986 13969 3329 175 616180 24951 3191 3096 3036 2997 2965 4304 2393 2766 4193
internal_count=703256 13070 690186 677574 12612 11260 6607 8348 46082 4817 4653 631492 7296 41265 1052 3895 39923 3174 2712 15312 1343 7040 2814 36749 3439 673 33310 1440 1353 2008 479 1166 6810 806 4689 1288 1162 4644 1255 1112 4553 763 3481 3287 3487 1810 468 1342 986 13969 3329 175 616180 24951 3191 3096 3036 2997 2965 4304 2393 2766 4193
is_linear=0
shrinkage=0.05


Tree=3
num_leaves=64
num_cat=0
split_feature=776 0 1043 2 0 1 702 796 1195 2 1086 1136 775 1063 1039 1 2 1039 1072 1249 1195 1 1080 808 1055 2 1 1077 578 584 581 582 580 1114 1 1140 1073 2 1086 2 2 1114 1136 1080 812 1195 1144 1 1074 2 1 1080 2 1076 812 797 1082 1072 809 1078 1080 1 2
split_gain=4333.81 469.13 418.796 204.899 160.963 149.875 130.67 126.013 76.1048 136.388 74.5722 60.6765 48.8315 48.5404 46.8246 50.7044 46.7708 46.6353 41.9045 39.044 38.2062 35.6001 28.2063 39.8037 27.6173 87.9652 32.7229 32.3862 50.054 46.19 31.8519 29.9778 27.9208 25.4747 24.9423 24.8266 24.8232 24.0636 28.2857 27.0614 23.9139 27.0185 28.1774 23.3866 22.4877 20.8566 20.6674 19.7519 17.9481 17.6607 16.5193 16.317 17.4113 16.1612 16.3587 15.9177 17.2626 18.2426 15.9148 15.6861 15.4471 15.4103 15.3651
threshold=1.0000000180025095e-35 3.5000000000000004 1.0000000180025095e-35 13803.500000000002 3.5000000000000004 69503.500000000015 1.0000000180025095e-35 1.0000000180025095e-35 1.0000000180025095e-35 27055.500000000004 1.0000000180025095e-35 1.0000000180025095e-35 1.0000000180025095e-35 1.0000000180025095e-35 1.0000000180025095e-35 75430.500000000015 31347.500000000004 1.0000000180025095e-35 1.0000000180025095e-35 1.0000000180025095e-35 1.0000000180025095e-35 13113.500000000002 1.0000000180025095e-35 1.0000000180025095e-35 1.0000000180025095e-35 4981.0000000000009 2079.5000000000005 1.0000000180025095e-35 1.0000000180025095e-35 1.0000000180025095e-35 1.0000000180025095e-35 1.0000000180025095e-35 1.0000000180025095e-35 1.0000000180025095e-35 3969.5000000000005 1.0000000180025095e-35 1.0000000180025095e-35 151000.50000000003 1.0000000180025095e-35 39145.500000000007 22595.000000000004 1.0000000180025095e-35 1.0000000180025095e-35 1.0000000180025095e-35 1.0000000180025095e-35 1.0000000180025095e-35 1.0000000180025095e-35 552.50000000000011 1.0000000180025095e-35 47159.500000000007 3312.5000000000005 1.0000000180025095e-35 21289.500000000004 1.0000000180025095e-35 1.0000000180025095e-35 1.0000000180025095e-35 1.0000000180025095e-35 1.0000000180025095e-35 1.0000000180025095e-35 1.0000000180025095e-35 1.0000000180025095e-35 31171.500000000004 13486.500000000002
decision_type=2 2 2 2 2 2 2 2 2 2 2 2 2 2 2 2 2 2 2 2 2 2 2 2 2 2 2 2 2 2 2 2 2 2 2 2 2 2 2 2 2 2 2 2 2 2 2 2 2 2 2 2 2 2 2 2 2 2 2 2 2 2 2
left_child=2 5 3 6 7 8 13 12 9 18 35 19 21 14 24 53 -9 -5 48 33 40 36 -19 44 27 34 45 -1 29 30 31 32 -29 37 -26 46 55 38 59 -40 -7 42 -42 -18 58 -27 47 -8 51 -22 -15 -2 -53 54 -16 56 57 -4 -24 -11 -39 -3 -49
right_child=1 61 4 17 -6 20 10 16 -10 11 -12 -13 -14 50 15 -17 43 22 -20 -21 49 -23 23 -25 25 26 -28 28 -30 -31 -32 -33 -34 -35 -36 -37 -38 60 39 -41 41 -43 -44 -45 -46 -47 -48 62 -50 -51 -52 52 -54 -55 -56 -57 -58 -59 -60 -61 -62 -63 -64
leaf_value=-2.987473024012139 -546.44137665905509 -512.63130380475752 -512.11257572887075 627.64595692593502 -223.48991113704784 -551.33592337672951 -463.42596080847761 -535.18204921996107 -551.19658127992159 -527.08426007094306 -481.73199674712407 -550.18158115080303 -547.28718056617663 -373.24313991372378 -535.90879269421373 -477.42881878634762 -521.2365657803947 -210.65734636905668 -469.32350720441684 -491.42039730684911 -549.41908130443392 -488.05810309259124 -190.27834041809086 -181.14735989601351 -487.40586113310604 -218.00662877958996 -69.222058613418639 -52.020584749487284 -438.69449138468173 -442.93670680609057 -422.39965690895809 -380.62375372511929 -416.48632138256181 -549.87658133624791 -247.92987879814166 -98.681641063162175 -600.35274652535645 -549.18747324228013 -413.26165493535586 -306.97192612497514 -512.28916288557889 -544.56777901557189 -532.7833946581585 350.14813669854192 -518.84384949340767 -187.89351756909471 -387.55452673495694 -360.97141895818845 1695.3847268263935 -516.49410721552522 -229.73579470333408 -527.18927909557385 -530.04822932365119 -584.81730927837941 -500.34545171544323 -520.50501572715586 -557.24162038111581 -574.09773321727278 -258.02928714707303 -547.52928454414655 -528.4959080960931 -317.31193877337108 -475.20874093424175
leaf_weight=38082 2333 344 2543 608173 4247 452 252 403 2057 1400 123 422 244 898 982 2342 541 13667 241 294 362 3461 898 170 189 537 3297 1496 82 67 42 38 38 131 118 46 152 119 361 210 1259 150 237 105 49 84 89 4362 23 579 507 200 92 113 62 183 354 413 169 237 151 1481 178
leaf_count=38082 2333 344 2543 608173 4247 452 252 403 2057 1400 123 422 244 898 982 2342 541 13667 241 294 362 3461 898 170 189 537 3297 1496 82 67 42 38 38 131 118 46 152 119 361 210 1259 150 237 105 49 84 89 4362 23 579 507 200 92 113 62 183 354 413 169 237 151 1481 178
internal_value=1.28942e-05 -0.0284379 0.000554649 0.000723012 -0.00846058 -0.0322336 -0.00223086 -0.0124719 -0.0357226 -0.0329631 -0.00988861 -0.0260583 -0.0101582 -0.00144122 -0.00117069 -0.006738 -0.0286833 0.000979108 -0.0409099 -0.023483 -0.0227382 -0.00940297 -0.00177949 -0.00885886 -0.00072867 -0.00457249 -0.00255296 -0.000321088 -0.00694626 -0.00508551 -0.00339684 -0.00224873 -0.00116199 -0.0215365 -0.0303461 -0.00892861 -0.0128515 -0.0204005 -0.0186775 -0.0282596 -0.0189836 -0.0161862 -0.0141578 -0.0203444 -0.00542563 -0.0130817 -0.00858405 -0.00814065 -0.0427266 -0.0311092 -0.0106005 -0.0431119 -0.0319692 -0.0153014 -0.0133573 -0.0119908 -0.0111971 -0.00994756 -0.00390464 -0.0153352 -0.0344907 -0.00491438 -0.00738436
internal_weight=702931 13135 689796 677150 12646 11310 54024 8399 8271 6214 5050 3325 7350 48974 47569 3499 1049 623126 2889 2903 3039 7106 14953 1286 44070 4225 3918 39845 1763 1681 1614 1572 1534 2609 307 4927 3645 2478 2208 571 2098 1646 1496 646 1116 621 4881 4792 2648 941 1405 2625 292 1157 1044 3493 3310 2956 1067 1637 270 1825 4540
internal_count=702931 13135 689796 677150 12646 11310 54024 8399 8271 6214 5050 3325 7350 48974 47569 3499 1049 623126 2889 2903 3039 7106 14953 1286 44070 4225 3918 39845 1763 1681 1614 1572 1534 2609 307 4927 3645 2478 2208 571 2098 1646 1496 646 1116 621 4881 4792 2648 941 1405 2625 292 1157 1044 3493 3310 2956 1067 1637 270 1825 4540
is_linear=0
shrinkage=0.05


Tree=4
num_leaves=64
num_cat=0
split_feature=776 0 1043 1083 702 796 1086 1 0 1039 1086 1 775 1 0 1082 0 0 1073 188 1055 1 1006 1083 578 1077 0 1 0 1080 993 1 0 1009 1080 4 0 1080 808 994 1081 1 1021 581 1077 584 1077 1 1 1170 1086 1 812 1086 1074 1 1074 1082 797 1072 779 1074 1080
split_gain=4206.38 468.138 391.074 192.874 167.572 152.28 115.951 147.408 94.4293 89.1861 84.2979 67.4007 63.3582 61.6081 43.671 41.3573 39.9106 37.3957 35.8746 35.3329 34.5922 100.859 54.5008 47.0635 34.8408 150.67 33.4557 28.8057 27.5166 32.1662 24.7115 23.3798 22.5103 21.0906 20.4871 20.3399 19.9813 19.8966 45.7413 19.7711 18.9065 21.9353 18.3231 16.7773 53.0489 15.3228 87.9779 18.2836 15.0765 17.3883 14.9427 14.7269 14.0391 20.0434 12.8684 12.8538 12.8334 12.7678 14.6742 15.294 12.7858 12.6409 12.3992
threshold=1.0000000180025095e-35 3.5000000000000004 1.0000000180025095e-35 1.0000000180025095e-35 1.0000000180025095e-35 1.0000000180025095e-35 1.0000000180025095e-35 73789.500000000015 2.5000000000000004 1.0000000180025095e-35 1.0000000180025095e-35 10998.500000000002 1.0000000180025095e-35 69503.500000000015 1.5000000000000002 1.0000000180025095e-35 2.5000000000000004 2.5000000000000004 1.0000000180025095e-35 1.0000000180025095e-35 1.0000000180025095e-35 5000.5000000000009 1.0000000180025095e-35 1.0000000180025095e-35 1.0000000180025095e-35 1.0000000180025095e-35 2.5000000000000004 94221.500000000015 3.5000000000000004 1.0000000180025095e-35 1.0000000180025095e-35 13958.500000000002 1.5000000000000002 1.0000000180025095e-35 1.0000000180025095e-35 1265.2750000000003 1.5000000000000002 1.0000000180025095e-35 1.0000000180025095e-35 1.0000000180025095e-35 1.0000000180025095e-35 148.50000000000003 1.0000000180025095e-35 1.0000000180025095e-35 1.0000000180025095e-35 1.0000000180025095e-35 1.0000000180025095e-35 11522.000000000002 49501.000000000007 1.0000000180025095e-35 1.0000000180025095e-35 11895337.000000002 1.0000000180025095e-35 1.0000000180025095e-35 1.0000000180025095e-35 31171.500000000004 1.0000000180025095e-35 1.0000000180025095e-35 1.0000000180025095e-35 1.0000000180025095e-35 1.0000000180025095e-35 1.0000000180025095e-35 1.0000000180025095e-35
decision_type=2 2 2 2 2 2 2 2 2 2 2 2 2 2 2 2 2 2 2 2 2 2 2 2 2 2 2 2 2 2 2 2 2 2 2 2 2 2 2 2 2 2 2 2 2 2 2 2 2 2 2 2 2 2 2 2 2 2 2 2 2 2 2
left_child=2 3 4 6 9 8 11 16 12 19 17 32 18 -5 27 -13 -8 48 31 20 24 22 23 30 43 34 35 52 29 36 33 57 54 39 61 -21 -7 -16 -39 40 -22 -42 -25 45 62 -1 56 -48 49 -6 -29 -15 -11 -54 -2 -3 -47 58 59 60 -4 -26 -45
right_child=1 55 5 13 10 28 7 -9 -10 14 -12 15 -14 51 37 -17 -18 -19 -20 26 21 -23 -24 42 25 -27 -28 50 -30 -31 -32 -33 -34 -35 -36 -37 -38 38 -40 -41 41 -43 -44 44 -46 46 47 -49 -50 -51 -52 -53 53 -55 -56 -57 -58 -59 -60 -61 -62 -63 -64
leaf_value=594.91990903651811 -524.30728317329738 -484.78506907203541 -520.6589309762719 -523.2467521296478 -391.88807864186589 -508.54996338008164 -493.10798676675688 -421.82672958871353 -283.90312741395581 -485.61757473780165 -482.52789603033852 -500.50324166694412 -512.48969243145666 -510.99312717580779 -21.058026604022871 -528.35172972953012 -381.47272821265221 75.147712734741987 -570.31773094660457 -360.41905031789378 -282.15697532192343 136.23486383753442 -516.51935169845365 -472.70513110975446 34.72020511154426 -511.20121800024674 32.752415537633901 -466.04925764069651 -415.00717469191142 -371.85163349968082 -511.39666410598915 -468.43126734924522 -503.69216084817748 -514.18260164727928 -164.64061028250592 -239.19108639996281 -458.77336728564899 -245.70909953850975 -179.18874213812271 -488.05710166988439 -447.08844338207911 -376.34340793276334 654.78302392616399 -23.559269117698335 -512.83135188232643 23.978641533511571 -534.25635216731121 -461.79260212016766 -239.22304183476149 -269.47783467738867 384.55031234382096 -516.37126854606731 -453.31040701663255 -471.56442931349557 154.89184945725259 -291.67203897328864 -153.23577952557781 -531.05518923019304 -515.25389305481212 -545.80246610054451 -354.98025231873652 -230.9460951503772 -188.69812685286456
leaf_weight=605858 1175 338 1616 3215 4016 535 1912 474 5127 3142 123 2079 235 1329 10586 254 271 1601 164 735 2669 24055 80 785 4346 266 1734 2092 151 119 31 2750 381 26 534 573 372 873 146 24 151 394 117 2658 92 5692 133 72 1372 40 1510 111 74 56 28 1484 375 328 151 366 695 107 319
leaf_count=605858 1175 338 1616 3215 4016 535 1912 474 5127 3142 123 2079 235 1329 10586 254 271 1601 164 735 2669 24055 80 785 4346 266 1734 2092 151 119 31 2750 381 26 534 573 372 873 146 24 151 394 117 2658 92 5692 133 72 1372 40 1510 111 74 56 28 1484 375 328 151 366 695 107 319
internal_value=1.71326e-05 -0.0281041 0.00054898 -0.0319186 0.000711368 -0.00817581 -0.0264044 -0.034467 -0.0064127 0.000792596 -0.00690157 -0.0209353 -0.0105105 -0.039706 -0.00263279 -0.015531 -0.0399548 -0.00618349 -0.0095243 0.000889704 0.000914912 -0.000793626 -0.00786854 -0.00708929 0.000992929 -0.00306182 -0.00448636 -0.00579102 -0.0253006 -0.0282334 -0.00431904 -0.00888376 -0.0288952 -0.00389706 -0.00110613 -0.0105237 -0.0314402 -0.000762064 -0.00743499 -0.00353691 -0.00319928 -0.0116858 -0.017209 0.00102755 -0.00266007 0.00104604 -0.00141263 -0.033628 -0.00816415 -0.00969675 -0.00270614 -0.0311111 -0.00918704 -0.0252885 -0.0322496 -0.00459523 -0.000324089 -0.0118203 -0.0107373 -0.00988186 -0.00837787 3.64921e-06 -0.00150445
internal_weight=703117 13051 690066 11229 677457 12609 6574 2657 11432 670305 7152 3917 6305 4655 18479 2333 2183 7029 6070 651826 648784 28332 4277 4197 620452 5253 3042 6874 1177 1026 3295 5906 1584 3264 4987 1308 907 11605 1019 3238 3214 545 902 615199 3069 612130 6272 205 5428 4056 3602 1440 3272 130 1203 1822 6067 3156 2828 2677 2311 4453 2977
internal_count=703117 13051 690066 11229 677457 12609 6574 2657 11432 670305 7152 3917 6305 4655 18479 2333 2183 7029 6070 651826 648784 28332 4277 4197 620452 5253 3042 6874 1177 1026 3295 5906 1584 3264 4987 1308 907 11605 1019 3238 3214 545 902 615199 3069 612130 6272 205 5428 4056 3602 1440 3272 130 1203 1822 6067 3156 2828 2677 2311 4453 2977
is_linear=0
shrinkage=0.05


Tree=5
num_leaves=64
num_cat=0
split_feature=776 0 1043 1083 2 2 0 702 1086 2 1 4 1072 1 775 1039 1063 0 2 2 2 1055 4 1140 1073 1080 808 1077 578 584 582 1 1245 2 810 779 1 1086 808 2 2 1 1064 2 812 1039 1 1 0 2 690 1006 1 993 1086 994 1009 4 1080 2 1187 578 1077
split_gain=4046.18 460.509 377.533 201.894 301.331 194.26 148.108 107.433 73.1936 70.0365 62.4405 52.2095 49.2588 44.4713 40.0438 39.5075 39.3985 33.4829 30.9596 27.026 24.8207 40.0499 50.7654 23.1474 22.6381 21.9659 33.7478 21.2022 36.9624 26.2524 20.4356 20.1597 19.5613 28.2406 19.0733 17.993 17.5877 20.7649 17.5029 16.705 16.1967 16.0527 16.0335 18.7756 16.3511 15.4602 15.1626 14.9231 14.923 14.9168 57.3828 30.173 31.763 23.7687 22.2053 19.1018 15.726 14.4434 24.6826 14.0852 14.3304 14.0509 51.3768
threshold=1.0000000180025095e-35 3.5000000000000004 1.0000000180025095e-35 1.0000000180025095e-35 22595.000000000004 13803.500000000002 2.5000000000000004 1.0000000180025095e-35 1.0000000180025095e-35 47159.500000000007 5312.5000000000009 11572.04807692308 1.0000000180025095e-35 224716.00000000003 1.0000000180025095e-35 1.0000000180025095e-35 1.0000000180025095e-35 1.5000000000000002 32271.500000000004 33271.500000000007 6651.5000000000009 1.0000000180025095e-35 5679.9285714285725 1.0000000180025095e-35 1.0000000180025095e-35 1.0000000180025095e-35 1.0000000180025095e-35 1.0000000180025095e-35 1.0000000180025095e-35 1.0000000180025095e-35 1.0000000180025095e-35 638.50000000000011 1.0000000180025095e-35 41111.500000000007 1.0000000180025095e-35 1.0000000180025095e-35 57864.500000000007 1.0000000180025095e-35 1.0000000180025095e-35 3983.0000000000005 19533.500000000004 2452.5000000000005 1.0000000180025095e-35 3983.0000000000005 1.0000000180025095e-35 1.0000000180025095e-35 18632.000000000004 11522.000000000002 4.5000000000000009 26586.500000000004 1.0000000180025095e-35 1.0000000180025095e-35 19492.500000000004 1.0000000180025095e-35 1.0000000180025095e-35 1.0000000180025095e-35 1.0000000180025095e-35 40803.821428571435 1.0000000180025095e-35 13486.500000000002 1.0000000180025095e-35 1.0000000180025095e-35 1.0000000180025095e-35
decision_type=2 2 2 2 2 2 2 2 2 2 2 2 2 2 2 2 2 2 2 2 2 2 2 2 2 2 2 2 2 2 2 2 2 2 2 2 2 2 2 2 2 2 2 2 2 2 2 2 2 2 2 2 2 2 2 2 2 2 2 2 2 2 2
left_child=2 3 5 4 12 7 10 16 23 -5 18 32 36 -11 -12 49 17 20 35 57 21 34 39 31 -20 -17 -27 -19 29 30 -29 -9 33 47 38 -4 37 40 42 -23 -2 -18 44 -44 -1 -22 -36 -6 -8 50 51 53 -53 55 -52 56 61 58 -13 60 -33 -7 -63
right_child=1 -3 6 9 11 15 48 8 -10 13 14 19 -14 -15 -16 25 41 27 24 -21 45 22 -24 -25 -26 26 -28 28 -30 -31 -32 59 -34 -35 46 -37 -38 -39 -40 -41 -42 -43 43 -45 -46 -47 -48 -49 -50 -51 54 52 -54 -55 -56 -57 -58 -59 -60 -61 -62 62 -64
leaf_value=-242.93990179461457 -502.50478080303714 -402.00524051874055 -488.9860270159204 -498.31827950790625 -489.31590544840321 134.40765369007894 -383.20674282294431 -414.36312179258198 -428.96150098161138 -473.28548651217329 -465.46783311418358 -380.04701207046531 -420.2005601388837 -470.23355733359705 -472.74914587127887 -197.94612743795679 -338.59786123897703 47.101705447773021 -471.27886762998281 -438.40902550415279 -85.119778051792153 -443.34156119151697 -193.98802018822218 -247.65440235995757 -524.20202136040086 -266.6784424114116 -159.33680482792744 -270.34910648177436 -379.69683687808026 -361.78001809991474 -381.62386212659396 -323.32844407818567 -477.80653223175335 -475.54999848965974 -499.67611284095466 -503.76758895206052 -496.12518070355674 -468.5025874530059 -480.41300216037411 -253.89651094894299 -474.17027921435721 -220.44910458071195 -448.41410613185758 -119.73285615150844 -441.92370757345316 -463.47871123643631 -480.66962875778972 -369.24152868139436 25.643156285411916 879.53032225924699 1566.9714063710028 -480.64463399061498 783.92990771075677 -481.03683088370235 -320.8660976551048 -486.97501526278148 -491.87972122228177 -479.77089572960278 -476.11613978713814 -428.0351503977214 -265.3465686829789 -100.55432054498652 -551.74879105573962
leaf_weight=3252 646 1832 1206 2712 364 74645 1758 296 119 1467 3975 328 306 462 178 13647 767 26053 1447 1650 14159 144 391 42 87 1093 160 984 59 37 24 4341 136 778 66 339 356 1252 40 204 102 637 192 373 38 1500 52 263 3698 532633 36 64 67 64 98 34 41 255 119 169 20 940 82
leaf_count=3252 646 1832 1206 2712 364 74645 1758 296 119 1467 3975 328 306 462 178 13647 767 26053 1447 1650 14159 144 391 42 87 1093 160 984 59 37 24 4341 136 778 66 339 356 1252 40 204 102 637 192 373 38 1500 52 263 3698 532633 36 64 67 64 98 34 41 255 119 169 20 940 82
internal_value=2.13269e-05 -0.0275841 0.000542359 -0.0313867 -0.025737 0.000702376 -0.00800284 -0.00217575 -0.00916708 -0.0393662 -0.012695 -0.0168723 -0.0387012 -0.0320833 -0.00869462 0.000951413 -0.0014638 -0.00122015 -0.0180907 -0.0121854 -0.00275029 -0.0059154 -0.016612 -0.00822001 -0.013059 -0.00159228 -0.00792797 -7.01016e-05 -0.00685688 -0.00468301 -0.00316468 -0.00789836 -0.0240258 -0.0222731 -0.00394561 -0.0230866 -0.0411524 -0.042975 -0.00334564 -0.0305029 -0.0363837 -0.00971866 -0.00300422 -0.0107854 -0.00166793 -0.00178979 -0.02375 -0.0301695 -0.00178336 0.00101368 0.000358727 0.000416414 -0.0235592 0.000457846 -0.0323321 0.000483582 0.000500409 -0.0204024 -0.0258194 -0.0070723 -0.00652345 0.000517184 -0.00530577
internal_weight=703279 13028 690251 11196 6555 677563 12688 53959 4987 4641 7232 3893 2662 1929 4153 623604 48972 47568 3079 2352 20411 4752 739 4868 1534 14900 1253 27157 1104 1045 1008 4826 1541 1405 4013 1545 2356 2000 3895 348 748 1404 3855 565 3290 15659 118 627 5456 608704 76071 75937 131 75806 134 75742 75708 702 447 4530 4361 75667 1022
internal_count=703279 13028 690251 11196 6555 677563 12688 53959 4987 4641 7232 3893 2662 1929 4153 623604 48972 47568 3079 2352 20411 4752 739 4868 1534 14900 1253 27157 1104 1045 1008 4826 1541 1405 4013 1545 2356 2000 3895 348 748 1404 3855 565 3290 15659 118 627 5456 608704 76071 75937 131 75806 134 75742 75708 702 447 4530 4361 75667 1022
is_linear=0
shrinkage=0.05


Tree=6
num_leaves=64
num_cat=0
split_feature=776 3 1043 1083 2 2 796 702 3 1086 1072 2 2 775 1063 2 4 4 1039 1039 4 1140 1073 1245 2 1055 1064 1077 578 584 582 581 580 1067 1080 4 2 1080 808 812 812 1082 4 4 1155 1055 4 1006 993 994 1009 997 797 2 1076 4 1083 1097 1207 2 762 578 1077
split_gain=3937.07 443.902 357.805 191.403 315.609 179.958 146.867 93.8592 82.1614 78.4313 72.6464 72.589 72.0307 56.5538 43.0635 41.8772 41.0056 39.5093 36.8064 31.5663 34.3916 28.2308 27.9735 25.4651 24.3795 81.6416 34.9214 24.0926 57.728 50.2406 27.0049 26.2334 20.7164 19.778 19.1539 21.7882 18.3299 18.2566 27.4504 19.1086 18.1537 17.912 17.7756 17.03 16.6315 15.3966 31.923 64.5724 45.0592 25.3903 24.2381 18.5318 15.3007 15.0651 14.717 15.12 14.1759 14.0862 14.3998 14.1079 13.9069 13.094 89.573
threshold=1.0000000180025095e-35 1.4978661367769956 1.0000000180025095e-35 1.0000000180025095e-35 29195.500000000004 13803.500000000002 1.0000000180025095e-35 1.0000000180025095e-35 1.2424533248940004 1.0000000180025095e-35 1.0000000180025095e-35 50770.000000000007 36048.500000000007 1.0000000180025095e-35 1.0000000180025095e-35 15719.500000000002 11572.04807692308 41937.500000000007 1.0000000180025095e-35 1.0000000180025095e-35 86066.500000000015 1.0000000180025095e-35 1.0000000180025095e-35 1.0000000180025095e-35 3983.0000000000005 1.0000000180025095e-35 1.0000000180025095e-35 1.0000000180025095e-35 1.0000000180025095e-35 1.0000000180025095e-35 1.0000000180025095e-35 1.0000000180025095e-35 1.0000000180025095e-35 1.0000000180025095e-35 1.0000000180025095e-35 41937.500000000007 41111.500000000007 1.0000000180025095e-35 1.0000000180025095e-35 1.0000000180025095e-35 1.0000000180025095e-35 1.0000000180025095e-35 3612.3095238095243 624.26136363636374 1.0000000180025095e-35 1.0000000180025095e-35 1666.7750000000003 1.0000000180025095e-35 1.0000000180025095e-35 1.0000000180025095e-35 1.0000000180025095e-35 1.0000000180025095e-35 1.0000000180025095e-35 7856.0000000000009 1.0000000180025095e-35 10959.264285714287 1.0000000180025095e-35 1.0000000180025095e-35 1.0000000180025095e-35 13486.500000000002 1.0000000180025095e-35 1.0000000180025095e-35 1.0000000180025095e-35
decision_type=2 2 2 2 2 2 2 2 2 2 2 2 2 2 2 2 2 2 2 2 2 2 2 2 2 2 2 2 2 2 2 2 2 2 2 2 2 2 2 2 2 2 2 2 2 2 2 2 2 2 2 2 2 2 2 2 2 2 2 2 2 2 2
left_child=2 3 5 4 10 7 8 14 13 21 15 -5 -8 22 19 -2 23 -13 45 24 40 43 41 36 25 26 33 -26 29 30 31 32 -29 -1 35 -17 -6 -20 39 -39 54 52 -27 -9 -16 61 47 48 49 50 51 -47 60 -12 -21 -56 -14 58 59 -45 -4 -7 -63
right_child=1 -3 6 11 16 18 12 9 -10 -11 53 17 56 -15 44 34 -18 -19 37 20 -22 -23 -24 -25 27 42 -28 28 -30 -31 -32 -33 -34 -35 -36 -37 -38 38 -40 -41 -42 -43 -44 57 -46 46 -48 -49 -50 -51 -52 -53 -54 -55 55 -57 -58 -59 -60 -61 -62 62 -64
leaf_value=-2.112106696873707 -474.38460378581414 -381.0579979338961 -444.18170061631321 -473.32725073341993 -463.621660756214 631.83226961522223 -462.05066384579015 -391.95074672855435 -270.99012885752865 -438.24592619900079 -373.43818936128537 -436.05016557217516 -412.77164080529559 -464.25668287676535 -292.59819722852239 -458.83035703182281 -436.93059382922559 -458.66934040450082 -189.84424403213228 -460.30019777694918 -396.73289156621786 -217.47668197679351 -518.58458099697179 -453.73224471165616 -14.604338385895611 -427.31163408956093 -427.0421506292958 -6.4445803198978631 -375.76747928143254 -381.98405812781743 -365.91766900946089 -366.90042378216174 -428.36356132742395 -387.75794188490175 -452.01412313372293 -458.08313907985843 -452.11037520908258 -190.70356877480802 -156.23121485491959 -456.79652202404816 -447.64835814939511 -473.76545910266634 -271.41572806843322 -290.96198901130714 -351.18429806630638 -353.86686980425583 167.41203318095052 -514.61614921837383 -515.31542301045761 -481.86576255905806 -459.33457440357836 -473.74833756682068 -442.69739536602538 -402.23558345110627 -556.87112775877119 14.887183427915899 -454.30256477506322 -406.81495699223109 -413.95836555534311 -420.80964203333065 -460.43178083226508 -15.427738972019336 -517.04202164678611
leaf_weight=2940 1678 1817 4951 2890 371 581126 477 340 5106 121 116 1044 454 230 1312 959 1878 666 13614 1109 2281 46 161 125 38071 152 240 1743 86 69 35 33 28 459 245 195 776 1079 172 48 65 436 61 4216 108 2522 21400 83 55 30 28 21 373 287 75 30 265 117 24 178 199 3341 174
leaf_count=2940 1678 1817 4951 2890 371 581126 477 340 5106 121 116 1044 454 230 1312 959 1878 666 13614 1109 2281 46 161 125 38071 152 240 1743 86 69 35 33 28 459 245 195 776 1079 172 48 65 436 61 4216 108 2522 21400 83 55 30 28 21 373 287 75 30 265 117 24 178 199 3341 174
internal_value=2.85978e-05 -0.0271818 0.0005429 -0.0308916 -0.0254544 0.000698447 -0.0077881 -0.00207227 -0.00604749 -0.00856753 -0.0358333 -0.0387283 -0.0244607 -0.00984449 -0.00140251 -0.0384478 -0.0139881 -0.0305629 0.000938068 -0.0011459 -0.00567416 -0.00758967 -0.00892974 -0.0209198 -0.000778827 -0.00457814 -0.00281705 -0.000413547 -0.00577106 -0.00396488 -0.00239328 -0.00154933 -0.000726285 -0.00151552 -0.0320595 -0.0347552 -0.0185844 -0.00151604 -0.00717956 -0.00434006 -0.0122371 -0.0083741 -0.0346655 -0.0072218 -0.00998239 0.000998185 -0.000239291 -0.00532174 -0.00396461 -0.00301759 -0.00248396 -0.00197454 -0.00760388 -0.0158716 -0.0108587 -0.02875 -0.0144663 -0.00641262 -0.00595914 -0.00574818 -0.00689563 0.00104928 -0.00199324
internal_weight=703331 13047 690284 11230 6630 677632 12652 53939 11456 5042 3480 4600 1196 6350 48897 3077 3150 1710 623693 47477 3560 4921 6120 1272 43917 3852 3639 40065 1994 1908 1839 1804 1771 3399 1399 1154 1147 14913 1299 1127 1279 5959 213 4875 1420 608780 24139 2739 2656 2601 2571 2543 5523 403 1214 105 719 4535 4418 4394 5150 584641 3515
internal_count=703331 13047 690284 11230 6630 677632 12652 53939 11456 5042 3480 4600 1196 6350 48897 3077 3150 1710 623693 47477 3560 4921 6120 1272 43917 3852 3639 40065 1994 1908 1839 1804 1771 3399 1399 1154 1147 14913 1299 1127 1279 5959 213 4875 1420 608780 24139 2739 2656 2601 2571 2543 5523 403 1214 105 719 4535 4418 4394 5150 584641 3515
is_linear=0
shrinkage=0.05


Tree=7
num_leaves=64
num_cat=0
split_feature=776 0 1043 1083 2 2 796 702 1086 0 2 1072 2 775 2 4 1063 4 1039 0 2 1055 4 1140 1073 4 1080 2 1077 578 584 1 2 690 4 4 1155 808 810 1080 808 2 1083 584 1077 1080 1 1011 2 1187 809 578 1077 1 2 1 1086 1097 993 1 2 1083 1074
split_gain=3785.24 445.2 332.271 214.107 316.123 169.865 146.992 84.3126 80.364 79.4894 77.3087 66.6113 63.4185 53.1467 39.5225 39.103 37.5047 32.2375 31.4145 30.295 27.4928 35.9838 47.8268 27.2574 27.1935 24.2358 23.258 25.7471 21.4898 37.7336 23.8103 20.1022 19.3515 79.0608 20.3367 19.9329 18.8948 18.7919 19.4594 18.4701 26.2149 17.311 16.0854 15.9523 28.675 18.6273 15.8897 15.8891 15.6036 15.4378 15.262 15.2034 62.0614 13.8591 13.1914 12.8695 12.8558 12.5021 12.3622 31.5312 12.2425 16.2001 11.9869
threshold=1.0000000180025095e-35 3.5000000000000004 1.0000000180025095e-35 1.0000000180025095e-35 29195.500000000004 13803.500000000002 1.0000000180025095e-35 1.0000000180025095e-35 1.0000000180025095e-35 2.5000000000000004 50185.000000000007 1.0000000180025095e-35 34182.500000000007 1.0000000180025095e-35 16154.500000000002 35577.166666666679 1.0000000180025095e-35 11572.04807692308 1.0000000180025095e-35 1.5000000000000002 7149.5000000000009 1.0000000180025095e-35 6010.2666666666673 1.0000000180025095e-35 1.0000000180025095e-35 15215.583333333334 1.0000000180025095e-35 41111.500000000007 1.0000000180025095e-35 1.0000000180025095e-35 1.0000000180025095e-35 638.50000000000011 38118.500000000007 1.0000000180025095e-35 14121.885714285716 28784.310606060611 1.0000000180025095e-35 1.0000000180025095e-35 1.0000000180025095e-35 1.0000000180025095e-35 1.0000000180025095e-35 3983.0000000000005 1.0000000180025095e-35 1.0000000180025095e-35 1.0000000180025095e-35 1.0000000180025095e-35 13113.500000000002 1.0000000180025095e-35 76388.000000000015 1.0000000180025095e-35 1.0000000180025095e-35 1.0000000180025095e-35 1.0000000180025095e-35 17012.000000000004 7149.5000000000009 45000.500000000007 1.0000000180025095e-35 1.0000000180025095e-35 1.0000000180025095e-35 19946.500000000004 101637.00000000001 1.0000000180025095e-35 1.0000000180025095e-35
decision_type=2 2 2 2 2 2 2 2 2 2 2 2 2 2 2 2 2 2 2 2 2 2 2 2 2 2 2 2 2 2 2 2 2 2 2 2 2 2 2 2 2 2 2 2 2 2 2 2 2 2 2 2 2 2 2 2 2 2 2 2 2 2 2
left_child=2 3 5 4 11 7 9 16 23 13 -5 14 -8 24 55 -12 19 26 32 20 21 37 41 31 46 56 27 -6 -21 30 -30 -9 33 43 -35 -36 -18 38 50 -20 -41 -23 -14 47 45 62 -4 51 -28 57 -1 58 -53 -40 -13 -2 -16 -33 -7 -60 61 -3 -45
right_child=1 60 6 10 17 18 12 8 -10 -11 15 54 42 -15 25 -17 36 -19 39 28 -22 22 -24 -25 -26 -27 48 -29 29 -31 -32 49 -34 34 35 -37 -38 -39 53 40 -42 -43 -44 44 -46 -47 -48 -49 -50 -51 -52 52 -54 -55 -56 -57 -58 -59 59 -61 -62 -63 -64
leaf_value=-273.12290845124812 -447.84662311791675 -247.63224664427449 -440.9703515783562 -449.76527314087735 -437.65076952641607 180.45557546129783 -434.03699795374854 -372.40790933500153 -414.39487986016115 -246.15498950471365 -416.4139078958155 -358.29252994576638 -390.7187674210727 -440.42050119629016 -445.9950889657481 -431.02355398807816 -272.23829528691584 -414.41200708739757 -170.47190166523191 52.83928584156196 -114.27521770048384 -403.66515167491548 -185.3301570433697 -206.60284787795382 -492.65535194603291 -423.62708510077766 -431.20284272221198 -416.49599951770062 -284.7847110861166 -341.26931931094742 -315.41318430534233 -286.46719451620595 1031.9607815487429 1572.0656634682646 -334.43315622284263 929.37067727417707 -322.73815519656944 -426.33629549957271 -451.33433511029546 -259.34120695770241 -152.40340378410593 -227.26115048161037 -423.86018545747476 -11.707279076193846 -544.68714745875388 -176.83091291022467 -405.18324052185562 -489.7812600502466 -429.29064230754716 -233.63142187246558 -424.54426443627972 -82.289490606795894 -494.03061831775887 -433.39620170270086 -372.79026041047979 -450.34431276981945 -327.4833285653159 -390.98920872039508 -441.9931913003179 1715.154768729064 -260.30365865934846 -459.25037198046539 -232.6191177208583
leaf_weight=4245 1421 347 3084 2893 334 130056 465 305 124 5143 1044 103 459 248 408 731 1288 1851 13817 25959 14970 154 476 46 161 647 62 716 1017 60 34 4389 474742 48 163 34 117 51 65 1135 172 239 265 1333 46 115 2795 22 136 21 79 1426 110 76 301 224 361 113 45 112 1365 138 154
leaf_count=4245 1421 347 3084 2893 334 130056 465 305 124 5143 1044 103 459 248 408 731 1288 1851 13817 25959 14970 154 476 46 161 647 62 716 1017 60 34 4389 474742 48 163 34 117 51 65 1135 172 239 265 1333 46 115 2795 22 136 21 79 1426 110 76 301 224 361 113 45 112 1365 138 154
internal_value=3.13984e-05 -0.0266127 0.000536571 -0.0303561 -0.0245346 0.000686339 -0.00750198 -0.00200853 -0.00819378 -0.00576164 -0.0385422 -0.0349116 -0.0242336 -0.00953244 -0.0374302 -0.0303275 -0.00137544 -0.012932 0.000918981 -0.00113693 -0.00259426 -0.00565808 -0.0149755 -0.0071825 -0.00860099 -0.0313065 -0.0191426 -0.0161786 -4.10972e-05 -0.00685081 -0.00464914 -0.00681752 0.000974937 0.0004435 -0.0279337 -0.0350444 -0.00942616 -0.00386515 -0.00352044 -0.00133199 -0.0070132 -0.0278849 -0.0149793 0.00049561 -0.0043932 -0.00327559 -0.0080458 0.000556752 -0.0348611 -0.00597971 -0.00292438 0.000563847 -0.00438151 -0.0217996 -0.0158292 -0.0427014 -0.0373066 -0.00578021 0.000622183 -0.0133997 -0.00388514 -0.0107088 -0.00177623
internal_weight=703060 13082 689978 11232 6564 677358 12620 53828 4998 11431 4668 3465 1189 6288 3061 1775 48830 3099 623530 47425 20355 5385 869 4874 6040 1416 1248 1050 27070 1111 1051 4828 608406 133664 245 197 1405 4516 4465 15124 1307 393 724 133419 1648 1602 5879 131771 198 4523 4324 131749 1536 141 404 1645 769 4502 130213 157 1850 485 1487
internal_count=703060 13082 689978 11232 6564 677358 12620 53828 4998 11431 4668 3465 1189 6288 3061 1775 48830 3099 623530 47425 20355 5385 869 4874 6040 1416 1248 1050 27070 1111 1051 4828 608406 133664 245 197 1405 4516 4465 15124 1307 393 724 133419 1648 1602 5879 131771 198 4523 4324 131749 1536 141 404 1645 769 4502 130213 157 1850 485 1487
is_linear=0
shrinkage=0.05


Tree=8
num_leaves=64
num_cat=0
split_feature=776 0 1043 2 1 796 1080 2 702 1072 1086 0 2 1 1195 775 1075 1195 2 1051 1136 1249 1039 2 1140 2 2 1054 1 990 1114 1073 1155 1077 578 584 581 582 1 1074 812 580 1076 1086 1072 0 1080 808 812 1006 1033 1009 1 762 1 1 4 2 1149 1187 1114 1136 1080
split_gain=3747.61 423.564 314.312 153.614 149.605 140.418 102.922 103.826 86.0484 85.5863 79.3409 72.5495 70.304 65.3182 64.937 51.9076 44.3186 39.807 34.37 43.9341 30.556 28.8245 27.8169 27.3588 26.7357 25.005 24.1028 23.9953 30.8003 51.8312 23.332 22.9707 20.2789 19.8587 62.5999 55.0519 28.3582 28.2661 19.4491 19.2398 18.3071 18.1136 16.932 16.7446 32.8634 16.406 15.7716 19.1761 16.3546 15.608 15.5559 14.8779 14.21 13.7542 13.3503 12.6923 12.279 12.1824 11.985 12.4657 11.8636 13.163 11.7512
threshold=1.0000000180025095e-35 3.5000000000000004 1.0000000180025095e-35 16154.500000000002 57864.500000000007 1.0000000180025095e-35 1.0000000180025095e-35 41703.500000000007 1.0000000180025095e-35 1.0000000180025095e-35 1.0000000180025095e-35 2.5000000000000004 32271.500000000004 8993.5000000000018 1.0000000180025095e-35 1.0000000180025095e-35 1.0000000180025095e-35 1.0000000180025095e-35 7149.5000000000009 1.0000000180025095e-35 1.0000000180025095e-35 1.0000000180025095e-35 1.0000000180025095e-35 42941.000000000007 1.0000000180025095e-35 18439.500000000004 51341.000000000007 1.0000000180025095e-35 2690.5000000000005 1.0000000180025095e-35 1.0000000180025095e-35 1.0000000180025095e-35 1.0000000180025095e-35 1.0000000180025095e-35 1.0000000180025095e-35 1.0000000180025095e-35 1.0000000180025095e-35 1.0000000180025095e-35 3969.5000000000005 1.0000000180025095e-35 1.0000000180025095e-35 1.0000000180025095e-35 1.0000000180025095e-35 1.0000000180025095e-35 1.0000000180025095e-35 1.5000000000000002 1.0000000180025095e-35 1.0000000180025095e-35 1.0000000180025095e-35 1.0000000180025095e-35 1.0000000180025095e-35 1.0000000180025095e-35 103886.50000000001 1.0000000180025095e-35 13681.500000000002 19492.500000000004 43130.750000000007 3983.0000000000005 1.0000000180025095e-35 1.0000000180025095e-35 1.0000000180025095e-35 1.0000000180025095e-35 1.0000000180025095e-35
decision_type=2 2 2 2 2 2 2 2 2 2 2 2 2 2 2 2 2 2 2 2 2 2 2 2 2 2 2 2 2 2 2 2 2 2 2 2 2 2 2 2 2 2 2 2 2 2 2 2 2 2 2 2 2 2 2 2 2 2 2 2 2 2 2
left_child=2 4 3 8 6 11 7 9 18 16 24 15 -7 -8 20 31 39 23 19 27 21 30 50 43 38 -15 -19 28 29 32 -9 53 -1 49 35 36 37 41 58 42 -30 -35 45 44 -6 -2 -24 48 -48 51 -5 -20 -45 54 -4 -51 -28 -31 59 -10 61 -25 -14
right_child=1 -3 5 22 17 12 13 14 10 -11 -12 -13 62 25 -16 -17 -18 26 33 -21 -22 -23 46 60 -26 -27 56 -29 40 57 -32 -33 -34 34 -36 -37 -38 -39 -40 -41 -42 -43 -44 52 -46 -47 47 -49 -50 55 -52 -53 -54 -55 -56 -57 -58 -59 -60 -61 -62 -63 -64
leaf_value=-334.17388151569526 -428.23387459351682 -340.62332945252444 -421.41390162512721 590.51631457389101 -429.37223606569273 -412.22128047902419 -409.46454133334254 -398.57705730476692 -381.63423698070625 -360.24097693644353 -370.41013590567258 -224.51299700962261 -408.6241978567636 -404.56285264446791 -418.88585902146144 -419.10305857694902 -390.15025705539506 -423.70043076901641 -21.22989668915055 30.616980961266279 -409.13087410907951 -345.23209514245519 -149.35533937477831 -392.33483171589762 -221.5727066910502 -407.17066997873496 -367.54678379185793 131.80107232280329 -289.30743313504593 -407.43291951555187 -362.8252064584197 -467.99041709625965 -323.94283342651579 -132.16052736812688 -391.63771966163461 -518.37617263311165 -392.04455929761866 -373.07462066334324 -268.29056269790073 1625.5777008677151 -417.09541005423438 -444.18056612885925 -372.51721189070241 -332.08018828263994 -324.39353899716991 -397.83387381567621 -168.21187054180018 -144.37823358886564 -423.1146356066256 -430.00312361364263 -289.09882774474374 -439.89815550835505 -262.50872460599822 -407.58572053977809 -375.91483855034267 1490.973780270873 -390.49221518195827 -226.61698636734718 -186.1095642584809 -220.70108670738082 -421.16331454934192 -384.38463766586193 341.14212301210421
leaf_weight=2158 3449 1808 3041 589919 586 432 268 989 1097 293 120 5129 655 100 794 239 127 459 48057 5458 184 212 13128 826 40 541 101 1398 4400 122 80 162 113 2319 91 73 34 35 3904 25 56 27 63 223 228 871 1078 175 44 30 2916 25 183 218 2683 22 426 79 22 22 94 140 103
leaf_count=2158 3449 1808 3041 589919 586 432 268 989 1097 293 120 5129 655 100 794 239 127 459 48057 5458 184 212 13128 826 40 541 101 1398 4400 122 80 162 113 2319 91 73 34 35 3904 25 56 27 63 223 228 871 1078 175 44 30 2916 25 183 218 2683 22 426 79 22 22 94 140 103
internal_value=2.68502e-05 -0.0264967 0.000529535 0.000675522 -0.0301032 -0.00727551 -0.0337863 -0.0358179 -0.00154762 -0.0399575 -0.00773175 -0.00557967 -0.023624 -0.0179469 -0.0269705 -0.00915517 -0.0416497 -0.0210862 -0.00104856 -0.00326248 -0.0207295 -0.0179928 0.000930697 -0.0174561 -0.00678343 -0.00928042 -0.0294802 -0.00554798 -0.00675375 -0.0112298 -0.0146527 -0.00826016 -0.00907585 -0.000446804 -0.00472131 -0.00323151 -0.00193841 -0.00129095 -0.0064606 -0.0424887 -0.00427065 -0.000625533 -0.0427381 -0.0225615 -0.0266984 -0.0431134 -0.00123873 -0.00649865 -0.00409759 -0.000217777 0.000983484 -0.000188168 -0.0142672 -0.0077537 -0.00728424 -0.0275962 -0.0221845 -0.0355659 -0.0122031 -0.0114846 -0.0115802 -0.00993012 -0.0144492
internal_weight=702694 13070 689624 676962 11262 12662 7996 7087 69702 4828 5205 11472 1190 909 2259 6343 4535 3266 64497 13784 1465 1281 607260 2280 5085 641 986 8326 6928 2472 1069 6104 2271 50713 2579 2488 2415 2381 5045 4408 4456 2346 4383 1220 814 4320 14425 1297 1122 48134 592835 48082 406 5942 5724 52 527 201 1141 1119 1060 966 758
internal_count=702694 13070 689624 676962 11262 12662 7996 7087 69702 4828 5205 11472 1190 909 2259 6343 4535 3266 64497 13784 1465 1281 607260 2280 5085 641 986 8326 6928 2472 1069 6104 2271 50713 2579 2488 2415 2381 5045 4408 4456 2346 4383 1220 814 4320 14425 1297 1122 48134 592835 48082 406 5942 5724 52 527 201 1141 1119 1060 966 758
is_linear=0
shrinkage=0.05


Tree=9
num_leaves=64
num_cat=0
split_feature=776 0 1043 1083 2 2 796 2 1072 2 0 702 775 1 2 4 2 1055 1 1073 1063 1082 1080 1 1039 1140 1245 810 812 1006 1077 578 584 581 582 580 2 1 808 2 2 690 4 1 584 1077 1080 1033 809 1 993 1080 808 812 578 1077 1 1083 809 1083 1 2 1149
split_gain=3635.74 428.343 296.147 218.156 345.495 134.772 120.836 85.0202 74.5214 68.9566 68.314 56.7341 45.6173 39.673 39.525 38.0857 30.3892 36.4822 51.1621 28.1608 26.3821 27.2928 25.829 27.7813 24.6683 23.4709 23.1027 22.5529 22.4838 22.3949 20.8067 70.2874 56.2686 30.2017 29.1872 24.5586 20.2252 19.1298 19.0809 16.6621 15.7141 53.1098 26.1691 23.8688 16.7733 27.3939 17.0091 16.8531 15.2829 15.1433 14.9385 14.865 20.3621 15.3888 14.7711 57.3131 14.0656 14.0188 13.8185 13.4723 13.1846 12.9315 12.7806
threshold=1.0000000180025095e-35 3.5000000000000004 1.0000000180025095e-35 1.0000000180025095e-35 29195.500000000004 16535.500000000004 1.0000000180025095e-35 49514.500000000007 1.0000000180025095e-35 32271.500000000004 2.5000000000000004 1.0000000180025095e-35 1.0000000180025095e-35 224716.00000000003 14920.500000000002 11572.04807692308 7149.5000000000009 1.0000000180025095e-35 3560.5000000000005 1.0000000180025095e-35 1.0000000180025095e-35 1.0000000180025095e-35 1.0000000180025095e-35 72381.000000000015 1.0000000180025095e-35 1.0000000180025095e-35 1.0000000180025095e-35 1.0000000180025095e-35 1.0000000180025095e-35 1.0000000180025095e-35 1.0000000180025095e-35 1.0000000180025095e-35 1.0000000180025095e-35 1.0000000180025095e-35 1.0000000180025095e-35 1.0000000180025095e-35 3983.0000000000005 3969.5000000000005 1.0000000180025095e-35 41111.500000000007 44143.500000000007 1.0000000180025095e-35 14121.885714285716 57864.500000000007 1.0000000180025095e-35 1.0000000180025095e-35 1.0000000180025095e-35 1.0000000180025095e-35 1.0000000180025095e-35 15562.500000000002 1.0000000180025095e-35 1.0000000180025095e-35 1.0000000180025095e-35 1.0000000180025095e-35 1.0000000180025095e-35 1.0000000180025095e-35 19492.500000000004 1.0000000180025095e-35 1.0000000180025095e-35 1.0000000180025095e-35 31171.500000000004 7149.5000000000009 1.0000000180025095e-35
decision_type=2 2 2 2 2 2 2 2 2 2 2 2 2 2 2 2 2 2 2 2 2 2 2 2 2 2 2 2 2 2 2 2 2 2 2 2 2 2 2 2 2 2 2 2 2 2 2 2 2 2 2 2 2 2 2 2 2 2 2 2 2 2 2
left_child=2 3 5 4 8 11 10 -5 14 -8 12 16 19 -9 -2 26 17 20 36 -4 27 -22 23 -16 40 37 39 28 38 30 48 32 33 34 35 -32 -19 62 58 -6 41 44 -43 -44 47 46 -46 54 50 -29 -18 -26 53 -53 -7 -56 -31 -11 -1 -49 -3 -10 -13
right_child=1 60 6 7 15 24 9 13 61 57 -12 25 -14 -15 22 -17 29 18 -20 -21 21 -23 -24 -25 51 -27 -28 49 -30 56 31 -33 -34 -35 -36 -37 -38 -39 -40 -41 -42 42 43 -45 45 -47 -48 59 -50 -51 -52 52 -54 -55 55 -57 -58 -59 -60 -61 -62 -63 -64
leaf_value=-125.12931676236995 -405.04259880901992 -392.313132339373 -384.61110471116172 -406.13401629054891 -397.49632928159355 242.1830640033219 -393.98261381706106 -387.59891829825403 -322.36585460165588 -368.09015943789683 -233.90722308893538 -370.58684513927511 -397.81993481937991 -388.27743692985393 -389.49288245968 -372.54592552755105 -13.122037411841413 -370.31843577014632 -161.14082555303165 -444.59452449103583 -247.70850909477838 -292.26619879316075 -386.57271331873409 -391.23557416278186 -136.79917132318835 -219.66282149312275 -389.11219683889107 -480.92037641269764 -396.25063955167161 -466.6826893699602 -81.166077651103208 -403.07819317186568 -493.20236401255738 -398.04583648412483 -358.31963968827188 -486.30794058172154 -212.06422576238452 -249.84745948283307 -390.52328681365344 -388.71213713214979 1081.8094262236409 1059.1727679167459 -335.98731414039503 652.37768256000425 -77.360986213080622 -583.50926857172453 -219.53268348391703 -16.186320856803469 -300.72828854141682 -411.63022521994185 -411.28056378315068 -159.73833219860094 -133.53682224287306 -400.36515380254559 -68.066762970249599 -510.64867970336201 1416.4250912573293 -382.38493067242871 -389.7284781222013 -436.11769483808439 -216.49754275125053 -330.04130060049351 -176.80408604555689
leaf_weight=11256 1561 335 5915 2859 384 139272 430 1380 103 495 5145 1102 241 429 1067 1856 50260 152 604 157 1069 120 278 173 13005 37 109 60 55 39 2569 102 72 36 34 34 178 4111 67 771 446880 98 163 50 1622 50 115 649 245 88 25 1045 179 47 1395 111 22 280 97 609 1476 287 23
leaf_count=11256 1561 335 5915 2859 384 139272 430 1380 103 495 5145 1102 241 429 1067 1856 50260 152 604 157 1069 120 278 173 13005 37 109 60 55 39 2569 102 72 36 34 34 178 4111 67 771 446880 98 163 50 1622 50 115 649 245 88 25 1045 179 47 1395 111 22 280 97 609 1476 287 23
internal_value=3.1625e-05 -0.0260954 0.000526155 -0.0297263 -0.0238676 0.000667703 -0.00704977 -0.0379959 -0.0347258 -0.022111 -0.00546583 -0.00137017 -0.00895117 -0.0295129 -0.037334 -0.0117949 -0.000978209 -0.00307489 -0.0126151 -0.00810441 -0.00237941 -0.0094733 -0.0315893 -0.0346774 0.00091165 -0.00636426 -0.0184889 -0.00165373 -0.00140359 -0.000438873 -0.000404271 -0.00456314 -0.00304873 -0.00187383 -0.00125284 -0.000651652 -0.028447 -0.00608384 -0.00125 -0.0164123 0.000961259 0.000507288 -0.0201326 -0.0299707 0.00055192 -0.00426203 -0.00321172 0.000612486 -0.000169949 -0.0210473 -0.000109252 -0.00114213 -0.00630311 -0.00374084 0.000663971 -0.00426129 -0.0307172 -0.0132016 -0.00109299 -0.00514905 -0.00352637 -0.0141346 -0.0118611
internal_weight=703478 13068 690410 11257 6589 677747 12663 4668 3469 1205 11458 72457 6313 1809 3079 3120 67184 13746 934 6072 12812 1189 1518 1240 605290 5273 1264 11623 11475 53438 53377 2847 2745 2673 2637 2603 330 5236 11420 1155 591014 144134 311 213 143823 1787 1737 142036 50530 148 50285 14276 1271 1092 140778 1506 61 775 11353 1258 1811 390 1125
internal_count=703478 13068 690410 11257 6589 677747 12663 4668 3469 1205 11458 72457 6313 1809 3079 3120 67184 13746 934 6072 12812 1189 1518 1240 605290 5273 1264 11623 11475 53438 53377 2847 2745 2673 2637 2603 330 5236 11420 1155 591014 144134 311 213 143823 1787 1737 142036 50530 148 50285 14276 1271 1092 140778 1506 61 775 11353 1258 1811 390 1125
is_linear=0
shrinkage=0.05


Tree=10
num_leaves=64
num_cat=0
split_feature=776 0 796 1083 2 2 2 2 1086 1 775 1048 1 1 1082 1006 2 1051 797 1078 769 775 1140 1080 993 1009 2 0 1 1055 2 2 584 1077 1080 584 1077 1 1039 1039 578 1077 994 762 1033 1 1083 1074 580 1077 1039 769 812 1080 1 1149 580 1077 1083 1086 581 1077 1080
split_gain=3484.4 408.023 249.031 233.777 336.104 147.541 80.7986 71.1171 70.2201 59.7343 47.5743 46.7126 38.7377 37.8305 34.827 30.9974 30.6297 39.4682 29.0201 28.0926 27.9151 27.8458 26.3094 26.018 25.8835 23.2121 22.7121 21.3526 20.8462 41.281 32.3559 20.6943 19.9179 30.6467 25.065 19.053 43.861 18.4291 18.0579 17.7934 17.3719 75.1601 17.1998 17.1456 16.9924 16.4211 16.2309 15.7962 15.1586 19.8953 15.4027 14.7891 14.1594 13.9997 13.645 14.2623 13.4321 23.6558 13.2777 12.7958 12.7567 20.057 13.5133
threshold=1.0000000180025095e-35 3.5000000000000004 1.0000000180025095e-35 1.0000000180025095e-35 29195.500000000004 17619.500000000004 51341.000000000007 34182.500000000007 1.0000000180025095e-35 48680.000000000007 1.0000000180025095e-35 1.0000000180025095e-35 4555.5000000000009 216509.00000000003 1.0000000180025095e-35 1.0000000180025095e-35 7149.5000000000009 1.0000000180025095e-35 1.0000000180025095e-35 1.0000000180025095e-35 1.0000000180025095e-35 1.0000000180025095e-35 1.0000000180025095e-35 1.0000000180025095e-35 1.0000000180025095e-35 1.0000000180025095e-35 61200.500000000007 2.5000000000000004 9660.5000000000018 1.0000000180025095e-35 3983.0000000000005 9300.0000000000018 1.0000000180025095e-35 1.0000000180025095e-35 1.0000000180025095e-35 1.0000000180025095e-35 1.0000000180025095e-35 2690.5000000000005 1.0000000180025095e-35 1.0000000180025095e-35 1.0000000180025095e-35 1.0000000180025095e-35 1.0000000180025095e-35 1.0000000180025095e-35 1.0000000180025095e-35 19946.500000000004 1.0000000180025095e-35 1.0000000180025095e-35 1.0000000180025095e-35 1.0000000180025095e-35 1.0000000180025095e-35 1.0000000180025095e-35 1.0000000180025095e-35 1.0000000180025095e-35 2079.5000000000005 1.0000000180025095e-35 1.0000000180025095e-35 1.0000000180025095e-35 1.0000000180025095e-35 1.0000000180025095e-35 1.0000000180025095e-35 1.0000000180025095e-35 1.0000000180025095e-35
decision_type=2 2 2 2 2 2 2 2 2 2 2 2 2 2 2 2 2 2 2 2 2 2 2 2 2 2 2 2 2 2 2 2 2 2 2 2 2 2 2 2 2 2 2 2 2 2 2 2 2 2 2 2 2 2 2 2 2 2 2 2 2 2 2
left_child=2 3 5 4 8 10 -5 -4 14 -10 11 15 23 -8 19 16 17 27 24 31 21 26 37 -6 25 35 32 28 29 39 -31 -2 38 34 47 40 -37 54 44 -1 42 53 43 48 56 -17 -9 -34 50 -50 51 -18 -30 -42 55 -13 60 -58 -46 -52 -7 62 -62
right_child=1 -3 7 6 12 20 13 46 9 -11 -12 22 -14 -15 -16 45 18 -19 -20 -21 -22 -23 -24 -25 -26 -27 -28 -29 52 30 -32 -33 33 -35 -36 36 -38 -39 -40 -41 41 -43 -44 -45 58 -47 -48 -49 49 -51 59 -53 -54 -55 -56 -57 57 -59 -60 -61 61 -63 -64
leaf_value=-277.65388518389574 -380.33116187685033 -312.49825367778044 -374.83362645112186 -386.07054725868073 -381.89395567288966 271.54826503968417 -366.18890508854741 -334.79304827235592 -356.47957311164555 -295.34904892395917 -355.26289447483441 -336.1185021409276 -353.55491146177491 -356.40304882048275 -390.89046892668347 -456.2074383624834 32.545877942490769 36.041865342293818 -361.96838136430847 -388.08374803632654 -315.85821586245311 -361.42729015589407 -192.00592934001372 -369.17461853794373 -398.54653551620908 -440.97883674403386 1311.1201965886889 -148.04684916883153 -325.1100407998851 -353.29293115262197 -193.32426897409712 -368.08268061901339 -23.590815597786786 -588.54722595978853 -210.91198699453426 -119.60072749329829 -476.04474602356322 -252.55539314108438 -267.13611910202877 -391.09591557056609 -45.192106665717894 -367.49323848105479 -467.49743451100335 -381.67830827813304 -40.372098960041242 962.80006527161606 -359.61031084184674 -249.42336840324535 -175.66327514675433 -481.48754017212195 -435.3047843840551 -338.52779469684151 -328.22791287530117 -147.45272902090306 -342.67352496748413 -167.96388174327905 -147.62447385153246 -722.86480291115367 -420.43895089983283 9.0316031553082219 -62.465632331518464 -601.48566185154175 -249.81956314368142
leaf_weight=3063 237 1824 461 2957 504 202375 1290 479 1533 278 164 781 2472 413 378 52 55334 5436 86 223 1410 125 42 156 41 38 389233 2166 2769 172 325 806 2109 63 167 1064 68 4717 6853 168 1546 102 24 51 913 24 253 155 798 38 1669 270 50 253 92 23 918 50 832 1365 980 41 103
leaf_count=3063 237 1824 461 2957 504 202375 1290 479 1533 278 164 781 2472 413 378 52 55334 5436 86 223 1410 125 42 156 41 38 389233 2166 2769 172 325 806 2109 63 167 1064 68 4717 6853 168 1546 102 24 51 913 24 253 155 798 38 1669 270 50 253 92 23 918 50 832 1365 980 41 103
internal_value=3.61503e-05 -0.0255383 0.000520401 -0.0290959 -0.0230327 0.000559915 -0.0376663 -0.0223041 -0.0337862 -0.0405777 -0.00141998 -0.00136658 -0.0111702 -0.0289908 -0.0263047 -0.00104434 -0.0010128 -0.00311427 -0.00053893 -0.0223282 0.00083026 0.000846639 -0.00575265 -0.0219318 -0.000499094 -0.000473092 0.000851516 -0.00520013 -0.00662384 -0.00907725 -0.0224925 -0.0188842 0.000439781 -0.00400261 -0.00311035 -0.00044937 -0.00687721 -0.00545764 0.000491781 -0.0070137 -0.00033096 -0.00503617 -0.000180755 -0.000163692 0.000575694 -0.0329605 -0.0126161 -0.00173145 -0.000138842 -0.00682416 -4.35298e-05 0.000145763 -0.0033793 -0.00266884 -0.0120313 -0.00994403 0.000617624 -0.00525826 -0.00433739 -0.00351269 0.000645574 -0.00466637 -0.00336681
internal_weight=703382 13071 690311 11247 6587 689118 4660 1193 3455 1811 82791 82627 3132 1703 1644 76972 76896 14149 62747 1266 606327 604917 5655 660 62661 62620 604792 8713 6547 3728 497 1043 215559 2494 2431 62582 1132 5613 213065 3231 61450 1901 59549 59525 206212 76 732 2264 59474 836 58638 55604 2819 1799 896 804 204467 968 1745 3034 203499 1124 1083
internal_count=703382 13071 690311 11247 6587 689118 4660 1193 3455 1811 82791 82627 3132 1703 1644 76972 76896 14149 62747 1266 606327 604917 5655 660 62661 62620 604792 8713 6547 3728 497 1043 215559 2494 2431 62582 1132 5613 213065 3231 61450 1901 59549 59525 206212 76 732 2264 59474 836 58638 55604 2819 1799 896 804 204467 968 1745 3034 203499 1124 1083
is_linear=0
shrinkage=0.05


Tree=11
num_leaves=64
num_cat=0
split_feature=776 0 1043 1072 2 1080 2 796 2 2 1195 0 1075 1 1 1086 775 1048 1006 2 993 1195 1140 1073 2 1051 1136 4 1009 1039 1055 1 2 2 584 1077 1 578 1077 1149 1074 0 1080 1075 1039 1080 808 4 2 690 2 584 1077 1080 4 4 578 1077 808 1033 2 1086 1074
split_gain=3320.18 399.829 270.376 146.128 116.318 115.499 122.746 106.513 80.2676 62.2689 62.181 61.668 55.0317 53.4685 53.101 64.7675 46.3725 44.0018 34.8842 29.2671 28.9293 28.8863 27.5536 27.2199 27.1511 32.7129 24.5839 24.1886 23.1885 22.7197 20.6389 48.1007 21.6334 20.5963 19.821 47.9698 19.4432 19.3798 66.2653 17.6144 17.5432 17.5454 17.4252 16.6023 16.02 14.9941 27.2744 16.6748 14.9621 32.4457 37.4495 20.6857 37.6417 22.6434 18.1424 19.9261 17.9368 51.2462 14.6495 14.459 13.994 15.7703 13.9415
threshold=1.0000000180025095e-35 2.5000000000000004 1.0000000180025095e-35 1.0000000180025095e-35 17619.500000000004 1.0000000180025095e-35 41703.500000000007 1.0000000180025095e-35 94273.000000000015 32718.500000000004 1.0000000180025095e-35 2.5000000000000004 1.0000000180025095e-35 4555.5000000000009 53390.500000000007 1.0000000180025095e-35 1.0000000180025095e-35 1.0000000180025095e-35 1.0000000180025095e-35 22595.000000000004 1.0000000180025095e-35 1.0000000180025095e-35 1.0000000180025095e-35 1.0000000180025095e-35 7149.5000000000009 1.0000000180025095e-35 1.0000000180025095e-35 255503.62500000003 1.0000000180025095e-35 1.0000000180025095e-35 1.0000000180025095e-35 2931.5000000000005 3983.0000000000005 7149.5000000000009 1.0000000180025095e-35 1.0000000180025095e-35 19946.500000000004 1.0000000180025095e-35 1.0000000180025095e-35 1.0000000180025095e-35 1.0000000180025095e-35 1.5000000000000002 1.0000000180025095e-35 1.0000000180025095e-35 1.0000000180025095e-35 1.0000000180025095e-35 1.0000000180025095e-35 37477.03333333334 65653.000000000015 1.0000000180025095e-35 38118.500000000007 1.0000000180025095e-35 1.0000000180025095e-35 1.0000000180025095e-35 14121.885714285716 28784.310606060611 1.0000000180025095e-35 1.0000000180025095e-35 1.0000000180025095e-35 1.0000000180025095e-35 31347.500000000004 1.0000000180025095e-35 1.0000000180025095e-35
decision_type=2 2 2 2 2 2 2 2 2 2 2 2 2 2 2 2 2 2 2 2 2 2 2 2 2 2 2 2 2 2 2 2 2 2 2 2 2 2 2 2 2 2 2 2 2 2 2 2 2 2 2 2 2 2 2 2 2 2 2 2 2 2 2
left_child=2 3 4 5 17 6 12 11 10 -9 26 16 14 -7 40 -16 23 18 20 -15 24 43 39 -4 25 30 -3 -23 34 48 58 32 -32 -5 37 -36 -20 44 42 -19 41 -2 62 -8 -26 -31 -47 -48 49 51 54 56 53 -53 -51 -56 59 -58 -1 -6 -43 -62 -39
right_child=1 8 7 33 29 13 21 9 -10 -11 -12 -13 -14 19 15 -17 -18 22 36 -21 -22 27 -24 -25 28 -27 -28 -29 -30 45 31 -33 -34 -35 35 -37 -38 38 -40 -41 -42 60 -44 -45 -46 46 47 -49 -50 50 -52 52 -54 -55 55 -57 57 -59 -60 -61 61 -63 -64
leaf_value=-256.8018317359967 -367.25945262226719 -249.91540182737805 -382.09050259461424 -285.82475356306071 306.59232927305101 -350.90888273872753 -351.28489056597141 -352.54940473044837 -255.20057712216703 -341.62138213270413 -359.65495611819415 -229.01303337838601 -312.80755127526481 -344.89639074904841 -368.13509070500345 -280.18659643536739 -361.57448421206681 -258.08324427525343 -444.43647040993278 -355.99342928839627 -377.96670873067563 -359.92249337552676 -177.9568828067215 -457.78407848274458 31.622131677389639 36.4753324293441 -353.95677764771813 -360.8604908294796 -421.84870127398193 -109.28820886860063 -344.58953182974159 -149.80493983696854 -194.30796495475195 -307.33628638294795 -115.22553127662451 -450.51000869656883 643.67755797008147 4.0730481300102843 -340.26226182969759 -159.5656876561151 1559.6150035017029 -313.22279420979521 -165.56846280455895 -334.33033450032076 -377.25581189214182 -229.50210127957462 -189.60349087504093 -164.61098950052056 1557.2638327823629 747.76898322297438 1454.229992753432 -71.102659688993867 -639.1216373397632 -240.3951979631324 -334.69036169467273 807.18003030178943 -91.823422767134787 -542.41912094079851 -351.4423266944425 -299.81661803782208 -356.53511151838705 -65.715956446203108 -220.11326724232367
leaf_weight=7245 3443 1013 5916 98 214878 226 1151 435 1798 737 505 5085 166 226 763 377 231 5574 59 696 43 713 43 155 55075 5435 130 165 36 12615 139 621 164 632 1051 71 29 1466 100 23 24 562 255 207 3052 1072 71 112 361560 44 275 2387 73 176 143 34 1774 113 73 1837 146 98 64
leaf_count=7245 3443 1013 5916 98 214878 226 1151 435 1798 737 505 5085 166 226 763 377 231 5574 59 696 43 713 43 155 55075 5435 130 165 36 12615 139 621 164 632 1051 71 29 1466 100 23 24 562 255 207 3052 1072 71 112 361560 44 275 2387 73 176 143 34 1774 113 73 1837 146 98 64
internal_value=4.31427e-05 -0.0248555 0.000517029 -0.0300561 0.000651725 -0.0318081 -0.0339835 -0.00675223 -0.0102271 -0.0211049 -0.0181978 -0.00527498 -0.0379506 -0.0169991 -0.0388202 -0.0292325 -0.00858021 -0.00113098 -0.000810604 -0.0116567 -0.000773635 -0.0240854 -0.00539007 -0.00774358 -0.00075008 -0.00276404 -0.0117421 -0.0311532 -0.000299779 0.000892393 -0.00474976 -0.0117911 -0.0281229 -0.00854452 -0.000276156 -0.00686052 -0.0322727 -0.000153053 -0.00514257 -0.00508375 -0.0413781 -0.0416189 -0.00292367 -0.0195158 8.75238e-06 -0.00110761 -0.00631972 -0.0241598 0.000939951 0.000616583 -0.0121573 0.000645221 -0.00375759 -0.00274922 -0.027483 -0.0346257 0.000698312 -0.00415541 -0.00386069 0.000740575 -0.0349783 -0.0249795 -0.000906863
internal_weight=703480 13139 690341 9693 677782 8963 7815 12559 3446 1172 1648 11387 5579 1148 5413 1140 6302 80618 74978 922 74890 2236 5640 6071 74847 13677 1143 878 61170 597164 8242 924 303 730 61134 1122 88 60012 1885 5597 4273 4249 1785 1358 58127 13870 1255 183 583294 221734 496 221238 2636 2563 221 177 218602 1887 7318 216715 806 244 1530
internal_count=703480 13139 690341 9693 677782 8963 7815 12559 3446 1172 1648 11387 5579 1148 5413 1140 6302 80618 74978 922 74890 2236 5640 6071 74847 13677 1143 878 61170 597164 8242 924 303 730 61134 1122 88 60012 1885 5597 4273 4249 1785 1358 58127 13870 1255 183 583294 221734 496 221238 2636 2563 221 177 218602 1887 7318 216715 806 244 1530
is_linear=0
shrinkage=0.05


Tree=12
num_leaves=64
num_cat=0
split_feature=1043 3 1083 2 1252 779 2 2 798 1082 702 777 1006 802 771 1140 3 2 1009 2 1055 2 2 3 993 2 2 690 1051 798 2 994 578 1077 584 1077 1252 1083 761 674 1187 2 808 1149 1245 580 1077 1082 1039 581 1077 1039 770 1080 812 1074 1135 2 1063 1082 1073 795 584
split_gain=2625.73 652.281 201.993 347.749 187.442 112.892 111.268 93.9579 58.9615 49.7959 42.3972 40.7639 30.5699 29.6936 29.3413 29.3118 27.0973 25.1985 25.1685 25.4432 31.6997 46.4124 24.0731 35.6327 23.6588 21.7121 19.569 60.0545 19.5594 19.3563 19.2177 18.041 17.4405 70.9293 17.2621 40.3637 16.9078 24.8042 16.5908 16.1369 16.076 16.0432 15.4439 15.4304 15.0923 14.2257 15.8254 13.8002 13.5985 13.8575 23.0418 13.4087 13.392 13.3215 12.835 12.8167 12.7974 12.7895 12.7524 24.0183 12.505 12.42 12.4013
threshold=1.0000000180025095e-35 1.4978661367769956 1.0000000180025095e-35 29195.500000000004 1.0000000180025095e-35 1.0000000180025095e-35 17619.500000000004 46525.000000000007 1.0000000180025095e-35 1.0000000180025095e-35 1.0000000180025095e-35 1.0000000180025095e-35 1.0000000180025095e-35 1.0000000180025095e-35 1.0000000180025095e-35 1.0000000180025095e-35 0.89587973461402759 22595.000000000004 1.0000000180025095e-35 7149.5000000000009 1.0000000180025095e-35 2621.0000000000005 145292.50000000003 0.89587973461402759 1.0000000180025095e-35 33271.500000000007 42941.000000000007 1.0000000180025095e-35 1.0000000180025095e-35 1.0000000180025095e-35 9300.0000000000018 1.0000000180025095e-35 1.0000000180025095e-35 1.0000000180025095e-35 1.0000000180025095e-35 1.0000000180025095e-35 1.0000000180025095e-35 1.0000000180025095e-35 1.0000000180025095e-35 1.0000000180025095e-35 1.0000000180025095e-35 101637.00000000001 1.0000000180025095e-35 1.0000000180025095e-35 1.0000000180025095e-35 1.0000000180025095e-35 1.0000000180025095e-35 1.0000000180025095e-35 1.0000000180025095e-35 1.0000000180025095e-35 1.0000000180025095e-35 1.0000000180025095e-35 1.0000000180025095e-35 1.0000000180025095e-35 1.0000000180025095e-35 1.0000000180025095e-35 1.0000000180025095e-35 31347.500000000004 1.0000000180025095e-35 1.0000000180025095e-35 1.0000000180025095e-35 1.0000000180025095e-35 1.0000000180025095e-35
decision_type=2 2 2 2 2 2 2 2 2 2 2 2 2 2 2 2 2 2 2 2 2 2 2 2 2 2 2 2 2 2 2 2 2 2 2 2 2 2 2 2 2 2 2 2 2 2 2 2 2 2 2 2 2 2 2 2 2 2 2 2 2 2 2
left_child=6 2 3 4 9 7 10 8 11 30 12 13 18 14 16 40 57 38 19 20 28 -22 60 44 31 -18 27 39 42 41 -2 32 34 53 45 -36 37 -29 -6 51 43 52 54 47 -24 48 -47 -12 49 -21 -51 62 -9 55 58 -34 -32 -4 -1 -60 -5 -11 -8
right_child=1 -3 5 22 17 -7 26 29 -10 61 15 -13 -14 -15 -16 -17 25 -19 -20 24 21 -23 23 -25 -26 -27 -28 36 -30 -31 56 -33 33 -35 35 -37 -38 -39 -40 -41 -42 -43 -44 -45 -46 46 -48 -49 -50 50 -52 -53 -54 -55 -56 -57 -58 -59 59 -61 -62 -63 -64
leaf_value=-245.03156544117888 -354.78793906913819 -245.83477840766346 -350.2528412486194 -330.2126807561354 -321.3426218249499 3075.7900555639881 167.82213593198503 -334.12465287330565 -180.8414463645272 -355.31356178575766 -224.81610088251833 -221.95700128364589 -414.99464678184972 4644.7252821913416 273.15802739188257 -0.0065414506300840005 -336.56693971201503 -237.13045923126302 -370.21799570182696 62.279653136851493 -318.62237063023179 -149.7355241804992 -464.77541397986784 -338.23125775449978 -346.99712330872637 -328.25204933051032 857.05929178410247 1174.1587978715474 36.753630810361337 1119.9277494811256 -330.08058685436157 -446.28669003446396 4.1681453412763405 -374.2134364362837 -104.18047296045251 -370.72667139748751 -319.64334363508482 -173.83816465501678 -248.15171418573001 -478.59775014014434 -137.37233503946464 -301.37706994807144 -330.82446932285745 -151.58740327330935 -369.49418127580714 -150.55525432277855 -467.45426987344911 -351.59757672108481 -357.61031644903159 -146.30239420659044 -454.52530743801958 -263.26705744476965 1064.882502637879 -138.59871376456005 -345.5393211925151 -202.80916223044142 -352.62439571407299 -349.35897994812672 -206.92766159479535 -259.3360150471118 -414.21904576852268 480.52629397841923 -224.63248139615135
leaf_weight=6153 579 6071 1598 5424 1642 353 129120 2441 147 669 4822 101 78 56 59 41 124 411 37 53484 129 795 469 513 40 552 460942 118 5456 98 1961 25 1455 107 1050 66 89 91 56 83 21 283 68 20 143 789 34 413 3037 1019 32 4953 55 245 59 69 293 1439 1052 122 236 30 1622
leaf_count=6153 579 6071 1598 5424 1642 353 129120 2441 147 669 4822 101 78 56 59 41 124 411 37 53484 129 795 469 513 40 552 460942 118 5456 98 1961 25 1455 107 1050 66 89 91 56 83 21 283 68 20 143 789 34 413 3037 1019 32 4953 55 245 59 69 293 1439 1052 122 236 30 1622
