tree
version=v4
num_class=1
num_tree_per_iteration=1
label_index=0
max_feature_idx=1255
objective=quantile
feature_names=Column_0 Column_1 Column_2 Column_3 Column_4 Column_5 Column_6 Column_7 Column_8 Column_9 Column_10 Column_11 Column_12 Column_13 Column_14 Column_15 Column_16 Column_17 Column_18 Column_19 Column_20 Column_21 Column_22 Column_23 Column_24 Column_25 Column_26 Column_27 Column_28 Column_29 Column_30 Column_31 Column_32 Column_33 Column_34 Column_35 Column_36 Column_37 Column_38 Column_39 Column_40 Column_41 Column_42 Column_43 Column_44 Column_45 Column_46 Column_47 Column_48 Column_49 Column_50 Column_51 Column_52 Column_53 Column_54 Column_55 Column_56 Column_57 Column_58 Column_59 Column_60 Column_61 Column_62 Column_63 Column_64 Column_65 Column_66 Column_67 Column_68 Column_69 Column_70 Column_71 Column_72 Column_73 Column_74 Column_75 Column_76 Column_77 Column_78 Column_79 Column_80 Column_81 Column_82 Column_83 Column_84 Column_85 Column_86 Column_87 Column_88 Column_89 Column_90 Column_91 Column_92 Column_93 Column_94 Column_95 Column_96 Column_97 Column_98 Column_99 Column_100 Column_101 Column_102 Column_103 Column_104 Column_105 Column_106 Column_107 Column_108 Column_109 Column_110 Column_111 Column_112 Column_113 Column_114 Column_115 Column_116 Column_117 Column_118 Column_119 Column_120 Column_121 Column_122 Column_123 Column_124 Column_125 Column_126 Column_127 Column_128 Column_129 Column_130 Column_131 Column_132 Column_133 Column_134 Column_135 Column_136 Column_137 Column_138 Column_139 Column_140 Column_141 Column_142 Column_143 Column_144 Column_145 Column_146 Column_147 Column_148 Column_149 Column_150 Column_151 Column_152 Column_153 Column_154 Column_155 Column_156 Column_157 Column_158 Column_159 Column_160 Column_161 Column_162 Column_163 Column_164 Column_165 Column_166 Column_167 Column_168 Column_169 Column_170 Column_171 Column_172 Column_173 Column_174 Column_175 Column_176 Column_177 Column_178 Column_179 Column_180 Column_181 Column_182 Column_183 Column_184 Column_185 Column_186 Column_187 Column_188 Column_189 Column_190 Column_191 Column_192 Column_193 Column_194 Column_195 Column_196 Column_197 Column_198 Column_199 Column_200 Column_201 Column_202 Column_203 Column_204 Column_205 Column_206 Column_207 Column_208 Column_209 Column_210 Column_211 Column_212 Column_213 Column_214 Column_215 Column_216 Column_217 Column_218 Column_219 Column_220 Column_221 Column_222 Column_223 Column_224 Column_225 Column_226 Column_227 Column_228 Column_229 Column_230 Column_231 Column_232 Column_233 Column_234 Column_235 Column_236 Column_237 Column_238 Column_239 Column_240 Column_241 Column_242 Column_243 Column_244 Column_245 Column_246 Column_247 Column_248 Column_249 Column_250 Column_251 Column_252 Column_253 Column_254 Column_255 Column_256 Column_257 Column_258 Column_259 Column_260 Column_261 Column_262 Column_263 Column_264 Column_265 Column_266 Column_267 Column_268 Column_269 Column_270 Column_271 Column_272 Column_273 Column_274 Column_275 Column_276 Column_277 Column_278 Column_279 Column_280 Column_281 Column_282 Column_283 Column_284 Column_285 Column_286 Column_287 Column_288 Column_289 Column_290 Column_291 Column_292 Column_293 Column_294 Column_295 Column_296 Column_297 Column_298 Column_299 Column_300 Column_301 Column_302 Column_303 Column_304 Column_305 Column_306 Column_307 Column_308 Column_309 Column_310 Column_311 Column_312 Column_313 Column_314 Column_315 Column_316 Column_317 Column_318 Column_319 Column_320 Column_321 Column_322 Column_323 Column_324 Column_325 Column_326 Column_327 Column_328 Column_329 Column_330 Column_331 Column_332 Column_333 Column_334 Column_335 Column_336 Column_337 Column_338 Column_339 Column_340 Column_341 Column_342 Column_343 Column_344 Column_345 Column_346 Column_347 Column_348 Column_349 Column_350 Column_351 Column_352 Column_353 Column_354 Column_355 Column_356 Column_357 Column_358 Column_359 Column_360 Column_361 Column_362 Column_363 Column_364 Column_365 Column_366 Column_367 Column_368 Column_369 Column_370 Column_371 Column_372 Column_373 Column_374 Column_375 Column_376 Column_377 Column_378 Column_379 Column_380 Column_381 Column_382 Column_383 Column_384 Column_385 Column_386 Column_387 Column_388 Column_389 Column_390 Column_391 Column_392 Column_393 Column_394 Column_395 Column_396 Column_397 Column_398 Column_399 Column_400 Column_401 Column_402 Column_403 Column_404 Column_405 Column_406 Column_407 Column_408 Column_409 Column_410 Column_411 Column_412 Column_413 Column_414 Column_415 Column_416 Column_417 Column_418 Column_419 Column_420 Column_421 Column_422 Column_423 Column_424 Column_425 Column_426 Column_427 Column_428 Column_429 Column_430 Column_431 Column_432 Column_433 Column_434 Column_435 Column_436 Column_437 Column_438 Column_439 Column_440 Column_441 Column_442 Column_443 Column_444 Column_445 Column_446 Column_447 Column_448 Column_449 Column_450 Column_451 Column_452 Column_453 Column_454 Column_455 Column_456 Column_457 Column_458 Column_459 Column_460 Column_461 Column_462 Column_463 Column_464 Column_465 Column_466 Column_467 Column_468 Column_469 Column_470 Column_471 Column_472 Column_473 Column_474 Column_475 Column_476 Column_477 Column_478 Column_479 Column_480 Column_481 Column_482 Column_483 Column_484 Column_485 Column_486 Column_487 Column_488 Column_489 Column_490 Column_491 Column_492 Column_493 Column_494 Column_495 Column_496 Column_497 Column_498 Column_499 Column_500 Column_501 Column_502 Column_503 Column_504 Column_505 Column_506 Column_507 Column_508 Column_509 Column_510 Column_511 Column_512 Column_513 Column_514 Column_515 Column_516 Column_517 Column_518 Column_519 Column_520 Column_521 Column_522 Column_523 Column_524 Column_525 Column_526 Column_527 Column_528 Column_529 Column_530 Column_531 Column_532 Column_533 Column_534 Column_535 Column_536 Column_537 Column_538 Column_539 Column_540 Column_541 Column_542 Column_543 Column_544 Column_545 Column_546 Column_547 Column_548 Column_549 Column_550 Column_551 Column_552 Column_553 Column_554 Column_555 Column_556 Column_557 Column_558 Column_559 Column_560 Column_561 Column_562 Column_563 Column_564 Column_565 Column_566 Column_567 Column_568 Column_569 Column_570 Column_571 Column_572 Column_573 Column_574 Column_575 Column_576 Column_577 Column_578 Column_579 Column_580 Column_581 Column_582 Column_583 Column_584 Column_585 Column_586 Column_587 Column_588 Column_589 Column_590 Column_591 Column_592 Column_593 Column_594 Column_595 Column_596 Column_597 Column_598 Column_599 Column_600 Column_601 Column_602 Column_603 Column_604 Column_605 Column_606 Column_607 Column_608 Column_609 Column_610 Column_611 Column_612 Column_613 Column_614 Column_615 Column_616 Column_617 Column_618 Column_619 Column_620 Column_621 Column_622 Column_623 Column_624 Column_625 Column_626 Column_627 Column_628 Column_629 Column_630 Column_631 Column_632 Column_633 Column_634 Column_635 Column_636 Column_637 Column_638 Column_639 Column_640 Column_641 Column_642 Column_643 Column_644 Column_645 Column_646 Column_647 Column_648 Column_649 Column_650 Column_651 Column_652 Column_653 Column_654 Column_655 Column_656 Column_657 Column_658 Column_659 Column_660 Column_661 Column_662 Column_663 Column_664 Column_665 Column_666 Column_667 Column_668 Column_669 Column_670 Column_671 Column_672 Column_673 Column_674 Column_675 Column_676 Column_677 Column_678 Column_679 Column_680 Column_681 Column_682 Column_683 Column_684 Column_685 Column_686 Column_687 Column_688 Column_689 Column_690 Column_691 Column_692 Column_693 Column_694 Column_695 Column_696 Column_697 Column_698 Column_699 Column_700 Column_701 Column_702 Column_703 Column_704 Column_705 Column_706 Column_707 Column_708 Column_709 Column_710 Column_711 Column_712 Column_713 Column_714 Column_715 Column_716 Column_717 Column_718 Column_719 Column_720 Column_721 Column_722 Column_723 Column_724 Column_725 Column_726 Column_727 Column_728 Column_729 Column_730 Column_731 Column_732 Column_733 Column_734 Column_735 Column_736 Column_737 Column_738 Column_739 Column_740 Column_741 Column_742 Column_743 Column_744 Column_745 Column_746 Column_747 Column_748 Column_749 Column_750 Column_751 Column_752 Column_753 Column_754 Column_755 Column_756 Column_757 Column_758 Column_759 Column_760 Column_761 Column_762 Column_763 Column_764 Column_765 Column_766 Column_767 Column_768 Column_769 Column_770 Column_771 Column_772 Column_773 Column_774 Column_775 Column_776 Column_777 Column_778 Column_779 Column_780 Column_781 Column_782 Column_783 Column_784 Column_785 Column_786 Column_787 Column_788 Column_789 Column_790 Column_791 Column_792 Column_793 Column_794 Column_795 Column_796 Column_797 Column_798 Column_799 Column_800 Column_801 Column_802 Column_803 Column_804 Column_805 Column_806 Column_807 Column_808 Column_809 Column_810 Column_811 Column_812 Column_813 Column_814 Column_815 Column_816 Column_817 Column_818 Column_819 Column_820 Column_821 Column_822 Column_823 Column_824 Column_825 Column_826 Column_827 Column_828 Column_829 Column_830 Column_831 Column_832 Column_833 Column_834 Column_835 Column_836 Column_837 Column_838 Column_839 Column_840 Column_841 Column_842 Column_843 Column_844 Column_845 Column_846 Column_847 Column_848 Column_849 Column_850 Column_851 Column_852 Column_853 Column_854 Column_855 Column_856 Column_857 Column_858 Column_859 Column_860 Column_861 Column_862 Column_863 Column_864 Column_865 Column_866 Column_867 Column_868 Column_869 Column_870 Column_871 Column_872 Column_873 Column_874 Column_875 Column_876 Column_877 Column_878 Column_879 Column_880 Column_881 Column_882 Column_883 Column_884 Column_885 Column_886 Column_887 Column_888 Column_889 Column_890 Column_891 Column_892 Column_893 Column_894 Column_895 Column_896 Column_897 Column_898 Column_899 Column_900 Column_901 Column_902 Column_903 Column_904 Column_905 Column_906 Column_907 Column_908 Column_909 Column_910 Column_911 Column_912 Column_913 Column_914 Column_915 Column_916 Column_917 Column_918 Column_919 Column_920 Column_921 Column_922 Column_923 Column_924 Column_925 Column_926 Column_927 Column_928 Column_929 Column_930 Column_931 Column_932 Column_933 Column_934 Column_935 Column_936 Column_937 Column_938 Column_939 Column_940 Column_941 Column_942 Column_943 Column_944 Column_945 Column_946 Column_947 Column_948 Column_949 Column_950 Column_951 Column_952 Column_953 Column_954 Column_955 Column_956 Column_957 Column_958 Column_959 Column_960 Column_961 Column_962 Column_963 Column_964 Column_965 Column_966 Column_967 Column_968 Column_969 Column_970 Column_971 Column_972 Column_973 Column_974 Column_975 Column_976 Column_977 Column_978 Column_979 Column_980 Column_981 Column_982 Column_983 Column_984 Column_985 Column_986 Column_987 Column_988 Column_989 Column_990 Column_991 Column_992 Column_993 Column_994 Column_995 Column_996 Column_997 Column_998 Column_999 Column_1000 Column_1001 Column_1002 Column_1003 Column_1004 Column_1005 Column_1006 Column_1007 Column_1008 Column_1009 Column_1010 Column_1011 Column_1012 Column_1013 Column_1014 Column_1015 Column_1016 Column_1017 Column_1018 Column_1019 Column_1020 Column_1021 Column_1022 Column_1023 Column_1024 Column_1025 Column_1026 Column_1027 Column_1028 Column_1029 Column_1030 Column_1031 Column_1032 Column_1033 Column_1034 Column_1035 Column_1036 Column_1037 Column_1038 Column_1039 Column_1040 Column_1041 Column_1042 Column_1043 Column_1044 Column_1045 Column_1046 Column_1047 Column_1048 Column_1049 Column_1050 Column_1051 Column_1052 Column_1053 Column_1054 Column_1055 Column_1056 Column_1057 Column_1058 Column_1059 Column_1060 Column_1061 Column_1062 Column_1063 Column_1064 Column_1065 Column_1066 Column_1067 Column_1068 Column_1069 Column_1070 Column_1071 Column_1072 Column_1073 Column_1074 Column_1075 Column_1076 Column_1077 Column_1078 Column_1079 Column_1080 Column_1081 Column_1082 Column_1083 Column_1084 Column_1085 Column_1086 Column_1087 Column_1088 Column_1089 Column_1090 Column_1091 Column_1092 Column_1093 Column_1094 Column_1095 Column_1096 Column_1097 Column_1098 Column_1099 Column_1100 Column_1101 Column_1102 Column_1103 Column_1104 Column_1105 Column_1106 Column_1107 Column_1108 Column_1109 Column_1110 Column_1111 Column_1112 Column_1113 Column_1114 Column_1115 Column_1116 Column_1117 Column_1118 Column_1119 Column_1120 Column_1121 Column_1122 Column_1123 Column_1124 Column_1125 Column_1126 Column_1127 Column_1128 Column_1129 Column_1130 Column_1131 Column_1132 Column_1133 Column_1134 Column_1135 Column_1136 Column_1137 Column_1138 Column_1139 Column_1140 Column_1141 Column_1142 Column_1143 Column_1144 Column_1145 Column_1146 Column_1147 Column_1148 Column_1149 Column_1150 Column_1151 Column_1152 Column_1153 Column_1154 Column_1155 Column_1156 Column_1157 Column_1158 Column_1159 Column_1160 Column_1161 Column_1162 Column_1163 Column_1164 Column_1165 Column_1166 Column_1167 Column_1168 Column_1169 Column_1170 Column_1171 Column_1172 Column_1173 Column_1174 Column_1175 Column_1176 Column_1177 Column_1178 Column_1179 Column_1180 Column_1181 Column_1182 Column_1183 Column_1184 Column_1185 Column_1186 Column_1187 Column_1188 Column_1189 Column_1190 Column_1191 Column_1192 Column_1193 Column_1194 Column_1195 Column_1196 Column_1197 Column_1198 Column_1199 Column_1200 Column_1201 Column_1202 Column_1203 Column_1204 Column_1205 Column_1206 Column_1207 Column_1208 Column_1209 Column_1210 Column_1211 Column_1212 Column_1213 Column_1214 Column_1215 Column_1216 Column_1217 Column_1218 Column_1219 Column_1220 Column_1221 Column_1222 Column_1223 Column_1224 Column_1225 Column_1226 Column_1227 Column_1228 Column_1229 Column_1230 Column_1231 Column_1232 Column_1233 Column_1234 Column_1235 Column_1236 Column_1237 Column_1238 Column_1239 Column_1240 Column_1241 Column_1242 Column_1243 Column_1244 Column_1245 Column_1246 Column_1247 Column_1248 Column_1249 Column_1250 Column_1251 Column_1252 Column_1253 Column_1254 Column_1255
feature_infos=[1:16405] [1:79538377660] [1:1974347955] [0.69314718055994529:9.7054024005626953] [0.0038610038610038611:22068628435] [0:1] [0:1] none [0:1] [0:1] [0:1] [0:1] [0:1] [0:1] [0:1] none none [0:1] none none [0:1] none [0:1] none none none [0:1] [0:1] [0:1] none none none [0:1] none none none [0:1] [0:1] [0:1] none none none [0:1] none none [0:1] [0:1] [0:1] [0:1] [0:1] [0:1] [0:1] none [0:1] none [0:1] [0:1] [0:1] none none [0:1] [0:1] [0:1] none none [0:1] none [0:1] none [0:1] [0:1] none none none none [0:1] none [0:1] [0:1] [0:1] none [0:1] none none [0:1] [0:1] [0:1] none [0:1] [0:1] none [0:1] [0:1] [0:1] [0:1] [0:1] none [0:1] [0:1] none [0:1] [0:1] [0:1] none [0:1] none none [0:1] [0:1] none [0:1] [0:1] [0:1] [0:1] [0:1] [0:1] [0:1] none [0:1] [0:1] [0:1] none [0:1] none [0:1] [0:1] [0:1] [0:1] none [0:1] [0:1] none [0:1] [0:1] [0:1] [0:1] [0:1] [0:1] [0:1] [0:1] [0:1] none [0:1] [0:1] [0:1] [0:1] [0:1] [0:1] none [0:1] none [0:1] [0:1] [0:1] [0:1] none none [0:1] [0:1] [0:1] [0:1] none [0:1] [0:1] [0:1] [0:1] [0:1] none [0:1] [0:1] [0:1] [0:1] [0:1] [0:1] [0:1] [0:1] [0:1] [0:1] [0:1] [0:1] [0:1] [0:1] [0:1] [0:1] none [0:1] [0:1] [0:1] [0:1] [0:1] none [0:1] none [0:1] [0:1] [0:1] [0:1] [0:1] [0:1] [0:1] [0:1] [0:1] [0:1] [0:1] [0:1] [0:1] [0:1] [0:1] [0:1] [0:1] [0:1] [0:1] [0:1] [0:1] [0:1] [0:1] [0:1] [0:1] [0:1] [0:1] [0:1] [0:1] [0:1] none [0:1] [0:1] none [0:1] [0:1] [0:1] [0:1] [0:1] [0:1] none [0:1] none [0:1] [0:1] [0:1] none [0:1] [0:1] [0:1] [0:1] [0:1] [0:1] [0:1] [0:1] [0:1] [0:1] [0:1] [0:1] [0:1] [0:1] [0:1] [0:1] [0:1] none [0:1] [0:1] [0:1] [0:1] [0:1] [0:1] [0:1] [0:1] [0:1] [0:1] [0:1] [0:1] [0:1] [0:1] [0:1] none [0:1] none [0:1] [0:1] [0:1] [0:1] [0:1] [0:1] [0:1] [0:1] [0:1] [0:1] [0:1] none [0:1] [0:1] [0:1] [0:1] [0:1] [0:1] [0:1] [0:1] [0:1] [0:1] [0:1] [0:1] none [0:1] [0:1] [0:1] [0:1] [0:1] [0:1] [0:1] none [0:1] [0:1] none none [0:1] [0:1] [0:1] [0:1] [0:1] [0:1] [0:1] [0:1] [0:1] [0:1] [0:1] [0:1] [0:1] none [0:1] [0:1] none [0:1] [0:1] [0:1] [0:1] [0:1] [0:1] [0:1] [0:1] none [0:1] [0:1] none [0:1] [0:1] [0:1] [0:1] none [0:1] none [0:1] none [0:1] [0:1] [0:1] [0:1] [0:1] [0:1] [0:1] none [0:1] [0:1] [0:1] [0:1] [0:1] [0:1] [0:1] [0:1] [0:1] none [0:1] [0:1] [0:1] [0:1] [0:1] none none none [0:1] none [0:1] [0:1] [0:1] none [0:1] [0:1] [0:1] [0:1] [0:1] none [0:1] [0:1] [0:1] [0:1] none [0:1] [0:1] none [0:1] [0:1] [0:1] [0:1] [0:1] [0:1] [0:1] [0:1] [0:1] none [0:1] [0:1] [0:1] [0:1] [0:1] [0:1] [0:1] [0:1] [0:1] [0:1] [0:1] [0:1] [0:1] [0:1] [0:1] [0:1] [0:1] [0:1] [0:1] [0:1] none [0:1] [0:1] [0:1] [0:1] [0:1] [0:1] none [0:1] [0:1] [0:1] [0:1] [0:1] [0:1] [0:1] [0:1] [0:1] [0:1] [0:1] [0:1] [0:1] [0:1] [0:1] [0:1] [0:1] [0:1] [0:1] [0:1] [0:1] [0:1] [0:1] [0:1] [0:1] [0:1] [0:1] [0:1] [0:1] [0:1] [0:1] [0:1] [0:1] [0:1] [0:1] [0:1] [0:1] [0:1] [0:1] [0:1] [0:1] [0:1] [0:1] [0:1] [0:1] [0:1] [0:1] [0:1] [0:1] [0:1] [0:1] [0:1] [0:1] [0:1] [0:1] [0:1] [0:1] [0:1] [0:1] [0:1] [0:1] [0:1] [0:1] [0:1] [0:1] [0:1] [0:1] [0:1] [0:1] [0:1] [0:1] [0:1] [0:1] [0:1] none [0:1] [0:1] [0:1] [0:1] [0:1] [0:1] [0:1] [0:1] [0:1] [0:1] [0:1] [0:1] [0:1] [0:1] [0:1] [0:1] [0:1] [0:1] [0:1] [0:1] [0:1] [0:1] [0:1] [0:1] [0:1] [0:1] [0:1] [0:1] [0:1] [0:1] [0:1] [0:1] [0:1] [0:1] [0:1] [0:1] [0:1] [0:1] [0:1] [0:1] [0:1] [0:1] [0:1] [0:1] [0:1] [0:1] [0:1] [0:1] [0:1] [0:1] [0:1] [0:1] [0:1] [0:1] [0:1] [0:1] [0:1] [0:1] [0:1] [0:1] [0:1] [0:1] [0:1] [0:1] [0:1] [0:1] [0:1] [0:1] [0:1] [0:1] [0:1] [0:1] [0:1] [0:1] [0:1] [0:1] [0:1] [0:1] [0:1] [0:1] [0:1] [0:1] [0:1] [0:1] [0:1] [0:1] [0:1] [0:1] [0:1] [0:1] [0:1] [0:1] [0:1] [0:1] [0:1] [0:1] [0:1] [0:1] [0:1] [0:1] [0:1] [0:1] [0:1] [0:1] [0:1] [0:1] [0:1] [0:1] [0:1] [0:1] [0:1] [0:1] [0:1] [0:1] [0:1] [0:1] [0:1] [0:1] [0:1] [0:1] [0:1] [0:1] [0:1] [0:1] [0:1] [0:1] [0:1] [0:1] [0:1] [0:1] [0:1] [0:1] [0:1] [0:1] [0:1] [0:1] [0:1] [0:1] none [0:1] [0:1] none [0:1] [0:1] [0:1] [0:1] [0:1] [0:1] [0:1] [0:1] [0:1] [0:1] [0:1] [0:1] [0:1] [0:1] [0:1] [0:1] [0:1] [0:1] [0:1] none none none [0:1] [0:1] [0:1] [0:1] [0:1] [0:1] [0:1] [0:1] [0:1] [0:1] none none none [0:1] [0:1] [0:1] [0:1] [0:1] [0:1] [0:1] [0:1] [0:1] [0:1] [0:1] [0:1] [0:1] [0:1] [0:1] [0:1] [0:1] [0:1] [0:1] [0:1] [0:1] [0:1] [0:1] [0:1] [0:1] [0:1] [0:1] [0:1] [0:1] [0:1] [0:1] [0:1] [0:1] [0:1] [0:1] [0:1] [0:1] [0:1] [0:1] [0:1] [0:1] [0:1] [0:1] [0:1] [0:1] [0:1] [0:1] [0:1] [0:1] [0:1] [0:1] [0:1] [0:1] [0:1] [0:1] [0:1] [0:1] [0:1] [0:1] [0:1] [0:1] [0:1] [0:1] [0:1] [0:1] [0:1] [0:1] [0:1] none [0:1] [0:1] [0:1] [0:1] [0:1] [0:1] [0:1] [0:1] [0:1] [0:1] [0:1] none none [0:1] [0:1] [0:1] [0:1] [0:1] none [0:1] [0:1] [0:1] [0:1] [0:1] [0:1] none none [0:1] [0:1] [0:1] none none none none none [0:1] [0:1] [0:1] none [0:1] [0:1] [0:1] [0:1] [0:1] [0:1] none [0:1] [0:1] [0:1] [0:1] [0:1] [0:1] [0:1] [0:1] [0:1] [0:1] [0:1] [0:1] [0:1] [0:1] [0:1] [0:1] [0:1] [0:1] [0:1] [0:1] [0:1] [0:1] [0:1] [0:1] [0:1] [0:1] [0:1] [0:1] [0:1] [0:1] [0:1] none [0:1] [0:1] [0:1] [0:1] [0:1] [0:1] [0:1] [0:1] [0:1] [0:1] [0:1] [0:1] [0:1] [0:1] [0:1] [0:1] [0:1] [0:1] none none [0:1] none [0:1] [0:1] [0:1] none none none none [0:1] [0:1] [0:1] [0:1] none [0:1] [0:1] [0:1] [0:1] [0:1] [0:1] [0:1] [0:1] [0:1] [0:1] [0:1] [0:1] [0:1] none [0:1] [0:1] [0:1] [0:1] [0:1] [0:1] [0:1] [0:1] none [0:1] [0:1] [0:1] [0:1] none [0:1] [0:1] [0:1] [0:1] [0:1] [0:1] [0:1] [0:1] [0:1] [0:1] [0:1] [0:1] [0:1] [0:1] [0:1] [0:1] [0:1] [0:1] [0:1] [0:1] [0:1] [0:1] [0:1] [0:1] [0:1] [0:1] [0:1] [0:1] [0:1] [0:1] [0:1] [0:1] [0:1] [0:1] [0:1] [0:1] [0:1] [0:1] [0:1] [0:1] [0:1] [0:1] none [0:1] [0:1] none [0:1] [0:1] [0:1] [0:1] [0:1] [0:1] [0:1] [0:1] [0:1] [0:1] none none [0:1] [0:1] [0:1] none none [0:1] none [0:1] none [0:1] [0:1] none none [0:1] none [0:1] [0:1] [0:1] [0:1] [0:1] [0:1] none [0:1] [0:1] [0:1] [0:1] [0:1] [0:1] none [0:1] [0:1] [0:1] [0:1] [0:1] [0:1] [0:1] [0:1] none [0:1] [0:1] [0:1] [0:1] [0:1] [0:1] none [0:1] [0:1] none [0:1] [0:1] none [0:1] [0:1] [0:1] [0:1] [0:1] [0:1] [0:1] [0:1] [0:1] none none [0:1] [0:1] [0:1] [0:1] [0:1] [0:1] [0:1] [0:1] [0:1] [0:1] [0:1] [0:1] [0:1] [0:1] [0:1] none [0:1] [0:1] [0:1] [0:1] [0:1] [0:1] [0:1] [0:1] [0:1] [0:1] [0:1] [0:1] [0:1] [0:1] [0:1] [0:1] [0:1] [0:1] [0:1] [0:1] [0:1] [0:1] [0:1] [0:1] [0:1] [0:1] [0:1] [0:1] [0:1] [0:1] [0:1] [0:1] [0:1] [0:1] [0:1] [0:1] [0:1] [0:1] [0:1] [0:1] [0:1] [0:1] [0:1] [0:1] [0:1] [0:1] [0:1] [0:1] [0:1] [0:1] [0:1] [0:1] [0:1] [0:1] [0:1] [0:1] [0:1] [0:1] [0:1] [0:1] [0:1] [0:1] [0:1] [0:1] [0:1] [0:1] [0:1] [0:1] [0:1] [0:1] [0:1] [0:1] [0:1] [0:1] [0:1] [0:1] none [0:1] [0:1] [0:1] [0:1] none [0:1] [0:1] [0:1] [0:1] [0:1] [0:1] [0:1] [0:1] [0:1] [0:1] [0:1] [0:1] [0:1] [0:1] [0:1] [0:1] [0:1] [0:1] [0:1] [0:1] [0:1] [0:1] [0:1] [0:1] [0:1] [0:1] [0:1] [0:1] [0:1] [0:1] [0:1] [0:1] [0:1] [0:1] [0:1] [0:1] [0:1] [0:1] [0:1] [0:1] [0:1] [0:1] [0:1] [0:1] [0:1] [0:1] [0:1] [0:1] [0:1] [0:1] [0:1] none [0:1] [0:1] [0:1] [0:1] [0:1] [0:1] [0:1] [0:1] [0:1] [0:1] [0:1] none [0:1] [0:1] [0:1] [0:1] [0:1] [0:1] [0:1] [0:1] none [0:1] [0:1] [0:1] [0:1] [0:1] [0:1] [0:1] [0:1] [0:1] [0:1] [0:1] [0:1] [0:1] [0:1] [0:1] [0:1] [0:1] [0:1] [0:1] [0:1] [0:1] [0:1] [0:1] [0:1] [0:1] [0:1] [0:1] [0:1] none [0:1] [0:1] [0:1] [0:1] [0:1] [0:1] [0:1] [0:1] [0:1] none [0:1] [0:1] [0:1] [0:1] [0:1] [0:1] [0:1] [0:1] [0:1] [0:1] [0:1] [0:1] [0:1] [0:1] [0:1] [0:1] [0:1] [0:1] [0:1] [0:1] [0:1] [0:1] [0:1] [0:1] [0:1] [0:1] [0:1] [0:1] [0:1] [0:1]
tree_sizes=5783 6125 6174 6196 6231 6205 6194 6192 6187 6195 6231 6211 6270 6234 6234 6303 6255 6218 6272 6242 6237 6272 6210 6265 6250 6279 6256 6256 6270 6248 6278 6288 6288 6319 6293 6271 6285 6285 6312 6312 6354 6330 6334 6337 6331 6338 6298 6329 6313 6316 6383 6363 6357 6364 6337 6332 6399 6369 6370 6407 6377 6350 6347 6371 6347 6374 6368 6391 6348 6345 6370 6365 6414 6334 6308 6319 6321 6334 6365 6281 6309 6301 6328 6359 6279 6329 6315 6288 6285 6280 6222 6310 6340 6381 6404 6356 6333 6392 6294 6378 6343 6290 6383 6331 6391 6281 6356 6306 6342 6266 6332 6351 6262 6321 6375 6304 6251 6247 6312 6244 6218 6287 6240 6340 6229 6270 6291 6242 6241 6209 6244 6226 6198 6398 6239 6224 6222 6223 6164 6236 6202 6200 6231 6235 6248 6139 6259 6234 6210 6270 6167 6137 6197 6262 6231 6179 6086 6118 6178 6110 6085 6175 6160 6104 6276 6137 6197 6115 6083 6151 6230 6126 6131 6056 6214 6180 6157 6193 6140 6179 6076 6272 6075 6148 6135 6114 6235 6175 6193 6095 6193 6157 6072 6213 6076 6163 6184 6156 6222 6203 6202 6169 6206 6127 6255 6176 5998 6097 6016 6059 6095 6079 6066 6017 6143 6051 6160 6052 6058 6218 6236 5934 6167 6156 6059 6022 5984 6076 6061 6194 6082 6218 6035 6040 6022 6006 6143 6021 6156 6084 5998 6117 6123 6051 6061 5992 6128 6225 6114 6058 6082 5937 6035 6063 6067 5977 6032 6199 6077 6032 6046 5986 6043 5998 5960 6051 6055 6104 6006 6105 6016 6027 6052 6163 6092 6043 5980 6111 6093 6038 5909 5876 6016 5998 5987 6009 5988 6039 5919 5998 6144 6047 6000 5995 5968 5907 5951 5957 5932 6063

Tree=0
num_leaves=64
num_cat=0
split_feature=2 3 2 1051 1051 3 2 1086 2 1051 776 2 1086 1 1069 1064 1 4 571 1 776 1 714 1 1049 1069 1 776 1 1054 1069 1064 1086 1055 2 1054 1051 2 1 1080 3 1086 3 4 3 1069 4 1054 570 1 2 2 2 1086 1051 2 1051 1083 2 3 1069 2 776
split_gain=60164 6187.45 4770.24 3137.76 2211.01 1725.52 1584.62 1037.6 898.718 1532.72 723.542 563.119 552.472 452.735 394.32 474.281 392.345 354.509 326.194 324.744 307.451 292.574 263.638 258.584 238.806 232.095 222.069 202.368 225.187 200.385 346.132 262.022 197.478 195.513 190.556 189.819 155.023 158.923 153.457 134.215 146.516 133.579 131.902 130.258 124.331 136.17 116.484 114.561 111.258 107.863 106.844 104.312 102.215 101.955 95.6103 93.5818 135.423 91.1676 86.5466 86.2274 86.0374 84.9052 84.1745
threshold=79539.000000000015 1.8688348091416842 45464.500000000007 1.0000000180025095e-35 1.0000000180025095e-35 1.7005986908310777 148801.50000000003 1.0000000180025095e-35 210131.00000000003 1.0000000180025095e-35 1.0000000180025095e-35 60001.000000000007 1.0000000180025095e-35 78819.500000000015 1.0000000180025095e-35 1.0000000180025095e-35 32421.500000000004 245.08333333333334 1.0000000180025095e-35 65188.500000000007 1.0000000180025095e-35 804714.00000000012 1.0000000180025095e-35 33772.000000000007 1.0000000180025095e-35 1.0000000180025095e-35 59961.500000000007 1.0000000180025095e-35 47693.500000000007 1.0000000180025095e-35 1.0000000180025095e-35 1.0000000180025095e-35 1.0000000180025095e-35 1.0000000180025095e-35 110231.50000000001 1.0000000180025095e-35 1.0000000180025095e-35 29195.500000000004 43311.500000000007 1.0000000180025095e-35 2.1383330595080281 1.0000000180025095e-35 2.249904835165133 8898.4583333333339 1.4978661367769956 1.0000000180025095e-35 4587.0833333333348 1.0000000180025095e-35 1.0000000180025095e-35 101.50000000000001 21289.500000000004 68217.500000000015 360656.50000000006 1.0000000180025095e-35 1.0000000180025095e-35 19533.500000000004 1.0000000180025095e-35 1.0000000180025095e-35 146933.50000000003 2.524928003624769 1.0000000180025095e-35 39599.500000000007 1.0000000180025095e-35
decision_type=2 2 2 2 2 2 2 2 2 2 2 2 2 2 2 2 2 2 2 2 2 2 2 2 2 2 2 2 2 2 2 2 2 2 2 2 2 2 2 2 2 2 2 2 2 2 2 2 2 2 2 2 2 2 2 2 2 2 2 2 2 2 2
left_child=2 4 5 11 10 12 13 22 9 29 14 27 16 32 -2 19 36 49 26 24 33 61 42 -11 47 -18 -8 28 35 30 -3 43 -6 44 57 -4 37 -1 59 40 -37 -31 -7 -32 45 -13 -34 -16 -36 -14 -24 -46 54 -40 62 -27 -57 -15 -25 -5 -30 -19 -10
right_child=1 8 3 38 6 7 18 -9 52 23 -12 20 17 34 15 -17 25 21 -20 -21 -22 -23 50 58 -26 55 -28 -29 60 41 31 -33 46 -35 48 39 -38 -39 53 -41 -42 -43 -44 -45 51 -47 -48 -49 -50 -51 -52 -53 -54 -55 -56 56 -58 -59 -60 -61 -62 -63 -64
leaf_value=218228.27499999999 240614.07500000001 244619.25 222966.60000000001 219016.75 221646.10000000001 221885.95000000001 228906.95000000001 230400.02499999999 269243.22499999998 224137.32500000001 215638.64999999999 229901.45000000001 220597.64999999999 226307.79999999999 225472.10000000001 238336.95000000001 224135.5 218280.60000000001 221188.14999999999 235458.70000000001 215155.97500000001 233451.54999999999 223199.375 227603.35000000001 234286.04999999999 217161.92499999999 237268.5 215123.29999999999 229777.92499999999 256125.54999999999 228314.72500000001 244427.95000000001 223608.52499999999 222996.04999999999 228656.89999999999 224413.54999999999 216824.20000000001 221013.10000000001 220748.10000000001 229544.45000000001 229653.72500000001 236234.89999999999 226439.82500000001 239304.375 227357.42499999999 225955.39999999999 228273.5 232604.20000000001 247078.10000000001 228972.75 229452.89999999999 231547.95000000001 386303.15000000002 226808.29999999999 240489.79999999999 220649.875 218436.375 222007.85000000001 233236.04999999999 429685 226217.25 223557.70000000001 219895.97500000001
leaf_weight=57136 13572 14309 16402 33505 26201 15970 8775 5068 32760 7354 1849 2536 672 4099 11089 8633 4451 12271 766 18102 1106 685 1022 4468 3160 15206 12089 1490 1814 30209 5774 3220 1482 2813 6215 8568 64681 27983 15147 1534 1372 3435 1498 7238 10172 11106 2668 1361 991 1956 1708 10796 79494 1237 17185 14844 13056 2580 6735 158 7730 1619 220
leaf_count=57136 13572 14309 16402 33505 26201 15970 8775 5068 32760 7354 1849 2536 672 4099 11089 8633 4451 12271 766 18102 1106 685 1022 4468 3160 15206 12089 1490 1814 30209 5774 3220 1482 2813 6215 8568 64681 27983 15147 1534 1372 3435 1498 7238 10172 11106 2668 1361 991 1956 1708 10796 79494 1237 17185 14844 13056 2580 6735 158 7730 1619 220
internal_value=225915 225915 225915 225915 225915 225915 225915 225915 225915 225915 225915 225915 225915 225915 225915 225915 225915 225915 225915 225915 225915 225915 225915 225915 225915 225915 225915 225915 225915 225915 225915 225915 225915 225915 225915 225915 225915 225915 225915 225915 225915 225915 225915 225915 225915 225915 225915 225915 225915 225915 225915 225915 225915 225915 225915 225915 225915 225915 225915 225915 225915 225915 225915
internal_weight=703345 336033 367312 127486 123632 239826 65866 25266 212401 82742 57766 77439 214560 44236 55917 42345 197357 17203 21630 33712 38529 14575 20198 18557 15610 47557 20864 38910 37420 64185 30541 16232 30351 37423 13885 27876 149800 85119 50047 11474 9940 33644 17468 13012 34610 13642 4150 12450 7206 2628 2730 20968 129659 16384 50165 43106 27900 6679 11203 33663 9544 13890 32980
internal_count=703345 336033 367312 127486 123632 239826 65866 25266 212401 82742 57766 77439 214560 44236 55917 42345 197357 17203 21630 33712 38529 14575 20198 18557 15610 47557 20864 38910 37420 64185 30541 16232 30351 37423 13885 27876 149800 85119 50047 11474 9940 33644 17468 13012 34610 13642 4150 12450 7206 2628 2730 20968 129659 16384 50165 43106 27900 6679 11203 33663 9544 13890 32980
is_linear=0
shrinkage=1


Tree=1
num_leaves=64
num_cat=0
split_feature=2 2 0 1051 1051 0 2 1043 1086 1051 2 1043 2 1086 1 571 1 4 1 1069 1064 714 1 1055 1069 907 1 1 1069 1054 2 1064 2 1 2 1054 1 1049 2 2 4 1051 1086 1086 0 1046 821 2 1051 0 1069 1054 1 1069 2 873 2 876 570 819 2 816 1083
split_gain=57177.9 5340.45 5124.51 3331.68 1834.32 1703.38 1299.63 1012.59 964.712 839.305 1262.26 706.128 644.664 544.144 407.465 403.68 341.67 328.894 283.313 260.509 335.879 244.874 233.424 232.716 231.204 223.764 213.713 198.569 184.18 191.048 322.174 241.67 181.818 178.354 170.936 159.109 153.796 173.127 139.259 132.294 128.867 126.869 125.525 123.355 117.396 107.879 106.773 106.425 137.668 105.293 101.853 101.739 100.978 100.278 97.4713 94.6719 93.9481 92.6402 92.5762 91.1171 89.9262 88.2587 84.2872
threshold=83947.000000000015 45464.500000000007 5.5000000000000009 1.0000000180025095e-35 1.0000000180025095e-35 4.5000000000000009 145292.50000000003 1.0000000180025095e-35 1.0000000180025095e-35 1.0000000180025095e-35 192667.00000000003 1.0000000180025095e-35 60001.000000000007 1.0000000180025095e-35 32421.500000000004 1.0000000180025095e-35 59961.500000000007 191.51470588235296 804714.00000000012 1.0000000180025095e-35 1.0000000180025095e-35 1.0000000180025095e-35 65188.500000000007 1.0000000180025095e-35 1.0000000180025095e-35 1.0000000180025095e-35 46724.500000000007 34476.000000000007 1.0000000180025095e-35 1.0000000180025095e-35 214172.00000000003 1.0000000180025095e-35 495150.00000000006 39255.500000000007 29195.500000000004 1.0000000180025095e-35 65188.500000000007 1.0000000180025095e-35 105756.50000000001 73623.000000000015 10580.525000000001 1.0000000180025095e-35 1.0000000180025095e-35 1.0000000180025095e-35 7.5000000000000009 1.0000000180025095e-35 1.0000000180025095e-35 19951.000000000004 1.0000000180025095e-35 7.5000000000000009 1.0000000180025095e-35 1.0000000180025095e-35 101.50000000000001 1.0000000180025095e-35 45830.500000000007 1.0000000180025095e-35 218390.50000000003 1.0000000180025095e-35 1.0000000180025095e-35 1.0000000180025095e-35 27055.500000000004 1.0000000180025095e-35 1.0000000180025095e-35
decision_type=2 2 2 2 2 2 2 2 2 2 2 2 2 2 2 2 2 2 2 2 2 2 2 2 2 2 2 2 2 2 2 2 2 2 2 2 2 2 2 2 2 2 2 2 2 2 2 2 2 2 2 2 2 2 2 2 2 2 2 2 2 2 2
left_child=1 5 4 11 7 13 16 19 21 25 27 12 26 14 34 22 43 52 45 -2 36 44 56 39 -16 28 35 -11 -4 30 31 40 -12 -5 -1 46 37 -21 62 55 -30 -36 -35 -6 -7 57 50 -26 -49 54 -3 53 -15 -41 -37 59 -8 -19 -40 61 -23 -14 -18
right_child=2 3 9 33 6 8 15 -9 -10 10 32 -13 23 17 24 -17 38 18 -20 20 -22 60 -24 -25 47 -27 -28 -29 29 -31 -32 -33 -34 42 41 49 -38 -39 58 51 -42 -43 -44 -45 -46 -47 -48 48 -50 -51 -52 -53 -54 -55 -56 -57 -58 -59 -60 -61 -62 -63 -64
leaf_value=-8273.9600000000009 14750.596250000001 -642.18000000000029 86801.315000000002 -6487.1712500000003 -4048.9550000000004 -3956.6975000000007 1176.4274999999996 -8694.9187500000007 4356.2987500000008 -1980.6162500000007 15664.560000000001 -9993.1399999999994 1936.8800000000003 -4897.1824999999999 -1715.325 -4564.1824999999999 144.5449999999997 -7045.755000000001 7274.6725000000006 1776.5949999999998 12614.852500000001 -1521.0449999999998 11055.875 -2573.9024999999997 -8298.9962500000001 -4760.5187500000002 1326.1537500000006 4104.9475000000011 2993.3137499999998 32412.980625000004 77720.140625 17870.002499999999 139798.4425 -4850.5050000000001 -4651.8800000000001 2237.1725000000006 9518.5650000000005 9820.9975000000013 1917.0775000000003 4856.9274999999998 14710.00625 -7961.4850000000006 997.63500000000067 158.72375000000031 -666.8975000000006 5452.5200000000004 3394.0699999999997 -4885.7437500000005 -7083.5187500000002 3833.8137499999998 -3575.3550000000005 8396.0524999999998 3026.1625000000004 1503.3050000000003 -1294.1274999999996 -5902.3699999999999 7072.6025 17598.420000000002 19701.145000000004 -2111.9199999999996 4538.1550000000007 -2200.9199999999996 -3948.0987500000006
leaf_weight=101421 12558 4098 55990 35062 20299 14967 7206 3984 5061 6332 26756 5054 24109 668 4449 972 3757 13452 678 9647 7922 1459 12537 3234 15565 685 9405 8959 6013 44660 35404 3263 14793 18087 27938 1359 16489 2887 8102 3535 6664 20372 1543 3245 2395 377 435 14555 12903 1371 10946 4482 1841 6356 8681 337 2631 137 739 374 1269 334 2516
leaf_count=101421 12558 4098 55990 35062 20299 14967 7206 3984 5061 6332 26756 5054 24109 668 4449 972 3757 13452 678 9647 7922 1459 12537 3234 15565 685 9405 8959 6013 44660 35404 3263 14793 18087 27938 1359 16489 2887 8102 3535 6664 20372 1543 3245 2395 377 435 14555 12903 1371 10946 4482 1841 6356 8681 337 2631 137 739 374 1269 334 2516
internal_value=-0.000138948 -0.0133529 0.015242 -0.00554927 0.00678559 -0.0178754 0.000933004 0.0135701 -0.00556539 0.0199033 0.0147167 0.000697301 0.00185565 -0.0193197 -0.0200627 0.010248 -0.00469243 -0.010778 -0.0136438 0.0155218 0.0134071 -0.0104803 0.0116184 0.00601541 -0.0160263 0.0218342 -0.00304519 0.00243444 0.0219627 0.0206335 0.0185533 0.0126506 0.0192369 -0.0151558 -0.0213424 -0.00531424 0.0109163 0.00674166 0.00117441 0.00707048 0.0095271 -0.0188946 -0.0113398 -0.00845863 -0.0126685 -0.0151761 -0.00861651 -0.0171484 -0.0152761 -0.000834721 -0.00932265 0.0108972 0.00594859 0.00806541 -0.00260956 0.00488392 0.0058529 -0.0159081 0.00521717 0.00524137 0.00344575 0.00561613 -0.00452335
internal_weight=703319 378309 325010 138802 115491 239507 62004 53487 25151 209519 56840 84110 79056 214356 197203 23346 38658 17153 14644 49503 36945 20090 22374 42761 47472 152679 36295 15291 151994 96004 51344 15940 41549 54692 149731 26890 29023 12534 15114 39527 12677 48310 19630 23544 17362 13966 15479 43023 27458 11411 15044 14373 2509 9891 10040 25154 9837 13589 8841 24817 2728 24443 6273
internal_count=703319 378309 325010 138802 115491 239507 62004 53487 25151 209519 56840 84110 79056 214356 197203 23346 38658 17153 14644 49503 36945 20090 22374 42761 47472 152679 36295 15291 151994 96004 51344 15940 41549 54692 149731 26890 29023 12534 15114 39527 12677 48310 19630 23544 17362 13966 15479 43023 27458 11411 15044 14373 2509 9891 10040 25154 9837 13589 8841 24817 2728 24443 6273
is_linear=0
shrinkage=0.05


Tree=2
num_leaves=64
num_cat=0
split_feature=2 2 3 1051 1051 3 2 1043 1086 1043 2 1086 1051 2 1 1 1 4 1 1054 714 1064 1 907 1 1054 1051 1 571 776 2 2 1054 1086 2 1051 2 1083 1067 711 821 1 1083 3 1067 1068 655 2 1055 1042 1041 1043 921 476 2 2 776 1033 571 1067 2 819 1055
split_gain=53810.1 5369.61 4840.69 3220.7 1880.38 1697.22 1650.76 1070.91 884.67 671.434 644.627 526.591 472.48 676.242 436.836 403.409 336.31 317.176 279.62 231.776 231.741 223.437 213.642 204.373 197.428 196.66 192.13 185.268 182.555 177.195 174.538 173.66 198.314 230.726 172.826 250.336 171.099 145.879 138.35 132.765 125.305 122.378 122.336 120.848 119.321 122.207 111.451 108.871 106.577 105.293 106.054 103.083 101.989 100.199 99.2502 98.652 96.9199 95.8152 92.4227 89.4126 89.2593 86.9774 87.5464
threshold=84982.000000000015 45464.500000000007 2.0126758453675748 1.0000000180025095e-35 1.0000000180025095e-35 1.7005986908310777 153085.00000000003 1.0000000180025095e-35 1.0000000180025095e-35 1.0000000180025095e-35 64831.500000000007 1.0000000180025095e-35 1.0000000180025095e-35 240996.50000000003 59961.500000000007 32421.500000000004 63854.500000000007 301.14285714285717 804714.00000000012 1.0000000180025095e-35 1.0000000180025095e-35 1.0000000180025095e-35 50386.500000000007 1.0000000180025095e-35 46724.500000000007 1.0000000180025095e-35 1.0000000180025095e-35 43311.500000000007 1.0000000180025095e-35 1.0000000180025095e-35 136103.50000000003 153085.00000000003 1.0000000180025095e-35 1.0000000180025095e-35 19951.000000000004 1.0000000180025095e-35 21623.500000000004 1.0000000180025095e-35 1.0000000180025095e-35 1.0000000180025095e-35 1.0000000180025095e-35 23565.500000000004 1.0000000180025095e-35 2.249904835165133 1.0000000180025095e-35 1.0000000180025095e-35 1.0000000180025095e-35 657295.50000000012 1.0000000180025095e-35 1.0000000180025095e-35 1.0000000180025095e-35 1.0000000180025095e-35 1.0000000180025095e-35 1.0000000180025095e-35 218390.50000000003 240996.50000000003 1.0000000180025095e-35 1.0000000180025095e-35 1.0000000180025095e-35 1.0000000180025095e-35 113135.50000000001 1.0000000180025095e-35 1.0000000180025095e-35
decision_type=2 2 2 2 2 2 2 2 2 2 2 2 2 2 2 2 2 2 2 2 2 2 2 2 2 2 2 2 2 2 2 2 2 2 2 2 2 2 2 2 2 2 2 2 2 2 2 2 2 2 2 2 2 2 2 2 2 2 2 2 2 2 2
left_child=1 5 4 9 7 11 14 21 20 10 24 15 23 41 58 26 28 -13 51 38 43 22 46 29 25 40 36 53 54 31 37 32 -4 -34 -17 56 -1 -16 57 -27 52 -14 -29 -7 45 -24 48 -15 -2 50 -33 -19 61 -5 -8 -18 -36 -12 60 -26 -6 62 -3
right_child=2 3 12 27 6 8 16 -9 -10 -11 19 17 13 47 30 34 55 18 -20 -21 -22 -23 44 -25 59 39 -28 42 -30 -31 -32 49 33 -35 35 -37 -38 -39 -40 -41 -42 -43 -44 -45 -46 -47 -48 -49 -50 -51 -52 -53 -54 -55 -56 -57 -58 -59 -60 -61 -62 -63 -64
leaf_value=-7388.0657500000007 6210.1820312500004 -1764.9210000000007 8155.7717499999999 -6264.0789374999995 -3721.4322500000012 -3665.5626250000005 1315.3145624999991 -8260.3378124999999 4104.6838125000013 -9472.6605 1382.9893125000003 1548.7043749999998 -815.20171875000017 24680.748250000001 1969.8011249999997 -7771.3464375000003 8165.0812500000002 -5259.6197500000007 7017.788875000002 7249.819875000001 953.407250000001 13770.981125 10002.23675 -4815.9853125 843.40481250000016 1167.4789062500001 -8229.0357500000009 -3231.0297500000001 -4442.2483750000001 -2148.7917968750007 6991.7962499999994 68104.635468750013 23188.773468750001 3815.9059687500007 -3238.4315625000004 -6738.0928125000009 -4768.4110000000001 -2683.3375625000003 4066.0498750000002 -1026.5210937500001 3988.0664999999995 5787.7348125000008 -5624.7797500000006 808.50362499999903 18118.669093749999 20568.294718750003 -7676.0347500000007 189995.120375 -1800.8597500000005 22416.831718750003 14330.730937500002 -10303.492250000001 48826.836000000003 -1391.6789374999994 6836.3320000000012 18026.131250000002 -10539.181562500002 -8500.0323750000007 -5639.2572500000015 4090.5897812500002 -1472.507250000001 -3771.4372499999999 -5237.4622500000005
leaf_weight=42617 19232 15391 9181 35193 14922 15942 7587 4384 5052 5100 19158 2665 3872 19864 8735 16803 10951 11300 673 8689 2761 9798 23609 613 11166 8970 64770 12525 514 834 4288 102549 17686 1841 16630 12840 42315 4963 4061 7002 531 9104 6184 1489 5040 4830 271 10420 1168 2171 1281 2613 388 1784 3725 6557 1218 448 813 1398 11340 822 2615
leaf_count=42617 19232 15391 9181 35193 14922 15942 7587 4384 5052 5100 19158 2665 3872 19864 8735 16803 10951 11300 673 8689 2761 9798 23609 613 11166 8970 64770 12525 514 834 4288 102549 17686 1841 16630 12840 42315 4963 4061 7002 531 9104 6184 1489 5040 4830 271 10420 1168 2171 1281 2613 388 1784 3725 6557 1218 448 813 1398 11340 822 2615
internal_value=-0.00036978 -0.0130856 0.0146737 -0.0053592 0.00780178 -0.0176444 0.00230157 0.01379 -0.00538148 0.000721667 0.00183441 -0.019088 0.0201403 0.0155883 -0.00370775 -0.0198208 0.0115327 -0.010711 -0.0136089 0.0072954 -0.0100634 0.0154289 0.0141717 0.0215866 -0.00182518 -0.00372141 -0.0210946 -0.0147218 0.0050186 0.0217169 0.00233237 0.0218592 0.0184095 0.021259 -0.0158056 -0.0135737 -0.0195303 -0.000423419 0.00473127 0.000403832 -0.00705803 0.00603807 -0.0106673 -0.0121952 0.0166395 0.0153829 0.0101749 0.0196804 0.010598 0.0227934 0.0230213 -0.0151315 -0.00772013 -0.0167733 0.00634282 0.0159327 -0.00974339 0.00299143 -0.00772022 0.00356574 -0.00720623 -0.00824304 -0.00751694
internal_weight=703256 381113 322143 141425 142727 239688 74395 68332 25244 85739 80639 214444 179416 43260 45061 197193 29334 17251 14586 32356 20192 63948 54150 136156 48283 35719 149702 55686 11826 135543 17986 134709 28708 19527 47491 30688 84932 13698 23667 15972 19747 12976 18709 17431 33479 28439 20671 30284 20400 106001 103830 13913 19216 36977 11312 17508 17848 19606 27075 12564 26262 18828 18006
internal_count=703256 381113 322143 141425 142727 239688 74395 68332 25244 85739 80639 214444 179416 43260 45061 197193 29334 17251 14586 32356 20192 63948 54150 136156 48283 35719 149702 55686 11826 135543 17986 134709 28708 19527 47491 30688 84932 13698 23667 15972 19747 12976 18709 17431 33479 28439 20671 30284 20400 106001 103830 13913 19216 36977 11312 17508 17848 19606 27075 12564 26262 18828 18006
is_linear=0
shrinkage=0.05


Tree=3
num_leaves=64
num_cat=0
split_feature=2 2 0 1051 0 1051 2 1043 1086 1043 2 1086 1051 2 1 1 4 1 1 1054 1069 1064 0 1069 1069 1051 1 907 1055 2 1054 2 571 570 1 1069 1064 1049 1 1 1086 0 1086 1086 1054 1080 0 4 576 2 1086 821 2 1051 1043 1069 1054 571 2 1054 776 2 1033
split_gain=51236 5594.49 4237.34 3247.39 1675.92 1586.64 1348.17 944.453 825.322 706.299 662.856 529.011 522.782 568.735 415.606 370.346 323.181 308.5 270.533 232.993 228.496 359.738 227.665 224.493 211.941 207.957 205.497 191.733 190.671 184.596 259.773 183.199 176.112 174.215 170.2 163.656 226.284 147.978 158.922 147.063 144.971 144.699 143.097 135.388 135.346 138.256 130.69 127.11 124.419 117.397 115.957 110.032 107.185 131.813 104.634 103.825 102.11 100.143 97.6364 94.2793 94.0534 92.0509 91.1203
threshold=88392.500000000015 45464.500000000007 6.5000000000000009 1.0000000180025095e-35 4.5000000000000009 1.0000000180025095e-35 153085.00000000003 1.0000000180025095e-35 1.0000000180025095e-35 1.0000000180025095e-35 66438.500000000015 1.0000000180025095e-35 1.0000000180025095e-35 240996.50000000003 32421.500000000004 49501.000000000007 388.07142857142861 65188.500000000007 804714.00000000012 1.0000000180025095e-35 1.0000000180025095e-35 1.0000000180025095e-35 6.5000000000000009 1.0000000180025095e-35 1.0000000180025095e-35 1.0000000180025095e-35 39255.500000000007 1.0000000180025095e-35 1.0000000180025095e-35 255731.50000000003 1.0000000180025095e-35 29195.500000000004 1.0000000180025095e-35 1.0000000180025095e-35 46724.500000000007 1.0000000180025095e-35 1.0000000180025095e-35 1.0000000180025095e-35 105802.50000000001 175512.00000000003 1.0000000180025095e-35 8.5000000000000018 1.0000000180025095e-35 1.0000000180025095e-35 1.0000000180025095e-35 1.0000000180025095e-35 7.5000000000000009 10580.525000000001 1.0000000180025095e-35 155447.00000000003 1.0000000180025095e-35 1.0000000180025095e-35 19533.500000000004 1.0000000180025095e-35 1.0000000180025095e-35 1.0000000180025095e-35 1.0000000180025095e-35 1.0000000180025095e-35 236213.00000000003 1.0000000180025095e-35 1.0000000180025095e-35 186491.50000000003 1.0000000180025095e-35
decision_type=2 2 2 2 2 2 2 2 2 2 2 2 2 2 2 2 2 2 2 2 2 2 2 2 2 2 2 2 2 2 2 2 2 2 2 2 2 2 2 2 2 2 2 2 2 2 2 2 2 2 2 2 2 2 2 2 2 2 2 2 2 2 2
left_child=1 4 5 9 11 7 15 20 22 10 28 14 27 49 25 57 -13 32 54 24 -2 37 -6 -16 -12 31 -5 29 34 30 35 -1 -8 42 44 -4 47 38 59 -15 -32 -42 48 -28 51 46 50 -37 -17 -14 -46 -3 -25 -54 -18 -36 -24 -7 -19 61 -31 -22 -26
right_child=2 3 12 26 8 6 17 -9 -10 -11 19 16 13 39 23 33 18 58 -20 -21 21 -23 56 52 62 -27 43 -29 -30 60 40 -33 -34 -35 55 36 -38 -39 -40 -41 41 -43 -44 -45 45 -47 -48 -49 -50 -51 -52 -53 53 -55 -56 -57 -58 -59 -60 -61 -62 -63 -64
leaf_value=-6543.9124625000004 13994.7329828125 -1726.3704500000008 18333.614976562498 -5799.8856375000005 -3571.9594937500005 -2545.8363562500003 2887.3071171875004 -7771.2921718750003 3899.2996218750009 -8997.4499749999995 4014.1590343749995 1455.5691562499997 -298.72535156250086 16844.602087499999 -1498.3871718750001 -42.36280781250025 -5013.4112624999998 7650.8623750000006 6881.2994312500014 7117.1088812500011 1111.0249124999989 13840.335818749998 -4706.2344937500011 -7511.7791156249996 957.57196640624977 -7821.6602125000009 -4252.4782625000007 -4948.8610468750012 -4392.789137499999 116202.9036953125 28794.709795312505 -4180.6404500000008 -4220.3109562500003 15463.961437500002 4135.0665734375016 2254.3999453124998 18496.781866406247 12333.2249125 10407.7249125 94129.130025000006 271.18567031249989 23576.0079453125 3830.4426937500002 1170.1547374999996 -1252.4921328124999 2160.7274296874998 3268.2991171874996 16802.3745546875 -6088.6856375000007 6387.4383843750002 3154.1437562500014 3759.3381750000003 -4527.6349843750013 -6413.6131718750012 -9784.3701375000001 834.51575937500024 924.17550624999865 -5357.2943875000019 16637.025437500004 8231.0643671875005 10643.200058593749 10651.219881250003 -7376.5444437500009
leaf_weight=57215 16707 17657 13194 37625 14386 21326 11438 4153 5113 5344 7257 2877 4625 12270 4437 13330 10976 10512 680 8947 9849 9224 2143 15157 16932 64728 19843 571 3887 74363 28648 27921 506 1219 2737 5099 2638 5245 14290 17912 1398 2910 3671 1873 10566 2290 2060 5522 1237 8130 1765 580 14837 13132 2624 9671 3584 824 6894 2765 590 2527 500
leaf_count=57215 16707 17657 13194 37625 14386 21326 11438 4153 5113 5344 7257 2877 4625 12270 4437 13330 10976 10512 680 8947 9849 9224 2143 15157 16932 64728 19843 571 3887 74363 28648 27921 506 1219 2737 5099 2638 5245 14290 17912 1398 2910 3671 1873 10566 2290 2060 5522 1237 8130 1765 580 14837 13132 2624 9671 3584 824 6894 2765 590 2527 500
internal_value=-0.000484934 -0.0125997 0.0145565 -0.00500956 -0.0173325 0.00790266 0.00273793 0.0135616 -0.00514152 0.000967093 0.00207751 -0.0187656 0.0196334 0.0148281 -0.0194975 -0.00305057 -0.0103442 0.0109438 -0.0134244 0.00753062 0.0151422 0.0132483 -0.00970144 -0.0154253 0.00502552 -0.0207898 -0.0140935 0.0211625 -0.00150401 0.0212854 0.0192037 -0.0191658 0.00475553 0.00198258 -0.000629675 0.0155134 0.0115902 0.0109139 0.00953501 0.018569 0.0221659 0.0136142 0.000759403 -0.0102206 -0.00241709 0.00083778 -0.000978042 0.0083349 -0.00146393 0.00597609 -0.00292555 -0.00539425 -0.0165272 -0.0146922 -0.0149632 0.00440039 -0.0012703 -0.00747178 0.0151902 0.00596559 0.0229354 0.00410068 0.00203648
internal_weight=702931 389344 313587 149534 239810 135717 70957 64760 25226 90193 84849 214584 177870 42937 197427 41607 17157 29350 14280 33636 60607 43900 20113 47563 24689 149864 59341 134933 51213 134362 59409 85136 11944 19457 47326 26453 13259 34676 29431 30182 32956 4308 18238 21716 34918 16681 14391 10621 14567 12755 12331 18237 43126 27969 13600 12408 5727 22150 17406 15141 74953 12376 17432
internal_count=702931 389344 313587 149534 239810 135717 70957 64760 25226 90193 84849 214584 177870 42937 197427 41607 17157 29350 14280 33636 60607 43900 20113 47563 24689 149864 59341 134933 51213 134362 59409 85136 11944 19457 47326 26453 13259 34676 29431 30182 32956 4308 18238 21716 34918 16681 14391 10621 14567 12755 12331 18237 43126 27969 13600 12408 5727 22150 17406 15141 74953 12376 17432
is_linear=0
shrinkage=0.05


Tree=4
num_leaves=64
num_cat=0
split_feature=0 1 0 0 1 0 1086 1051 1051 1064 1 706 1083 1080 706 1049 776 1072 1086 1086 1051 481 1086 1 1051 1055 1073 921 0 1055 1 1 1034 1042 1043 1039 1 1 907 0 776 1 4 1064 906 1064 0 1086 1051 0 1049 0 568 876 1042 481 576 1083 1 572 1080 1054 1072
split_gain=40773.9 5027.36 5018.96 2022.39 1906.4 1491.65 789.645 688.871 614.807 589.354 537.925 391.375 377.06 466.281 368.97 344.442 297.056 274.684 254.863 246.335 270.309 239.733 234.277 269.579 213.723 202.787 197.189 194.952 193.874 193.392 183.87 168.309 168.013 166.049 151.694 156.57 149.805 148.569 137.865 133.399 127.616 123.057 147.81 120.491 120.231 118.921 115.856 114.971 201.355 110.257 105.862 109.193 105.193 104.923 104.604 99.9971 99.0151 97.1604 111.938 92.0436 91.4972 119.903 92.2905
threshold=4.5000000000000009 50386.500000000007 7.5000000000000009 2.5000000000000004 40148.000000000007 2.5000000000000004 1.0000000180025095e-35 1.0000000180025095e-35 1.0000000180025095e-35 1.0000000180025095e-35 41705.000000000007 1.0000000180025095e-35 1.0000000180025095e-35 1.0000000180025095e-35 1.0000000180025095e-35 1.0000000180025095e-35 1.0000000180025095e-35 1.0000000180025095e-35 1.0000000180025095e-35 1.0000000180025095e-35 1.0000000180025095e-35 1.0000000180025095e-35 1.0000000180025095e-35 144153.50000000003 1.0000000180025095e-35 1.0000000180025095e-35 1.0000000180025095e-35 1.0000000180025095e-35 5.5000000000000009 1.0000000180025095e-35 96674.500000000015 556365.00000000012 1.0000000180025095e-35 1.0000000180025095e-35 1.0000000180025095e-35 1.0000000180025095e-35 524051.00000000006 15906.500000000002 1.0000000180025095e-35 1.5000000000000002 1.0000000180025095e-35 387.50000000000006 1225.7500000000002 1.0000000180025095e-35 1.0000000180025095e-35 1.0000000180025095e-35 3.5000000000000004 1.0000000180025095e-35 1.0000000180025095e-35 9.5000000000000018 1.0000000180025095e-35 3.5000000000000004 1.0000000180025095e-35 1.0000000180025095e-35 1.0000000180025095e-35 1.0000000180025095e-35 1.0000000180025095e-35 1.0000000180025095e-35 19044.500000000004 1.0000000180025095e-35 1.0000000180025095e-35 1.0000000180025095e-35 1.0000000180025095e-35
decision_type=2 2 2 2 2 2 2 2 2 2 2 2 2 2 2 2 2 2 2 2 2 2 2 2 2 2 2 2 2 2 2 2 2 2 2 2 2 2 2 2 2 2 2 2 2 2 2 2 2 2 2 2 2 2 2 2 2 2 2 2 2 2 2
left_child=1 3 4 15 9 31 7 12 16 14 11 43 13 17 18 19 25 46 28 37 27 30 23 -10 38 26 -7 -21 60 34 45 32 33 39 35 -14 -26 -1 40 47 54 -20 -43 49 53 -6 -5 -3 -49 -4 51 -8 56 -17 -12 -24 -41 58 -9 -39 62 -62 -2
right_child=2 5 10 6 21 8 50 57 22 -11 24 -13 29 -15 -16 44 -18 -19 41 20 -22 -23 55 -25 36 -27 -28 -29 -30 -31 -32 -33 -34 -35 -36 -37 -38 59 -40 52 -42 42 -44 -45 -46 -47 -48 48 -50 -51 -52 -53 -54 -55 -56 -57 -58 -59 -60 -61 61 -63 -64
leaf_value=-7241.1772018750016 -2864.6365190625002 -6499.7871813281263 4489.7393283984366 -4524.6976775000003 4943.5334483984379 5757.1091860546876 -1237.6450971875006 -6507.9307087500001 -3045.5174971093761 12679.930610996093 69627.949791796884 20752.849305546875 1833.0237384374996 278.2415724999999 7536.3111488281256 -4054.5995768749999 -8514.8524762500001 -1382.1476775000003 3058.4096407812513 -8091.315699374999 -617.4142087500004 -1978.0333931250004 4560.74296734375 1757.195650624999 19752.997970625001 -2115.5094550976569 -4484.4105242187507 46896.864472500005 14.723104335936661 -6290.2854389453123 13812.009227734374 -721.44637744140573 8267.8632447656255 4970.0886668749999 -9074.7862262500021 -9467.5950971875009 137616.32058625002 -6097.6272018750014 -5312.1198695312514 -2866.3678132812511 1608.5767996093755 -2096.272007187501 3622.6144831250017 32014.308510546878 1878.7331606250009 14674.644027812501 -2945.6756005273437 -5843.6656993749993 5113.0506506250003 16779.909713281249 16227.377277812502 2192.7760165625004 -7572.5901598437504 6212.4754231250008 19477.994948046875 -8382.7279993750017 -6780.2976056250018 -4545.178783398439 -4407.6400696875016 1771.0692912500003 -2408.5227221874989 6622.803437187501 214.98500464843747
leaf_weight=90279 21295 14352 15348 19926 24570 27867 5027 28941 15529 3568 89304 11583 10144 8225 4837 5683 1099 10479 3376 6528 4001 2359 3328 9297 15840 2524 1308 289 25946 1769 40355 6536 672 1371 767 663 11239 39833 402 20533 672 3033 4503 1791 1085 1531 17136 2524 984 18276 627 5654 1167 898 1745 396 1369 11894 15117 161 1293 657 3612
leaf_count=90279 21295 14352 15348 19926 24570 27867 5027 28941 15529 3568 89304 11583 10144 8225 4837 5683 1099 10479 3376 6528 4001 2359 3328 9297 15840 2524 1308 289 25946 1769 40355 6536 672 1371 767 663 11239 39833 402 20533 672 3033 4503 1791 1085 1531 17136 2524 984 18276 627 5654 1167 898 1745 396 1369 11894 15117 161 1293 657 3612
internal_value=-0.000612807 -0.0112169 0.0130588 -0.0147298 0.00611789 -0.00218166 -0.0103317 -0.0114758 0.00302862 0.000437465 0.0189446 0.0144144 -0.00813678 -0.00994333 -0.00059371 -0.0187616 0.00769864 -0.011845 -0.00160441 -0.0193225 -0.0120725 0.0120711 -0.00233625 -0.00409047 0.0207308 0.00858466 0.00976093 -0.0181275 -0.00304197 -0.00058645 0.0126272 -0.008638 -0.00977497 -0.010169 0.00176689 0.00329185 0.0168258 -0.0199245 0.0218786 -0.0107424 0.0220067 0.00535191 0.00179804 0.011805 -0.00843986 0.00935692 -0.013866 -0.0139866 -0.00587229 0.0111319 0.00232137 0.00114924 -0.00823074 -0.0109824 0.0221669 0.00935822 -0.00745137 -0.0156 -0.0166826 -0.0173876 -0.00601985 0.00441026 -0.00683643
internal_weight=703117 395982 307135 285126 140935 110856 136369 125061 61348 72120 166200 46998 69109 55766 68552 148757 32798 47541 63715 141091 10818 68815 28550 24826 119202 31699 29175 6817 52803 13343 66456 49508 42972 42300 11574 10807 27079 130273 92123 40929 91721 10912 7536 35415 7666 26101 37062 17860 3508 33624 11308 10681 23069 6581 91049 3724 21902 55952 44058 39994 26857 1950 24907
internal_count=703117 395982 307135 285126 140935 110856 136369 125061 61348 72120 166200 46998 69109 55766 68552 148757 32798 47541 63715 141091 10818 68815 28550 24826 119202 31699 29175 6817 52803 13343 66456 49508 42972 42300 11574 10807 27079 130273 92123 40929 91721 10912 7536 35415 7666 26101 37062 17860 3508 33624 11308 10681 23069 6581 91049 3724 21902 55952 44058 39994 26857 1950 24907
is_linear=0
shrinkage=0.05


Tree=5
num_leaves=64
num_cat=0
split_feature=2 2 1051 2 1051 0 1043 0 1086 1054 1043 2 1 1069 1064 2 1069 1064 1 1086 4 1 1086 1054 4 1069 4 1 714 1054 2 819 1069 571 1064 1055 1 1049 1086 571 570 819 1043 1 1083 2 1080 1054 1069 2 816 819 1 4 714 2 2 1086 873 572 876 816 706
split_gain=46563 5147.06 3884.7 3493.43 2223.2 1392 929.361 929.149 808.832 542.858 538.279 474.869 426.98 362.732 386.325 337.899 298.089 374.794 289.994 289.473 383.606 286.887 248.303 224.12 208.588 203.673 176.324 173.361 167.111 163.116 344.008 156.031 145.611 144.463 143.356 140.45 137.553 136.412 135.094 133.571 124.051 120.553 119.487 117.859 138.538 117.163 116.553 106.4 104.126 102.598 102.197 101.782 100.787 99.9981 99.0583 98.2476 96.1284 95.1116 94.2173 93.8182 93.3796 91.9388 91.5179
threshold=74557.000000000015 160366.00000000003 1.0000000180025095e-35 41703.500000000007 1.0000000180025095e-35 4.5000000000000009 1.0000000180025095e-35 9.5000000000000018 1.0000000180025095e-35 1.0000000180025095e-35 1.0000000180025095e-35 110231.50000000001 36002.500000000007 1.0000000180025095e-35 1.0000000180025095e-35 57265.000000000007 1.0000000180025095e-35 1.0000000180025095e-35 49501.000000000007 1.0000000180025095e-35 388.07142857142861 50386.500000000007 1.0000000180025095e-35 1.0000000180025095e-35 15215.583333333334 1.0000000180025095e-35 9054.9444444444471 556365.00000000012 1.0000000180025095e-35 1.0000000180025095e-35 548099.50000000012 1.0000000180025095e-35 1.0000000180025095e-35 1.0000000180025095e-35 1.0000000180025095e-35 1.0000000180025095e-35 46724.500000000007 1.0000000180025095e-35 1.0000000180025095e-35 1.0000000180025095e-35 1.0000000180025095e-35 1.0000000180025095e-35 1.0000000180025095e-35 39255.500000000007 1.0000000180025095e-35 19951.000000000004 1.0000000180025095e-35 1.0000000180025095e-35 1.0000000180025095e-35 202477.00000000003 1.0000000180025095e-35 1.0000000180025095e-35 151887.50000000003 10580.525000000001 1.0000000180025095e-35 19951.000000000004 101637.00000000001 1.0000000180025095e-35 1.0000000180025095e-35 1.0000000180025095e-35 1.0000000180025095e-35 1.0000000180025095e-35 1.0000000180025095e-35
decision_type=2 2 2 2 2 2 2 2 2 2 2 2 2 2 2 2 2 2 2 2 2 2 2 2 2 2 2 2 2 2 2 2 2 2 2 2 2 2 2 2 2 2 2 2 2 2 2 2 2 2 2 2 2 2 2 2 2 2 2 2 2 2 2
left_child=3 2 6 5 10 12 9 13 28 16 15 43 19 -3 18 31 26 24 39 23 -21 33 56 45 37 -9 -2 32 -7 30 34 36 -14 -13 53 51 46 -18 52 42 -23 50 62 -4 -45 -1 54 49 -47 -20 -19 58 59 -27 -5 -34 -11 -29 61 -6 -22 -17 -15
right_child=1 7 11 4 38 8 -8 25 -10 22 -12 21 27 14 -16 35 17 41 47 20 60 40 -24 -25 -26 29 -28 57 -30 -31 -32 -33 55 -35 -36 -37 -38 -39 -40 -41 -42 -43 -44 44 -46 48 -48 -49 -50 -51 -52 -53 -54 -55 -56 -57 -58 -59 -60 -61 -62 -63 -64
leaf_value=-7436.3881605312508 3813.8299783203129 26036.284391347657 -3804.1217695800779 -1796.0388174062509 -5492.4164392890625 -3411.2046931093751 -7938.4486161562518 153544.95230220704 3525.489158742188 7599.8131503300774 -8459.0693542656245 -1211.2046568281264 -1731.4484412968757 4221.1569502988277 27438.639997262697 1557.9381687431633 -850.56284232812618 8217.8974972626947 6685.6524823632826 1223.751897609375 -6765.72913003125 2140.0078277460925 2564.3086980888679 -3521.683059348632 4824.6861736010751 10903.16899746094 11419.869535833008 -5385.8632677153328 419.54143976757916 32452.940270957031 181878.00142332228 -3798.2978450859391 -6812.7508007773431 -4862.8207289550792 37440.234145957038 -3435.480533677734 773.02832460351647 4955.4060760585953 -1342.9599983124995 -3926.0470808574219 16803.449404238283 -197.3923351816411 -6580.7634953125007 -638.53577519531393 -3660.0588218242201 -3510.0746474736329 1204.5614795781237 31626.019124541992 -6367.4920917812524 15496.538205488283 -136.71143149023411 -1965.0432038515619 -3293.0141319062504 35988.1949656836 4461.2113622812512 -5125.5332414589857 21969.011228113279 3736.629000384768 -5519.8611732812496 1688.3158266875007 16910.001779468752 -1917.1532508671867 23228.313740269528
leaf_weight=58928 9338 12424 18435 24991 44524 15001 3707 37927 4906 10335 5120 14539 3300 18935 6089 31304 11977 7647 14619 2769 7346 13797 2636 23527 15676 8497 12074 3464 2573 16634 27106 910 15301 812 2454 2709 9387 3490 2837 351 1103 802 1162 10161 5322 8053 2845 2582 54687 31191 633 521 3458 10993 536 22244 15320 1093 359 218 126 435 1039
leaf_count=58928 9338 12424 18435 24991 44524 15001 3707 37927 4906 10335 5120 14539 3300 18935 6089 31304 11977 7647 14619 2769 7346 13797 2636 23527 15676 8497 12074 3464 2573 16634 27106 910 15301 812 2454 2709 9387 3490 2837 351 1103 802 1162 10161 5322 8053 2845 2582 54687 31191 633 521 3458 10993 536 22244 15320 1093 359 218 126 435 1039
internal_value=-0.000752937 0.0121798 0.00548972 -0.0135516 -0.00704051 -0.0173463 0.011984 0.0176782 -0.00554715 0.0129954 -0.00179197 -0.00398674 -0.018667 0.0139125 0.0126172 -0.000707123 0.0103635 0.0078266 0.0115646 -0.019913 -0.0117884 0.00056775 0.0187295 -0.0204861 0.00522027 0.0208909 0.0151294 -0.0144013 -0.0105582 0.0192064 0.0177554 -0.00393662 -0.0154333 -0.00422937 0.0131015 0.00282779 -0.00344355 0.00110073 -0.0151767 0.00673081 0.00551007 0.0167639 0.00723883 -0.00804882 -0.00483272 -0.0213499 -0.0051794 0.0137109 -0.0198462 0.0131543 0.0185568 0.00373632 -0.0158008 0.0116675 -0.00624927 -0.0163184 0.0202309 -0.00515142 0.00409216 -0.0164365 -0.0176793 0.00438026 0.00814559
internal_weight=703279 349807 157804 353472 130154 223318 93635 192003 22480 89928 79117 64169 200838 88392 75968 73997 61637 40225 69879 155436 10241 30251 28291 145195 31143 103611 21412 45402 17574 65684 49050 38669 40845 15351 21944 35328 37759 15467 51037 21487 14900 9082 21136 33918 15483 121668 28372 48392 62740 45810 8280 32619 48200 19490 25527 37545 25655 4557 32098 44742 7472 31739 19974
internal_count=703279 349807 157804 353472 130154 223318 93635 192003 22480 89928 79117 64169 200838 88392 75968 73997 61637 40225 69879 155436 10241 30251 28291 145195 31143 103611 21412 45402 17574 65684 49050 38669 40845 15351 21944 35328 37759 15467 51037 21487 14900 9082 21136 33918 15483 121668 28372 48392 62740 45810 8280 32619 48200 19490 25527 37545 25655 4557 32098 44742 7472 31739 19974
is_linear=0
shrinkage=0.05


Tree=6
num_leaves=64
num_cat=0
split_feature=2 2 2 1051 1051 1051 3 2 1086 1043 1043 1043 1054 1086 571 2 1051 2 4 2 2 1042 1069 1064 1046 1086 1086 4 2 1047 1041 4 1054 4 4 819 711 576 4 4 476 1086 1044 1083 1055 776 4 3 1039 2 570 819 1049 4 816 1080 4 779 816 572 1046 714 4
split_gain=43861.8 4927.22 3263.52 3033.24 1986.27 1494.42 1390.92 793.933 733.995 707.301 493.716 490.169 455.698 414.795 394.248 375.706 329.305 320.028 307.606 290.548 260.281 237.735 233.006 229.528 203.928 201.641 194.225 193.882 180.831 174.767 179.794 170.719 166.986 165.666 162.408 156.577 148.575 142.826 140.286 135.808 134.594 141.045 131.504 155.6 129.877 127.936 161.676 127.472 125.388 124.456 122.955 115.23 113.734 109.378 109.233 111.935 107.017 106.426 103.2 96.2274 93.2459 92.6927 90.9436
threshold=73623.000000000015 134252.00000000003 41703.500000000007 1.0000000180025095e-35 1.0000000180025095e-35 1.0000000180025095e-35 1.7005986908310777 240996.50000000003 1.0000000180025095e-35 1.0000000180025095e-35 1.0000000180025095e-35 1.0000000180025095e-35 1.0000000180025095e-35 1.0000000180025095e-35 1.0000000180025095e-35 20801.500000000004 1.0000000180025095e-35 473059.50000000006 245.08333333333334 57265.000000000007 579220.00000000012 1.0000000180025095e-35 1.0000000180025095e-35 1.0000000180025095e-35 1.0000000180025095e-35 1.0000000180025095e-35 1.0000000180025095e-35 11988.114285714286 702967.00000000012 1.0000000180025095e-35 1.0000000180025095e-35 10232.250000000002 1.0000000180025095e-35 18091.125000000004 3865.6287878787884 1.0000000180025095e-35 1.0000000180025095e-35 1.0000000180025095e-35 8579.4583333333339 34858.875000000007 1.0000000180025095e-35 1.0000000180025095e-35 1.0000000180025095e-35 1.0000000180025095e-35 1.0000000180025095e-35 1.0000000180025095e-35 15812.000000000002 1.2424533248940004 1.0000000180025095e-35 104353.50000000001 1.0000000180025095e-35 1.0000000180025095e-35 1.0000000180025095e-35 390198.50000000006 1.0000000180025095e-35 1.0000000180025095e-35 61105.875000000007 1.0000000180025095e-35 1.0000000180025095e-35 1.0000000180025095e-35 1.0000000180025095e-35 1.0000000180025095e-35 63464.197916666679
decision_type=2 2 2 2 2 2 2 2 2 2 2 2 2 2 2 2 2 2 2 2 2 2 2 2 2 2 2 2 2 2 2 2 2 2 2 2 2 2 2 2 2 2 2 2 2 2 2 2 2 2 2 2 2 2 2 2 2 2 2 2 2 2 2
left_child=2 3 6 9 10 11 13 14 32 12 19 17 22 15 27 57 45 21 -15 35 -13 24 38 33 29 37 -14 -7 -9 30 42 -31 60 52 -27 54 -34 49 -2 -16 41 59 43 61 -21 46 -17 53 -45 -5 -29 58 -24 -20 55 56 -4 -1 -25 -6 -8 -3 -49
right_child=1 5 4 25 40 7 8 28 -10 -11 -12 20 26 18 39 16 -18 -19 47 44 -22 -23 23 51 -26 34 -28 50 -30 31 -32 -33 36 -35 -36 -37 -38 -39 -40 -41 -42 -43 -44 48 -46 -47 -48 62 -50 -51 -52 -53 -54 -55 -56 -57 -58 -59 -60 -61 -62 -63 -64
leaf_value=-6738.9325025046874 2724.5230131787098 20782.670648171465 -1300.2991027546873 -3225.2787920385745 -5355.4335944730483 1313.9756631929677 -6220.2950825710959 15667.122414882764 3379.0397008050786 -7569.9400086609376 -8053.1151415835939 -5647.2350625624986 9819.5012545513655 1448.8643027289058 -4619.0296925073244 -3671.3605073414074 -6199.0549763528325 230499.51094979094 -6453.7541661360337 1069.2865580940925 237846.8235471542 6829.4386945351553 -1282.8851291179687 6457.0755103634283 4509.996749367775 -2082.5950954887689 528.66848661508709 4886.2589425068354 172890.06675452139 3037.5573394423332 3049.8414265891729 33741.205482713871 -254.6068240388675 4053.7013430552988 2376.4696205920418 -3589.3231126519549 -2181.615814623829 -6035.8322944322281 8611.2614472903788 11263.219858245118 -1315.9478833011717 -1284.7715096625006 8747.7993117480473 29323.359795149219 -3423.0126343571283 -9239.9024628171883 -3260.4508505191425 -3380.6317824426751 4235.9522401311651 -1283.5133730162124 16550.929023454104 -678.47449233857412 4080.1381101189472 1102.4753285403335 -3744.9992416598634 1531.8684055992185 3367.5753111858389 3641.8016822846689 -596.62372372529205 1604.4000353531258 39.055541546094176 -991.98611197587888 11268.994465863332
leaf_weight=88622 7386 46226 30793 25475 44009 17915 7423 29442 4869 3130 5024 3051 19731 2571 1387 38469 40537 43833 9846 31119 2726 5474 10680 6069 2208 2102 1718 18681 10010 2930 1522 3633 6188 11530 5408 936 3014 2409 9433 186 3115 2661 6622 29220 2596 3409 13417 2349 644 15316 1660 716 2951 777 641 3441 2907 464 574 218 866 560 492
leaf_count=88622 7386 46226 30793 25475 44009 17915 7423 29442 4869 3130 5024 3051 19731 2571 1387 38469 40537 43833 9846 31119 2726 5474 10680 6069 2208 2102 1718 18681 10010 2930 1522 3633 6188 11530 5408 936 3014 2409 9433 186 3115 2661 6622 29220 2596 3409 13417 2349 644 15316 1660 716 2951 777 641 3441 2907 464 574 218 866 560 492
internal_value=-0.000920797 0.0115338 -0.0134388 0.00354014 -0.00705515 0.0159047 -0.0170824 0.0103609 -0.00525268 0.0100009 -0.00204016 0.0188614 0.0110294 -0.0183987 0.00538113 -0.0190676 -0.0168947 0.0194387 -0.0106844 -0.000988845 0.00458283 0.0178644 0.00838434 0.00591328 0.018457 -0.00587754 0.0171139 0.00638985 0.0153883 0.0188198 0.0194283 0.0109592 -0.0100323 0.00364155 0.00168442 -0.0039439 -0.00539557 -0.00719213 0.0131622 -0.0191513 -0.0148236 -0.0154922 0.0197395 0.0203235 0.00240472 -0.0143851 -0.0137686 -0.0137106 0.0231432 -0.00649347 0.00973035 0.0136805 -8.98687e-05 -0.0162266 -0.00344344 -0.00309025 -0.00396736 -0.0214052 0.0157346 -0.0161649 -0.0151798 0.0185237 -0.00430306
internal_weight=703331 352558 350773 124628 127460 227930 223313 79281 22360 73918 77457 148649 70788 200953 39829 184918 95832 142872 16035 72433 5777 99039 49339 32520 93565 50710 21449 38256 39452 91357 84794 6563 17491 25161 7510 38718 9202 43200 16819 1573 50003 46888 83272 76650 33715 55295 51886 13464 29864 40791 20341 7359 13631 10623 37782 37141 33700 89086 6643 44227 8289 46786 2841
internal_count=703331 352558 350773 124628 127460 227930 223313 79281 22360 73918 77457 148649 70788 200953 39829 184918 95832 142872 16035 72433 5777 99039 49339 32520 93565 50710 21449 38256 39452 91357 84794 6563 17491 25161 7510 38718 9202 43200 16819 1573 50003 46888 83272 76650 33715 55295 51886 13464 29864 40791 20341 7359 13631 10623 37782 37141 33700 89086 6643 44227 8289 46786 2841
is_linear=0
shrinkage=0.05


Tree=7
num_leaves=64
num_cat=0
split_feature=2 2 1051 1051 2 0 1086 0 1043 1043 2 1 1 1054 1 0 2 1064 1069 1054 2 711 1069 2 1 571 2 1055 2 1 921 1086 1 1049 1069 1064 1 1 1086 1 1054 2 1083 1083 1051 1080 570 821 1069 876 0 714 2 816 1051 0 1 706 0 576 568 476 4
split_gain=41385.7 4701.86 3548.66 2547.11 2279.14 1373.37 1079.57 1007.88 871.398 659.615 473.857 468.54 446.225 332.296 293.51 275.411 263.515 263.937 337.608 250.841 395.152 210.189 184.693 184.606 183.516 167.06 159.949 153.363 149.737 143.546 142.772 134.83 131.978 130.791 127.029 244.065 127.829 125.937 125.205 199.747 122.501 120.291 117.763 115.205 109.184 104.823 100.255 99.2365 116.915 97.8124 92.4826 92.0486 91.4028 90.0829 88.4231 85.2275 84.8856 90.511 83.0601 82.513 92.333 80.2294 75.0957
threshold=86129.500000000015 43497.000000000007 1.0000000180025095e-35 1.0000000180025095e-35 181471.50000000003 3.5000000000000004 1.0000000180025095e-35 7.5000000000000009 1.0000000180025095e-35 1.0000000180025095e-35 60001.000000000007 32421.500000000004 65188.500000000007 1.0000000180025095e-35 108225.50000000001 21.500000000000004 113135.50000000001 1.0000000180025095e-35 1.0000000180025095e-35 1.0000000180025095e-35 202477.00000000003 1.0000000180025095e-35 1.0000000180025095e-35 139692.00000000003 22573.000000000004 1.0000000180025095e-35 29769.500000000004 1.0000000180025095e-35 118543.50000000001 643874.00000000012 1.0000000180025095e-35 1.0000000180025095e-35 57864.500000000007 1.0000000180025095e-35 1.0000000180025095e-35 1.0000000180025095e-35 190094.00000000003 46724.500000000007 1.0000000180025095e-35 387.50000000000006 1.0000000180025095e-35 876910.00000000012 1.0000000180025095e-35 1.0000000180025095e-35 1.0000000180025095e-35 1.0000000180025095e-35 1.0000000180025095e-35 1.0000000180025095e-35 1.0000000180025095e-35 1.0000000180025095e-35 5.5000000000000009 1.0000000180025095e-35 19533.500000000004 1.0000000180025095e-35 1.0000000180025095e-35 11.500000000000002 387002.50000000006 1.0000000180025095e-35 7.5000000000000009 1.0000000180025095e-35 1.0000000180025095e-35 1.0000000180025095e-35 10764.833333333334
decision_type=2 2 2 2 2 2 2 2 2 2 2 2 2 2 2 2 2 2 2 2 2 2 2 2 2 2 2 2 2 2 2 2 2 2 2 2 2 2 2 2 2 2 2 2 2 2 2 2 2 2 2 2 2 2 2 2 2 2 2 2 2 2 2
left_child=1 5 7 9 12 11 13 8 16 10 37 26 25 30 -6 19 -2 18 -18 20 62 58 -13 43 55 28 38 53 -4 52 32 59 -7 56 -22 36 -36 40 44 -40 47 -16 51 -14 -1 50 -25 48 -3 -41 -42 -21 -24 -12 -28 61 57 -20 -15 60 -26 -5 -9
right_child=2 3 4 24 14 6 -8 15 -10 -11 27 22 23 21 41 -17 17 -19 33 42 34 -23 29 46 31 -27 54 -29 -30 -31 -32 -33 -34 -35 35 -37 -38 -39 39 49 45 -43 -44 -45 -46 -47 -48 -49 -50 -51 -52 -53 -54 -55 -56 -57 -58 -59 -60 -61 -62 -63 -64
leaf_value=-5454.0820045866603 4001.8752295900849 -234.64944490601704 -2700.4898524366467 -5217.9724163246829 5249.0375248403589 -5504.8786957366683 2710.9577364171682 2541.121623729508 -6834.283263672929 -7521.4901511425969 2002.0427817739874 -966.13517828786144 2020.920143657655 -925.24004264580878 20125.389508375636 315230.40514157008 16634.176570541622 16787.994190509318 5407.6493694780984 16782.264749313104 43885.356043473184 -2174.6136677227146 -6131.0321660605805 4357.0692214928222 -3232.6114175550597 -3850.9845662848879 -3681.5313015412307 -2024.6213645641701 -449.24734224215939 -3416.1121222153656 9007.0504624788191 886.87256321453606 -3184.2084816439065 15102.580047347374 11615.908022752303 42141.523766169637 55760.864123537162 769.74915990662566 525.30559885808623 -7218.1007495978847 -1514.2461837888275 235096.74648218593 29594.163229737758 -2118.7728722294414 -6633.6523086294537 3092.2749853192581 15834.080482853664 2734.2032301550194 -2870.7319570193563 16423.114398802114 1198.960277119375 -5177.6738081762014 -4763.8285578024606 -1602.8756521375633 -5835.9770630307967 193272.8978809847 42148.035961553323 22126.806102968032 2588.9209275323383 -6417.0224886204887 -6783.9568469681444 -1013.2504891361125 13801.816790211546
leaf_weight=53008 25214 4626 17826 28055 23512 18782 7025 6730 4622 5580 41686 3534 9512 8427 25886 35332 14813 7675 21789 20994 20258 6129 15883 8457 24934 1082 20625 3544 17356 3571 280 2055 3583 3737 6457 5183 8158 10385 1520 5021 7161 6652 12576 4876 43119 1541 1151 480 12535 123 3747 347 23903 533 15201 175 3488 1088 1612 1931 1987 1261 4727
leaf_count=53008 25214 4626 17826 28055 23512 18782 7025 6730 4622 5580 41686 3534 9512 8427 25886 35332 14813 7675 21789 20994 20258 6129 15883 8457 24934 1082 20625 3544 17356 3571 280 2055 3583 3737 6457 5183 8158 10385 1520 5021 7161 6652 12576 4876 43119 1541 1151 480 12535 123 3747 347 23903 533 15201 175 3488 1088 1612 1931 1987 1261 4727
internal_value=-0.00103206 -0.0121038 0.0122597 -0.00527901 0.0052949 -0.0165942 -0.00884419 0.0162465 0.0119841 -3.32179e-05 0.00104478 -0.0185092 -0.00145536 -0.0121087 0.0125522 0.0191559 0.0132371 0.0152519 0.0137877 0.0176203 0.0154218 -0.00663347 -0.0141888 0.00383397 -0.0132538 -0.00495533 -0.0199707 0.00453041 -0.00436018 -0.0150846 -0.0160179 -0.0105615 -0.0164621 0.0107468 0.0177639 0.0149156 0.0116096 -0.00289623 -0.0209734 -0.0143457 -0.00453473 0.0156279 0.0209593 0.000250209 -0.0214328 -0.000737007 0.00920067 -0.00721473 -0.00784191 -0.0190513 -0.0024615 0.0186976 -0.0159466 0.00536903 -0.0170937 -0.0160752 0.00950597 0.00839817 -0.002179 -0.0114429 -0.0107268 -0.0162829 0.00723357
internal_weight=703060 383562 319498 152216 116310 231346 45838 203188 82426 91818 86238 185508 60260 38813 56050 120762 77804 52590 44915 85430 51513 16168 46891 23996 60398 36264 138617 45763 35182 43357 22645 30907 22365 30102 40056 19798 14615 40475 102791 6664 30090 32538 33917 14388 96127 12449 9608 17641 17161 5144 10908 21341 39786 42219 35826 29491 26365 22877 10039 28852 26921 29316 11457
internal_count=703060 383562 319498 152216 116310 231346 45838 203188 82426 91818 86238 185508 60260 38813 56050 120762 77804 52590 44915 85430 51513 16168 46891 23996 60398 36264 138617 45763 35182 43357 22645 30907 22365 30102 40056 19798 14615 40475 102791 6664 30090 32538 33917 14388 96127 12449 9608 17641 17161 5144 10908 21341 39786 42219 35826 29491 26365 22877 10039 28852 26921 29316 11457
is_linear=0
shrinkage=0.05


Tree=8
num_leaves=64
num_cat=0
split_feature=2 0 2 1051 1051 2 0 1086 1043 2 1054 2 1043 1 2 1 571 1069 1054 1064 1064 1069 2 1 711 1086 1054 1051 1086 2 1069 921 1 1 1069 1 576 1049 2 1086 1 1 1 1033 1033 1054 821 1080 4 1033 570 2 711 2 1 776 0 873 1086 1064 2 4 0
split_gain=38605.4 4371.51 3071.63 1871.79 1779.96 1500.6 1307.69 1038 1017.81 592.288 518.486 495.324 468.314 441.073 433.603 429.664 369.102 336.563 328.905 264.071 263.093 342.439 227.987 206.771 181.008 163.643 158.236 151.31 290.033 162.872 145.124 142.263 141.889 139.596 137.082 135.543 130.898 128.666 127.125 125.722 124.514 120.506 114.284 107.039 100.497 98.779 102.129 100.121 95.2108 93.213 90.0493 98.6637 88.1541 87.1022 86.0278 84.8092 82.1102 81.6067 79.6615 78.5636 78.2306 77.6891 77.3098
threshold=73623.000000000015 7.5000000000000009 41703.500000000007 1.0000000180025095e-35 1.0000000180025095e-35 136103.50000000003 3.5000000000000004 1.0000000180025095e-35 1.0000000180025095e-35 812370.50000000012 1.0000000180025095e-35 218390.50000000003 1.0000000180025095e-35 32421.500000000004 108737.50000000001 65188.500000000007 1.0000000180025095e-35 1.0000000180025095e-35 1.0000000180025095e-35 1.0000000180025095e-35 1.0000000180025095e-35 1.0000000180025095e-35 57265.000000000007 39255.500000000007 1.0000000180025095e-35 1.0000000180025095e-35 1.0000000180025095e-35 1.0000000180025095e-35 1.0000000180025095e-35 19533.500000000004 1.0000000180025095e-35 1.0000000180025095e-35 29242.000000000004 556365.00000000012 1.0000000180025095e-35 196178.50000000003 1.0000000180025095e-35 1.0000000180025095e-35 206242.50000000003 1.0000000180025095e-35 40898.000000000007 40898.000000000007 40148.000000000007 1.0000000180025095e-35 1.0000000180025095e-35 1.0000000180025095e-35 1.0000000180025095e-35 1.0000000180025095e-35 11988.114285714286 1.0000000180025095e-35 1.0000000180025095e-35 240996.50000000003 1.0000000180025095e-35 13084.500000000002 596944.50000000012 1.0000000180025095e-35 11.500000000000002 1.0000000180025095e-35 1.0000000180025095e-35 1.0000000180025095e-35 20382.000000000004 10580.525000000001 5.5000000000000009
decision_type=2 2 2 2 2 2 2 2 2 2 2 2 2 2 2 2 2 2 2 2 2 2 2 2 2 2 2 2 2 2 2 2 2 2 2 2 2 2 2 2 2 2 2 2 2 2 2 2 2 2 2 2 2 2 2 2 2 2 2 2 2 2 2
left_child=2 3 6 8 12 23 13 18 14 10 11 61 22 27 26 16 38 -13 31 35 21 -16 40 -5 -20 36 34 29 -29 -1 -15 42 56 60 48 -19 -25 49 -7 -28 45 -12 -8 58 57 46 -4 52 -2 -23 51 -17 62 -30 -10 59 -6 -24 -36 -31 -32 -3 -47
right_child=1 9 4 5 32 15 7 -9 54 -11 41 17 -14 30 20 50 -18 19 24 -21 -22 37 44 25 -26 -27 39 28 53 55 33 -33 -34 -35 43 -37 -38 -39 -40 -41 -42 -43 -44 -45 -46 47 -48 -49 -50 -51 -52 -53 -54 -55 -56 -57 -58 -59 -60 -61 -62 -63 -64
leaf_value=-5837.7878459001186 1688.2520269769755 2370.6944692566585 -2223.4054061840129 -2914.6886706213918 -4964.1430508081603 178.70611266886556 -5339.3093782439628 2617.8232007716028 -7064.432112110102 375071.65888252866 13853.128659399041 46556.667149091343 -7274.3848769472843 -1281.853139380549 14805.183263577041 4819.3852298580259 -4195.5289795677136 9541.2474059633132 -488.80459648651743 37607.271657004625 14918.697798116635 7168.0552132323392 825.95869501475102 -1087.5300387377022 -2096.5963756297492 2764.3797732230614 7120.7700204133234 -6165.6677892104944 938.46531891518248 -3406.2179628145345 -5831.7650273102117 8400.7149367384009 -3775.529313949768 -3219.6330601831432 1032.9158056320434 41789.264454307457 -5342.9091248517761 13874.664827288098 5125.1124834071061 -4584.3015241756402 412.08512490859579 27987.242106164831 -3480.2490657778835 -6960.7928124026121 -7619.5085354852827 -1036.0074784480182 2398.2753772614519 2446.7862360532949 7428.9121809209673 -7784.8877046768412 14969.52645871098 13536.853697800951 -1786.3957527398052 -4618.4130740306373 4576.4859834533727 -8409.3807745992672 183191.67798693548 -5373.4316745578571 5623.3797923083075 -4251.9790336114083 -4560.9732436008144 10873.788689309109 2165.6105782028581
leaf_weight=38101 5257 12127 15129 25791 28871 12555 16245 6825 4659 37057 19924 22475 5040 3326 15915 15133 1301 16154 9314 4531 8197 27691 33118 18441 5554 3985 6461 56236 1501 30317 16581 266 20883 4004 16659 17506 1614 3937 6351 594 10619 18558 4413 477 414 3830 446 1554 4785 245 1844 9043 4952 972 957 2941 162 356 3478 5174 21410 8277 2161
leaf_count=38101 5257 12127 15129 25791 28871 12555 16245 6825 4659 37057 19924 22475 5040 3326 15915 15133 1301 16154 9314 4531 8197 27691 33118 18441 5554 3985 6461 56236 1501 30317 16581 266 20883 4004 16659 17506 1614 3937 6351 594 10619 18558 4413 477 414 3830 446 1554 4785 245 1844 9043 4952 972 957 2941 162 356 3478 5174 21410 8277 2161
internal_value=-0.00118416 0.0105143 -0.0129248 0.00552541 -0.00673482 0.000549147 -0.016462 -0.00858402 0.0103386 0.016738 0.0150261 0.0127575 -0.0019979 -0.0183214 0.0115779 0.00703755 0.00156753 0.0150241 -0.0119915 0.0121671 0.0143695 0.0129499 -0.000974455 -0.00546999 -0.00630549 -0.00213394 0.00743351 -0.019752 -0.0216615 -0.0182872 -0.0140525 -0.0160318 -0.0141007 -0.0148488 0.00587976 0.0106417 -0.00397282 0.00995906 0.00334021 0.014185 -0.00359709 0.0198054 -0.0164997 0.00354613 0.00201989 -0.00534162 -0.00799839 -0.00203049 0.0106702 0.00876647 0.0112855 0.0104732 -0.00371699 -0.00490295 -0.0103365 -0.0159906 -0.0163616 0.0023227 0.00410066 -0.0153144 -0.0157847 0.00601843 0.000363045
internal_weight=702694 351979 350715 195370 127535 96058 223180 42617 99312 156609 119552 81070 77619 180563 93696 46227 20207 60666 35792 38191 55985 47788 72579 49831 14868 24040 37711 135242 58709 76533 45321 20924 49916 41995 30656 33660 20055 31873 18906 7055 38691 38482 20658 20614 33888 28072 15575 12497 10042 27936 26020 24176 10943 2473 5616 38432 29033 33474 20137 35491 37991 20404 5991
internal_count=702694 351979 350715 195370 127535 96058 223180 42617 99312 156609 119552 81070 77619 180563 93696 46227 20207 60666 35792 38191 55985 47788 72579 49831 14868 24040 37711 135242 58709 76533 45321 20924 49916 41995 30656 33660 20055 31873 18906 7055 38691 38482 20658 20614 33888 28072 15575 12497 10042 27936 26020 24176 10943 2473 5616 38432 29033 33474 20137 35491 37991 20404 5991
is_linear=0
shrinkage=0.05


Tree=9
num_leaves=64
num_cat=0
split_feature=2 0 2 0 2 1086 1069 0 1054 1069 1054 1054 1 1064 1 1 1064 1049 571 2 1086 1 1054 821 1069 1086 1083 2 2 1064 1069 1 1069 711 2 1 711 1049 2 921 1069 1 1086 4 1048 0 1049 1 2 570 1046 4 481 1064 1069 1 921 1054 1054 1046 1043 2 4
split_gain=36368.6 4008.84 2996.35 1298.54 1233.24 948.135 739.102 719.213 696.82 883.032 588.42 492.237 486.728 481.548 591.783 447.583 393.882 399.485 390.92 378.5 331.552 318.437 309.814 293.298 292.13 276.616 248.634 247.388 212.074 203.343 253.165 180.826 174.732 170.569 170.058 167.787 166.14 155.07 140.024 135.615 128.767 126.796 126.11 193.328 125.121 119.503 117.187 114.188 112.385 120.569 105.387 101.589 101.068 98.8888 136.233 97.7824 95.3812 94.7596 91.05 92.6596 90.3053 121.447 87.8104
threshold=73623.000000000015 6.5000000000000009 41703.500000000007 3.5000000000000004 126578.00000000001 1.0000000180025095e-35 1.0000000180025095e-35 12.500000000000002 1.0000000180025095e-35 1.0000000180025095e-35 1.0000000180025095e-35 1.0000000180025095e-35 128346.00000000001 1.0000000180025095e-35 63854.500000000007 32421.500000000004 1.0000000180025095e-35 1.0000000180025095e-35 1.0000000180025095e-35 170316.50000000003 1.0000000180025095e-35 39255.500000000007 1.0000000180025095e-35 1.0000000180025095e-35 1.0000000180025095e-35 1.0000000180025095e-35 1.0000000180025095e-35 1148307.5000000002 104353.50000000001 1.0000000180025095e-35 1.0000000180025095e-35 32421.500000000004 1.0000000180025095e-35 1.0000000180025095e-35 24057.500000000004 29242.000000000004 1.0000000180025095e-35 1.0000000180025095e-35 19533.500000000004 1.0000000180025095e-35 1.0000000180025095e-35 744748.00000000012 1.0000000180025095e-35 358.12500000000006 1.0000000180025095e-35 10.500000000000002 1.0000000180025095e-35 36784.500000000007 240996.50000000003 1.0000000180025095e-35 1.0000000180025095e-35 10959.264285714287 1.0000000180025095e-35 1.0000000180025095e-35 1.0000000180025095e-35 556365.00000000012 1.0000000180025095e-35 1.0000000180025095e-35 1.0000000180025095e-35 1.0000000180025095e-35 1.0000000180025095e-35 206242.50000000003 17723.750000000004
decision_type=2 2 2 2 2 2 2 2 2 2 2 2 2 2 2 2 2 2 2 2 2 2 2 2 2 2 2 2 2 2 2 2 2 2 2 2 2 2 2 2 2 2 2 2 2 2 2 2 2 2 2 2 2 2 2 2 2 2 2 2 2 2 2
left_child=2 4 3 15 6 22 51 10 9 31 19 16 23 14 18 34 17 21 32 53 28 -8 39 25 -16 35 52 44 -12 30 62 -4 -6 -10 42 46 -24 60 -17 47 -40 -32 58 -44 50 -22 -11 -5 49 -26 -9 -2 -23 54 -3 -42 -27 -36 59 -1 61 -34 -21
right_child=1 7 8 5 13 -7 11 27 33 12 20 -13 -14 -15 24 38 -18 -19 -20 29 45 26 36 -25 48 56 -28 -29 -30 -31 41 -33 37 -35 57 -37 -38 -39 40 -41 55 -43 43 -45 -46 -47 -48 -49 -50 -51 -52 -53 -54 -55 -56 -57 -58 -59 -60 -61 -62 -63 -64
leaf_value=-6037.4811071749564 2106.4578735654445 5097.0409208536148 -269.8266902742136 -5083.0779705640043 8765.3241003981875 2476.5736689053856 -2977.5185085840039 43564.205718661164 1418.6879459300283 -4477.5744664933909 5033.2464495898494 6532.9270108670844 -387.80923593922421 17181.005095281373 22221.323314579553 -5430.6767759447021 3048.0878576787395 4228.9093298206453 -3986.4025305893274 12927.6146156225 835.61199334846469 1390.8126638918593 -466.42608096179322 3266.7427013374181 4857.5644453200584 -1115.9200184123606 -2649.0376327555823 597697.67593840219 22275.271385938137 26038.823640945182 8315.2825366493635 2900.4843131722173 107.59668079474723 -897.53769081102803 -4857.0643226664606 -3274.3234510179045 -2002.421146725015 19494.054790266593 -59.53856991576977 8460.2447455733982 -4340.2354235878302 62777.169296291075 470.81705296942386 -6846.1701329477091 -1929.1497396430432 18054.914866377498 -1349.9355452526361 -3314.9866124889904 14813.54913343557 13866.850135775432 5788.3912121798148 7628.1520006178271 -5287.757067888213 9302.7409829803637 -157.90961321928626 -1653.6168403399345 44522.898675633369 -2039.1339020727116 -3404.7010056204654 -2285.65607129617 -6616.2355865719792 4678.3939920748935 34915.449254843654
leaf_weight=67295 5771 5845 6898 15762 2835 6830 30016 50107 13601 41758 7686 4637 12112 5331 5730 18524 6252 4181 1276 7208 3410 19355 9294 1023 25582 6928 11250 26149 20384 4329 29848 5567 17374 9927 43063 26939 5629 1461 2388 264 22290 5713 1578 4301 954 959 2260 4825 10693 1639 1195 6776 1131 1129 11792 2204 342 6833 11376 1047 1497 6258 6867
leaf_count=67295 5771 5845 6898 15762 2835 6830 30016 50107 13601 41758 7686 4637 12112 5331 5730 18524 6252 4181 1276 7208 3410 19355 9294 1023 25582 6928 11250 26149 20384 4329 29848 5567 17374 9927 43063 26939 5629 1461 2388 264 22290 5713 1578 4301 954 959 2260 4825 10693 1639 1195 6776 1131 1129 11792 2204 342 6833 11376 1047 1497 6258 6867
internal_value=-0.00130544 0.0100347 -0.0127026 -0.0161905 0.00447913 -0.00833725 0.000446743 0.0151506 -0.00658141 -0.008342 0.0124484 -0.00139088 -0.0100452 0.00900208 0.00796119 -0.01804 -0.00240528 -0.00354261 0.00264242 0.00995071 0.0180485 -0.00455532 -0.0115964 -0.0114719 0.0117026 -0.0118198 -0.00106346 0.0187753 0.0200428 0.0120777 0.0111713 0.0041416 0.00381733 0.00118795 -0.0194798 -0.0127715 -0.00609629 0.00255923 -0.0137438 -0.0155328 -0.0114389 0.00892481 -0.0208322 -0.0137651 0.0167885 0.00523575 -0.0146735 -0.0159895 0.0101124 0.00840619 0.0171221 0.011698 0.00221615 0.00383406 0.00291575 -0.0125194 -0.00253095 -0.0171597 -0.0213534 -0.0220428 0.00163855 0.00239294 0.0168472
internal_weight=703478 352620 350858 223503 169045 42604 89369 183575 127355 103827 105170 76822 91362 79676 74345 180899 72185 65933 30701 72731 32439 61752 35774 79250 43644 78227 31736 78405 28070 53965 49636 12465 29425 23528 135493 70957 14923 26590 45406 20851 26882 35561 85597 5879 52256 4369 44018 20587 37914 27221 51302 12547 20486 18766 17637 24494 7270 49896 79718 68342 25129 23632 14075
internal_count=703478 352620 350858 223503 169045 42604 89369 183575 127355 103827 105170 76822 91362 79676 74345 180899 72185 65933 30701 72731 32439 61752 35774 79250 43644 78227 31736 78405 28070 53965 49636 12465 29425 23528 135493 70957 14923 26590 45406 20851 26882 35561 85597 5879 52256 4369 44018 20587 37914 27221 51302 12547 20486 18766 17637 24494 7270 49896 79718 68342 25129 23632 14075
is_linear=0
shrinkage=0.05


Tree=10
num_leaves=64
num_cat=0
split_feature=2 1051 2 2 1051 2 0 1086 776 776 1 1 1054 1064 1069 1054 1 1 1054 776 819 1086 0 2 2 1 2 1049 1 1048 711 476 2 1051 476 1046 1086 1069 776 1 1051 1086 4 1086 4 1051 1 571 1 1086 570 821 1 1033 776 1 1069 1080 571 2 1083 1083 576
split_gain=34068.3 3780.54 2942.02 2136.44 1605.43 1439.84 1289.14 895.019 517.338 462.342 450.46 443.933 423.419 449.09 736.509 398.475 363.941 345.525 302.177 285.521 237.851 219.052 266.124 194.639 182.247 176.572 176.543 174.372 173.197 168.96 165.033 150.464 146.178 148.379 145.375 140.903 136.55 136.516 134.44 130.069 129.63 127.943 192.742 124.033 145.796 115.646 109.44 160.387 108.474 106.71 106.215 99.7045 99.6532 99.5874 99.3627 96.7612 96.6278 95.8515 93.3718 119.007 87.7091 86.4576 84.124
threshold=73623.000000000015 1.0000000180025095e-35 41703.500000000007 162767.00000000003 1.0000000180025095e-35 120161.50000000001 3.5000000000000004 1.0000000180025095e-35 1.0000000180025095e-35 1.0000000180025095e-35 32421.500000000004 387002.50000000006 1.0000000180025095e-35 1.0000000180025095e-35 1.0000000180025095e-35 1.0000000180025095e-35 462482.00000000006 59961.500000000007 1.0000000180025095e-35 1.0000000180025095e-35 1.0000000180025095e-35 1.0000000180025095e-35 10.500000000000002 57265.000000000007 24057.500000000004 51303.000000000007 110231.50000000001 1.0000000180025095e-35 66555.500000000015 1.0000000180025095e-35 1.0000000180025095e-35 1.0000000180025095e-35 19154.500000000004 1.0000000180025095e-35 1.0000000180025095e-35 1.0000000180025095e-35 1.0000000180025095e-35 1.0000000180025095e-35 1.0000000180025095e-35 13113.500000000002 1.0000000180025095e-35 1.0000000180025095e-35 358.12500000000006 1.0000000180025095e-35 3533.5500000000006 1.0000000180025095e-35 63854.500000000007 1.0000000180025095e-35 45000.500000000007 1.0000000180025095e-35 1.0000000180025095e-35 1.0000000180025095e-35 45000.500000000007 1.0000000180025095e-35 1.0000000180025095e-35 25123.500000000004 1.0000000180025095e-35 1.0000000180025095e-35 1.0000000180025095e-35 114935.50000000001 1.0000000180025095e-35 1.0000000180025095e-35 1.0000000180025095e-35
decision_type=2 2 2 2 2 2 2 2 2 2 2 2 2 2 2 2 2 2 2 2 2 2 2 2 2 2 2 2 2 2 2 2 2 2 2 2 2 2 2 2 2 2 2 2 2 2 2 2 2 2 2 2 2 2 2 2 2 2 2 2 2 2 2
left_child=2 5 6 17 9 15 10 18 11 20 24 12 13 14 28 19 46 31 35 25 23 -14 -23 39 41 51 61 48 -7 56 -20 43 -12 38 36 52 55 -27 -34 -4 54 45 -43 58 -45 -1 47 -5 -16 -17 -28 -2 -8 -25 -26 -6 -13 -29 59 -3 -33 -19 -48
right_child=1 3 4 16 34 8 7 -9 -10 -11 32 29 21 -15 27 49 -18 26 30 -21 -22 22 -24 53 40 37 50 57 -30 -31 -32 60 33 -35 -36 -37 -38 -39 -40 -41 -42 42 -44 44 -46 -47 62 -49 -50 -51 -52 -53 -54 -55 -56 -57 -58 -59 -60 -61 -62 -63 -64
leaf_value=-4897.3706013277479 594.22843969806706 -3389.1578204040329 -1595.8537073507425 2959.7094328098642 -4781.7399377060956 9670.1642572518831 -4913.4164020981189 2393.5033572877524 -7394.0644711338118 -6934.0407036896477 -5181.4233618994931 271572.54214148212 21898.566676601738 20607.884630043667 395.79101474765923 6394.9608699384471 63661.565024960466 -151.4141352311519 -416.48327205116806 -6894.6261763962293 -2535.5820759995304 1004.9358814035004 18740.832186694442 769.40096512350146 -2973.125670425447 6987.8873546565274 1805.7992476330846 16808.133304449646 27028.945250385117 11200.250015548532 -1938.132059010258 5439.1254466351638 -2350.7929371474661 -4697.4948810473552 -731.71079962719307 -784.93816447390134 -801.92164863648941 2654.3575718885713 -7848.6304513497471 -156.21362847061829 -5095.900523489192 465.97620032095296 -6485.1616263003234 -1702.39884962781 2029.4861811341821 -5770.5622483787083 8687.6860866098705 -4279.9809738089962 6865.4536125691639 -794.70955962721791 13204.907628986659 10593.605988629897 -3166.5800195396532 -6961.0353964407932 -7828.2446339587086 -3824.0016106872281 94989.846990743128 -4833.89064986211 -3788.3324040598618 -1487.4174511709236 -2440.9809736552329 -2866.7810322007485 -696.58134458411371
leaf_weight=44154 21354 21056 18085 19827 24252 12560 15639 6829 1819 2901 17831 23229 24162 11786 9303 15844 16527 7676 9358 1341 1402 3332 3860 33776 26266 6814 12870 4606 22461 1552 5563 1346 15125 10555 3124 1749 2633 13334 1602 21007 21228 1614 4291 2716 3179 35821 25310 507 22767 1121 1075 670 3635 427 2415 19754 20012 419 838 11206 409 3981 1477
leaf_count=44154 21354 21056 18085 19827 24252 12560 15639 6829 1819 2901 17831 23229 24162 11786 9303 15844 16527 7676 9358 1341 1402 3332 3860 33776 26266 6814 12870 4606 22461 1552 5563 1346 15125 10555 3124 1749 2633 13334 1602 21007 21228 1614 4291 2716 3179 35821 25310 507 22767 1121 1075 670 3635 427 2415 19754 20012 419 838 11206 409 3981 1477
internal_value=-0.00140244 0.00958107 -0.0124269 0.00280769 -0.00636086 0.0135413 -0.015881 -0.0080746 0.0160007 -0.00186538 -0.0177267 0.016302 0.0146604 0.0128078 0.011329 0.00695873 0.00935222 -0.00347013 -0.0112272 0.00442454 -0.0011048 0.0196179 0.0119577 -0.000714578 -0.0191648 0.00514678 0.00108195 0.00641933 0.0165294 0.0205261 -0.00578547 -0.00633006 -0.013398 -0.0110971 -0.0133709 -0.0150894 -0.0140703 0.00852938 -0.00816793 -0.00312468 -0.016762 -0.0205612 -0.0134589 -0.00697461 -0.000292621 -0.0210857 0.00711307 0.0043474 0.00506236 0.0134586 0.00487809 0.00205231 -0.0163225 0.00204003 -0.0145698 -0.0147321 0.0211079 0.0150796 -0.00816465 -0.00773666 0.00799145 -0.00345929 0.00921249
internal_weight=703382 352346 351036 130000 127361 222346 223675 42773 161868 77598 180902 160049 115256 83902 72116 60478 63648 66352 35944 43513 74697 31354 7192 73295 135789 42172 25602 37095 35021 44793 14921 40750 45113 27282 49763 21023 46639 20148 16727 39092 49909 85880 5905 38995 5895 79975 47121 20334 32070 16965 13945 22024 19274 34203 28681 44006 43241 5025 33100 32262 1755 11657 26787
internal_count=703382 352346 351036 130000 127361 222346 223675 42773 161868 77598 180902 160049 115256 83902 72116 60478 63648 66352 35944 43513 74697 31354 7192 73295 135789 42172 25602 37095 35021 44793 14921 40750 45113 27282 49763 21023 46639 20148 16727 39092 49909 85880 5905 38995 5895 79975 47121 20334 32070 16965 13945 22024 19274 34203 28681 44006 43241 5025 33100 32262 1755 11657 26787
is_linear=0
shrinkage=0.05


Tree=11
num_leaves=64
num_cat=0
split_feature=2 0 0 1051 2 2 1043 1086 1051 0 1051 1054 2 776 2 1 1 571 1 0 2 1069 1064 1 1064 1069 1 1033 476 1080 1 1069 1054 1069 821 921 1054 1086 4 572 1086 1086 1 2 476 4 1069 1064 1054 2 2 1046 4 1049 570 1049 2 4 2 1039 4 1086 821
split_gain=31625.9 4052.41 2410.68 1567.87 1344.39 1251.57 923.602 814.486 785.534 636.855 594.835 539.707 648.024 503.158 402.803 302.548 294.957 359.856 266.851 261.427 237.292 236.622 272.2 206.112 205.778 228.791 193.848 173.738 159.304 156.725 155.102 154.124 136.674 139.142 133.265 135.303 130.99 146.998 171.627 127.089 126.456 114.461 114.434 113.537 108.489 107.321 105.689 119.59 105.261 103.385 99.405 99.3588 98.1687 93.4509 93.2954 89.0497 86.8166 86.6839 85.5389 85.3693 101.407 84.8627 84.5365
threshold=68217.500000000015 7.5000000000000009 3.5000000000000004 1.0000000180025095e-35 30800.500000000004 137947.50000000003 1.0000000180025095e-35 1.0000000180025095e-35 1.0000000180025095e-35 31.500000000000004 1.0000000180025095e-35 1.0000000180025095e-35 296395.50000000006 1.0000000180025095e-35 114935.50000000001 37593.000000000007 65188.500000000007 1.0000000180025095e-35 30514.500000000004 7.5000000000000009 41111.500000000007 1.0000000180025095e-35 1.0000000180025095e-35 70931.000000000015 1.0000000180025095e-35 1.0000000180025095e-35 40898.000000000007 1.0000000180025095e-35 1.0000000180025095e-35 1.0000000180025095e-35 960484.50000000012 1.0000000180025095e-35 1.0000000180025095e-35 1.0000000180025095e-35 1.0000000180025095e-35 1.0000000180025095e-35 1.0000000180025095e-35 1.0000000180025095e-35 358.12500000000006 1.0000000180025095e-35 1.0000000180025095e-35 1.0000000180025095e-35 556365.00000000012 96688.500000000015 1.0000000180025095e-35 55339.500000000007 1.0000000180025095e-35 1.0000000180025095e-35 1.0000000180025095e-35 45464.500000000007 40574.500000000007 1.0000000180025095e-35 15514.255555555557 1.0000000180025095e-35 1.0000000180025095e-35 1.0000000180025095e-35 17619.500000000004 2247.6333333333337 206242.50000000003 1.0000000180025095e-35 118.41428571428573 1.0000000180025095e-35 1.0000000180025095e-35
decision_type=2 2 2 2 2 2 2 2 2 2 2 2 2 2 2 2 2 2 2 2 2 2 2 2 2 2 2 2 2 2 2 2 2 2 2 2 2 2 2 2 2 2 2 2 2 2 2 2 2 2 2 2 2 2 2 2 2 2 2 2 2 2 2
left_child=2 3 4 6 18 23 14 10 13 11 19 12 46 15 27 29 17 58 36 20 -4 -14 30 28 25 -16 -13 32 43 34 -23 -17 33 52 35 50 37 51 -39 44 -34 62 -20 -5 45 -10 -3 -48 -31 -12 -6 56 -2 -27 -18 -40 -1 -22 -7 60 -9 -25 -35
right_child=1 9 7 5 8 16 -8 59 39 -11 49 26 21 -15 24 31 54 -19 42 -21 57 22 -24 61 -26 53 -28 -29 -30 48 -32 -33 40 41 -36 -37 -38 38 55 -41 -42 -43 -44 -45 -46 -47 47 -49 -50 -51 -52 -53 -54 -55 -56 -57 -58 -59 -60 -61 -62 -63 -64
leaf_value=-5733.6841359597738 1815.5735579022703 8640.0571797131688 -2228.7164176446968 -3192.2804997170929 -3027.6599745777348 222.95371711632325 -6153.3204358542744 2570.1281894233648 -4683.5290124077901 479235.98013095226 -5080.6191906986587 10703.159340033604 54510.751911090876 -6944.572362407539 12744.318961213292 2509.9181200996727 5988.5228049910984 -3597.0157838568689 -4677.939524656299 1607.4200210177232 -1438.6861378601752 18943.045929262949 51381.735081084342 -973.88459770003828 13392.923927957752 6137.6748095357852 23530.093850050343 -6515.7692731181442 2347.7332736358803 -1463.1040895305225 106941.32961137849 -1008.5311623566654 5966.932616826808 448.45106614612018 1776.5935952660134 41589.59320665586 -2793.0301283168333 361.52464030490523 -6185.848163110586 2231.6033232459681 -4267.9336026302326 5513.0827576982792 -2702.0798202297556 -1726.6108993724281 -1307.6465781109482 -3621.1159934854095 2347.3659445759272 11136.45121834254 1608.230212321665 -3446.7701780577772 -1969.907067548766 -2082.9471199739173 7823.977705173882 12355.754580680645 12899.462247537327 6363.869500095374 -4751.2172845797822 -128.26541778845277 4439.3353000124434 12102.255664804334 397.30882493194514 2818.7823218581225 8541.6663709274053
leaf_weight=44205 8085 12555 23345 21217 12961 12065 6130 4943 38181 27862 11115 20621 18638 4895 14415 3117 23821 1296 30324 6276 12723 23638 4682 14627 7662 25858 18367 660 1907 2645 8739 15195 8275 21785 718 444 14192 1590 4699 224 737 5031 3132 16778 2639 4832 21150 2172 2319 12121 15627 1309 5218 3638 1847 282 37628 15142 6392 806 6158 3031 794
leaf_count=44205 8085 12555 23345 21217 12961 12065 6130 4943 38181 27862 11115 20621 18638 4895 14415 3117 23821 1296 30324 6276 12723 23638 4682 14627 7662 25858 18367 660 1907 2645 8739 15195 8275 21785 718 444 14192 1590 4699 224 737 5031 3132 16778 2639 4832 21150 2172 2319 12121 15627 1309 5218 3638 1847 282 37628 15142 6392 806 6158 3031 794
internal_value=-0.00153444 0.00853904 -0.0126916 0.00400591 -0.015325 -0.000410998 0.00820636 -0.00583538 -0.0110304 0.0145843 -0.00763608 0.0131198 0.0110222 -0.00715932 0.0093375 -0.00574341 0.00579413 0.00120108 -0.0185702 -0.00490728 -0.00608768 0.014398 0.0120868 -0.00530751 0.0124469 0.0111276 0.0180466 0.00616734 -0.00729788 -0.00848649 0.0104573 -0.00054336 0.00650426 0.00527644 -0.00985882 -0.0103851 -0.0198207 -0.0205268 -0.0133275 -0.0159179 0.0120783 0.00325244 -0.0146865 -0.00800566 -0.0161023 -0.016706 0.00578156 0.00379041 -0.000261886 -0.0143872 -0.0108105 -0.0210958 0.00947719 0.00860456 0.00932874 -0.017893 -0.0213144 -0.00297237 0.00298938 0.0063723 0.00523151 -0.000809831 0.0017328
internal_weight=703480 369693 333787 211269 241158 102981 108288 92629 103797 158424 80722 130562 91574 57921 102158 53026 45421 19753 137361 57486 51210 55697 37059 57560 51573 43911 38988 50585 39902 34714 32377 18312 49925 40913 29750 29032 103905 89713 6571 45876 9012 27610 33456 37995 45652 43013 35877 23322 4964 23236 28588 83142 13303 29496 25668 4981 81833 27865 18457 11907 11101 17658 22579
internal_count=703480 369693 333787 211269 241158 102981 108288 92629 103797 158424 80722 130562 91574 57921 102158 53026 45421 19753 137361 57486 51210 55697 37059 57560 51573 43911 38988 50585 39902 34714 32377 18312 49925 40913 29750 29032 103905 89713 6571 45876 9012 27610 33456 37995 45652 43013 35877 23322 4964 23236 28588 83142 13303 29496 25668 4981 81833 27865 18457 11907 11101 17658 22579
is_linear=0
shrinkage=0.05


Tree=12
num_leaves=64
num_cat=0
split_feature=2 2 3 1051 2 1051 1252 1054 1051 1051 1043 1043 2 1043 2 2 2 1083 706 2 1051 1252 1064 1069 714 1069 2 1252 571 1054 1083 819 1083 1252 1064 2 816 1069 572 706 821 570 1033 588 476 876 476 1083 1252 2 1069 804 1033 713 1083 476 570 2 3 1080 576 1252 693
split_gain=29622 3758.36 2356.51 2231.81 1330.8 908.714 762.854 754.764 751.885 565.295 550.958 441.829 398.157 392.608 354.283 270.323 260.922 247.459 246.905 242.103 235.751 332.229 227.075 236.792 220.63 219.086 209.173 208.512 196.728 183.437 177.56 171.633 153.503 151.697 149.332 145.319 144.321 131.274 129.252 128.599 123.93 120.741 119.328 117.737 113.194 112.431 112.273 123.366 116.624 112.096 108.732 105.734 105.721 101.493 100.082 99.3171 98.4737 92.53 92.1606 92.1142 90.1969 89.8911 88.6561
threshold=68217.500000000015 160366.00000000003 1.4978661367769956 1.0000000180025095e-35 30800.500000000004 1.0000000180025095e-35 1.0000000180025095e-35 1.0000000180025095e-35 1.0000000180025095e-35 1.0000000180025095e-35 1.0000000180025095e-35 1.0000000180025095e-35 942341.50000000012 1.0000000180025095e-35 104353.50000000001 303654.50000000006 26586.500000000004 1.0000000180025095e-35 1.0000000180025095e-35 42941.000000000007 1.0000000180025095e-35 1.0000000180025095e-35 1.0000000180025095e-35 1.0000000180025095e-35 1.0000000180025095e-35 1.0000000180025095e-35 14426.500000000002 1.0000000180025095e-35 1.0000000180025095e-35 1.0000000180025095e-35 1.0000000180025095e-35 1.0000000180025095e-35 1.0000000180025095e-35 1.0000000180025095e-35 1.0000000180025095e-35 53878.500000000007 1.0000000180025095e-35 1.0000000180025095e-35 1.0000000180025095e-35 1.0000000180025095e-35 1.0000000180025095e-35 1.0000000180025095e-35 1.0000000180025095e-35 1.0000000180025095e-35 1.0000000180025095e-35 1.0000000180025095e-35 1.0000000180025095e-35 1.0000000180025095e-35 1.0000000180025095e-35 1709921.5000000002 1.0000000180025095e-35 1.0000000180025095e-35 1.0000000180025095e-35 1.0000000180025095e-35 1.0000000180025095e-35 1.0000000180025095e-35 1.0000000180025095e-35 400919.00000000006 2.4414009612931857 1.0000000180025095e-35 1.0000000180025095e-35 1.0000000180025095e-35 1.0000000180025095e-35
decision_type=2 2 2 2 2 2 2 2 2 2 2 2 2 2 2 2 2 2 2 2 2 2 2 2 2 2 2 2 2 2 2 2 2 2 2 2 2 2 2 2 2 2 2 2 2 2 2 2 2 2 2 2 2 2 2 2 2 2 2 2 2 2 2
left_child=2 3 4 7 20 12 9 10 11 16 25 19 13 18 46 43 37 33 22 -6 26 -22 23 54 35 32 -1 40 41 -25 58 36 59 39 51 53 42 -4 55 -9 45 -16 -21 56 -11 52 48 -48 60 -17 -14 -28 -27 -18 57 61 -7 -3 -31 -2 -5 -10 -52
right_child=1 5 6 14 8 15 -8 17 38 44 -12 -13 50 -15 28 49 24 -19 -20 31 21 -23 -24 29 -26 27 34 -29 -30 30 -32 -33 -34 -35 -36 -37 -38 -39 -40 -41 -42 -43 -44 -45 -46 -47 47 -49 -50 -51 62 -53 -54 -55 -56 -57 -58 -59 -60 -61 -62 -63 -64
